solver_type L2R_L2LOSS_SVC_DUAL
nr_class 8
label 5 2 0 1 6 4 10 8
nr_feature 166
bias 1.000000000000000
w
-0.1784267092005619 -0.1401557370207444 0.03052721754260414 0.1757624693349706 0.1815763922417127 -0.02514009778562891 -0.03286095455017181 -0.07290101734354418 
0 0 0 0 0 0 0 0 
0 0 0 0 0 0 0 0 
0 0 0 0 0 0 0 0 
0.04862215132587647 0.4684252649757322 -0.3114647721351721 -0.1625915088176070 -0.1458791588594640 -0.07302996981257792 0 -0.06158296565751182 
-0.6730275618511427 0.7335570755714070 0.3979602622842002 -0.6332345389349978 -0.1250428442294332 -0.07005508284208598 0 -0.05939271049244786 
0 0 0 0 0 0 0 0 
0 0 0 0 0 0 0 0 
0 0 0 0 0 0 0 0 
0 0 0 0 0 0 0 0 
0.06323937638866527 0.2655166358955468 -0.03219096434001582 6.938893903907228e-18 -0.1374179991643511 -0.001562908370017319 -0.01770139498307707 -0.008772508114065058 
0 0 0 0 0 0 0 0 
0.1654033219474587 -0.6052468258601139 0.6868214781375946 -0.3575461505881272 -0.1373811980656692 -0.001706729239423370 0 -0.008432428762784407 
0 0 0 0 0 0 0 0 
0 0 0 0 0 0 0 0 
0 0 0 0 0 0 0 0 
0 0 0 0 0 0 0 0 
0.05341023785287774 -0.2093380731651999 0.06027720508650834 0.1120317091996247 -0.002337100275983525 0.1328133155816118 -0.1715892322599918 0.009594771345562959 
-0.04668167733208503 -0.3863173352110619 0.1658792553769347 0.3336110302689845 -0.1026143888241142 0.1552119999221320 -0.1483479474184561 -0.06911986131658286 
-0.1138923306093945 -0.5154489897005181 -0.2143100595846280 0.3733294497421623 0.3378862746149624 -3.469446951953614e-18 0 -0.004806145440355341 
0 0 0 0 0 0 0 0 
0 0 0 0 0 0 0 0 
0 0 0 0 0 0 0 0 
0 0 0 0 0 0 0 0 
0 0 0 0 0 0 0 0 
0 0 0 0 0 0 0 0 
0 0 0 0 0 0 0 0 
-0.3430713404771016 -0.4249179468782138 -0.2066978397416474 0.2862440084983149 0.5928876956548231 -0.1245579142274840 -0.08490360802234427 -0.06903983825766426 
0 0 0 0 0 0 0 0 
0 0 0 0 0 0 0 0 
0 0 0 0 0 0 0 0 
0 0 0 0 0 0 0 0 
0 0 0 0 0 0 0 0 
0 0 0 0 0 0 0 0 
0.2514074187377509 0 -0.09162555961430628 -0.05806168817545546 0.003891880214230370 -0.1271010424159265 -1.734723475976807e-18 -0.06878184425814740 
-0.1874829148579870 0 0.03030403164055644 0.3186819037688534 -0.06025834739804553 2.471980953266950e-17 0 -0.01845506142100009 
0 0 -0.1279335357092620 0 0 -0.06500604327764603 -0.01068799663363461 0 
0.4120362983675242 -0.1808753913646482 -0.2858619005786341 -0.06998508274469728 -0.08944293867747247 -0.02692245006729888 8.673617379884035e-19 0.1052018759658915 
0.1468665650893812 -0.1713049320833303 -0.1631192597347099 -0.1891467894018373 -0.09675561466931776 -0.03600330923697255 0.6257408091481407 -0.04612727643851310 
0.3310817237786776 -5.204170427930421e-18 -0.09799948993606597 -0.06300773806886499 -0.2262925431560784 -0.04447707211935359 1.734723475976807e-18 0.006296495190721854 
0 0 0 0 0 0 0 0 
0 0 0 0 0 0 0 0 
0.2073109650011513 -0.1285840166000833 0.2296165209320162 -0.1068848455064419 -0.06112691853971519 -0.1210790315985541 0 0 
-0.3215016125829296 -0.2833629574460223 0.02207547442727187 0.2902256959839957 -0.1252180364527581 -0.01829225876982785 0 0.2718703515693462 
-0.6270754831003904 1.214279996791511 -0.2957221654049809 -0.3554465059579066 0 -0.1466436250494740 0 -0.04596051695472222 
0 0 0 0 0 0 0 0 
0.3630783811733411 -0.1733896139728146 0.1110881618038522 -0.4650574426260596 -0.1246016976075747 -0.1300560218984589 0 -0.07281627340925192 
-0.04563663087438896 0 -0.06167448119996318 0.5191878659528383 -0.3345447052465921 -2.753916051762248e-05 0 -0.006742653568214295 
0 0 0 0 0 0 0 0 
0.3427989169206562 -0.03861181107684652 -0.2629881713917390 -0.4030235553290061 0.1809416070460282 -0.1262531043137491 0 -0.09168963039425265 
-0.6679205124857706 0 -0.2370928509144361 1.151459079229485 -0.1089690801069426 -0.009012581605636874 -0.1891523332910076 0 
-0.1348053991766194 -0.1857891272202967 -0.03788713190501046 -0.5204147826939758 0.07831740250548863 0.3167958573350505 -0.002706618293918505 -0.07515632993093081 
0.4365058211255811 0 -0.1373280536104258 -0.08535905761037378 -0.05995825965997186 -0.07536555345918279 -0.009444711063201931 0 
0.1145202770339692 0.1076028055341149 0.1487329226776055 -0.1525584816603305 -0.07658338394084868 -0.04640308014423133 -0.1027589348843774 -0.09610624661661199 
0.001311718799911075 0.06868898833071546 0.02351022217887756 0.1557585213169918 -0.1324788886899966 -0.007348740624824749 -0.2020275114409592 -0.01045582839780858 
-0.008104517771361126 -0.1328907086489501 0.05121366767778694 -0.08347313419919612 0.1420816012258797 0.04358338674883190 -0.08567787845257382 0.02019318856640789 
-0.05072324633432566 -0.0001370215423727866 0.1389535907750563 -0.2171567932504436 0.1208580747087512 -0.1409542716528260 -0.01146883329744751 -0.01872311089494490 
0.09562201939146430 0.01551518966369249 -0.002119586571388547 0.1206951882257142 -0.08641382387815216 -0.02195522491557787 -0.04313195496780010 -0.1003788007075275 
0.07363659688128721 0.1258372459830222 0.04737551227034542 -0.1485495987345593 -0.06461037114015002 0.07639580081470274 -0.1030132298565296 -0.05010760804255473 
0 0 0 0 0 0 0 0 
0.08279854099254129 -0.1504749204652004 0 0 0 0 -0.01770139498307707 0 
0 0 0 0 0 0 0 0 
0 0 0 0 0 0 0 0 
0 0 0 0 0 0 0 0 
0 0 0 0 0 0 0 0 
0 0 0 0 0 0 0 0 
0 0 0 0 0 0 0 0 
0 0 0 0 0 0 0 0 
0 0 0 0 0 0 0 0 
0 0 0 0 0 0 0 0 
0 0 0 0 0 0 0 0 
0 0 0 0 0 0 0 0 
0 0 0 0 0 0 0 0 
0 0 0 0 0 0 0 0 
0 0 0 0 0 0 0 0 
0 0 0 0 0 0 0 0 
0 0 0 0 0 0 0 0 
0 0 0 0 0 0 0 0 
0 0 0 0 0 0 0 0 
0 0 0 0 0 0 0 0 
0 0 0 0 0 0 0 0 
0 0 0 0 0 0 0 0 
0 0 0 0 0 0 0 0 
0 0 0 0 0 0 0 0 
0 0 0 0 0 0 0 0 
0 0 0 0 0 0 0 0 
0 0 0 0 0 0 0 0 
0 0 0 0 0 0 0 0 
0 0 0 0 0 0 0 0 
0 0 0 0 0 0 0 0 
0 0 0 0 0 0 0 0 
0 0 0 0 0 0 0 0 
0 0 0 0 0 0 0 0 
0 0 0 0 0 0 0 0 
0 0 0 0 0 0 0 0 
0 0 0 0 0 0 0 0 
0 0 0 0 0 0 0 0 
0 0 0 0 0 0 0 0 
0 0 0 0 0 0 0 0 
0 0 0 0 0 0 0 0 
0 0 0 0 0 0 0 0 
0 0 0 0 0 0 0 0 
0 0 0 0 0 0 0 0 
0 0 0 0 0 0 0 0 
0 0 0 0 0 0 0 0 
0 0 0 0 0 0 0 0 
0 0 0 0 0 0 0 0 
0 0 0 0 0 0 0 0 
0 0 0 0 0 0 0 0 
0 0 0 0 0 0 0 0 
0 0 0 0 0 0 0 0 
0 0 0 0 0 0 0 0 
0 0 0 0 0 0 0 0 
0 0 0 0 0 0 0 0 
0 0 0 0 0 0 0 0 
0 0 0 0 0 0 0 0 
0 0 0 0 0 0 0 0 
0 0 0 0 0 0 0 0 
0 0 0 0 0 0 0 0 
0 0 0 0 0 0 0 0 
0 0 0 0 0 0 0 0 
0 0 0 0 0 0 0 0 
-0.06931161649970043 -0.1535522166061487 -0.1442326408254200 0.02970090162414949 0.1137921432701973 -0.04373586663100661 -0.02771400372665740 -0.05622887467634991 
-0.1039041550025772 0.07251918355919920 -0.1066626747633182 -0.02730613729690978 0.02929546884072665 -0.03493522536849995 -0.2135337676232764 -0.08880779627136150 
-0.1443028558408028 0.1528551295153361 -0.2035161599746002 -0.03347390753415924 0.02548041913818083 -0.1611161289869337 -0.01770139498307707 -0.1232546087374585 
-0.1935409059217105 0.04485928166533858 -0.1221808290441757 -0.02539002467181878 0.07492628377594018 -0.1633257277177437 0.01790754887732903 -0.06959314630043440 
0.01444985554993564 0.1118208256443804 0.1098697116185165 -0.04823735780823500 -0.3916854805740049 0.003571979087277479 -0.1573869192731861 -0.06247859325483007 
0.02035382303329444 -0.1534013551774310 0.1079057407725295 0.06672167819388300 -0.4418297428068139 -0.1268010550455520 -0.1241015804992156 -0.06036046869997715 
0.01185770282519788 -0.4605645640899039 0.08649549014902823 0.4082382547426122 -0.1250428442294333 -0.08671851977426609 0 -0.07138571112414357 
0.8175933804942482 -0.3419584900214475 -0.2399568793749382 -0.4602614001751754 -0.08148275550006841 -0.06267103574725233 0 -0.04958996502581616 
-0.5618948344838265 -4.510281037539698e-17 0.09059794188120492 -0.1445027798522872 0.1370601377145151 -0.03842171200097028 -0.08490360802234427 -0.06069280969113341 
0 0 0 0 0 0 0 0 
0 0 0 0 0 0 0 0 
0 0 0 0 0 0 0 0 
0 0 0 0 0 0 0 0 
0 0 0 0 0 0 0 0 
0 0 0 0 0 0 0 0 
0 0 0 0 0 0 0 0 
0 0 0 0 0 0 0 0 
0 0 0 0 0 0 0 0 
0 0 0 0 0 0 0 0 
0 0 0 0 0 0 0 0 
0 0 0 0 0 0 0 0 
0 0 0 0 0 0 0 0 
0 0 0 0 0 0 0 0 
0 0 0 0 0 0 0 0 
-0.4729982905697835 -0.1839304052874443 -0.1360066806967406 0.08474882767447481 0.1504046407299304 -0.1418890374949256 0.06677627928818268 -0.1396970822038435 
-0.07472974434668701 -0.04288391797123151 -0.04593698665123724 -0.08455622152573686 0.04195866542783083 -0.1645047640790561 0 -0.09501581698968030 
-0.1790082158436755 0.1619647815290458 0.02146797278700383 -0.05274793502772369 -0.1370239991409512 -0.1895476859998398 -0.1829542789464919 -0.06123629801281220 
-0.1378609564709813 -0.05213879908160343 0.02261366259120035 0.03358236964589647 -0.08565740756457610 -0.1291185552210640 -0.1829959481411459 -0.05126695197206189 
0.2074370196654553 -0.2067569766155561 0.03282397136534274 -0.2135276181220515 -0.1776148585090325 -0.1153523395053695 -0.1293008879597839 -0.1419827861871675 
0.5511002680757995 -0.2894410088445562 -0.1655035830547776 -0.2593475691685630 -0.2917411990065888 0.005619075033344127 -0.07949382155569568 -0.06866109555173075 
-0.1854382273486076 0.03623904122586820 -0.1511386559019631 0.2573373737457669 -0.1598122123073746 0.02064001508196049 -0.08176367295241578 -0.08453194286420926 
-0.2265266044851053 -0.5507327979650999 -0.1753706537237149 0.4710003680668872 0.07608035005811777 -0.1414066623732006 -0.2646446160745870 -0.1023158103383619 
0.4116221187327194 -0.2737326008231962 -0.1279963456462595 -0.2640512520556597 0.07887964693423433 0.007607169056108774 -0.1154928777920658 -0.04117917102472959 
-0.4302921218148469 0.5924679358001267 -0.1310158494016407 -0.5302405650287692 -0.3143605934547570 -0.1402441727165856 2.168404344971009e-19 -0.07768232455180530 
0.1044918183945851 -0.1594086608001014 -0.04884355325874534 0.03411761065629592 -0.09050858849975951 -0.1316788183420331 -0.08618236110094979 -0.1008317993631046 
0.009746897627077020 0.1109819440810514 0.05659070824393730 -0.1865255835651548 -0.1995020077941597 -0.1380583122312234 -0.01754965446279833 -0.06776025647826630 
-0.01739451518892855 -0.08238565016970557 0.04911740100497680 -0.03419876512898665 -0.04927833182484659 -0.1044475957118036 -0.03687138659329073 -0.1556499072846019 
-0.1431457401039857 -0.2141374551685590 -0.04416200677972956 0.2753874142774457 -0.1607968457895862 -0.06592489986620850 -0.06899143424365863 -0.09697270474063549 
0.4799599794625922 -0.09732569844904516 0.05139376826555267 -0.6602135095887826 -0.2835615265155726 -0.1572168321172139 -0.1707623017287621 -0.1965559259690942 
-0.6440405607627122 -0.1319052036854361 -0.02027078510162755 0.4044082489170311 -0.1360489458366641 -0.2499631377408525 -0.04544034301670127 -0.1672464343975608 
0.03758030489174441 -0.5323689898271612 -0.4128762199848511 0.2876061753489497 -0.2927889588384253 -0.1723389791245814 -0.04771924835266513 -0.1671471368976621 
-0.1649978704301077 0.1846526069161701 -0.03992706274024829 -0.2663116874551345 0.05291306081990282 -0.1346343432022982 -0.3258104371692221 -0.1114424765171890 
-0.2914981468384867 -0.5769472850454564 -0.4216802995611759 -0.2345107727779399 -0.6594863703707454 -0.7141532921849506 -0.5897323302673472 -0.6423919737814884 
-0.08668094575698125 -0.1015875192770919 -0.003982642129912509 0.06240679999199558 0.06990765165512819 0.02788004357324692 0.09624431868684946 -0.01116465014721753 
-0.1833528982163056 0.4136811870114645 0.04702015166292133 -0.2602424442141979 -0.1760198182364696 -0.1261568994742565 -0.4655047073957650 0.06652055960306776 
