solver_type L2R_LR_DUAL
nr_class 3
label 3 1 2
nr_feature 372
bias 1.000000000000000
w
0.7630018220623996 -0.2906707704743539 -0.5566280875474583 
0.001659095643718411 -0.06110064526479694 0.1685192169209357 
0 0 0 
0 0 0 
-0.08187047525033099 -0.01949363321844572 -0.009655536610883877 
0 0 0 
0 0 0 
0 0 0 
0 0 0 
0 0 0 
0 0 0 
0 0 0 
0.01636149168273880 -0.005139109865833975 -0.006394117147597163 
0 0 0 
0 0 0 
0 0 0 
-0.6569317383411676 0.6123599923999341 -0.03119493164146387 
0.6128857211882578 -0.3416684806535036 -0.4874219106619269 
0.1266374951110046 -0.3927078775932354 0.2244467874436901 
-0.4107407506847430 0.5322686194913754 -0.09136328418466690 
0 0 0 
0 0 0 
0 0 0 
0 0 0 
0 0 0 
0 0 0 
0 0 0 
0.2508197826424272 -0.07374577884107487 -0.2003666821348132 
0 0 0 
0 0 0 
0 0 0 
0 0 0 
0 0 0 
0 0 0 
0.04399709264925599 -0.04417605909691032 -0.02139976573551791 
-0.5898786731953258 0.8585754697118719 -0.3298572712194000 
0 0 0 
0.02223300198735888 -0.004052251362240428 -0.01178441044380917 
0 0 0 
0.06687892107359343 -0.1087588612800201 -0.002298162493775346 
0.01341715299896821 -0.02487569400170109 -0.001227410758718853 
0 0 0 
-0.6647906734482756 -0.06305327453425719 0.8294348397557547 
0.005448487329933714 -0.002197259856442142 -0.001793374849755375 
0 0 0 
0 0 0 
0 0 0 
-0.3647798739554189 -0.06911573643012855 0.4961566517237547 
0 0 0 
0.2108536915194880 -0.02152652892725969 -0.2821045135929503 
0.2594781613749815 -0.1537470478750728 -0.1008950029806338 
0.1693989077097425 -0.04671005268345493 -0.07151896691972942 
0 0 0 
0.1449480536841092 -0.6600560521430033 0.2914792095206278 
-0.04704181192613539 -0.1217976344922287 0.1385808120962052 
0.3016991754460167 -0.07091253220995883 -0.3061167191438892 
0.1689150231874862 -0.5780903483155908 -0.01831932587410263 
-0.07837250564908813 -0.02608099055961536 0.1220390293376023 
0.7110027600267913 0.1352295764706943 -0.8848466633324754 
0 0 0 
0 0 0 
-0.08177506337037396 0.1753169026117315 -0.1475993094016607 
-0.1287468565679488 -0.1091659724890099 0.1613000138489033 
0 0 0 
0 0 0 
0.1610101290514354 -0.02639542001918259 -0.1158697995884889 
0.1131379703982558 -0.06087421321729621 -0.1322318842083163 
0 0 0 
0 0 0 
0 0 0 
0 0 0 
0 0 0 
0 0 0 
0.003593635007535949 -0.003071611444559232 -0.001572848725369320 
0 0 0 
0 0 0 
0 0 0 
0.3620924612872201 -0.1598798631792747 -0.2011379601031140 
0.4350276881317466 -0.6684932075716294 -0.2930414930443475 
-0.5674142179634671 0.3436071805574797 0.5773904843200505 
0.3180031892181308 -0.09054868986832852 -0.2357786333083906 
0 0 0 
0 0 0 
0 0 0 
0 0 0 
0 0 0 
0 0 0 
0 0 0 
-0.1577339505879753 0.3935888461683174 -0.2078505152504327 
0 0 0 
0 0 0 
0 0 0 
0 0 0 
0 0 0 
0 0 0 
0.003615725256530485 -0.1222530313206260 0.1856311750543473 
-0.2735391284024414 -0.002084644869178493 0.1844272258836877 
0 0 0 
0 0 0 
0 0 0 
0 0 0 
0 0 0 
0 0 0 
0.2975543658386695 -0.09296790493096226 -0.1633015198248377 
0.05184122428278731 -0.01503282678564082 -0.04493764747862936 
0 0 0 
0 0 0 
0.1116498604683277 -0.01841941979216150 -0.04378683172205518 
0.4957348677040975 -0.04619372246548569 -0.4842715388004013 
0 0 0 
0.07074660205688359 -0.001112646843350214 -0.09131483398214381 
0 0 0 
-0.1429172729116945 0.2949595344456217 -0.1262744570088460 
-0.5848550103893573 -0.003003809871969963 0.4964708778069253 
0.1202099072283531 0.03233666272482581 -0.09740392661520522 
0.3250952080494879 -0.09611492574549680 -0.3058619582599140 
-0.07736743925347195 -0.5269910182299694 0.3348589531290764 
-0.2768624017345674 0.9159655069969713 -0.5075273460709191 
0.3009366518981463 -0.7357006637175378 -0.01958902733915783 
0.1161911901714767 -0.4187140027485297 0.1347432102142411 
0 0 0 
0 0 0 
-0.06146381487842341 0.4213079986020245 0.005094934142264577 
0.9202486868494993 -0.4429263551260222 -0.8944379589432556 
0.2816366416171625 -0.2621006849744544 -0.2940962204042406 
0.6618081678715790 0.1123166402867486 -1.020837994123968 
-0.1200449033936331 -0.2715258313387498 0.2295018428139949 
-0.5146313333894800 0.006009987618229811 0.5090810158334951 
-0.03314424845348230 -0.04716228951591822 0.05256529991189995 
-0.3857325010380195 -0.04097636741020560 0.3771632606324987 
-0.07025522975692157 -0.03515328215924396 0.1096689128345714 
0.1114686209729765 -0.05686806534378890 -0.05357675068286488 
0 0 0 
0 0 0 
0 0 0 
0.3181978271280051 -0.4274504963107816 -0.1438950656636195 
0.004772103886740420 -0.5964755344779099 0.2110669434103853 
-0.02777229374400247 -0.6762630321662789 0.3492996460420431 
0.2498467635010386 -0.2649674611252761 -0.07896490443220155 
0.8609668167616998 -0.03061643416942229 -0.8891122711893444 
-0.5174127721840118 0.8044579721928007 -0.2089721992619109 
0.1140738075877606 -0.01757643840816088 -0.1380844955681064 
0 0 0 
-0.01496821283509572 0.2135170611825810 -0.2447176207666403 
0 0 0 
0 0 0 
0 0 0 
0.3934368491053876 0.1452917757016581 -0.4880500140019809 
1.042976748528440 -0.4659647430604563 -1.229752014108906 
1.783701838788766 -1.368124163284021 -1.373573050114737 
0.6366201402694864 -0.09266477270726584 -0.5884133415455078 
-0.2930150250724058 -0.1735113648490237 0.08085122963022857 
-0.3663752113073535 0.1305853485852157 0.2275203374404378 
0.9648500690385324 -0.5972868949444974 -1.055567339698824 
-1.067946377545676 0.6647362115501394 0.9577415975202604 
-0.6626060993035504 0.3950226740442048 0.6069109762931338 
1.208213619436933 -1.270980698945691 -0.5269307719719029 
0.4033198617781816 -0.1592259826917902 -0.3130862796955242 
-0.5294801524201348 -0.3348731217625557 0.7625672327566454 
0.2527305987098072 0.3357695363341814 -0.8730560568207234 
0.1983785638420910 0.03555581912219331 -0.3246078384325365 
-0.7166990415309127 0.7965540565730886 0.3552021286321674 
0.1787658850518144 -0.4440425702346672 -0.2246180049431216 
-0.2818177763203655 -0.1498965207386866 0.3239939906600030 
0.3804518575203234 -0.1391355307965415 -0.5424384183685129 
0.1350709754259053 -0.9399399616830958 0.2076922016630343 
0.1610585228623311 0.7163909329377024 -0.5368452871782037 
0.7530709436549111 -0.6089635182337567 -0.6431573704408773 
0.002228883831280123 -0.05409804016088250 -0.02868284472542703 
-0.1548340721066081 0.1343996770700187 0.07490813791497604 
0.1389720854828269 -0.7481731983258116 -0.1009695423093336 
-0.2909356340361360 0.04119950736139427 0.1356608698067684 
0.2852786380916612 -0.6020392163082543 0.03327045447625521 
-0.6665938967030018 0.4217147239916083 0.6554350406106602 
1.393879776565132 -0.5228736782314556 -1.447699428606871 
-0.08454410811341445 0.7554784734182666 -0.3458844497351364 
0.2191724735807011 -0.3865495735109953 -0.07434253471734698 
-0.4891236881354839 0.3264996303500369 0.4364058018188187 
0.7016290671142029 -0.1597985078480916 -0.9656704116981739 
0.2439017039928937 -0.2082925112031107 -0.02288431013440855 
0.5388222518961780 -0.9996515729040740 -0.5923806704612421 
-0.06809208090807820 -0.1786880098728480 0.02298665635791409 
0.5384269905994219 -0.1501178899432513 -0.7541808663925739 
0.5276291182498153 -0.2119837164529657 -0.3095324651581879 
-0.002734693073376939 -0.5004533453361840 -0.1038029152821496 
0.9952293348677663 -1.041242961605260 -1.144529590475014 
0.9952293348677663 -1.041242961605260 -1.144529590475014 
-0.3675438728735685 0.3225918661745325 0.3414603102962556 
-0.4334305820963367 0.1744645936440413 0.4810819795717389 
-0.2286097726384031 0.1581782746251306 0.03393649819232843 
0 0 0 
-1.551216327253283 -0.04314035847043419 1.380713620494656 
0 0 0 
0 0 0 
0.03051138451664480 -0.04150176395212272 -0.01276627132540764 
0.2772005952634026 0.2589191513098810 -0.5263011695617293 
0 0 0 
0 0 0 
-0.1967623086968506 -0.06159928546052657 0.3714313492097536 
0 0 0 
-1.797144823254737 -0.1607562736832659 1.808397207601903 
0.9236078517983657 -0.6253160365600929 -0.6576326718321170 
0 0 0 
0 0 0 
0.06177532144841570 -0.05954536415962303 -0.01777281098422820 
0.05004226437624447 -0.01829601828308440 -0.02828933658417409 
0 0 0 
0.7378885654999200 -0.3637321420943498 -0.3051288117689893 
0 0 0 
0.2105379798136222 -0.2084360193989376 -0.04595809743355988 
0.2286984312290148 -0.05226562878568095 -0.06648617037098026 
0.04893229654690556 -0.2017141903000543 -0.06805439281071801 
-0.5330280947498075 0.8683834615537820 -0.2914368556685845 
0.1475251200807183 0.06940083377178752 -0.2045147947188175 
0.8843330440725984 -0.09686489764317013 -0.9276748506697730 
0 0 0 
0 0 0 
0 0 0 
0 0 0 
0 0 0 
0 0 0 
0 0 0 
0.4804990270961381 -0.2426201380762434 -0.4064435999018588 
0 0 0 
0.6175207329024426 -0.1570116435289019 -0.5503928895836023 
0.3721255625412289 -0.1336134796908646 -0.2190100508816815 
0 0 0 
0 0 0 
0.1389159448645676 -0.2528700562596088 0.03915196249258872 
0.02765885412933282 0.1369936967062612 -0.1182230354946793 
-0.4993951608562304 -0.4778066575949499 0.6918197273352025 
0 0 0 
0.1261927610182317 -0.2813786695353393 -0.09617132236788739 
0.03880205621387343 -0.05709826053186421 -0.009299716420452174 
0 0 0 
0 0 0 
-0.04906829896827046 -0.2767559730197389 0.1482607031274954 
-0.5832002718101209 -0.1348742684375050 0.7139943568245042 
0 0 0 
0.3435925699223535 -0.1179305942758017 -0.2833926018317738 
0.08295678763286130 -0.02670093979058311 0.06371969836933220 
0 0 0 
0 0 0 
0 0 0 
0.003524583200596317 -0.002372310489366880 -0.003497282478172943 
-0.08870875457020115 0.7241555811090631 -0.3592219941521382 
0 0 0 
-0.4993951608562304 -0.4778066575949499 0.6918197273352025 
0.4804990270961381 -0.2426201380762434 -0.4064435999018588 
0.2383797235257036 -0.1743132212013050 -0.1866787853254266 
0.3340847465703263 -0.05557019163638181 -0.4629327987350306 
0.3435925699223535 -0.1179305942758017 -0.2833926018317738 
0.6175207329024426 -0.1570116435289019 -0.5503928895836023 
0.1389159448645676 -0.2528700562596088 0.03915196249258872 
0.3629199609834600 -0.08850602536696300 -0.4196231995142127 
0.4461924907611881 -0.09920593475795897 -0.3211412391146885 
0.2401165831836071 -0.1070101221841624 -0.1528505896746235 
0 0 0 
-0.05692278829385493 0.3820203001571282 -0.3952346392294947 
-1.068403706528045 -0.01325165927399404 1.097508203546020 
-0.04906829896827046 -0.2767559730197389 0.1482607031274954 
0.02719206706532365 -0.05530921702720797 -0.006840514331364821 
0.02765885412933282 0.1369936967062612 -0.1182230354946793 
0 0 0 
0.1261927610182317 -0.2813786695353393 -0.09617132236788739 
0.03880205621387343 -0.05709826053186421 -0.009299716420452174 
0.3049556874777610 -0.06862871138309316 -0.2338276986588263 
-0.5832002718101209 -0.1348742684375050 0.7139943568245042 
0.4434661086019938 -0.2598544954755310 -0.2829207643808404 
-1.008358095451489 0.1256790621949050 1.214794909212708 
0.08295678763286130 -0.02670093979058311 0.06371969836933220 
0 0 0 
0.3721255625412289 -0.1336134796908646 -0.2190100508816815 
-0.5136886351945841 -0.1038488793480595 0.6396803629219867 
0.04997246338051454 -0.03206478564971232 -0.01203362949382304 
0 0 0 
0 0 0 
0 0 0 
0 0 0 
0 0 0 
0 0 0 
-1.251696093350938 0.8112664148216525 0.9928868097273884 
-0.1879837567658123 0.3482446652555745 0.03757073288590848 
0.1906767205889777 0.1738975648668316 -0.4975276299242994 
-0.05598257122639067 -0.2665865672316541 0.08875760807822393 
0.7123751661250220 -1.086335370116388 -0.3655694340455296 
0.02661662248199069 -0.3954324107193290 0.2545587249538486 
0.1637894208023063 -0.3281843694562803 0.3040332230115230 
0.7642114243959698 -0.1182718697974135 -0.8931553526947760 
-0.3219231883595894 -0.2668106962958914 0.4546927609736348 
-0.001607883468334724 0.4471916858253263 -0.2772091217354465 
0.2959781173940692 -0.07551415732929385 -0.2244791768927812 
0.2923043728439011 0.2249426215609119 -0.6327307614253999 
0.3275402979719688 -0.2093609713211760 -0.2117347597536689 
0.5799462138998631 -0.2333294999478994 -0.3505620806974346 
0.1722124955557823 0.1750124321740949 -0.4023800230590069 
-0.3644980861382561 -0.3607657602116894 0.8045292831975135 
-0.3725631917428868 0.5756408905695977 -0.2960163472065143 
0.3161393799780899 -0.02654274895372951 -0.1739600333808604 
0.8558962803090330 -0.6915729746703698 -0.3404126159807844 
-0.9583929809208156 0.7590682714123316 0.5151386470247927 
0.7167304477210791 -0.5407509841430013 -0.6356223619517927 
-0.1445123758865867 0.4538617532601253 -0.4183163877487174 
0.2857721343941435 0.3634181642279422 -0.6964247089400207 
0.3337496950620370 -0.1014988656477519 -0.3241963144953915 
0.02269493061375758 0.6710375274437775 -0.4074376000481574 
-0.3204217591099970 0.2809215026285901 0.1283877323675876 
-0.8139156838865975 0.8322501903121979 0.3189723396240272 
0.2177665667280697 -0.08784033307813897 -0.2322954579952804 
0.2646820381698520 0.1974486936693279 -0.3416218369539483 
0.4399737376247623 -0.5686676100615660 -0.2637311397966131 
-0.2131620467436610 -0.1643820115352460 0.4113304123612482 
0.3024930776389944 -0.06500582820071275 -0.1293310744104884 
-0.6067120184514695 0.2278140858034750 0.6699407108069605 
-0.3294858990326558 -0.1260810277454741 0.4974630590070694 
0.2038416543784233 -0.1216858491491079 -0.07496927746827058 
0.4988152954504334 -0.2248755363231487 -0.2342603368558185 
0 0 0 
0 0 0 
0 0 0 
-0.7938263154290894 0.9031253251318182 -0.05766523950891427 
-0.3207709111796308 0.8085438255941706 -0.3687985473325903 
0.3416907241526392 -1.367120517559049 0.3752870033688080 
-0.1784436137249557 -0.3162021386505526 0.4706327367504858 
0.7125372280605940 -0.4925259359205850 -0.8032598350180746 
-0.9428047295197506 1.072363450098063 0.2413204970351230 
1.159095356025599 -0.7825456645219727 -1.076269181678187 
0.4573057574476918 -0.02144622223468249 -0.4605975407817872 
-0.3427805266275363 -0.4676577934413672 0.7152159945610355 
-0.01606500117725792 0.1167597530646960 -0.1889487806288398 
0.3110981141441402 -0.2243801781681283 -0.4410447902982830 
0 0 0 
1.042976748528440 -0.4659647430604563 -1.229752014108906 
0 0 0 
0.8936916121064228 -0.6581943412293022 -0.5049313318050485 
0.4548383824567439 0.1570929661243593 -0.8439089090352392 
-0.2157065802513722 0.4903222941499144 -0.1891071388053929 
0.7970155402410474 0.3450816697527417 -1.006478208468341 
-0.5823485143818072 1.025074889396670 0.1618942758800029 
-2.073515377787037 0.7416385857562813 1.989006722819104 
0.01963367332639308 0.1377555823141487 -0.3964624867489079 
-0.4006353852093198 0.09016496233885290 0.2568688330798911 
0.4154117124832099 -0.4558035790357740 -0.2342598248505791 
-0.08757632211551014 -0.4732954264638113 0.4933234965277349 
-0.3315197157604312 0.02051922425654603 0.2582553385604978 
0.5921964675873252 -0.3221630645134525 -0.4151949687095585 
0.2768054270652451 -0.3577908034471284 0.1429743726117412 
-1.053374580274945 0.6863169787039691 0.9959639422077976 
0.3052104274550536 -0.2854039736691620 -0.2377450707221636 
1.074884344029030 -0.07734926484657013 -1.481823476800875 
0.2602574008113233 0.1048041239993976 -0.6404032096351859 
0.5464517345053485 -0.6102515480251401 -0.2551235073114507 
-0.2743066255136284 0.7698371567112706 -0.5102092843199182 
-0.8288167130910931 1.150716488453272 0.2567999873440497 
-0.7581193405684269 0.09005551060132945 0.7431091895879186 
1.315471203545399 -0.004647746092805927 -1.489654700409961 
1.385920450226284 -0.7002798504854334 -1.126987289802701 
-0.3300950702375551 -0.5677483711795931 0.5641737343173479 
0.2688092543232858 -0.4441111528786585 0.1327076684397712 
0.2738823014256106 -0.3359080163431788 0.1242553350626469 
0.4246993689994330 0.01717779982447734 -0.5163433331705405 
0.7055161509559288 -0.4443410466808208 -0.6129792768178751 
0.08188236135889297 0.2460708067711045 -0.3766900054704908 
0.06495655065732099 -0.007640230708352134 -0.01501885622471038 
0.04919411690010558 -0.01091886025656037 -0.03347429800260982 
0 0 0 
0 0 0 
0 0 0 
0.1051932266528305 -0.006199649204313273 -0.03733361989800434 
0 0 0 
0 0 0 
0 0 0 
0 0 0 
