solver_type L2R_L2LOSS_SVC_DUAL
nr_class 11
label 0 6 1 2 5 4 7 9 8 10 3
nr_feature 233
bias 1.000000000000000
w
0.01631610391348305 -0.1172359260621395 0.04363330891102771 -0.08481912122472153 0.01922909028510709 0.2320179862403596 0.2121051489607201 0.1478626495936809 0.1452855950239699 -0.3400419494231983 -0.1838795659326438 
-0.1643183096601097 0.5973907536378926 0 -0.1273705916891931 -0.3333045621372971 -0.2878290785180195 -1.387778780781446e-17 0.5000086669096491 -0.1116515501209301 -0.3817235049077056 0 
0 0 0 0 0 0 0 0 0 0 0 
0 0 0 0 0 0 0 0 0 0 0 
0.3144333971096806 -0.2848462362841913 -0.06273560476076676 -0.1712085960652863 -0.3085819218275203 0.2682385085157749 0 -0.01119212744460891 0 -0.006662953952710338 -8.673617379884035e-19 
1.011547563703208 -0.4182180182344307 -0.3644167905241036 0 -0.1196845442512165 -0.3840656148069551 0 0 0 -0.03874178845487116 0 
0 0 0 0 0 0 0 0 0 0 0 
0 0 0 0 0 0 0 0 0 0 0 
0 0 0 0 0 0 0 0 0 0 0 
0 0 0 0 0 0 0 0 0 0 0 
-0.1830170845797947 -0.5047111540377555 -0.2448138744124582 0.9365459728915441 0.2494903921165712 -0.3432896473020318 -0.006023627819533796 -0.1528354354992599 -0.3153023103555807 0.7692971373296695 -0.04868590471681665 
0 0 0 0 0 0 0 0 0 0 0 
1.320239562753553 -0.8594350828963144 -0.2185012852648463 -0.3134275560665233 -0.1150328990408278 -0.2055625275882994 0 -0.02321102577697214 3.469446951953614e-18 1.734723475976807e-17 0 
0 0 0 0 0 0 0 0 0 0 0 
0 0 0 0 0 0 0 0 0 0 0 
0 0 0 0 0 0 0 0 0 0 0 
-0.4510907716684650 0.04568740586062137 -0.1814575715717171 -0.4021585622817824 -0.3251037368349827 0.3869482804568859 -0.08737605959699427 -0.1441510306250040 0 0.8729762603485305 0 
-0.008240560987091536 -0.05021891493532633 -0.07068666976998217 0.1649557825458437 0.07399939766153614 0.1479661750130016 0.08122817703484579 -0.0008260627494416750 -0.04051576828993866 -0.01354694353279852 0.03090611997473916 
0.09115602918161259 -0.04373459806726276 0.2028946596857481 -0.06465021672786764 -0.04500235933561769 -0.007651587878396550 0.04190425778097700 0.06902930174992837 -0.07473338043332627 -0.03771573291876454 0.08466962293362586 
-0.5299546527155962 0.1569622472057769 0.7419985566493958 0.1786116040771147 -9.107298248878237e-18 -0.4526944861558283 -0.1366499796623977 -0.1683664290487242 0 -0.02866107965986811 0 
0 0 0 0 0 0 0 0 0 0 0 
0 0 0 0 0 0 0 0 0 0 0 
0 0 0 0 0 0 0 0 0 0 0 
0 0 0 0 0 0 0 0 0 0 0 
0 0 0 0 0 0 0 0 0 0 0 
0 0 0 0 0 0 0 0 0 0 0 
0 0 0 0 0 0 0 0 0 0 0 
0.1879652069620143 0.1826029170737231 -0.01104879298242187 0.3865423382052400 -0.5267290555839922 -1.072315159593580 -1.084202172485504e-17 -0.08483553765890939 -0.1767458219081342 0.01068119060393663 -0.02058034384654059 
0 0 0 0 0 0 0 0 0 0 0 
0 0 0 0 0 0 0 0 0 0 0 
0 0 0 0 0 0 0 0 0 0 0 
0 0 0 0 0 0 0 0 0 0 0 
0 0 0 0 0 0 0 0 0 0 0 
0 0 0 0 0 0 0 0 0 0 0 
-0.1677869569351264 -0.4441605352176473 0 -0.1348616001163799 0.9782664663660388 0 0 0 0 0 0 
0.09656560356689516 0.04946892300901767 0.1155412839526427 -0.4584095622460415 0.4696878035405484 -0.09017476495302151 -0.1456084925519894 -0.1638255550152442 -0.1861754058078004 -0.3521609098375240 -0.01616626258535179 
0 0.4863782173118179 0 0 -0.008658643889124770 -0.02306574133814947 0 -0.1066549706740114 -0.02962621238035086 0 0 
-0.3693231685316679 -0.03126217731496300 -0.2088349174145356 0.7484822176992212 -0.4840909091513158 -0.1653696194102634 0 0 0 0.3404013686968195 0 
-0.5874631579266224 0.3705167814365972 -0.4055564737386083 -0.02725185402263499 0.5178855226830865 0.04005317270338566 -0.1008143034838589 0 0.5370442644171216 -0.2615811722021569 0 
-0.2239095182206428 -0.3428603167477717 -0.02467474598458234 -0.1200559824055100 0.9255408599777903 0 0 0 0 0 0 
-0.2242651016326257 0.7846905400496093 -0.2852629851935254 -0.1598771629781754 -0.2292622927121918 0 0 0 0 0 0 
-0.02343182699635350 -0.8302261040128851 0.9331106002658177 -0.002487154076599279 -0.03393641540121220 0 0 0 0 0 0 
-0.2918758356384736 0.9948366868702241 -0.3106076310764257 -0.1635478472242859 -0.2354047939962581 -0.1215594983677367 0 -0.05674499193635911 0 0 0 
-0.6458155079346665 0.02984928618912361 0.4664124131359705 0.1128008857807027 -0.06681061532263159 -0.07110857902634454 0 0 0 -0.1774187267316988 0 
-0.02107135960341888 0.08546973570663854 -0.09302077500309976 0.2785708046961933 -0.3201176139027639 0 0 0 0 0 0 
0 0 0 0 0 0 0 0 0 0 0 
0.2586985081837021 0.2020028230868868 0.06249770741665769 -0.2745336628521765 -0.007886729524588257 -0.09027708003158103 0 1.517883041479706e-18 -1.734723475976807e-18 -1.734723475976807e-18 0 
-0.2114870524294401 -0.08075820696332264 -0.3931394083988007 -0.2849978819123059 -0.1844684892990092 0.2519026926439645 -0.2551526515789844 0.1493136886985855 -0.07956646172197417 0.1004692356856915 0 
0 0 0 0 0 0 0 0 0 0 0 
0.5305940502891550 0.4329335376352876 -0.2290149654601229 -0.05494368538650585 -0.5155662230273943 -0.2445293959743507 0 0 -0.002343702327185877 -0.4430061462803056 0 
-0.4366302170047428 0.6704831616391163 -0.2317051511220909 -0.4232482357822572 -0.06596941975713023 0.1086527696686741 -0.1220032353105848 -0.004521536935583993 -3.469446951953614e-18 -0.1431410741277467 0 
-0.2404764877770430 -0.1115286028469061 0.4049182155489258 -0.06600713137742933 -0.01487337326794182 0.2874460129298657 -1.734723475976807e-18 -0.3037056744857903 1.734723475976807e-18 8.673617379884035e-19 -0.01072134227765945 
0 0 0 0 0 0 0 0 0 0 0 
0.08851556744442310 -0.2639964277154266 0.1029680390873188 -0.01906616918140969 0.06008559860120007 0.4286690837659244 0.2126902418859199 -0.1820089817387338 -0.1968968958284879 -0.04460734126530128 -0.1502030419192067 
0.1255030863133033 -0.1504138458336415 0.03422405381478172 -0.09433026270860680 0.09610389890750835 0.3688609067566900 -0.1713779105718323 0.09940278960320780 0.09026622065747189 -0.04437864003195638 -0.1765513976211998 
0.005079279523988446 -0.1046519339134742 0.02607341280720367 0.03074662564408278 0.1330108836679416 0.2062186802349703 0.002125889796974572 -0.03367301428723787 -0.03970422517837136 -0.2127441322121537 -0.1951736741430212 
0.09738453927092647 -0.1216335602908188 -0.1840999243434515 0.2300853884878542 -0.09396374608554649 0.1336258863904592 -0.1260202353021638 0.2526962274104523 0.05839631125918843 -0.2057844552928390 -0.07107886569410761 
0.07514087160292382 -0.1387115376489546 0.08811301149022535 -0.02176307803689452 0.01126540141087886 0.04389155169997804 0.08506012375813454 0.1606037217241008 0.03990957753255034 -0.1407265952290784 0.2954956065465905 
0.3552889511895068 -0.1930814087412866 -0.2762851067148990 -0.05640726982759690 -0.005041883114069210 0.1819479091779788 -0.02826266620998937 -0.4420714345820983 -0.1231329045178174 0.1719994877667163 -0.02046805463350948 
0 0 0 0 0 0 0 0 0 0 0 
0 -0.8039518085151728 0 0 1.136661499071046 -0.06682606898025739 0 -0.06620462187919106 0 -0.1473914022352809 0 
0.04407273482992424 0.08308939131061575 -0.2867896433341280 0.01569631343493372 -0.01096290618577186 0.1582270430425078 -0.04742888296406760 -0.2317811746653589 0.07491318811677505 -0.4905791317240906 0.2168594401337186 
-0.6078124870069381 -0.2398178140489302 0.2247452373586539 -0.5150528008712438 -0.004020368141037831 0.2349684287563753 -0.1444644740618019 0.3308015364119654 -0.1679835091441045 -0.2657689845855421 0.4414461218748939 
-0.2366401416825705 -0.3269436339389634 -0.2047281882120449 -0.5200926817689915 -0.1031079889001660 0.2429155256602098 -0.1261713717375786 0.3716512246924144 -0.02905647053256230 -0.2306858802017887 0 
0.1089609934698704 -0.1937073474585538 0.0008031145347008046 -0.04757016593982109 -0.05907617121427200 0.2009127818519209 0.06271518211330598 0.1486098423800503 -0.02549783411829213 -0.2203002335665489 -1.214306433183765e-17 
0.08906247932842537 0.1036210044797746 0.1504074028810523 -0.4253363525301237 0.006042333122151068 0.04445464898920894 -0.02180788305874921 0.07835922680327141 0.004280039108085574 -0.04479016757066524 -0.3387825147714126 
-0.5450709182523270 0.1954399435321355 -0.1321257199396841 0 -3.469446951953614e-18 0.4477952653562346 -0.2659207545185651 0 0 0 0 
0 0 0 0 0 0 0 0 0 0 0 
0.1138956418714535 -0.3102315884668738 -0.1393625550737226 0.2393927463141060 0.03183893592629247 0.1711125846942567 -0.09304610931778251 -0.2529482040239579 0.3375583233638180 -0.4205593216857649 0 
0.08295510170773773 0.1243717941461849 -0.3749063964885154 0.03499753437583533 -0.05167240017417727 -0.3892559407494292 0.2626672504897297 -0.7110280090299985 -0.003928045669324439 -0.1160625987135160 -0.1235844610258206 
0 0.4052436972791374 -0.1754531576353755 -0.1016603368516216 0 0 0 0 0 0 0 
-0.05175183728911145 -0.1447259620951175 0.02390387986953872 0.07925117185766450 -0.01775848842707423 0.08992771246006476 0.01694758058373170 0.02614683781092374 0.2103942199929912 -0.05208140162187069 -0.2487317332348122 
-0.1361495154029123 -0.9176617802204314 0 0 -0.1097530369569264 0.9699282751968439 0 0 0 0 0 
0.2197662033274719 0.01666279723986994 0.1088507063700927 -0.4297979754442339 0.1334538572195572 -0.1445403650974310 -0.01698151735727296 -0.03653592492262336 -0.1808241607599192 -0.3193465393084771 -0.2327875099774884 
0 0 0 0 0 0 0 0 0 0 0 
0 0 0 0 0 0 0 0 0 0 0 
0 0 0 0 0 0 0 0 0 0 0 
0.3018586708368128 -0.8327052412520910 -0.08916357456937780 0.3985330490733127 -0.1082120804590839 0.1730411805449517 -2.146720301521299e-17 3.469446951953614e-18 0 0 0 
-0.0001489270762006525 0.03781590419376026 -0.01315407907707775 -0.1227612865704366 -0.1004108195313920 0.07534436698436000 0.02358635608102602 0.1900422660496798 0.09801763821684930 -0.08977978104402397 -0.2510863837460718 
0.02673842156335202 0.2036547138841489 -0.05838738073682656 -0.1561022898942689 -0.1824675422725588 -0.03292059149453130 -0.02253032451380897 0.08638899955806650 0.002876680207609941 -0.4553162461003687 -0.05791234609410314 
-0.008711895023055733 0.1104673954728756 0.2357570536329994 -0.2842427580196109 -0.02030989055658004 -0.09316286016930760 -0.1065595976308222 0.007098727831031948 -0.04980503495096538 -0.05805256733171258 -0.3534616563271119 
0.1540686172211078 0.001464192124056876 0.06123405095820568 -0.1336580813668910 -0.005963587783982866 0.06534763974351665 -0.2469897106140707 -0.1034867911385173 -0.07624098383816788 -0.3932350215152827 8.890457814381136e-18 
0 0 0 0 0 0 0 0 0 0 0 
0 0 0 0 0 0 0 0 0 0 0 
0 0 0 0 0 0 0 0 0 0 0 
0 0 0 0 0 0 0 0 0 0 0 
-0.08845739583632829 0.1429519322994480 0.2805573397494654 0 -0.2006065828761262 0 0 -0.07703408665286018 -0.1741610321555261 -0.4808281895384975 0 
-0.3718205967961464 -0.2730876747571067 0.09610860043095806 0.8429444318799258 0.1671663555509233 -0.1382729229195146 -0.3873144643904821 0.3590712279642523 -0.07756980895308337 0.4714883469262141 0 
0.4532096580998872 0.2562067762010138 -0.2161369621147707 -0.8155920821243854 -0.1495400907567682 -0.04391816592114598 -0.4227763063856960 -0.08095989134772913 -0.08660587843190527 -0.3304162315923241 0 
0 0 0 0 0 0 0 0 0 0 0 
-0.04336708910971443 -0.03056157865138251 -0.5775118073180466 0.3785512434305365 -0.6162673688074454 0.04326008072205276 -0.05254550559444535 -0.1360736178923327 -0.2559769504402563 0.2306430984688742 0 
0 0 0 0 0 0 0 0 0 0 0 
0 0 0 0 0 0 0 0 0 0 0 
-0.1529594420691947 -0.4662980337177953 0.4483119731963285 0 0 0 0 0 0 0 0 
0 0 0 0 0 0 0 0 0 0 0 
0 0 0 0 0 0 0 0 0 0 0 
0 0 0 0 0 0 0 0 0 0 0 
0 0 0 0 0 0 0 0 0 0 0 
0 0 0 0 0 0 0 0 0 0 0 
0 0 0 0 0 0 0 0 0 0 0 
0 0 0 0 0 0 0 0 0 0 0 
0 0 0 0 0 0 0 0 0 0 0 
0 0 0 0 0 0 0 0 0 0 0 
0 0 0 0 0 0 0 0 0 0 0 
0 0 0 0 0 0 0 0 0 0 0 
0 0 0 0 0 0 0 0 0 0 0 
0 0 0 0 0 0 0 0 0 0 0 
0 0 0 0 0 0 0 0 0 0 0 
0 0 0 0 0 0 0 0 0 0 0 
0 0 0 0 0 0 0 0 0 0 0 
0 0 0 0 0 0 0 0 0 0 0 
0 0 0 0 0 0 0 0 0 0 0 
0 0 0 0 0 0 0 0 0 0 0 
0 0 0 0 0 0 0 0 0 0 0 
0 0 0 0 0 0 0 0 0 0 0 
0 0 0 0 0 0 0 0 0 0 0 
-0.2551589725909946 -0.3901268284016072 0.8592488261349889 -0.2829936102481629 -0.2422174943667613 -0.1502297237207159 0 -1.387778780781446e-17 -3.469446951953614e-18 -0.01482774878909060 -0.002108453620677579 
0 0 0 0 0 0 0 0 0 0 0 
0 0 0 0 0 0 0 0 0 0 0 
0 0 0 0 0 0 0 0 0 0 0 
0 0 0 0 0 0 0 0 0 0 0 
0.6336136039320053 -0.01237452131730298 -0.5245390817648927 -0.08178708118065958 -2.602085213965211e-18 -0.2856170511647046 -0.1895739077348896 -0.2437509052355410 0 0 0 
0.08127951902782769 -0.2652793950393840 0.4276750371681906 -0.2926907581343180 -0.5925231109849411 0.1107615018964089 0.1230398740789417 0.1205801034346720 0.05765703789061415 -0.1528399310949687 -0.04868590471681667 
-0.2215529491114744 0.2476465056016412 0.02018341407012852 -0.1051874969132038 0.04115061557036942 -0.2233165477596138 -0.09302450161204132 0.09634549376280911 0.01578045822433368 -0.1127287673896229 0.1129441606719273 
-0.07523434828623747 0.1270595805995550 0.1636799709396487 -0.2420543298887275 0.09674684557668073 -0.2090950848431695 -0.04903486002653572 -0.2492755962554236 0.1046091124784564 -0.07514720452139147 -0.2407799995340133 
-0.06429828590780187 0.3250783907628296 -0.3590439435348900 0.01641090488197790 -0.1612469633487639 -0.09140475750518742 0.06624324854212128 0.06156996620470778 -0.2419958721207712 -0.3189918733288639 -0.08812452773369820 
-0.1156391203766803 0.1336275005767656 -0.03341574582530532 -0.07973933950444634 -0.01945155163705838 -0.1210511120997224 -0.008502833697288437 0.1894808975433817 0.02269243391752496 -0.1064337504990201 -0.06201682754013364 
0.1209688771753123 -0.04645108125998060 -0.1838949756831473 0.003073686224966430 0.2325439627204412 -0.5803973169976547 -0.2768079471083219 -0.08958643137731308 0.05789462925361741 0.1550209119630095 -0.1838795659326439 
0.1865079797746271 -0.1940468653413016 -0.01012891905549499 -0.04567749517106266 -0.01691096293078978 -0.03377735626686365 -0.1830484289686908 -0.3055387746021637 -0.2877276098246209 -0.1634637748207560 0 
-0.3650448598482419 0.4168024574307885 0.2387710318464326 -0.1712085960652861 -0.2535844593747247 0.1184829883550800 -4.336808689942018e-18 -0.09602766510351823 -0.1767458219081341 -0.2467498365050555 1.734723475976807e-18 
0.4230530432329118 0.4486698672493645 -0.3985794507456769 -0.2514397564002630 -0.1746820067040116 -0.1813372448200621 0 0 0 -0.2841838694930243 0 
-0.09448958588592302 0.2171495747396960 -0.01104879298242184 -0.6905739875008804 4.206704429243757e-17 0.7820171982102974 -4.336808689942018e-19 -0.1728792748200514 2.168404344971009e-17 -0.3794674768842479 -0.02058034384654059 
0 0 0 0 0 0 0 0 0 0 0 
0 0 0 0 0 0 0 0 0 0 0 
0 0 0 0 0 0 0 0 0 0 0 
-0.2604047094538316 0.5495887728619320 0.06292145287761530 0 -0.2203730910697605 -0.3626822758398828 0 0 -0.04666344826432806 -0.1124773538998089 0 
-0.1040593839843624 0.1731870042537959 -0.1213373731155139 -0.1221482273853206 -0.1540325930876435 -0.1000171361763517 0 -0.06620462187919100 -0.08128158531200423 -0.1473914022352809 1.734723475976807e-18 
-0.07541953120991714 -0.07000287886703975 0.02671323100727734 0.1150375641882848 0.05324332318390163 -0.02787846331942526 0.06893652843016936 -0.05283338001139147 0.04667565321473329 0.1072379688153576 -0.02741151568597035 
-0.1246294389530366 -0.04347302920861584 -0.02225351143978269 0.2530986663821027 0.02439642092396250 -0.02206549898478694 0.06823079342104083 -0.02935500734955631 -0.1660908522547344 0.2440522347062060 -0.4540747205896278 
-0.5712545810116274 0.02259668639088386 -5.941427905220564e-17 -0.2670036404341402 -0.05326132120722284 8.673617379884035e-18 0.2110465569062672 0.9984601337046483 3.122502256758253e-17 0 0 
-0.6778961046473686 1.208025102060095 -0.6132659435794663 -0.09618956410588929 -0.2133271091625773 -0.08340814155012014 0 -0.03226454366395087 -0.2283074193528913 -0.2382670923049254 -0.2213285410779952 
-0.08488281929954648 -0.3705918963033905 0.1116719849987402 0.5020684780379469 -0.02372916850571506 -0.03936970948852404 0.1280492444976256 0.05180185655644776 0.08816546364016806 0.0001015976098592717 0.1824638971212770 
-0.1564475438814587 0.04066738007463028 -0.1326633508628911 0.2292153467056782 0.1555563826521875 -0.07650879989456523 -0.2325326162922178 -0.3748464164951681 -0.2249331215026688 -2.081668171172169e-17 -0.09172551932184418 
0.1712735185688389 0.2236123583684278 -0.2521540816234966 -0.4664699753736876 0.01006611140557896 0.01027142746042356 0.2980284029958777 -0.3519567810657465 -0.1641756873849886 0.1410721153338917 0 
0 0 0 0 0 0 0 0 0 0 0 
-0.4193007379206254 -0.2967301426227858 0.7638010144065122 0.3102492441124948 0.1776989050766314 -0.1086899867782465 -0.07638903706432255 0 -0.003928045669324439 -0.1160625987135160 -0.1235844610258206 
0 0 0 0 0 0 0 0 0 0 0 
0.3508183678531940 -0.6218917877102083 0.3636839943842125 0.3375455952864415 0.1207794341604137 -0.2348749065767931 0.002363351119389150 -0.05393496991343891 -0.001854875331339694 0.1240153607930630 -0.1326941470541722 
0.8609356697695397 -1.456741504880404 0.7628109154244544 0.8377206181435032 0.2146620177753179 -0.6539815743507007 -0.1057652976110261 -0.4442753187284401 -0.1744098185842340 -0.1076264449361870 -0.004531317869633336 
-0.05099777187845114 -0.007636191830250896 -0.2861843895596269 -0.2292563840862742 -0.3020983974375911 -0.2738906691677885 -0.2648606928896544 -0.2751446597730279 -0.2412396330230072 -0.2586070572463894 -0.1904581427661831 
-0.1547314773550488 0.005224620778070431 -0.2872930214110924 -0.2288251800761187 -0.2028265148068411 -0.1991624955788447 -0.2793146299811067 -0.2245621029953403 -0.2642530369565840 -0.3482114083829311 -0.2919789611489154 
-0.1391114549619397 0.1626787543845552 -0.07243064202244150 0.07874317857333017 -0.2053685529007460 -0.2707658586571289 -0.08827323078384408 -0.2208236552977645 -0.04013402259408539 -0.1035353418794538 0.07057580364533805 
-0.02430514987891464 0.1825125951447280 -0.2382251250911987 -0.06236683761393987 -0.05745847141450734 -0.07550519137947144 0.1514851412669788 -0.2225246186501810 -0.3042161774002467 -0.2263921101774769 0 
-0.07322041843083212 -0.006395424813520179 -0.05193144816719945 0.02783062844492450 -0.1411640336042087 -0.07077212181909039 -0.07215918495607358 0.2016513357094507 -0.2530378257238127 -0.08100853882927639 -0.03225009260987338 
-0.03358456853010833 0.01392467768273077 0.01166476361912187 -0.004367000505372256 -0.1145352441419940 -0.1355479694803224 -0.08498540474878002 -0.04436863717426438 -0.1140283103355802 -0.4212693507623952 -0.2920173313511913 
0.2956275429774383 -0.1832227753044701 -0.1321460009425425 -0.09550421421407207 -0.05048736097483636 -0.1212729423614103 -0.3161578016537041 -0.2885634023288755 0.03348203606609117 -0.1696988582585225 -0.2081259698041252 
-0.1228040284392524 -0.2504719170689264 -0.09028277775706195 -0.3255308829115144 0.1384200429176672 0.2483098821465474 -0.03570431037531744 0.07102550599840082 0.1303514800252815 0.3744405671429891 0.1403447769174428 
-0.1083311719698979 0.07856251892272005 -0.0001261806094009975 -0.07688643593574378 -0.07433129212580550 -0.04749896319575864 -0.09838053162001544 0.003896708974861029 0.04209014998276164 0.02064516713482140 -0.1609642907126944 
-0.1865602640743211 0.2326891221055266 0.05649719102942127 -0.1778451341880913 -0.1646527126789170 -0.2164941047105094 0.03649734416054846 -0.1187902690225075 -0.1950293360004536 -0.1625908311404315 0.06559630122293397 
-0.04477148443743959 0.02326827912060909 -0.1514319592750608 -0.1046651324382266 0.1557599428831239 -0.08815757429596463 -0.1232370221881275 -0.1312858408279238 -0.1803725986237006 -0.3839634328304700 -0.1813924388303759 
-0.1094285415822653 0.1243903833400890 -0.1783990665311603 -0.01853890035266646 -0.1797484535053904 0.04118456057245005 -0.09841888531697407 0.02772755912366951 0.1136756850811997 -0.03749472523045806 -0.07061616020565930 
-0.01575607667574115 -0.07386507231843187 0.1180399208719064 -0.2648809596166029 0.009622643416967662 -0.07656637436341086 -0.08401745462638970 -0.1105409539464332 0.02105851720281820 -0.06353195835950776 0.07746598829819601 
0.03050936123661684 -0.1135439627191365 -0.2514817812475044 0.08177186994157343 -0.006765155864543266 -0.009267375836285719 -0.1529281676142349 -0.1268409697082061 -0.1033473168097612 0.04579408565286104 -0.07107886569410761 
0.09207725598893945 0.01542324359480426 -0.1719182267141560 -0.02460981126169349 -0.1994982807302163 -0.1115040320477714 0.05682466970866606 -0.08101239400132225 -0.09921349443488683 -0.04984832475593844 -7.273616648377782e-05 
0.02820050031071025 -0.2107735641756378 0.005216510895832962 0.05068650375332075 -0.1196428957654471 -0.01224826406514425 -0.1788958069942445 0.04103610561434834 -0.06226412639481080 0.04481672103462909 -0.3023391925396062 
0.01001812058881148 0.1303934085149247 -0.3780977890000828 -0.1519648253827606 -0.1533274155633023 0.01701352718926388 -0.2748777533930601 0.05181585244250941 -0.1419861939703174 -0.3296886049431852 -2.891929813109662e-05 
-0.09628862552853942 -0.1142504547741652 0.09505153068218385 -0.09384887121841362 -0.2756584558358398 0.08439124497163453 -0.04948155394467244 -0.2750290564495823 -0.1290656849766696 -0.08965110214612818 -0.3654642370066827 
0.07817801183137446 -0.2584873631349158 -0.08039081583960776 -0.1571034445804177 -0.04076793639807014 -0.4686187595952646 -0.1169187761508004 -1.951563910473908e-17 0.09525578332403889 0.2112263652892613 -0.003444722135520834 
-0.1976367561251450 0.2399328383419729 -0.2100403368132146 -0.05516442298079662 -0.03517110444721913 -0.1058391773122718 -0.1028972393822245 -0.2764935587613031 -0.3296965743566492 -0.3987051238292643 -0.1134992254747687 
-0.2057292492335047 -0.002411571052178793 -0.5734774109706968 -0.4580815641623843 -0.5049249122444354 -0.4730531647466468 -0.5441753228707489 -0.4997067627683712 -0.5054926699796136 -0.6068184656293146 -0.4824371039150989 
-0.1816047323090996 0.2496131789315634 -0.2611841568225900 -0.09119806393366485 -0.03541039714605158 -0.2139488770458001 -0.1368207190970466 -0.1682969558525769 0.1066224807319892 0.1061828776050054 -0.1588008071290900 
-0.1435496747765869 -0.2133850222458127 -0.3289963985300062 0.1634337336125770 0.06676346839222735 0.1042095832314792 -0.2126932624402069 -0.07889027777345503 0.2575320447098605 0.2215544265076896 -0.09329206874543843 
0.03058954248050318 -0.2618303669506848 0.04771947936924824 -0.03779488929383886 -0.1335587338825725 0.2407320679450620 -0.004754708348363571 0.03204026014077094 -0.6478110782740252 -0.3648301189198351 -0.1537237519296330 
0.08883561537167912 0.2231906392127414 -0.03101633498737713 -0.4925223445474620 -0.4027192496080314 -0.6040459388773782 -0.1899066329851397 -0.2845597892831145 -0.2218361171474146 -0.5697256508221731 -0.07662047611094125 
-0.08423378816432205 0.1517754104034298 -0.1252431509980063 0.02238663991763581 -0.07933327314877965 0.05308720132827693 0.04408545657318992 -0.02037100246168604 -0.003964073131625503 0.1062312980844743 -0.04786093127329581 
0.06683273214320185 -0.1429543281317709 -0.3077177832840038 0.3710912934837490 0.05880519027070101 0.05107832569712067 -0.1685754076369797 0.05341825024361092 -0.2297322886626015 -0.1620209362643836 -0.003444722135520834 
0 0 0 0 0 0 0 0 0 0 0 
0 0 0 0 0 0 0 0 0 0 0 
-0.1989556822485783 -0.3713079407076420 -0.4261414959736419 -0.2164588261354420 1.205804736554049 0 0 0 0 0 0 
0 0 0 0 0 0 0 0 0 0 0 
-0.06071748537157812 0.5380754800349706 0.3255190935317766 -0.7251362311187391 -0.1936020786731281 -0.2896587966614177 -0.1315019250281393 -0.2185631970944872 -0.1424011944222976 -0.008779022780037383 0 
0.07431199864119681 0.06371460170698393 -0.04023611772003262 -0.2750647159291015 0.1052162593360515 0.1977230733019244 -0.2143850934966666 -0.3734850873869763 -0.1106519829518998 -0.4602705028249812 5.204170427930421e-18 
0.2124765400157099 0.01330917602180326 0.02161569381133072 -0.1881556459109931 -0.08210730688102884 0.1200951218386945 -0.1954177018840093 -0.4465764662679644 -0.3192684447183861 0.1363991217398697 -0.08714252804209340 
-0.7464448063483735 -0.01044564448720078 0.5961894992284236 0.1430220153287609 -0.2806805897121071 -0.2167483553543607 -0.08329557444776324 -0.2123099997238999 -0.07400360618399480 -0.1145138051781425 -0.005907315729030123 
0.02163517184628816 0.2047224191326021 0.3124164854018235 -0.2945691295782135 -0.1955300033742503 -0.2259597542097370 -0.08107974306543782 -0.4771304511873789 -0.2844480518928274 -0.4613265614477961 -0.05384949514121117 
-0.2753700448197841 0.9338086360195974 -0.2733213212892455 -0.3673044188000103 -0.07245761639292997 0 0 0 -0.008926511864980769 0 0 
-0.2830822091118881 0.5457619523122557 0.2032139514417830 -0.4198409325208150 -0.2058030946596365 -0.3626934406880858 -0.1316923632068545 0.01468260325598673 -0.3435913041854651 -0.4110013983655733 3.469446951953614e-18 
0.4350129848865739 -0.5520602211068284 -0.04665664730359646 -0.01554623530287451 -0.2904795626090625 -0.1874592971738196 0.2389149721699576 0.2857628427216490 -0.1570441635809884 6.938893903907228e-18 -0.2711096842324413 
0.1047136052047832 -0.3661677097721512 -0.1835602544677383 0.3086426950424036 0.003742332857018530 -0.5744439614980963 -4.770489558936220e-18 -0.3142734822996410 -2.428612866367530e-17 0 -0.08113971858600427 
-0.05355347962474361 0.1810623047957362 -0.03420770466964131 0.1845737069713410 -0.1444073384854179 0 -0.02448015011327276 -0.2040132727297858 -0.06278509042523292 0 1.734723475976807e-18 
-0.3800586491185891 -0.09338291807954481 0.9571650964529187 -0.1939868624519083 -0.1945875477201894 0 0 0 0 0 0 
-0.5443243874517935 0.9951504516611113 -0.2547588669294092 -0.1554957747711764 0 0 0 0 0 0 -0.2081259698041253 
0.08830597746431880 -0.1224407298475095 0.1729126766456868 -0.4115114354856817 0.1209036185762307 -0.009638851145775396 -0.1218338803120993 -0.2464978319682537 0.2431946561132640 -0.2359392600947053 -0.009831294760754249 
0 0 0 0 0 0 0 0 0 0 0 
0.2376726585459887 0.01819015967280033 0.3200748989347497 -0.7285769125557038 -0.4816097952721796 -0.02261201438093984 -0.01710058024814984 -0.2857120391920898 -0.2340153999748873 0.2160902168674424 0 
0 0 0 0 0 0 0 0 0 0 0 
-0.7441542765100772 0.2255814487906824 0.1839161342083661 -0.07099340867283314 -0.5582131691939316 -0.3349845112114655 0.2063355521078261 -0.1858135790781619 0.02209516302154746 -0.3838006896834389 0 
0 0.2286340100069340 0 -0.3290744353317310 0 -0.1072637155832170 0 0 0 -0.2062456171474542 0 
-0.05600706929026719 -0.3778812414769582 0.7485451023382622 0 -0.05106354533410877 -0.1610591681823116 0 -0.01378928611696520 0 -0.2639282972074870 0 
-0.04481188107081834 0.03336729937068264 -0.6827452643845692 0.2955543435559932 -0.3615853871144760 0.2341621776003145 -0.04512520331121307 -0.2574945444350014 -0.2309248633163791 -0.1392946339350912 0 
-0.5408107022201185 0.4909519424602413 -0.4021851570647990 0.3283405511823903 -0.03550297496749406 -0.1132180229360363 0 -0.1094261426499768 -0.03000781837868922 -0.1619850252402530 0 
-0.1326561308064760 -0.004287816890829743 -0.3817384601893370 0.3694623696589124 -0.2440577018407380 -0.2197296481698028 -0.1906637328559263 0.06104733492448124 -0.1059119611411392 0 0 
0.2386263716849652 -0.2520209813505061 -0.05768504912423969 0.09822343316449393 -0.03399191289760688 -0.3155005528932666 -0.08386663596321232 -0.1370491846879929 -0.3890911256399968 0.1826436568710555 -0.02046805463350947 
0.07039867965744424 -0.07011620377145608 -0.1994295117764852 -0.3897461042033930 0.4237080001170848 -0.04685695369990121 -0.02728135319260391 0.2285246063194859 -0.1417468249616422 -0.2975850458360101 0 
-0.003319072295386502 0.2641228031762127 -0.04802636271672713 -0.2708504062468581 -0.2164148207524245 0.6079246304513123 -0.02639313031482810 -0.5715510546436988 -0.2980689660928751 -0.2292540276784610 0 
0 0 0 0 0 0 0 0 0 0 0 
0.03823076898865503 0.2880462102136103 0.0006751142570778010 -0.2307631891831084 -0.03012205458838097 -0.2423554885671567 -0.006162140194191728 -0.2599972348949756 -0.1782171447331979 -0.2381423935077016 0 
-0.3457786498741307 0.04648744647882872 0.07679222007875634 -0.2087162346698754 0.2367281162267095 0.02303528760058851 -0.1291282819515951 -0.07507355229351152 0.1445707846748505 0.5502708335028579 -5.204170427930421e-18 
-0.2680332090209542 0.6997725700779104 0.3937255919228351 -0.7765080438885654 -0.1772377925536656 -0.3071410228171920 -0.1035092938355388 -0.3588935785321051 -0.2007662804736780 3.469446951953614e-18 0 
0 0 0 0 0 0 0 0 0 0 0 
0 0 0 0 0 0 0 0 0 0 0 
0 0 0 0 0 0 0 0 0 0 0 
0 0 0 0 0 0 0 0 0 0 0 
0 0 0 0 0 0 0 0 0 0 0 
0 0 0 0 0 0 0 0 0 0 0 
0.1665191034558508 -0.06199158758216349 -0.4043906584942605 0.1251022147478791 0.02431083016169588 -0.0003765275152191414 -0.06717640826754331 0.03543743223645667 -0.08921874473793732 0.4810865482110765 0 
-0.02549036505847734 0.1462486159017532 0.1009299143407256 -0.04024707897658884 -0.3785778354356634 -0.1127564196311968 3.469446951953614e-18 0.2008177151564430 -0.5297904887821121 -0.4148267543933401 3.686287386450715e-18 
-0.3372613836621902 -0.2616891125981366 0.8898223957292040 -0.1082525510452954 0.8138380125697113 3.469446951953614e-18 0 -0.4684883457684383 -0.1417468249616422 -0.2675461739413114 8.673617379884035e-19 
0.07023103452843887 -0.04380372588721008 -0.2586066982055676 0.2687683321077498 -0.4000293985649437 -0.2195837278322235 -0.03128850881873413 -0.4684883457684384 -0.3083169005470435 -0.1067331523777114 8.673617379884035e-19 
0.09903134001068630 -0.1024326701900474 -0.07475760716826090 0.05082507892465137 0.01135502350932630 -0.01515771455334477 0.2062163115283367 0.2953349300887495 -0.1744614798529288 -0.3589328817449302 -0.08113971858600429 
0.3212094215055181 0.06503426619161674 -0.5040478812063190 -0.5395509555058364 -0.4052884124760325 0 0 0 1.432707680111885 -0.01233181102424555 0 
-0.03023084139152156 0.01513139917033979 -0.2324948674571764 0.3870892613614421 -0.08323602403087452 -0.2083736687137348 -0.1272192177160283 -0.5749327156010765 -0.4986084943731490 -0.8840673426160754 -0.005907315729030136 
0.2132507271510908 -0.2380278536686567 -0.1282369384464800 -0.2985148662476421 -0.1848829796468858 -0.2671787158840404 -0.006023627819533812 0.7324645352639492 -0.1417468249616422 0.8057297805225783 -0.02046805463350947 
-0.02131169704029429 -0.3249073314981554 -0.03064929296953024 0.2526330401130483 0.07185126499767798 -0.4867199825231990 -0.1649236863336841 0.2911460297054624 0.2775314363299711 0.2154398415099428 -0.05384949514121119 
0.02555728285512319 -0.07129924108876516 0.08423916125178364 -0.03843004911386980 -0.1496727215945463 -0.06817499495030259 0.1072373013386673 0.1624178187783156 0.01025569488416269 -0.2308504336663355 -0.08714252804209341 
0.3821430221063200 -0.3149660900395348 0.2571366681313080 -0.2754186228160439 -6.071532165918825e-18 -0.1868363192291971 -0.006808358705461391 3.469446951953614e-18 0 0 -0.08714252804209341 
-0.5066496302632402 0.5604720560986797 0.05467622703419431 -0.2688741444668337 -0.3412499544229669 0.1369274174437717 -0.008668914111898489 -0.09488115508596133 -0.2122139425330942 -4.336808689942018e-18 -1.734723475976807e-18 
-0.5234212167200158 -0.1439434610764906 0.2695802453528529 0.2057816572303417 0.1548152463776892 -0.4358165411921782 -0.08328540060239484 0.1608064857731587 0.2636743607364309 0.2025507104258713 0 
0.2767327823073382 -0.6010252088398131 0.2358038033847008 0.01563945123700924 -0.1424856403826217 0.5274598285295232 -0.1582785923669893 -0.2098420962157363 -0.2067367332171160 -0.1370100083068067 7.372574772901430e-18 
0.03865326542196754 -0.2040090665819564 -0.07053256775856309 0.2176549705761087 -0.07205368953399818 0.3021235232025642 -0.01503559367256587 0.1261756088427459 -0.01711366982222009 0.1884063223183607 -0.1008281320320171 
0.01287763555559473 -0.08382280852524478 0.5220919839445638 -0.6435194955862921 -0.09140211674059251 0.2067152009619437 -0.1980732473395606 0.03253311272353244 -0.1392764500298403 0.4086943312694625 0.3343685699741356 
0.02460346238601845 -0.2243644126605230 0.2297141678421293 0.02874788360088593 -0.1269443477008532 0.1844727518737878 -0.2271409739302797 -0.2091420597286153 -0.1004328261382241 0.1311017503772701 0.1892095171905673 
0.06028705509918321 -0.1803197074401013 0.1450076165900688 -0.1320663477402855 -0.02392488245554602 0.4203517098983165 -0.05311402883375214 -0.1106669129666430 -0.1542778917690281 0.2574918098610996 0.06700557870119639 
-0.02301731622297905 0.1324386642901758 0.3090885983546116 -0.2474352745249628 -0.05605738032670331 0.03538232808269919 -0.02826266620998941 -0.1979157139213356 -0.3902463199969044 0.1060447481359869 8.673617379884035e-19 
