solver_type L2R_L2LOSS_SVC_DUAL
nr_class 11
label 0 6 2 1 5 4 3 9 10 7 8
nr_feature 268
bias 1.000000000000000
w
0.2129141147761391 0.1055598632547958 -0.2494387705117152 0.03194301766898389 -0.02403239187376639 0.1048596887471524 -0.05682720521367420 -0.2242522033207541 -0.3410734718650988 0.04859168574860633 -0.3479572713724673 
-0.09914491285261888 0 0.3691005345664654 0 -0.2136801948380237 -0.08541699261045127 0 0 -0.03376653347673038 0 0 
0 0 0 0 0 0 0 0 0 0 0 
0 0 0 0 0 0 0 0 0 0 0 
-0.2438149072842724 -0.4773578036107480 -0.2877590771826931 -0.3425350059231380 1.039255670480408 0.06582524296137960 -0.2040192256023062 -0.08770727850416220 -0.02004190506329403 -0.02907084116824327 -0.06579498215135508 
0.3870362844990272 0.2415343732904697 0.4370321821363061 -0.8053886128508921 -0.08845430181540541 -0.1404337172898044 -0.6627968890180969 -0.08899984919741899 -0.05067589871393584 0 -0.009984855841465029 
0 0 0 0 0 0 0 0 0 0 0 
0 0 0 0 0 0 0 0 0 0 0 
0 0 0 0 0 0 0 0 0 0 0 
0 0 0 0 0 0 0 0 0 0 0 
0 0 0.4227579666961719 0 -0.1957641233807020 0 -0.3835183848534717 0 0 0 0 
0 0 0 0 0 0 0 0 0 0 0 
1.015441420576889 -0.07308630202919607 -0.4868293214796471 -0.4583138531958575 -0.08959182196638268 3.469446951953614e-18 0 0 0 0 0 
0 0 0 0 0 0 0 0 0 0 0 
0 0 0 0 0 0 0 0 0 0 0 
0 0 0 0 0 0 0 0 0 0 0 
0 0 0 0 0 0 0 0 0 0 0 
0.08471371947625031 0.1460131003435217 -0.03908536643688104 0.09096723072720880 0.02406112633675522 0.07023966148025314 -0.3097345150358963 -0.1451589629282429 0.1113379305196655 -0.005836056669222203 0.2035762841429597 
0.02828896927082248 0.1483441170628922 -0.2738184978302958 0.3334381115210309 -0.002053524584743293 0.05969054122982507 -0.2139286375077684 -0.1350391152625780 -0.2083201188682352 0.01916609523827796 0.1334050340503220 
-0.3561497385543155 -0.06444067507921218 -0.1733229782772163 0.3099743422188315 -0.1185573927325834 0.02991044043599678 -0.07499976318519841 0 1.734723475976807e-18 0.3533704635063863 0 
0 0 0 0 0 0 0 0 0 0 0 
0 0 0 0 0 0 0 0 0 0 0 
0 0 0 0 0 0 0 0 0 0 0 
0 0 0 0 0 0 0 0 0 0 0 
0 0 0 0 0 0 0 0 0 0 0 
0 0 0 0 0 0 0 0 0 0 0 
0 0 0 0 0 0 0 0 0 0 0 
-0.05362095338710708 0.5233836055173768 -0.1201939988591390 0.4656456294022411 -0.2396563187425455 -0.2043307687646174 -0.3461488448095403 -0.03092157743895591 0 -0.04665945496989891 -0.2427069580936262 
0 0 0 0 0 0 0 0 0 0 0 
0 0 0 0 0 0 0 0 0 0 0 
0 0 0 0 0 0 0 0 0 0 0 
0 0 0 0 0 0 0 0 0 0 0 
0 0 0 0 0 0 0 0 0 0 0 
0 0 0 0 0 0 0 0 0 0 0 
0 0 0 0 0 0 0 0 0 0 0 
-0.2762276050446041 0.5233194342570212 -0.2323498792559089 -0.2217954838269829 0.5723399022843484 -0.09664143400653304 -0.06461797081851214 3.469446951953614e-18 -3.469446951953614e-18 0 0 
0 0 0 0 0 0 0 0 0 0 0 
-0.1571320059207572 0 0.6158243442467163 -0.1693812777396759 -0.2288351123974743 0 0 0 0 0 0 
-0.1507828970746132 0 0.5400787704350327 -0.1067505633079952 -0.1410459195783243 0 0 0 0 0 0 
0 0 0 0 0 0 0 0 0 0 0 
-0.3224907391261076 -0.01047700954230939 0.09030012578392367 0.1229175725871022 0.4029969814305122 -0.4478853775624081 -5.421010862427522e-19 1.734723475976807e-18 0 0 0 
0 0 0 0 0 0 0 0 0 0 0 
0.5807671882639076 -0.07877501469278275 -0.1210202188249102 0.1673641958826699 -0.1093839770179732 -0.5325090294846483 -0.3043219710573291 0 0 -0.1710877397008775 -0.1172189888924675 
0.2641250817941849 -0.2281561175566987 -0.02874076042763246 0.2045759943345190 -0.2413597165697740 -0.2484601883732075 -0.1849082914415035 0 -0.01319287194813737 -0.07609668490617882 -0.02863771763817523 
-0.5788817656782453 -0.1774813972197101 1.195986346707981 -0.1900272690644474 -0.3156755348202458 -0.2326395095648556 0 0 -0.07234767261281833 0 0 
0 0 0 0 0 0 0 0 0 0 0 
-0.01224033160888666 -0.2370983579300386 -0.4557697436198737 -0.3713349362237521 0.5808936649767278 -0.1798076807062997 0.3358835602423533 0 -0.03355199470713238 0 0 
-0.3385733576671585 -0.3219743656867836 -0.3317253047898584 -0.2818599002539173 -0.2870991108081577 -0.01162643545795008 1.117301760781208 -0.2347728384228542 -0.006724243059259344 -0.1412632264028737 0 
0 0 0 0 0 0 0 0 0 0 0 
-0.04074700547236593 -0.1125504949835713 -0.08570337564393908 -0.1688293904238571 -0.07489822386289581 0.5093263149572981 0.2740625440122506 -0.01391436407074436 -0.03609783966124544 -0.05319930040378876 0 
-0.6089193412742143 -0.08162681760429923 -0.7175006216085096 0.3679367385221603 -0.1550390790404869 0.6594560225401418 0.6675461890953494 1.734723475976807e-18 8.673617379884035e-19 0 0 
0.2030676718531541 -0.2763410965531951 -0.1612923516519163 0.2227449208174210 -0.3588050694670462 0.2473810778952980 0.1581553161938142 -0.1554518763363843 -6.071532165918825e-18 0 0 
0 0 0 0 0 0 0 0 0 0 0 
0.09991752205205133 0.01792014415365627 -0.006113456284338270 0.1521224835347087 -0.04887410862459735 -0.04238326764514437 -0.1693872534242071 0.3661568919175564 -0.2241380926632175 0.01263745844511902 -0.005303271896461009 
0.03971191482281698 0.007115532535023473 0.04291122593909038 0.04644717174898010 0.03695531977387396 0.07549813163393002 -0.1151562155245914 0.08684168265007129 0.1774241995672462 -0.07158010762435307 0.3436142545964131 
0.1331703772015981 -0.03157941033151958 -0.07075371119240535 0.2139432459213154 -0.01536366377710426 -0.1389200340653095 -0.1156042743743935 0.1556843998197835 0.2248906608413847 -0.1874568355103183 0.03001249578985803 
-0.04606829862335179 0.05557177413904542 0.1551225448991689 0.0005320613110083527 -0.09737927355253387 0.1511115332717364 0.08794247841400772 0.09096950909083716 0.1480091080007754 -0.1361355599294971 -0.2690596150469784 
0.05328213486602361 0.009659913562402308 -0.01235087791192462 0.1108080810152995 -0.04803321670755318 0.05222871274802682 -0.009567766384445687 0.2195790986324764 0.05999900801745185 -0.02489851714753657 -0.08022742173553388 
0.1049659371873722 0.01378973373430769 -0.07854923664939806 0.09781349333963826 -0.01118722881157267 0.02019506926195320 -0.04708796294345503 -0.3390146504824900 -0.1333246784775642 0.08177064649877344 -0.01293295548393476 
0 0 0 0 0 0 0 0 0 0 0 
0 0 0 0 0 0 0 0 0 0 0 
-0.06499387627902425 0.1054090720131430 -0.2117710854100257 0.3032078578557605 0.08086611537174866 -0.07502107932875136 0.03566809950758374 -0.2520711566788667 0.05109605612413197 -0.2146084684624652 -0.2973169419806666 
-0.4441732346515612 -0.1813862792830413 -0.5215296114839685 0 1.304452855933302 0 0 0 -0.003584238588092924 -0.009198989086061241 0 
0 0 0 0 0 0 0 0 0 0 0 
0 0 0 0 0 0 0 0 0 0 0 
0.2174070241586548 0.5673726284260796 -0.2460113767080668 -0.3809200776189600 -0.8122788805434296 -0.1282724449629706 0.2181817519608351 -0.1074584309346364 -0.03984904214035630 -0.02247116423646883 -0.08239524022007758 
0.7457507492566260 -0.2990360420432631 -0.1385710486334044 -0.1156326677173847 -0.1266134965156336 -0.2626776896253041 -0.01053390813738174 0 0 0 0 
0 0 0 0 0 0 0 0 0 0 0 
0 0 0 0 0 0 0 0 0 0 0 
0 0 0 0 0 0 0 0 0 0 0 
0 0 0 0 0 0 0 0 0 0 0 
-0.7206764196758888 -0.1201570123249047 -0.2841696697755307 1.041457082260301 -3.469446951953614e-18 -0.004739778300445002 0 0 0 6.938893903907228e-18 0 
0 0 0 0 0 0 0 0 0 0 0 
0.3697476222403487 -0.1266094633595399 0.3820995349576792 -0.3255900151853991 -0.1144979897508397 -0.05847341987483466 -0.1466752949623832 0 5.204170427930421e-18 0 0 
0 0 0 0 0 0 0 0 0 0 0 
0 0 0 0 0 0 0 0 0 0 0 
0 0 0 0 0 0 0 0 0 0 0 
-0.2063202297156792 -1.387778780781446e-17 0.5949365391176271 -0.7800851922652898 -0.02967741343530096 0.1258584516956951 0.1702429968072377 0 -6.938893903907228e-18 0 -0.1160984672895710 
-0.05656395359493778 0.1474406053296327 -0.06048842976090390 0.05970502151388021 0.07441695507265733 0.002422182951171915 0.1801569182684029 0.05076073947467793 0.03570097479024609 0.1864659232907356 -0.1753635451754036 
-0.08268681343939534 0.09448341853476476 0.2504737983458096 -0.2108438289008898 0.07829571041232697 0.02157120532482214 0.2268068389885201 -0.1967640990370821 -0.2063636866522131 0.1229807598582119 -0.2642631147315409 
-0.4978764468987747 0 -0.3297315554084170 -0.5370994399381954 -0.04313898197326769 -0.09250473531626638 1.549502715367136 0 0 0 -0.03094841486635933 
0 0 0 0 0 0 0 0 0 0 0 
0 0 0 0 0 0 0 0 0 0 0 
0 0 0 0 0 0 0 0 0 0 0 
0 0 0 0 0 0 0 0 0 0 0 
0 0 0 0 0 0 0 0 0 0 0 
0 0 0 0 0 0 0 0 0 0 0 
0 0 0 0 0 0 0 0 0 0 0 
-0.1778371550976517 -0.1874984248163465 0.5811882435605016 0.1457504853720884 -0.2457306102856400 -0.1495728808756221 -0.3461488448095400 -0.02995915794587563 -0.03102333262778270 -0.1124156260525160 4.336808689942018e-19 
0 0 0 0 0 0 0 0 0 0 0 
0 0 0 0 0 0 0 0 0 0 0 
0 0 0 0 0 0 0 0 0 0 0 
0 0 0 0 0 0 0 0 0 0 0 
0 0 0 0 0 0 0 0 0 0 0 
0 0 0 0 0 0 0 0 0 0 0 
0 0 0 0 0 0 0 0 0 0 0 
0.7170024512587346 -0.2018113488167077 -0.1974313693625416 -2.775557561562891e-17 -0.04200103920430390 -0.07388643552892714 2.775557561562891e-17 0 0 0 0 
0 0 0 0 0 0 0 0 0 0 0 
0 0 0 0 0 0 0 0 0 0 0 
0 0 0 0 0 0 0 0 0 0 0 
0 0 0 0 0 0 0 0 0 0 0 
-0.6671578342109868 -0.08689648783376541 -0.2070754149042898 1.116170961750771 -0.08129652204793320 0 0 0 0 0 0 
0 0 0 0 0 0 0 0 0 0 0 
0.3546850897634654 -0.1133147113298523 -0.8553840591571351 0.5977897018973740 -0.03175968173467185 -0.1716686312034885 -8.673617379884035e-18 -0.01901796775477022 0 0 -0.09996203536944119 
0.2482691237793955 0.03273470281050677 -0.1504329582162696 0.1428822420927426 -0.1051508252840600 -0.1271500585284142 -0.4027974147203334 0 -0.1450476497583526 -0.03299990143978845 0 
0.1830817514706697 -0.1140362256051866 -0.03531110792635891 0.1258348045539622 -0.2629755133480858 0.08456934734093972 -0.2023606776024181 0 -9.812029660993815e-18 -0.08699719148649351 0 
0 0 0 0 0 0 0 0 0 0 0 
0.7573058074736537 -0.2842630253068902 0.1201668053569829 -0.3591458036784335 -0.1351154800077419 -0.2982611140200889 -0.01215189837800587 0 0 -6.071532165918825e-18 0 
-0.3436365056130842 -0.2131018311831932 0.2628088961758586 -0.4947988365491591 -0.02470019168539126 0.6860781244125461 -6.938893903907228e-18 0 0 0 0 
0 0 0 0 0 0 0 0 0 0 0 
-0.04005220976840244 0.1300016056554978 -0.3500866081841204 0.1665357631075451 0.04248642261749969 0.2029768927693895 -1.051517122904134 -2.602085213965211e-18 -0.1996501834954652 -0.1109427204827675 0 
-0.5354226347365122 -0.08422708628311050 0.8492092184337673 -0.4970463447935123 -0.04780931798912252 -0.01247125440588035 0 0 0 0 0 
0.3246138573764154 0.1623681411928250 -0.3809192612736341 -0.1425424296531563 -0.2035032218230304 -0.02585113544773027 -0.2392245057840052 -0.02411811766901736 8.673617379884035e-19 -0.1135226442262331 0 
0 -0.03334802545476750 0.7680344054732099 -0.4147999317456175 0 -0.1248299657687348 0 0 0 -0.01360301972786588 0 
-0.08975273224688612 0.03102724576364311 0.02464797096989220 0.1522577348383040 0.03177121080160029 0.01570207428976826 -0.1226640178831180 -0.08202997557018747 -0.3118488562958568 0.1453971473797350 -0.1648913659272996 
0.08786983399910770 0.1481321669953300 -0.007800493378403123 0.02850211185393955 0.02978330898475435 0.01037517633441321 -0.1275233900240427 0.1485360014113958 0.1506263632603101 -0.2008766471897320 0.2072501802959023 
-0.2030723493919240 0.1368535885881237 0.03329021746535842 0.02778475352439384 0.1032318126172679 0.1344633464494551 -0.06358156892823778 -0.05639787590934299 0.1485024018000882 0.1329731008747976 -0.08215284183627806 
0.04510131283138669 -0.07488593568400843 -0.04430277031024052 0.1638380015606590 0.07862876508225841 -0.01308897718895468 -0.2137239857174518 0.1063857935259175 -0.04096425959013613 0.09084503815598576 0.1974753823728852 
0.1108546669333754 0.01704836231322231 0.03998549640036481 0.006790415904948029 0.02994106525204714 0.01074420042573973 -0.1774597899044325 0.1568098978628870 0.09695224447533592 -0.08476967563188503 0.4118019950454132 
-0.1088584181495124 0.1689670907322437 0.05097218660891798 0.002955627701936985 0.004108303795730019 0.008376600014229997 0.1140697764003420 -0.2306767846289600 0.04385879452799828 -0.1040038965328102 0.02764844010952484 
0 0 0 0 0 0 0 0 0 0 0 
-0.7206764196758892 0.3468098663669344 0.8312832114083117 -0.7253573691524450 -6.938893903907228e-18 0.5481273333111103 0 0 0 -8.673617379884035e-19 0 
-0.02537281566934485 -0.02775950154265388 -0.08894900750629096 0.05573790346007295 -0.001024952355916582 0.03207274598353227 0.1467931318389505 0.05885229929407773 -0.1118068754104374 -0.03372740865721830 -0.03921566700931278 
-0.1326995968582024 0.03904503359702762 -0.3462461003022719 0.01433468298107544 0.2968899277139768 0.07155528027781372 0.06624551545037630 -0.1518865295145492 -0.1161809142811500 0.01124150827832044 -0.2530096525204748 
-0.1588246952139721 -0.02023365444091544 -0.2928990173388862 0.08668359872407460 0.3187147448153754 0.01302397971850320 -0.04748238068155965 -0.1780317090343032 -0.1773012949816159 0.05625460830924277 0.2543034116900260 
-0.2108520610400537 -0.07654045572697045 -0.1222589570723247 0.01379341862375686 0.3150666403319671 -0.003767104611408157 -0.1045410616337235 0.004133001914088821 -0.1833192975624719 -0.08010431649235752 0.03341754154847694 
-0.2233435794846592 -0.06475232566693588 -0.2884623806725180 0.03136146729491712 0.4168973006241049 -0.1213587888343079 0.1694875420561496 0.03144443342570900 0.03819645585230178 0.03201949558928610 -0.09757347418418288 
-0.2463214092971248 -0.1301279881312470 -0.1188710816272840 -0.1255983782022072 0.4172959421119589 0.1889843345915317 -0.2250871860133865 -0.1008333796770048 0.1238128059602388 -0.1703674373023591 -0.3479572713724672 
-0.1911554218292770 -0.1301535877439672 -0.03174185305467740 -0.0009593890837336153 0.3611377333912198 0.04189299757417890 -0.3068124308769752 -0.03280913401560865 -0.07705418949531927 -0.1694371255486532 -3.469446951953614e-18 
0.1581956871762242 -0.08910196439654622 -0.6220209640938805 0.2256789865072758 0.02392724214913476 -0.03755644898650714 0.1726055240532295 -0.08899984919741893 -0.05067589871393584 -0.02907084116824331 -0.05839652473429075 
0.3817270705515599 0.6763737174946877 -0.6389188223930675 0.1354076149310616 -0.8886019627740354 -0.1315709339755396 9.540979117872439e-18 0 -0.009072080948188949 -0.03162441169095844 0 
0.5458824830671227 -0.5832420459546874 -0.7069612945982889 -0.2888803441866470 0.4482040531455453 0.1558192730058748 -0.3461488448095403 -0.01901796775477022 0 -0.04665945496989893 0 
0 0 0 0 0 0 0 0 0 0 0 
0 0 0 0 0 0 0 0 0 0 0 
0 0 0 0 0 0 0 0 0 0 0 
0.2998068726873701 -0.0008848667601309838 0.09166214182724322 -0.4943086088520579 0.04873321112474672 -0.007291636869525808 0.04949198484632662 -0.07530867806940436 -0.07742794368110059 -0.009238681433624243 -0.04588457250611335 
0.2156058173733762 0.1270603142480886 0.1082806236190932 -0.4473404928251486 -0.02385473269728015 -0.06473422793958280 0.1070611017477216 0.01101344598244498 0.01810859523280423 -0.02997679499858039 -0.09111749572662717 
0.1638326179693501 -0.08266863973311522 0.01041557312795472 -0.1779122186589562 0.0005897429803726274 0.03568258582642012 -0.1582010375374389 -0.3349806504658877 -0.2415676422283355 -0.1169775915875680 -0.2332285814647541 
0.07308112773288439 0.1293619170175846 0.1219719530907029 -0.3909463734969638 -0.02997399599314177 -0.01545610865228458 -0.07403872666069172 -0.01793971357173475 -0.1897162595142171 -0.04047193611430802 0.1837406412646235 
0.4037683273657861 0.05661042306333487 0.05895387221797444 -0.6636374180710333 0.08543662126411135 0.1003729068730028 0.09495248581673713 -0.08882637978340432 0.01069504136087572 -0.08699719148649353 -1.474514954580286e-17 
0.1557971025441825 0.1268616874023278 0.3201588910550557 -0.5723565585640256 -0.06061066723623720 0.03245210241190204 -0.08194287153459373 -6.938893903907228e-18 0.09518766306005713 -0.009198989086061251 -0.2003307209199616 
-0.5529702063919602 0.1745134184921408 0.6490567178898861 -0.2078233356137544 -0.1266134965156335 0.1531953686740677 -0.4315077161523221 -3.469446951953614e-18 -0.03984904214035628 -0.02247116423646879 -0.08239524022007766 
0.3945633375662045 -0.7790066991058753 -0.1731781739913006 0.1093857044400662 -0.09624271232856298 -0.2000684645543215 -0.1275485429811645 0 -0.01691348329574944 2.602085213965211e-18 0 
0.4401022669187084 0.2162290407730165 -0.4045122269802218 -0.3576391233537985 -0.2457306102856399 0.1986428091731984 -5.898059818321144e-17 -0.02995915794587563 -0.01011134296412462 -0.1124156260525159 0 
0 0 0 0 0 0 0 0 0 0 0 
0 0 0 0 0 0 0 0 0 0 0 
0 0 0 0 0 0 0 0 0 0 0 
0.1842802267337574 0.01327876145535581 -0.06635640482050191 -0.03313612408527440 -0.007379918761698629 -0.07110237413654360 0.01956007973266254 -0.1066362193698468 0.02113363677493376 -0.07519337255440220 -0.07834233738312306 
0.8024586282820578 -0.02149186213895631 -0.3660051834156621 -0.3032468104095479 -0.01320719800646244 -0.2147648556669603 0.3393377631728050 -0.2212607109213139 -0.07604380741860345 -0.1145576443218076 -0.2768172325237071 
-0.1505760011646119 0.01445377239758433 0.2220043884461894 -0.06651227843981450 -0.08281005604896390 -0.08817475408703582 -0.1035832708862899 -0.2623594211088258 -0.1851210701143017 -0.03314622886719492 -0.05459233415003609 
0.1779325125788993 -0.04527384675937161 -0.2549864401741199 -0.03801615464215841 -0.1979227374233240 0.1425317537238957 -0.3157777613764464 -0.1148197335054946 -0.05653948089835574 -0.1205248559984201 -0.1932699380045340 
0.08392595338062223 0.04443306259446535 -0.07704578085007230 -0.1745932492639081 -0.03663375586868737 -0.07919516570382372 -0.09418548694049296 0.1634919147868021 -0.07980975593420464 0.1543913836051026 -0.06542857072505422 
-0.02186231545408040 -0.03905834679513247 0.01536233304838419 0.08583214912254666 -0.1406950644027987 -0.09148258311856683 -0.04047755362457400 -0.4703445022941320 -0.07890197311412432 -0.01061739879444824 -0.04841997974168921 
0.1139400440048045 -0.08405382576395608 -0.04636293145784765 -0.03987531928282539 -0.06764288041039374 -0.07569520597288437 -0.1163927071941509 -0.2947889452148541 0.09403849373483535 -0.2586383124664025 0.09821159582648217 
-0.09533691874992051 -0.1920151269528910 -0.008019054097512360 -0.09320071066087570 0.1112507764835776 -0.04098579008248418 0.1070237452632986 0.2521057994151528 -0.05857839917471308 -0.1864250255825228 -0.3854932546860809 
-0.1854147975241019 -0.07721895969025556 0.08584397805763316 0.1493235609096372 -0.03381292201666555 -0.08233025312733697 -0.05834028769676787 0.1907137540674910 -0.08668222866927994 0.02721246310826501 0.1797765119080046 
-0.08767558197345601 -0.1279951668245108 -0.08868436947220235 0.1521307399964418 0.01391347708334699 -0.08869483998572442 0.07540387998640648 -0.2942856742105883 -0.2340288240010469 -0.1008722342572964 -0.2915997203518190 
0.04064779723734288 -0.2044074632859697 0.1096753167118631 -0.01416189612683944 -0.1608950945390310 -0.01181529544215631 -0.4610144287550408 -0.1264211204123670 -0.1030771017515822 -0.1733403414432356 -0.1414139636853814 
-0.004392215160320904 -0.01766011128572152 -0.1628322549099972 0.05123732915370875 -0.02602085706862842 -0.04623597722237179 -0.1201771210473337 0.04179692290025765 0.05818988624639762 -0.04496483690092536 0.1663774465606610 
0.002245113864571969 -0.1204235784931045 0.03461050455335242 -0.009779253265924109 -0.005358080584233092 -0.03764498090515993 -0.07131721213813734 -0.05453912955362532 -0.2499225000507793 -0.005983374870461340 -0.02846806898707051 
0.1091683938425882 0.01572263417191713 0.002589097441932280 -0.2161432843689386 -0.08084097800621433 -0.003997650190111476 -0.03908507882027484 -0.06712309011005280 -0.06337705871449457 -0.1726673233936710 -0.07122123655216370 
0.01161177033079095 0.1847455219827854 -0.04902240766699706 -0.2796663259157723 -0.1512034894167108 -0.04910061588194745 0.04226576697226180 0.03889260733927635 0.1254507550312191 0.09062900550101553 -0.3397367310272868 
-0.1489968010699064 -0.1087151072349453 0.09046060631470333 0.1393406882699256 -0.03786161715579633 -0.07784263874076826 -0.04780912865330919 -0.07432164980676077 0.01517042907014062 -0.02054886963104676 0.2368463044701532 
-0.1784142050348896 -0.03700965021130319 -0.05327583965685045 0.2668334622446319 -0.1383458682305878 -0.1043213100197167 -0.09002832782218198 0.03710511269473567 -0.1009052426846381 0.02411215486884963 -0.1005791706559814 
-0.04632491544229985 -0.04310312412397968 0.009546543601722310 -0.04313379954556567 -0.005161142146388498 -0.05705856716771830 -0.04951638730201113 0.09244763676528632 -0.04301440009496566 -0.1293389212616442 -0.01340629146679790 
-0.06901473612838165 -0.04642191004564155 0.1971983391886812 -0.2423662088128303 -0.09916001977084667 0.006030189867407826 0.04133567437957314 -0.3004795658241557 -0.03764301997193833 -0.1669744337254832 -0.2611345577359623 
-0.004590446429231292 -0.1232495926447146 -0.01519449951798614 -0.04468905031260801 -0.09130435745661607 0.009776794314502032 0.1149300674031903 0.1059385548720658 -0.1147293978661119 -0.002821569365742106 0.08937461981672837 
0.2179433330080960 -0.07232892772596054 -0.1026902115968843 -0.03942327047824452 -0.06788951361074916 -0.1863442702817905 -0.2309679699631005 0.002186628637869188 -0.007639014428141022 0.03909776969814147 0.04609093599376249 
-0.02848687543471384 0.04620041731626600 -0.005131210806651734 -0.1739772473314864 -0.04051934999489074 0.1323582129066270 -0.08154555337414485 -0.2782456840201293 -0.1610442683593781 0.08051082885023413 0.1723130240586047 
0.03149632253303376 -0.1028204835342206 -0.09365662823938095 0.09971411197871344 -0.005886388477185846 -0.1157730479875461 -0.3259408257767491 -0.1949538169795342 0.01338092923502628 -0.2723338040599755 -0.4018745295832628 
-0.2604460586427952 -0.05773669514419206 0.2868813144681575 -0.06849903315112685 0.007282679273805747 -0.06240069357475454 -0.1450163833990585 -0.1242374282233489 -0.1205703699650264 -0.09730099466641602 0.007956313900474830 
-0.05960844351157243 0.03456937397884051 -0.1529986756579894 0.09690417887968572 0.02107767721281483 -0.01607045970728788 -0.1732429432201357 -0.1279113351098697 -0.06181309033515935 -0.06375065002750442 -0.1074906418971200 
0.06967157521233375 -0.2837651288395719 -0.2582970366607220 0.1699168095270382 -0.1831914872986935 -0.01451303767097999 -0.06080643555061210 0.05414831406487647 -0.01135008365001788 -0.09108594888022672 -0.1252810932053151 
0.1167973376753372 -0.04915663289338427 0.09610021891334330 -0.2096672666695448 -0.05809687785023327 -0.06607215366357326 -0.001589843646536535 0.1490872994856417 0.01497034038937282 -0.08582989494068748 0.1245178737786735 
0.09105632062139843 -0.06413302799697673 -0.3561056657818669 0.1712209523949966 -0.03184625753623341 -0.02118382217710081 -0.04680224278896383 -0.2524683057657031 0.03531401170728057 -0.06259036501395540 -0.2238374671136185 
0.1395281085751072 -0.03069526806706643 -0.007769430896146921 -0.1279073704144334 -0.03055158809645518 -0.06926087026791580 -0.1476989680281857 0.1005012990473488 -0.1711872378902154 -0.1144525643232868 0.2831067808754234 
-0.1743903628581939 0.07218410799280171 0.3289857685878854 -0.2090102728240162 -0.1729407853922647 -0.06583096130663148 -0.04657650582193488 -0.3351209773528047 -0.1369579844263814 0.08726244285645673 -0.4281877359114281 
-0.06570975353437442 -0.02825859453098921 0.09074912452828165 -0.3443620534989219 -0.05287393105194079 0.1276944123575583 0.02245771470311855 -0.2266817372414559 -0.1118226999193684 -0.1709070691109606 -0.2953421723488068 
-0.06710319974562623 -0.03617104919422724 -0.02989736277619972 0.1534364177227728 -0.2288126695172581 -0.1758091927673428 -0.04590772374325539 -0.1987829999186268 -0.03044465949627990 -0.1390623548629425 -0.09590659124941600 
0.1524326859839010 -0.1775586896723204 -0.2694843878000262 -0.003615505717508766 -0.02182451378926026 -0.09997983773635148 -0.6004937597158737 -0.1037071435982108 -0.2105729087742820 -0.02923366305149406 -0.001048599926812256 
-0.09701125563228953 -0.1367449375720365 0.1454291190206023 0.01749913923626326 -0.1447555253287992 -0.1672373802221023 0.002210446300584700 -0.006829253095566619 -0.09875414598021715 -0.08854488797022497 -0.07691860604787404 
0.3278475242552900 0.03424010186030693 -0.3753589045411596 -0.1650148181335733 -0.1200657889778811 0.0008120220480386147 -0.3132840592766468 0.2104842402821780 -0.2425095825530159 -0.1574229152410713 0.02552254834572798 
-0.2154049348353479 -0.2835899056503675 0.2676565469947141 -0.05602611410822827 -0.05329924872555272 -0.1284772160012677 -0.1332636850182299 -0.3355998281309254 -0.07029952924458817 0.02700455703374926 -0.4900861406611290 
-0.002871748621684267 -0.1562801340416357 0.2870291100686692 -0.1551869972157887 -0.2570519876751813 -0.1642214148488334 -0.1468993797097229 -0.1963495610995137 -0.1684992142869985 -0.1371372291294450 0.3306001990240475 
-0.1869623637266511 0.02689666686214214 -0.2425302595495710 0.1991859272002070 -0.01784961430864577 -0.02344538956617490 -0.02828619845082326 -0.2145359849055988 0.02971391191445841 -0.1601923876588534 -0.3352525762815706 
-0.07739152292838511 -0.3787332709695891 -0.06320350702734129 -0.1770420022573857 -0.4482666396872787 -0.3153319983682655 -0.6217333224553966 -0.5360011338538719 -0.4515944141701502 -0.4277479749956098 -0.4692159695729189 
-0.07739152292838511 -0.3787332709695891 -0.06320350702734129 -0.1770420022573857 -0.4482666396872787 -0.3153319983682655 -0.6217333224553966 -0.5360011338538719 -0.4515944141701502 -0.4277479749956098 -0.4692159695729189 
0.01529331902437979 0.007837759688743416 -0.1042008720569703 -0.1120856898811193 0.005137204758442191 0.1099703283731064 0.1934005593172717 -0.03548567151169636 0.08248111177715889 -0.02108515660496697 -0.2204174509125065 
0.006489055926783945 -0.01473609282021945 -0.01486868947404879 -0.04819577608317147 -0.04095940511253116 0.08957749008134054 -0.01141530677036815 -0.03796385197355537 -0.02993834045143188 -0.03793014153854294 0.06630638247088719 
-0.09138689588314763 0.04035658306488200 0.004454178881121942 0.003571377428057103 -0.003216511563613754 0.04899676500031823 0.1046638196201742 0.09970751604667505 0.02675644982924671 0.1225883890958875 -0.1604094430034420 
0.09864802896517331 -0.1358087876355600 -0.8123832349487277 0.2995768658607145 -0.08824588790151619 0.3579395472741996 0.01149007086388897 -0.07891667877767876 -0.08897219341141369 -0.06672477195432323 -0.1449876564095720 
-0.3342666652102491 0.01589525294833528 0.3436433126790816 -0.4313868377131001 -0.09219636172108940 0.2534412708399433 -0.5430582812432618 -0.06478158262669836 0.2089734797493369 -0.08815291937718907 0.3061335057525551 
0.005849402125525905 0.1356540281042888 -0.3276897405730826 -0.1017107150849329 -0.04718666675639585 0.06629549822667147 -0.1387869081906476 0.5430279202448660 -0.1716558076917033 0.02482193035606986 -0.1105094736279192 
-0.2012439735403719 0.05980588676790935 -0.4335670859530308 0.4215617304555490 -0.09218522602670892 -0.07108800827320781 -0.1496625590381282 -0.07216272180405013 0.1215933892733104 0.04936534555705698 -0.1187909720588159 
0.06699182034576283 -0.01119528991401003 0.08667803348836642 -0.1104411394141852 0.07103191897416620 -0.2697945816214766 -0.09399629008364600 0 6.938893903907228e-18 -0.001214407044327048 -0.01337016634556202 
-0.08620367781665320 -0.1115298161395026 -0.7372080614227399 -0.2206896131470839 0.4402605425163264 0.3395186995454940 0.3284927017862276 -0.03968345426181649 0.1629898408278304 0.2097664637705569 -0.06643399113524238 
-0.06835029505333093 -0.03711107738236294 -0.1677006660854725 -0.003674690553063517 0.07856659728004309 -0.03535140952529901 0.3266172955894695 0.1721765039893820 0.1389470460313076 0.1182630940574845 -0.2005378165319922 
0.05102371453130176 -0.009118917411935863 -0.5205632192871491 -0.04094580073056081 0.01666511027567510 0.06200047335405305 0.4583831943097478 0.1593133343751832 0.09881900138164660 0.04781582684575440 0.1001610523434712 
-0.08040560993624869 -0.03517714675549900 0.1778077257039820 -0.8118894517638465 0.004033342778761649 0.4482969677259767 -0.3511416435303201 0.5659556779997340 -0.06697069531989149 0 0.6493200496937711 
0.06164348820931163 -0.1625976580794398 -0.5932356907739895 0.2931109758916924 0.0002560160806470146 0.1779455529177315 0.2917164492876525 -0.1630711367116985 0.1941808786484018 0.2112731664749508 -0.1986036497836876 
-0.1504135249406533 -0.3706404704582397 0.6807851021075558 -0.9414685849522579 -0.1728993428431750 0.1592040904201469 0.2023417857210771 -0.1532896537570047 5.204170427930421e-18 -0.1372285369980925 0.6385125379577495 
0.02642871327452442 -0.07276665845588090 -0.03507120614479925 0.1212954448292019 -0.04599136977191359 -0.008563505766281843 0.03733641172914783 -0.2506942904028165 -0.1783094029680983 0.06294446949123485 0.07664264495240533 
-0.06760900016398622 1.003604292251379 -0.4046090843169644 -0.5544799160540721 -0.1654457369584994 0.01431917496838723 -0.06241297271414441 0.06577502106332277 -0.02765880270295922 -0.07560637856789151 0.1138207101086252 
0 0 0 0 0 0 0 0 0 0 0 
-0.3833006337658233 -0.2403396954776091 -0.5134649749331383 0.5627114497764580 -0.1403855455728295 0.1658768905961073 -6.938893903907228e-18 -0.009085800815479092 -0.01209638024529733 -0.001847844826024577 0 
1.141766547799857 -0.02027960420151439 -0.6732640414275418 -0.3809027882573681 -0.1299579533702204 -0.009928457227802896 0 0 0 0 0 
0 0 1.211830758368635 -0.9453414340755330 -0.04074388055106346 -0.06719915425586796 0 0 0 0 0 
-0.6578009499599214 -0.06813890091031348 -0.3870990249927889 0.2466395171914294 -0.4299182505583883 0.4297155734196893 -0.5024179012074673 -0.09964574999600914 1.387778780781446e-17 -0.08910557996643909 -0.08000191362450057 
0 0 0 0 0 0 0 0 0 0 0 
0.08776184501340756 0.07157393739047913 -0.2896094216265829 -0.2915628272143496 0.1877432672214135 0.2242187543277870 -1.734723475976807e-18 0 -0.1026634982058526 -0.09709043313067205 -0.09968281225180295 
-0.1297991330129778 -0.3117676193163069 -0.5729130271735328 -0.5530766632119312 1.053286635676703 -0.01155112803783464 -0.07399561180007973 -5.204170427930421e-18 0.3127477594634073 -0.05176883695751525 -0.08836810980972123 
-0.04938638283328959 0.01070422844518110 0.1018633872170113 -0.1097172751248927 0.03740807553741316 0.03997558541325870 0.04077513376418014 -0.02857374008535644 0.02089454934192928 -0.07562293081773537 -0.2699812840485277 
-0.1580999832518322 0.01064374213348812 -0.1801862360810120 0.1950020699193565 0.04154935762672843 0.1036463919632476 -0.01368232327928587 -0.006298197738538278 -0.04545448983748927 0.06689779334438803 -0.02102805105328340 
0.08493389286257895 0.03007924381658850 0.1855276402845298 -0.1300654755118753 -0.007692075672991194 -0.1432672083278286 -0.2646820958377263 -0.06930948025817377 0.09886141631967492 -0.05753114332259034 -0.1373646562874321 
-0.1249634042624493 -0.05116363449355157 -0.5145330403729599 0.5258337911676544 0.002110455188037858 -0.03778969304284172 -0.05775119207241983 -0.1688019035243440 -0.2912252730874575 0.06083932924397309 -0.1341514826656926 
0 0 0 0 0 0 0 0 0 0 0 
0 0 0 0 0 0 0 0 0 0 0 
-0.5382082453401660 -0.08046187620922012 -0.4823853764123216 0.6428029588043044 0.4088540764942903 -0.1066050335007948 -0.2778564002244455 0 0 0 0 
-0.4206041340663185 -0.1303607748141573 0.06766955139062306 0.2639036668716212 -0.4766333324525885 -0.2297432461215654 0.8847460599434830 6.938893903907228e-18 -0.03485633377739017 -0.03151827332795146 -0.2224847423563831 
-0.05050056779761505 -0.2373310133167682 0.4413709438933014 -0.2839743141511024 0.07580525806594954 0.1790245692632479 -0.2803421537754118 0 -1.040834085586084e-17 -0.02628958162036972 -0.01057908402050851 
-0.01669849377965367 0.07047904656176760 0.02575571405487828 -0.08444099727932822 0.005053700909576259 0.03733739490264607 -0.03608028564302127 -0.2888392297431141 -0.03044575091136761 0.02617878142293498 -0.01304142896122227 
0.09275973285214506 0.09072313831659128 -0.04281840778014014 -0.1145102970405764 0.03945269854115067 -0.01361548165518748 -0.2475771106277865 -0.4949969578302360 0.07556900533945111 -0.4508518650932014 0.2844805523444353 
-0.8625683459079116 0.08515966841954672 -0.2649257580664195 0.05546834034341996 -0.007173690322861401 0.4761117555208488 0.1762011224192101 -0.07706309856093438 -0.2970188845183940 -0.1000281721679297 -0.2941269396523089 
0.06307843980068532 0.1219639731830731 0.02515983879746355 -0.1050140352286881 -0.05623523656810755 0.1176182920990327 -0.08878060850629618 -0.1298214551752570 0.05319582544374166 -0.2671115995275138 0.2597915271014940 
-0.4057656695157343 0.0002941006780431254 -0.3152317148138631 0.2553927423913991 -0.3520755539155114 -0.02870798166975893 0.4900082112667362 -0.07127244267665540 -0.1015835366521483 -0.08838062178859374 0.3984363123307324 
-0.1252501058926214 -0.4167828676387823 0.4185182140486639 -0.1591963527248010 -0.008458217838679803 -0.1801256201777172 -0.006563690591513296 0.01363546721915036 -0.1264631252364321 0.01276434618342431 -0.1222346484737846 
0.2197594772530969 0.3558905033846948 -0.3069422091722723 -0.06961103166644030 0.01411821380670301 -0.1994666601856761 -0.5550195290540140 -0.1217041392367031 0.2671941435073287 0.1591508886889143 -0.1425231974770734 
-0.1940154107331218 0.01437551250898628 0.1008232651288104 0.2663292661878365 0.03340174290566653 -0.2244323737084881 -0.1730425176349862 -0.1738966765442506 -0.1809566903338875 -0.1303101144403250 -0.1280568474908712 
-0.07133822605051017 -0.2576251610154950 -0.6575215610359999 0.3890500419648609 0.2334157602699122 0.04609805899093288 -0.2775440674388251 -0.02198529453693205 -0.05984447072365003 -0.05254120731354332 -0.06261236835202573 
-0.6336215060693076 -0.05811854876249068 -0.1343387349652479 0.08171598498499659 -0.1456706665349406 0.1179825480356994 0.07447706448173722 0 -0.05049972908269763 -0.2148032655166665 0 
0 0 0 0 0 0 0 0 0 0 0 
-0.1788514248636044 0.2664235496377703 -0.03969158015649506 0.09499815835303604 -0.1532680210431102 0.1254528951175107 -0.4963656737473206 -0.2080846896437087 -0.1097194427449624 0.1050520339844175 -0.03070485540885273 
-0.4434124464138354 -0.05156411265193433 -0.4980174016584638 0.5213748179485170 -0.1618492146954509 -0.05775965268367798 0.5428445490995845 0 0 0 0 
-0.1484477190279686 -0.1038052262925240 0.5866098012535497 -0.1549944555010007 -0.05679133571878745 -0.2032806000534366 -0.1336892369897984 -0.008755335547822452 -0.05359942065249859 0.02851717857347956 -0.05583263715222714 
-0.7506494991237607 -0.1239145858659594 0.4701741784526161 0.2702665931504559 -0.2697040721199610 -0.3989244248009524 0.1237276185022515 -0.01155030489569915 -0.08083561328757431 -0.04535402607332566 0 
-0.5595529834725108 -0.2573148308391621 0.4482096026676847 -0.06262321266158112 0.04175052865257616 -0.3255292805265630 0.2559692755897821 -0.1093208993088932 -0.1350817528692975 -0.09465795202680362 0.3881190083646825 
-0.6540778352970319 0 0 -0.2455889227707954 1.407728204575031 -0.09906773311015542 -0.3644981453648325 0 -0.02063559472680454 0 0 
-0.6675034687841686 0.1288687604469951 0.6048153756973191 -0.3384331095338852 -0.4549860266190970 0.3031006943597514 -0.8125745450022943 0 0 8.673617379884035e-19 0 
0.1316805323405590 -0.04963028808087665 -0.02536258726334055 0.06365881649307194 -0.03010836070203565 0.04892543824229814 -0.9112495435047266 0 -0.09328337977225139 -0.08218778876569968 -0.03653391131158693 
-0.02443556397631821 -0.1901762372617942 -0.1607074217618158 -0.06692260426294204 0.2080066846510177 0.1379868596616984 -0.02597995674190994 -0.04448295134682998 -0.04889893191311763 -0.07743399515123953 0 
-0.3093333870163916 0.2203614692489594 -0.2632958665105250 0.1768561871298009 0.04815899615325145 0.02805385175805024 -0.1026314514336555 -0.2281389460236712 -0.1429328099972863 -0.1119396437042164 -0.02377448941582138 
0.2174948283785842 -0.1148669654909559 -0.08805416107437650 -0.02747181922170265 -0.08257982874205044 -0.05603727809265279 -0.2163810749407336 -0.09074457994701810 -0.1142013188166050 -0.1361282161487399 -0.05752364664812367 
-0.3021428448280597 0.3938302832881526 0.4319206292149966 -0.5202654002169845 -0.09413713201791812 0.05124976737273761 0.07964637025891588 -1.734723475976807e-18 -0.04854612013402103 -0.1893093963141029 -0.07569757884287036 
-0.4620824966933396 -0.003087083398269642 -0.7711899870808496 0.7859581946031504 -0.7350387804733715 0.4057315907768788 0.3137821958161992 1.734723475976807e-18 0 -6.938893903907228e-18 0 
0 0 0 0 0 0 0 0 0 0 0 
-0.3973815603688499 -0.05554846189819213 0.1026504872687377 0.3456566995372413 -0.07097125465429609 -0.4757279544286232 0.06204978222506051 -0.2055000441854743 -0.1588069849771512 -0.1839764223322413 -0.2598779685366531 
-0.1203326781531937 0.2684775322416827 -0.02347909338268859 -0.04622620486292075 -0.02816111600776157 0.08421815295604340 -0.04741640280305225 -0.2814016907588210 -0.2003879835066508 -0.1999576312339142 -0.5100506581209083 
-0.08777901432491983 0.1782984842267615 0.1257420631693449 -0.2192945564500402 -0.5892383486956173 0.1858735902926618 0.2951426785038765 0 -0.03030016344882984 -0.1315560507424173 8.673617379884035e-19 
0 0 0 0 0 0 0 0 0 0 0 
0 0 0 0 0 0 0 0 0 0 0 
0 0 0 0 0 0 0 0 0 0 0 
0 0 0 0 0 0 0 0 0 0 0 
0 0 0 0 0 0 0 0 0 0 0 
0 0 0 0 0 0 0 0 0 0 0 
-0.04326284334803186 0.1271385000661244 -0.1556094588665077 -0.08198573734868272 0.06932306254539553 0.08539399289950858 0.1060936535012411 -0.01155030489569912 -0.1205098446615971 0.08500160080261920 -0.1007000076480331 
-0.09002932917077996 0.005221519009329992 0.1338140687929819 -0.03794494132379148 0.04215694596791025 -0.07533438117117186 0.01654941008217860 -0.2447218289871672 -0.2386380296443777 -0.2747951112691305 -0.1793684502989085 
0.2069155573532051 0.3563976766419282 0.3884373777563848 -0.03133948887732567 -0.2562851184843697 -0.2238800746459610 -0.1714131148087108 -1.908195823574488e-17 -0.1745790335773249 -0.4215939500640777 -0.08625349219688211 
-0.2514136261463261 -0.1362880102672782 -0.2313335959053396 0.4142959454222431 0.1061370338668194 -0.03239726700990705 -0.3338436707926421 -8.673617379884035e-18 -0.2789391220099544 -0.3086811478774305 -0.08625349219688214 
0.007965572009996038 -0.06536849094049998 -0.05436738899685792 0.01377684614953845 -0.009727660461531671 0.005875216308420467 0.1163516106993810 -0.2867222222480502 0.1260136949048882 0.04291787269285764 -0.09847799575415836 
0.4039975967447019 -0.1597769054300999 -0.02125095914413300 -0.3363838275486932 0.5758971196760580 -0.3983866914514178 -0.4262932935769710 0 0 3.469446951953614e-18 0 
0.2070073659031801 -0.2984168058027269 -0.2575223011327213 0.1795240310722851 -0.08136551367893251 0.007953300964940976 0.03671625021227637 -0.2509597751051848 0.01639360684380210 -0.3348820280863383 0.1217448151281922 
-0.3939764290320122 -0.1638931750162919 -0.09095994009572655 -0.04039882773029617 0.03459851438099410 0.2228002098386194 0.3134037426097173 -6.071532165918825e-17 0.2109622301695966 0.5737882901508624 -0.09492572090402693 
-0.08418781217119747 -0.1421149403087173 0.08180128229540168 0.008643189124544095 0.002960392081370725 -0.04639798251623212 0.06456984132676030 0.1237423872619325 -0.01671676867969104 0.02485008215988574 -0.1355925221605154 
0.08291211578751934 0.0007050568073849041 0.02377760034777746 -0.1014876289609359 0.0005540837712705729 0.02344462380032918 -0.09547489734677021 -0.2273359321088524 0.03786611574211164 0.06327656044315329 0.05351691134035638 
0.09704040084821298 -0.2533857176110811 -0.2859688548122037 -0.07484435123746130 0.4407354807761923 0.05874838926974135 -0.8242530782797540 0 -0.03690968610519345 -0.03151827332795144 -0.3153873733045201 
-0.07757902342623980 -0.1480230914018845 0.05113754460689471 0.08631498807816415 0.1821706759404935 -0.4089835615333223 0.06922921156983619 -0.01155030489569915 -0.08083561328757426 -0.07580639732006941 0 
-0.08956345506364456 0.09741636021878838 -0.06742833056335290 0.1313593938294656 -0.01824216629705121 -0.04141368649252500 0.2114382565324019 -6.938893903907228e-18 -0.2382747177209827 -0.2148032655166664 -0.2541438379206035 
-0.1351673581572951 -0.3700310123254352 0.3418352359728258 -0.01959162628255488 0.03377164525768275 -0.1417600975055349 -0.1623597008608941 0 -0.08817685876410987 -0.05878448909904025 -0.2136575411035211 
-0.2999633133378207 -0.09695499029534076 -0.2768244001861756 -0.1793400602744771 -0.08473074551994061 0.1634225729445188 0.8313675386759272 -0.3602879839173790 -0.02761797666961516 -0.1010058305549295 -0.04230594990272994 
