solver_type L2R_LR_DUAL
nr_class 6
label 1 5 6 2 4 3
nr_feature 299
bias 1.000000000000000
w
0.1793972439053860 0.5314310755743127 -0.1444363689299540 0.3941029017381496 0.4879097548587211 0.3466350318791619 
0.3520984323819910 0.4848023948093386 0.02179947694815545 0.04919632464063497 0.5943503004254819 0.5242345378752763 
-0.1322666117449696 0.3090209788647070 -0.1310110041368293 0.8012618678659024 -0.4642555101291860 0.06019427953807999 
1.684358574076746 1.066602650013282 -0.2397469691728453 -0.3305228998755182 0.9405182237243778 0.7811323268667733 
-0.06194557567997222 0.7385013819783539 -0.1602024726548442 0.6072439204769501 1.083121396990409 0.8851535893406309 
0.1697520762335722 -0.2124432387421588 -0.2177258227537994 -0.2977093592260531 -0.6720621726766876 -0.2708699709782727 
-0.3243148948712486 -0.4923824864910060 0.2731227670773933 -0.3441066759351068 -0.5958304302280569 -0.5375952622284697 
0.3334970779321963 0.2551399015109566 -0.03331850653281202 0.2865578882441850 0.2903045290776700 0.3237471442400730 
0.2970456861131907 -0.5333823130724860 0.5524919011577930 -0.5195229851662118 0.3718029992178580 0.03920565933708425 
-0.8181224823498802 -0.3869168736050113 0.5870406043307258 -0.07362375185201547 0.2320108434394141 -0.1490596139784361 
0.5084150001092680 -0.4307357500028798 0.3405197734676128 -0.6132616364142855 0.1013795428840998 -0.2170409043003599 
0.3507396252762081 0.2455182047192085 0.03117831803003971 0.4206878972806198 0.6316649884254295 0.3524931330026587 
-0.2387482499452175 0.6111589322674850 0.4302007873277762 0.09039552372417656 0.2076929669059005 0.2365265347241313 
0.1811660150045802 0.5578331334774917 -0.03366214580273790 0.7473792644472889 1.069214706713360 0.6310142705897814 
0.4396088466789238 0.2569962666502225 -0.1064163438087175 0.3850616102366969 0.06104134315840907 0.3120924388337182 
0.3962507934665185 0.2382564022369849 0.2257286403679108 -0.2252394966132153 0.2203788476232205 0.2602435390673755 
-0.8149134450258733 -0.5706625788308414 0.6603012379273151 -0.1352376790954859 -0.1438720369003911 -0.1785233152831591 
-0.5368637886723410 -0.4822913554879271 -0.07032536786514403 -0.7860697805370195 -0.5952698526144811 -0.6944514152222403 
-0.2260395805888193 -0.9896011929157112 0.08938130455702915 -0.4327394340004775 -0.6319902223471681 -0.3938113655763627 
0.3326202062844674 0.4615230198117851 0.03261271088447004 0.08023311399110110 -0.05161159848804916 0.1267503362638669 
0.5480527833401564 0.09381640194787527 -0.5679447191560042 -0.2389626587325903 0.5887137951311940 0.02873615457898614 
0.3307318003295108 0.5352743040563925 -0.1864221476726276 -0.04060018716500608 0.1021521573496413 0.007935803853474697 
0.3633407935443879 0.003530475450965282 -0.1678705194423650 0.2263167784494939 0.6299993517034531 0.4740675262105998 
-0.5184812159202161 -0.3182836075679338 0.2041565164283178 -0.1180963854945944 -0.3351502283849079 -0.2042520017158543 
0.4700119750261400 0.4851708650012050 -0.02099458366789440 -0.06144127587517020 0.2688906211221334 0.3871754502088929 
-0.3899452253126987 0.2476709867255806 -0.1228275349665330 0.6310958870392493 -0.2184347837760584 0.04482062794300901 
-0.3127653570280263 -0.4861479911956205 0.9363108017371284 -0.9907532507432159 -0.4160578397107855 -0.4642063090852904 
-0.5998886190308891 -0.4530250739435278 -0.03140985831973461 -0.02438416952232781 -0.6512840964714237 -0.6070859990419440 
0.4214678580940180 0.5594876349985307 -0.6411939378003912 0.2234327490990998 -0.1952153514018487 0.005514993710360141 
0.3725542247566827 0.06694554127704310 -0.07570629245072565 -0.3854090857007511 0.2212852105401652 -0.08859034522907763 
-0.4095294819868560 0.2558436379858368 -0.4174494286875264 0.5732552042230652 -0.5342230078271233 -0.2035063491225879 
-0.2620512467809023 0.1751435597981498 0.5138941544259394 -0.4701467691804965 -0.2078332710373644 0.008928084325316629 
0.6355408351213984 0.05632292802203835 -0.5645218034676124 0.2562693278608227 -0.3301097126759390 0.005362773673134257 
0.02324669266202246 0.07631135604808734 -0.2457578013387246 0.1969656108372767 0.02107843918487008 0.02552367747307600 
-0.005633539696715715 -0.2043694579547220 0.4499129249765706 -0.3917124894549622 -0.2470912214618735 -0.2504690295954777 
0.4266092855499805 -0.3632914983511080 -0.2347190504078236 0.06841702796874687 -0.02229373697045283 -0.2726443172748814 
-0.3035071946461533 0.4836252338676421 -0.05229461185916270 0.6793260932444078 0.3075653549559799 0.08680987750459274 
-0.1704183548391599 0.07940004026028614 0.02844535704608729 0.1777329488709663 0.2199308745067864 0.2365379241650389 
0.4575881146064071 0.7557880412234036 -0.2882920392538559 0.04578687470408112 0.4062242350263353 0.5303183256346092 
-0.06414932036164510 0.2470497564495963 0.5807929443979485 0.4502792695112261 0.2952539712016474 0.2741467121554443 
-0.2461181499157346 0.3785249165726284 -0.2249730192656209 0.9672847758347021 -0.1703972534445081 0.1825452071872799 
-0.7782234344362393 -0.06064727242917601 0.3487499365811677 0.1033624196014247 0.02094756937075098 -0.02808735310279555 
0.5106537150287468 -0.09256890216271430 -0.3079365297439639 -0.4043199950103076 -0.2568754865150816 0.006154981054526564 
-0.5419855567986656 0.05955208614107418 0.3593109669871331 -0.2473209470434122 -0.06648135676112570 -0.2833341272008313 
0.2055175471264142 -0.2162835850050528 -0.1968426176607830 -0.7090413702424004 -0.4182153887975177 -0.4620591333287689 
-0.5501935822332754 0.2956072563133995 0.4034619843150539 0.7590937467470041 0.2403115793051673 0.3401142524493019 
0.02405007326494258 -0.4268700192740685 -0.6682207429651031 0.9031409123062055 0.1616765394370950 0.07911602137345083 
0.3274631021314439 -0.5556819110587031 -0.5585488365002231 0.04132776323991352 -0.5063799226787794 -0.2868502469345901 
-0.5358205513945536 -0.9828664269131973 -0.2850650393924196 -0.4627113478297701 -0.8359970461127348 -1.062304043352034 
-0.1582709666645880 -0.6405668223504252 -0.3251953995255373 0.2147290570208358 0.01264739507755594 -0.3298481024335971 
0.5603058689765327 0.2267418229268317 0.1116317853149710 -0.8636788668188682 -0.3447519158491610 -0.1219300948847337 
0.6001878529809367 -0.1435401887779396 -0.1165803116290391 -0.2626737430417974 0.2445114591333088 0.2714312728044678 
-0.3249878308418254 -0.4951799143621755 0.5518666397527282 0.1831451907509293 -0.1309889881669674 -0.1849707901919813 
-1.043434608193337 -0.2607421452139861 0.1872475069921556 0.8390465082029903 -0.4833770117287003 -0.1231081254680707 
-0.05562175883276015 0.4938845947163096 0.3126036211609308 -0.1148976348022406 -0.2635154404720635 0.1951434816215991 
-1.020459992846177 -0.2561856658131385 0.9651687445711773 -0.2164080158735103 -0.2699805383148213 -0.2663481392538570 
-0.1976464628961551 -0.4085736300777851 0.7290743882458203 -0.4130150405347904 0.05045971024388151 -0.2089233617703760 
-0.2651238484135025 -0.007050196258176661 0.2574964892711603 0.4685274466949616 0.4129458356232489 0.3740037627074074 
-0.1567685697268513 -0.2563949056343515 0.1875938220710570 0.09635605190367500 0.1736046225992939 0.1319659414768560 
-0.3515186887363643 -0.1224636532761390 -0.3330760129660449 0.3751066992590505 0.3594651430399914 0.1722553830058726 
-0.003662449471143495 -0.5418673059558389 -0.07305809333619866 -0.7405379919551881 -0.2896523985792557 -0.4842839149956325 
-0.2992830730021280 -0.6856775645404967 0.3494972793810648 0.1079093434202864 -0.8847454780374104 -0.3969746082670232 
-0.2506179910602049 -0.4261567297985335 0.03642966005866107 -0.4146396119147035 -0.7983310798868220 -0.5789604114877481 
-0.1105187928004062 0.6700824260720900 0.3755359710155757 0.8441414912171139 0.6639826013277897 0.7544347172605133 
0.1415071394365372 -0.3816313453886228 -0.1223524414967024 -0.6116936551799225 -0.4286213479427948 -0.7595521437941014 
-0.3942508314068680 -0.7501477130719579 -0.06243583814869590 -0.01098917092891425 -0.5210526153018100 -0.3711213953655149 
-0.2923587534280946 -0.6738526471081194 0.7823112054548249 -0.5289024287293422 -0.5603597178548222 -0.5082665440550624 
-0.5472484635055879 -0.09981044263469097 -0.2755248264261668 0.1429063112714466 -0.3613877066608604 -0.4949593193056114 
-0.02153152412767617 0.1508956686021886 0.3755373270588239 -0.4605604066999801 -0.5306020173828622 -0.2643584463076595 
0.2195747193595982 0.5305108822045276 -0.1930003534233986 0.5886301151886338 0.3384104687186770 0.4138699897600246 
-0.03879690816862699 0.03145774904077064 0.2015776431891268 -0.08042524960046028 0.003119561722298662 0.01849428190725790 
-0.06711672688148962 -0.08971633316789118 0.7663902164868334 0.09733780487813214 0.002769656914690965 0.2634654979183172 
0.6439889372798028 0.5389238058422037 -1.043969087668448 -0.2713397966594944 0.09602685189506206 0.1560144564240820 
-0.2371584338494790 -0.1581240208536993 0.02704888512446292 0.3991243612653817 0.3018080703721423 0.2720619578897158 
0.2233879513432665 0.2422733721435491 0.1823378919206669 0.2292489609355255 0.07809804667702837 0.2772657994445887 
0.2147235506849308 0.6285598248509995 -0.09869644532026470 0.3323880569044997 0.2064069013297075 0.4268185444396020 
-0.2162856558734285 0.05976205597341944 -0.5982615077244335 0.1814829693730451 0.1189779638968310 -0.1399219217601050 
-0.09578740253928350 -0.1306076109493115 0.5520307323908836 -0.7175811992949085 -0.004109958946312742 -0.04118778559053140 
-0.03189045447501810 -0.06737839293861819 0.1873594583434252 -1.036702954768018 -0.4183961980371858 -0.4355278365719703 
-0.1254307287584074 0.1154175399063819 0.2236265225500261 -0.4843429248597572 0.2824521430568172 0.2574111489808793 
0.5109366381382666 0.1170289584261878 0.08061436409998546 -0.2028441438800583 0.8346134606829178 0.5909982727573259 
-0.1532142019088399 -0.3897235886307479 -0.1538733446838609 0.2677096960077800 -0.3703696382975810 -0.3016450691360814 
-0.2918295699543283 -0.3150236641303538 -0.6439454842666343 -0.06349957468170071 -0.1664621804700699 -0.4197838302131264 
1.268067061038360 0.2185229833026482 -0.5798108732248860 -0.4962403110407376 0.3314602931686644 0.2556282839206977 
0.8689162080409216 -0.6009248821858971 -0.6718311581651053 -0.7079121955724721 -0.08560226197350052 -0.3802075084208767 
0.3256592557338907 0.4492348795170496 -0.05788181796608066 -0.03639241512665160 0.007186151510269612 -0.05555197162949861 
-0.8533687188766444 -0.4028542538673911 0.1087308319704852 -0.01628968205291181 -0.2366135537679090 -0.3796432049741452 
-0.4578289464815177 -0.2124352796794640 -0.3987708010729040 0.2994166173884704 0.03227589791513688 -0.2458638420947304 
0.5415388025436413 0.7991813339226517 0.2613915246357147 -0.1428120444482529 0.4500136007438819 0.6693620969832179 
-0.2021870522699147 -0.5297104014455076 0.1382829121464075 -0.04666215920755745 -0.2677365461789785 -0.2640960732231230 
-0.5027709102322756 -0.3968109634121119 0.4028768395383380 -0.7747420438742417 0.2293493148333467 -0.4381772377803443 
0.6609621090726170 -0.1587404132564601 0.4371431897174810 -0.2922037105172071 0.05740929335946506 0.07085197960082522 
0.1184601833609985 0.2317304585807575 0.1903261876003700 0.4157444169846845 0.1810984119235702 0.2918333925526264 
-0.1594004432388735 0.2625086237731942 0.4955467206095048 0.6235010863137729 0.1905215495741857 0.5667224274752802 
0.04712828265889947 -0.7783277290295014 0.1144199570144703 -0.2705383367282767 -0.4579073621415443 -0.3722851917689443 
0.1242865830242505 0.01438014052345258 -0.3317844144215779 0.2474003072131322 0.2998069165469325 0.1222725164373543 
-0.7500526193943381 -0.01539579571385689 0.8690096624384773 -0.5430179059936661 -0.3215548949111372 -0.3935758577345829 
0.07114291468241526 -0.07705889782145181 -0.01587500032627176 -0.3891699825722846 -0.4962692917098247 -0.4272461566506957 
-0.6282166464789236 0.08135316554289544 -0.1956742818065135 0.5770463948787294 -0.5432684971602557 -0.2208540982757773 
0.1077507210661500 0.09224112527288933 0.2074363138006438 -0.1769625941100934 0.3963975819122567 0.2204568654351173 
-0.1802865616295582 -0.09881814557160849 0.6370073111573413 -0.2309286082313112 0.006083802041974036 -0.03169573585691345 
0.06615432259339749 0.06134451673949584 -0.4684042471609601 -0.1944868954283884 0.3029329146443486 -0.09165397197174519 
0.3975517876997137 0.2558599221389991 -0.007886627482584828 -0.07577261439592861 0.2133106615140417 0.3190908178392000 
-0.06044760593647769 0.4478725415987501 -0.1001278720133975 0.1173460710711842 0.8259650806591895 0.2598248347816583 
0.08777445628610674 -0.7128191287782873 -0.2222709715050490 -0.2462640338882911 -0.5289905048122795 -0.4329492601533238 
1.136861935164478 0.4312594422624674 -0.2031647658420188 0.1655190442105585 0.7434459116420322 0.6700821865746245 
0.1111081918680478 0.08600152077905356 -0.06915211692150525 -0.4760855129548751 0.2478027614984097 -0.1839039033528685 
-0.4117076422510292 -0.08394056996156000 0.1666110342652229 0.1571387443009341 -0.5052884693247222 -0.2482248178429760 
0.1485411713920070 -0.02697565065960088 -0.2543836903128275 -0.1471646450380094 -0.3013319687202639 -0.1876395757522554 
0.1431142314250974 0.3910997521258688 0.02862247719089261 -0.01855943564170557 0.2709846900674142 0.2681377685122151 
-0.1577024918312523 0.3662106402534219 0.1681124890193603 0.4928184017904969 -0.4671079918633710 0.06503697434487404 
0.06440333026372028 0.6758565541687990 -0.1883345971554007 0.2346510075657523 0.7357485550134270 0.7591522348529461 
0.2978158342604886 0.4976119348975903 0.2042608642699996 0.7264985873216496 0.7210492488754522 0.7522046961531782 
-0.1010502953526883 0.2199097066910082 -0.2045627297927302 0.5754295711075600 -0.2414488960734099 -0.1718450670485871 
-0.1187516225730423 -0.3443175566190891 0.04732144892429911 0.1100669816627455 -0.2935021374137452 -0.3916632264671338 
0.005906378645298770 0.3313458975165233 0.06507212868938103 0.7206422431679211 0.7448832817894147 0.6879619329995907 
-0.1645252550544008 -0.7805607931657833 0.1372557324045242 -0.1683225793795860 -0.1237773542368739 -0.2734886508345577 
0.7032160690518555 -0.05496435169663959 -0.2733395612765132 -0.04370765067031824 0.3028663277841580 0.1043605683180638 
-0.1326169175547093 -0.7841355361263812 0.01350233903193052 -0.8223133875367753 -1.152058158178234 -1.029548711857007 
1.141534140191873 0.8319397949511310 -0.1789689174428264 0.1686839678262011 0.6457337486646993 0.9207343669758259 
0.5986537745346936 -0.1286089871377122 0.2876978630655494 -0.8712831979848499 0.3630986435358057 -0.07662851362534910 
0.5526804838907625 -0.2431842880137588 -0.5301375721128362 0.1661433263079285 0.3569921737554657 0.1179784070749098 
0.1845770247426528 0.01033096216210149 0.1826097425214601 0.6055279472825240 0.4255061970838052 0.2286365999118124 
-0.7133939419352441 -0.5050140791110052 0.7129824135453335 -0.8139217539158755 -0.6682062576765784 -0.6466589571975850 
0.5391336350400790 -0.2066382012051044 -0.2929169243014415 0.1493682766816719 0.1242087682779988 0.2461297311351120 
0.02387759656200058 0.3232590600177247 0.2825878414476936 -0.09426648342107181 0.1977204861757126 0.01145663129610401 
-0.07645396557020766 -0.7334908874439815 0.2920274551691787 0.4332672660503706 0.2096286262036936 0.02381218316988507 
0.01405491946065527 0.5868446309377837 -0.7236947240148742 0.6372594332374969 0.2641612210429075 0.1166089822726431 
-0.4471447191498893 -0.7581832251314009 -0.1515953678512851 -0.4329606537691098 -0.3160585460958389 -0.6084808887712377 
0.5043159765528212 0.2696556740416251 0.7064919177896967 -0.1796219734161939 0.07339758590314535 0.1006649464409200 
-0.07850826678285218 0.1418892680880124 0.3284984814996889 -0.5683740627860630 0.08588916427070205 0.01033147733213432 
-0.6095296383125213 0.2774793640486591 -0.03274391190028473 0.4957673223714229 0.3248691965768720 0.02390033510354730 
0.1385937970476392 0.08735165387237372 -0.1770978192156632 0.6883219944588296 0.6481368657589679 0.5307459711486419 
-0.01741678090914391 -0.01116121775757433 0.06989928387274748 0.06619663501940469 -0.5910505069970045 -0.3526259018754378 
1.420107832734455 0.4365509380557183 0.002846782926886068 -0.07268385035769732 0.5817499277807620 0.7231210409150807 
-0.7083325810451516 -0.5832849627784552 0.5152254510229146 -0.4620449208496542 -0.6085373880480120 -0.3896446046546482 
0.1907595770308938 -0.07149848616416443 -0.4297888440240587 0.6836598474924781 0.3241272394036268 0.1651016786389668 
0.3669731775726232 0.09582813109398011 -0.6825996303673029 -0.3329625707716313 -0.03996642314184281 -0.3122458837261782 
0.2507221371777033 -0.4767364846688248 0.1112582537022821 -0.6587078544745493 -0.4258612235345965 -0.3489385511151859 
-0.2363471688898464 -0.2388506646050900 0.4390854527356184 -0.4379575138960140 -0.3969330883992794 -0.3191070980951237 
0.4348379715929074 0.2689895129285176 -0.09540552856978689 0.4230057578806716 0.3334929601267243 0.2373167270211720 
-0.3286060562583816 -1.086109989960449 0.2129200663022206 -0.3177631944616675 -0.8140369414931531 -0.7474694050461446 
-0.2902927892259719 -0.1668324050253033 0.2382448319490642 0.01111556539975996 -0.2826564759567617 -0.1751583509110656 
0.06587362960163919 -0.1683152344190382 -0.4580910264873342 0.2403030006422357 0.1257721149059965 -0.1870208151755283 
-0.8101451567149770 -0.3043268242974238 0.08115894426202613 -0.08828410181764240 -0.3424699583464439 -0.09707428433642741 
0.8934008142140882 0.5463093759307670 -0.6736832997522817 0.4239028863081387 0.3648970936831076 0.3927501303402505 
0.5326699862367953 -0.7558709928968119 -0.3935809031138667 -0.6229284380765160 -0.4272865241157035 -0.6262166462744663 
-0.5975030926924685 -0.06054524950686188 0.5054554669175925 0.2217946214698348 -0.3770363600899798 -0.1617206883710668 
-0.6809008861258390 0.2455814000112017 0.1567813603304639 0.7702030488543954 0.3454812799891964 0.3070168769589976 
0.9027910341721382 0.2716282668573570 0.3993923939389853 -0.9092266367487641 0.05354472557973154 0.1933277862399729 
-0.5557804353062704 -1.082031736728886 0.8374784988074119 -1.350940329101731 -0.6014744728703841 -0.6288553736897303 
-0.3537347435618400 -0.4852786006000991 0.2599854008129893 -0.3172230643552674 -0.4246579041891943 -0.3323303823437400 
-0.8053536889244711 -0.3654071114368499 0.7861401976530358 -0.1739264726585909 -0.3432549282368852 -0.3203121556737174 
0.04435556026670717 -0.1258162591277197 0.07157296652813170 -0.5220363243849824 -0.08641201229847861 -0.1628950887415711 
0.6191756650147712 -0.2486732088332091 0.2338234015373895 -0.5018699185470229 -0.1471823622695241 0.1403190285319119 
0.9838212573893579 0.4280296128105668 -0.5227012162937946 -0.09505292757950219 0.5405248022676756 0.4726782378566446 
-0.04502192612898442 -0.4597527898860869 -0.5181489108438149 0.1682790981506973 -0.2687681414991666 -0.2672913236941177 
-0.3077422155174802 -0.1057063946331055 0.3603246656739877 0.5045219861652606 0.4548386937039457 0.4099893495780879 
0.4832556600157886 0.7946144272641602 -0.2159311138269270 0.4111565933149414 -0.006888336144256365 0.3596368336223673 
-0.005072390579621976 0.7818595193912160 -0.5115267582337746 0.4356073657408230 0.8042176555659207 0.2741816347309524 
-0.3519919433425557 0.3502136138757551 -0.005994922403006543 0.6402549626372600 -0.08717287921682700 0.1586995794318438 
0.2692911687684235 0.06567066509367098 0.5688749936948451 -0.6074454559246694 0.3081237477434167 -0.007605009543511966 
0.3052034175033551 0.02629105260088511 -0.1326231203044722 -0.02066357545373170 0.3613537429952814 0.2606965561280260 
0.1043534121681931 0.2132458997182545 -0.5943913608162591 0.4059304712755688 0.2944633061129168 0.2200013193033817 
1.034491056328277 0.7798511254331487 -0.4706518921441910 0.9516140797298152 0.7946954421100273 0.9439276980997199 
-0.2887995444210889 0.1476941092741470 -0.2569590298996473 0.4491818463128329 0.3121580069789841 0.1542460571996895 
-0.3498307711529822 -0.5186490563766380 0.1429390416260378 0.06856369987662682 -0.7383075085329066 -0.3984641670498935 
0.02326771405889333 0.2028133880960890 -0.2264348987372854 0.4283086611714900 0.3180773605336343 0.3225642949602575 
-0.1833116169628035 1.099851593729437 -0.02080608139367187 0.6351358103591027 0.1963218602371639 0.4492828303698278 
-0.4163246002443417 -0.3895060890130845 -0.09097388899709204 -0.1367555080967721 -0.3266253193744396 -0.4406062247928406 
-0.009246634532317040 -0.003089985381085748 -0.02879162623811166 -0.5725144540433648 0.2322787235286361 -0.4288434687471056 
-0.9206116407734076 -0.001907027403276667 0.1258617920006079 0.7723836974542632 -0.3795755573901651 -0.3212694387682388 
-0.1667144300395602 0.08807907770645851 -0.7590210873131384 0.05655039338342119 -0.5656469632886246 -0.3910672251970826 
-0.1998068696282312 -1.074775585454575 0.6834403455290772 -0.4786078091938902 -0.2209726839263123 -0.3820123102033168 
0.4390437755905862 0.2859464694924201 0.5779496805770034 -0.2091183548382667 0.2873691730327300 0.4943821931867747 
0.4137763606804113 0.7514248586704108 -0.2118766400272708 0.2301558305570756 0.9588001680491661 0.6490407108783836 
-0.01251857677157693 0.08405834543585688 -0.5189233498241830 0.8410805379809045 -0.08675158391073085 0.1167923265253051 
0.4786904196271993 -0.03032828766411135 -0.4628117447859101 0.1781563436322774 0.09758915680708158 0.2081428283272086 
-0.3580268026799773 -0.1733497408422710 -0.6226774125505506 0.3549127603235637 -0.07833379374791730 -0.09451030721482423 
0.7263102662619282 0.07022208064054986 -0.3777768929903587 -0.2193505300449188 0.5397425560624104 0.3125689853024765 
-0.5992860911237293 0.3505850564076560 -0.5005460131530247 1.063640115704645 0.4771020406320417 0.2026396930254447 
-0.5904969193122721 -0.2836930053654353 0.2420761482971236 0.2187945796468536 0.005957797027522875 0.05154277575175750 
-0.2315876641488334 0.2575385793817485 0.08481835457978985 0.3537323522975882 -0.2451899041540111 0.1617864292482437 
-0.7118724012730112 -0.3979737604501999 0.3653369654233028 0.2052971810450426 0.02196192213111979 -0.2353910091777177 
0.5438932476185302 0.3161236427384092 0.03512935893745267 0.3789836385706092 0.5461033980182886 0.5049038390234961 
0.4998657607112663 0.7676183810082472 -0.3937480478167220 0.7665287506114876 0.3310505387235614 0.5298164229751458 
-0.07025187998831060 0.1638946060381679 0.1351596138729665 -0.2275999765262655 -0.4617920578169796 -0.3370643538078476 
-0.6275927059903941 -0.9322710959044020 0.6217069976634817 -1.191626786672118 -1.276137090766094 -0.9617142475176962 
0.4353608103697580 0.3848083434877065 -0.7510610644458566 0.08101196457197664 0.1888886139313148 -0.08232618529208680 
0.4776217871324764 0.2471004505596053 -0.3604455089727819 0.06888692452428463 -0.2196168340667964 0.08130664990670575 
0.1055046735177042 0.05031433612205984 -0.4059599781517086 0.5748621815768066 0.5260235063696833 0.2747376185709399 
-0.07060703602565188 -0.4924513181945763 -0.01504201770488478 -0.3560883838875125 -0.1934239190308938 -0.3074244782754156 
-0.08690248831724796 0.5188905500248933 -0.3044426446583105 0.8116096161624328 0.3136769487025249 0.3335769454597710 
0.6276381462852703 0.1895767836768125 0.4579132988904796 -0.5706257483036281 0.3385159575255693 0.4632137826046006 
0.3211189689730805 0.1283785151187568 -0.7261159247438190 1.245866936917491 1.111702847653131 0.6536426199468763 
-0.1600163332635084 0.01969927574092895 -0.1069239876252150 -0.1582877581249910 0.3279734316907613 -0.04186260210786531 
-0.3083562208557289 0.1772869765707906 -0.1608953818024282 0.2787219883909634 0.2115236904632563 0.2867831722521324 
0.5824967712968426 0.1254092529942931 -0.09739419050764161 0.1903515298313044 0.06186760650513054 0.1425668962943176 
-0.02622089034124474 -0.2437479635611214 0.1707212220719145 0.2502178331918513 -0.3296417781135033 -0.07965895537809453 
0.2105901647064780 -0.2408721221694613 0.06509278097681010 -0.5131777638744855 0.1655323913097330 0.01889562661494227 
-0.001330116805879085 -0.3625512774266130 0.2151412750590979 -0.5257860679148941 -0.1031203162728066 -0.4981375278882239 
0.9361717183981019 0.4850813044460340 -0.3743153753339745 -0.9267912662734805 0.02860037130388146 0.1072636857848239 
0.1564861396582094 0.8040791671483255 0.2408499049742585 0.6218610833983005 0.4909432495963669 0.7629415357343656 
0.3446996596546937 -0.1472334280326031 -0.2352621121419036 -0.6956975340402363 -0.1222816688941651 -0.3263025579232680 
0.1183271050512159 -0.3712895598511737 -0.2886635568312156 -0.5358756770542740 -0.1925298492756478 -0.2618339616147236 
0.2024609288546067 0.2055881042071063 0.4778443403938275 0.1316060793025234 0.8772066410469842 0.5035164768530895 
-0.07543762359550320 0.5501816195028121 -0.4372148551505236 1.329623248506268 0.3842203368661123 0.5571288263288250 
0.8378847503244737 0.5917292141960955 -0.1393699453375974 -0.2171860229703283 0.4735563384499735 0.3955194788013801 
-0.4980173796353608 -0.5056039732678830 0.4303039709659884 0.08286581611976722 -0.6129195518541489 -0.4418463119774223 
0.4517400351748739 0.2302214685467577 -0.6050408302218439 0.1939728224170351 -0.1611014249883156 0.1252102378812124 
0.1899694492363493 0.6768748508978900 -0.1048716886920678 -0.06601422838348610 0.6031858169947212 0.4667197644065127 
-0.09916142935028038 -0.02416080027010047 0.1834585565501992 0.2237193141573364 0.7474455432116932 0.2885681790246271 
-0.4317076589337486 -0.1470218849540090 0.06734499707695725 0.4299241338701981 0.2106311145030594 -0.1017071437411823 
0.2741018387699303 0.7517525202259381 0.1576462216497896 0.1370943053797477 0.2079171705064327 0.4594983510294864 
-0.3062521582161869 0.4811339629026014 0.2832583122207804 0.08000776755210500 -0.07071775658468268 0.07990326906258012 
0.04745446242102709 -0.3064861611408458 -1.182124448788286 0.1616069267323291 -0.4824930324582279 -0.2763927421045198 
0.3349274835250906 0.03505820239253956 -0.2852314836860928 0.1723939416504769 0.5689076005878270 0.3088343868134366 
-0.2665051186314647 0.2230846922582490 0.4817799056151193 0.4587627736751810 0.04287327351194516 0.3383298468430714 
-0.3961905611187693 -0.3206491002919585 0.3277722125277254 0.3159300984678861 0.1981322659761198 -0.07703619416873085 
0.1771345307416600 0.3596962800261779 -0.3487654984467916 0.1169718777730331 0.4579375874572498 0.1470714794424227 
1.004090718143580 1.320610231032137 -0.1240130559567518 0.3897003806357181 0.8453219934113250 0.8870815235718627 
0.3580613713293266 -0.2243093447044069 -0.1840569992525157 -0.4261073962025421 -0.6210581222263049 -0.1718736706771657 
-0.8897075521751513 -0.4047536049805294 0.2657924508261906 -0.4879981777851551 -0.8196230415466976 -0.6703297484895161 
0.1737369368565011 0.1840569852399415 0.02888868220979863 -0.6268130228904804 -0.06453542643608816 -0.09962133732138120 
0.8647615515436290 -0.2078459927721004 -0.1919456049643206 -0.9367819979357093 -0.3261815506827270 -0.3489524990174759 
0.6631251296305670 0.1681825972873153 -0.4154152795100614 -0.4309239594309900 0.01260258937553306 0.08778702634411004 
0.5819223760656558 0.4618820237467960 -0.2684660701680783 0.1845215932123080 0.6745917387204731 0.5256488313358583 
-0.1401534403236245 -0.08992833664736362 0.2180702145260031 0.4797399298361741 0.3820703323602975 0.1115442505368564 
-0.3071856764809775 -0.3810043871528575 -0.1283081374311974 0.2260474920531904 -0.2758168506959337 -0.1712585625159077 
-0.5974525982841619 -0.3301770727816630 0.4640034796746838 -0.4356105888788239 -0.4759175809223142 -0.4267218753394617 
-0.3925703642601097 0.07064903702406458 -0.1506083745914666 0.2815792648439369 0.2217093486613351 -0.02570051763883392 
-1.252819244973237 -0.5604338501455862 0.6173997922721679 -0.3409301307936620 -0.1936465001023314 -0.5502646495374585 
0.2283280822305578 -0.04714150876965755 0.1517184055149812 0.4127972177624383 0.1879882906987373 0.3192222187928767 
-0.2509875344088278 0.5599462449879927 0.1829060643310743 0.08113556632893770 0.06648903862867622 0.3147457603489339 
0.2548548266391179 0.7270650943276439 -0.1901813850786339 0.3507986447034379 0.4539605750496585 0.3008772796121865 
0.5797045265207452 0.4605108724369139 -0.1317233471830618 -0.2274790843407449 0.1581538234338936 0.3742519100991724 
0.2357237086245131 0.4766111160358824 -0.9515482315779360 0.6464051158113980 0.3948642600033110 0.1006725485374438 
0.3765622717457996 0.4828793863235493 0.1720625687104910 0.6231934981474698 0.5406984775800040 0.6741894044941604 
-0.5591855351916258 -1.413688210815355 0.1531587918418734 -1.166688265327524 -1.195032332884038 -1.357209743045598 
0.1731512104663558 -0.1897145282173035 0.4533756575121104 -0.04402590855204763 0.1979722607887389 0.2182667471410322 
0.4895387350146701 0.1373594574959694 -0.1030403996084129 0.4709444264078102 0.3485389255351982 0.2835422514915645 
0.5061145233096217 0.9958047444493687 -0.1971726477601647 0.2181109756342674 0.9819694069884081 0.8000046338709874 
0.5776407449943800 0.4933053508231507 0.3965523546537790 -0.5788673433299901 -0.3933803646979294 0.07743720001058695 
0.3966987507804479 0.2539410463391718 0.8337299439321966 -0.3819851384909820 0.3087544556216677 0.4709325879393630 
0.001995277919728641 -0.2661896515932359 0.4445183596006785 -0.2488699915964182 -0.5185016152902434 -0.07374424575662869 
0.03071797159829462 -0.1918220676915533 -0.5049251560624348 0.1132118768327911 -0.1721989239254923 -0.2934562359756944 
-0.3522226562857068 0.4816841849612128 0.2958580497794113 0.1879513311555647 0.4466858077518589 0.4517876703271238 
0.02720223916151855 -0.2539630458412646 -0.09850331842504717 -0.2195305014452796 -0.6990904003033511 -0.2835330724667493 
0.3482037399692399 -0.2145734646154361 -0.2731793079806781 -0.5138606327570563 -0.8728427765314091 -0.4890911278194710 
-0.4590779982048000 -0.5924653222711816 1.080540532872241 -0.8723244620755640 -0.5786714547322346 -0.5198532751297449 
0.2286389028157607 -0.01173395234886982 0.3304426325416968 -0.1196770351322460 -0.2266805013031396 0.1530797810770697 
0.6125497510510817 0.3158953782968174 -0.08921527478228206 0.1524341346345080 0.5747833883520488 0.5610177430613872 
-0.3252198455571295 0.1499199296808779 0.5384093838454889 -0.1125349214750366 0.2593776738890287 0.2207878489510700 
-0.06051129635135409 0.05697425637228958 0.3835160164374137 -0.04633379659180911 -0.08200897992241592 0.04216178834619520 
-0.1896696354000240 0.02480069955816856 0.4328911046299125 -0.3324050099185062 -0.1988583561585446 0.07970668341218583 
-0.5377936854696886 -0.4724199758152445 0.3289081973459520 0.3803013989122702 -0.3183477132828895 -0.2582210223695516 
-0.4056244084216827 -0.6174447023620793 0.03622110185976920 -0.07896383751113810 -0.5170600169733727 -0.5191013436567928 
-0.4847967273809228 0.5504319635403365 0.4612733528833063 0.4978006579765250 0.1525279648358922 0.4910224265856460 
-0.1509959551048393 0.1955775687963252 -0.2095901422201944 0.04774202217527925 0.02384573327537084 -0.1180944826557865 
1.166596374981807 -0.07881506512470471 -0.6510515845697032 -1.091201484799068 -0.5968395937814749 -0.4130602597895665 
-0.1879289247086449 -0.5825815697931106 -0.2350474983983370 -0.7841412255769990 -0.2979148215110888 -0.6684200433576032 
-0.3774187371249424 -0.3215510204621001 0.9189468828107616 -0.8696029694031671 -0.1831036243880211 -0.2965618246454068 
0.2494782368127652 0.08009655283460938 0.009854698135855305 0.005255181088232228 0.5340666347400657 0.1544279575480937 
0.7268786561799595 -0.2405706698255753 0.05270336675160180 -0.5596939895933120 -0.01888138405612323 -0.08317699555919324 
0.6846949621666285 0.2234722073128329 -0.5857905179958590 -0.2271477532575791 -0.1225455423972844 -0.09377402320315703 
0.2501299493175309 0.7800202462767827 -0.2820531502246980 0.9801981309730036 0.5398234143889147 0.8003469254167600 
0.2926240535214364 -0.4632412489426299 -0.4854299685719395 -0.4105957732394041 -0.4759621315817315 -0.5782367993165649 
-0.7483570102740791 -0.09651916425622044 -0.09755818942884896 -0.02004790863515413 -0.1979956422634121 -0.3234384735841404 
-0.5960964638188476 -0.6295258461222429 0.2222054538016479 -0.3166771929639421 -0.4122034209031117 -0.5171443370622821 
-0.3410756879862670 -0.2343962391806904 0.1462097772529623 0.2086133258077063 0.2858428997477410 -0.2092580915960519 
-0.1297537316524286 -0.9775997065542712 0.5728352842822392 -1.422624892876431 -0.5888982625573277 -0.6180211488394023 
-0.1107285713543628 -0.1312699887990959 -0.1464101421446014 -0.09356843242839233 -0.3047516164592076 -0.3240767237972374 
0.4800019370746858 0.5471078424727699 0.1303805733168654 0.2960927289518330 0.2222441126493643 0.2793309041951401 
0.03554174127854268 -0.8493617346610460 -0.1926075633770135 -0.6874694575134732 -0.3475094716783751 -0.5372033244292856 
-0.3138851344759343 0.1315708969815757 -0.01976941053772802 0.5131139978632866 0.3550255287146725 0.3060190740466649 
0.5637979427150347 0.3578524475629635 -0.4179712490929820 0.0003291340763510437 0.6300938816869585 0.4526983320121965 
-1.199229357455710 -0.5693717456891949 0.9684813280991077 -0.5055593977489817 -0.5094875386373423 -0.4917996546646861 
-0.8106699317547057 -0.3225355178195619 -0.04901210807259719 0.3467721285344274 -0.4733448554245192 -0.4141783114504002 
-0.1101948062819322 -0.1099516428726185 -0.7798405383941146 0.2590068907100979 -0.4736571854801722 -0.2750477393350987 
-0.5172363326225341 -0.5415088246268085 0.4013242234671742 0.07379404446484172 -0.01665846651007308 -0.1082697142223587 
0.5769216197367129 -0.2848403826822455 0.2702133571957784 -0.3599670545383119 0.01711848945916739 0.05401185702792290 
0.1190560612061148 0.4321868776802254 0.2633519362898152 0.06820885259457897 0.5318183952432994 0.4176844681912963 
-0.3300412689186220 -0.09541279801134747 0.2113264379910390 0.2266658391235197 0.05088643203513255 0.06401816400625197 
0.4384830733780901 0.6263263353227861 -0.3183394275159417 -0.2275166692442338 0.2503885276765606 0.01278105077104352 
0.4832718849154719 -0.2836781205919015 -0.3826318692579089 -0.05762703853225050 0.4236235150474729 0.1485287796293455 
-0.5436626100908147 -0.2564287695033521 0.8174090920991088 -0.05349965560317727 -0.3631195439178407 -0.1272787161369544 
-0.06100584801091794 0.09953683717585937 0.3070143381640986 -0.09863333911226412 0.4500556321034777 0.2278491378837872 
-0.03147109179716939 0.7793293346845545 -0.2856793101956645 0.6815970064823995 0.1530579760205218 0.2894944410137688 
0.1852385930246388 0.02752538299397214 0.5062325833595055 -0.4734401129364079 0.1822587281788390 0.09840665330960634 
-0.8660363359344089 -0.1876664366570529 0.2458001270183958 -0.9816161192627756 -0.5075634812924069 -0.8300885562777734 
0.2481311966016310 0.4531410165595965 0.3479178794747441 0.2714028296846633 0.3279830075544403 0.5183291344916909 
-0.8035649851325997 -0.4792906197136525 -0.1073750077940271 0.4240901794695371 -0.2621706411547494 -0.2460702103761320 
0.1999225229606138 -0.4163336324504954 0.1617643917813664 -0.06960170524052758 0.1270255455291129 0.1436421241266108 
0.2331057657432371 0.2999630676468105 0.1783837261541186 -0.2292294822497075 -0.5310623964430670 0.1176371695993234 
0.4826386246352312 0.6927089793412985 0.2231876870930621 0.2731480389125344 0.4928691385459122 0.7924096868950564 
-0.1056945384925337 0.006396465644801510 0.8290177145041752 -0.2119187901325769 -0.4211130761610565 -0.05284194405198848 
-0.07524741453735151 0.2491514904862479 -0.06260690918033353 0.6997876812472552 0.5302706102141675 0.3203900828554190 
0.3342727699319740 -0.5283437617220519 -0.04996961519449391 -0.2848171421730040 -0.1996244932112802 -0.07130500358595190 
-0.1513702027265269 -0.8888101380623868 0.2404076666654720 -0.9792199687966254 -1.448820214616873 -0.9465058653973921 
-0.4663272422111205 -0.4592477818403480 0.06176757025111101 -0.6150386122471021 -0.3751372872188490 -0.5235926767226224 
