solver_type L2R_LR_DUAL
nr_class 6
label 6 1 2 5 4 3
nr_feature 599
bias 1.000000000000000
w
-0.02734865535452970 0.1581928245642783 -0.1617976043547745 -0.2631634068874069 0.3419325084821743 -0.1073892225430873 
0.5918308948548955 -0.05475195514179915 0.5725087910873370 -0.5734097517590456 -1.127538424325980 -0.4655609134624167 
0.3424443024844051 0.1910546063534309 -1.277485917559236 0.2472696761575600 0.3479032000072425 -0.2528112335384745 
0.3937087824968057 -1.450411984767072 0.7600014392238096 -0.4020625701194990 -0.1949216766855253 -0.2664146114862118 
0.3457679887635230 0.4805487665294708 -0.5038265340679317 -0.06980723627730365 -0.4058090106551963 0.1517297990926588 
0.2000275297922659 -0.8028549167504963 0.04545908659338616 -0.008208933618028038 0.7090672728709030 -0.3639384647695834 
-0.5442368854079392 -0.2594318620768525 0.2221013112468234 0.1004122998126123 0.5393368095206870 -0.1859597514546113 
0.4885267150141873 0.03673293668881699 -0.1711199509804428 0.2321901173823106 0.3277993745948519 0.4771316873135570 
-0.5551168438229434 -0.07946346361706319 0.6312351347661498 -0.001923258509817611 -1.537466934123684 -0.5497274359869984 
-0.7378744742946571 1.380428660048627 0.3201908874627337 -0.4404063699252001 -0.7612559681147588 -0.4468387949468564 
-0.2755895054695299 -0.5097706472692896 0.4977686643330070 0.4940859471394875 0.1033847758879515 0.07170930364774564 
-0.2498963435127908 0.02657819235392313 -0.02171400660660994 0.6975424698229779 -0.1303869874014879 0.3447092007765212 
-0.4663094572849296 0.6073011903485340 0.3944852895332433 -0.06499813767335866 0.1935393240959329 0.05010415655521264 
0.05981081469534466 0.2896532421107351 -0.4912334836230757 -0.5239564812346411 -0.3225803560782420 -0.2051958714816154 
0.01226023251570342 -0.2473531800151180 0.3599424573827960 0.5756786883572210 0.2863188826671874 0.8750538638307536 
-0.5944530954834716 0.1890219525567222 0.3349433488553615 -0.1336714793117380 0.04877776769962517 -0.01500227355763013 
-0.1588697955351343 0.2966007732016445 -0.8125989724058789 0.04338127326459879 -0.1197101711534113 -0.06491909655449009 
0.3550637651953587 -0.9186754308213368 -0.1464969432677890 0.1599284864162509 -0.03461557630861947 0.1145670182183731 
-0.3343367194345126 -0.2203583237721284 0.7363761224681650 0.6260179688781401 0.4634044875544405 0.1487229739552588 
-0.3293219430352978 0.1141800405866467 0.2050024400281250 -0.02927219429164670 0.03603439733848509 0.7124804191156439 
-0.7420957883226159 0.1688006643094013 1.253870758247512 0.04656122312840570 -0.7958605976437609 0.4189777462766768 
0.03074190764952377 -0.2374146792399160 -0.2328146199582590 -1.262889233959106 -0.5487104862650116 -0.2510128320232929 
0.4288252492512651 0.09940436355216640 0.2593077456839029 0.5907297007871326 -0.6128902679171286 -0.5097433323737754 
-0.4092328780763814 0.2621057044504143 0.1243688076125310 0.8013043842681737 -0.1094107572393016 0.1851528402786397 
-0.2880107074698983 -0.6295582077021330 0.7250747104600149 -0.04834367367320166 0.4534401163129493 0.09276989618795768 
0.4757408556378168 0.6182866177159981 -1.057682803987264 -0.2018050590403691 0.5351451639036403 0.4496576338526601 
0.2311200431637992 -0.1647758756179569 1.187030436442048 0.09910097095954534 -0.4116181453401721 0.4651124993919591 
0.1575795524637950 0.2044917356746484 -1.354302610909152 0.3321959524179106 -0.01316048585708697 -0.4942444850356939 
0.7733599305341377 -1.274556083361855 -0.3160957302139060 -0.5468274135126443 0.1587363569612184 0.4849033827053254 
0.4606877745078424 -0.6069782441568198 0.3838581887598219 0.3299418869473300 0.1154401400330868 -0.3630499782070629 
0.2227618317812872 0.3715012286226037 -1.835296719807950 -0.1881706843400107 1.228713797142131 0.4413207561776240 
-1.110743436195397 -0.2277969270832573 1.698962960108698 0.5170354361467281 0.3720019110837474 0.008145912040699577 
-0.07256704328177827 -0.4769047986924867 -0.4631926874315628 0.4208518030195853 0.6477167102114670 0.1668343276870592 
0.4317477027140645 -1.250754163633195 0.04208598830100820 0.8258622546705161 0.6055845970189390 -0.1048632408105319 
-0.2937206055838291 -0.3101539988418411 0.3877288041257391 -0.4186067395063665 0.9639386326237025 0.1334907874962612 
-0.1731418998210882 0.1430238363484215 -0.5564166957868419 0.4974240607184093 -0.2554095352875584 0.1384613816790042 
-0.8923511339185987 0.3097389600319160 0.08980808857467104 0.4703124417706777 -0.3164222321815217 0.1638684361545678 
0.02942039173868946 0.5077041780731462 -0.5500016837168015 -0.1178937045952553 -0.2125869451898299 -0.1464418034239174 
0.05310706833741380 -0.5157498645778789 0.3433023127626124 0.2586889008389944 0.7067693085161874 -0.2046975140558098 
-1.218768808296934 1.721243825566794 0.3905695533949355 0.2734594343743623 -0.3817355399551329 0.4298130319802329 
-0.2245816700474339 0.6318240706227740 -1.222605043133895 -0.1776329065648654 0.2909742366739077 -0.7586728833011459 
0.001263774654789711 0.5052168950606785 0.4598422241787669 0.07201266076708084 0.5243878033316588 0.1099079565404704 
0.4319537563586133 -0.6882846840901220 0.4109308403441707 -0.6428929235362435 -0.2244671941948676 -0.3614827445323519 
-0.8258418122952849 0.5940260444995302 0.6516865273150362 0.1227710951640787 0.4421820093900177 0.7158701288567523 
0.3610999042080862 -0.5102690176067228 0.04306914612114047 0.5639526282754393 0.5850442189840611 0.3809309699538110 
0.1129857484788360 0.4453815373498470 -0.6317656397363993 0.4882435073826686 0.7182714805680000 0.3332079773083254 
-0.1407297246130446 0.6712664301034414 -0.3418720995218627 0.7539186112191728 0.3406215642856522 0.4995980590164185 
-0.7340674895551836 0.03836022692968648 0.5164726107417228 0.2649951901359308 -0.1703509129330205 0.6914589793494674 
0.7406330758058670 -0.5330814319015355 -0.6536502319884008 0.4069079007575403 -0.1167843344532124 -0.02051062798260360 
0.5601352289837715 0.1982499221773703 -0.07831037339154068 -0.01385049948279605 -1.336166412092617 -0.7102829901860707 
-0.3259115752944572 -0.7086373535514456 1.407643795109151 -0.2788096657352519 0.5066648180684163 -0.3105474523919077 
-0.5529325677311476 -0.05857887587148537 0.4560033306827830 0.6549007956227902 0.3943573473834663 -0.1887020715145917 
-0.6258535876345518 0.6001038190542507 -0.2363043507832264 0.1904988776684504 -0.07890325862674187 0.1246651400088506 
-0.1986609543219744 0.2822482931877005 -1.141238527285341 -0.04086951359251863 0.9879646123109750 0.5787432144726425 
-0.4218857925518679 -0.2523885712498935 -0.2098025099552121 0.2588589147659799 1.248780146305538 -0.3975110193574417 
-0.1386244958624507 0.9422158063065564 -1.053191570006880 -0.3529498527226187 -0.7095606105585591 -0.3775523754098809 
0.1517456621763032 0.08187282829411227 -0.2316734595018211 0.1138277558405856 0.5548648651863742 0.9347940432637961 
-0.6216765269943160 0.8577171450709505 0.1226087828972596 0.5017002299158313 0.5226239242235240 0.5463257969960174 
-0.2128022983575954 0.7398468442146179 -0.1064668084575682 -0.04732298580649285 0.2820433062760571 -0.3129250487020198 
-0.3237804936773283 1.236425552732563 -0.2090931191902997 0.3982478404985497 -0.7206699495091394 0.2845043151401843 
-0.1249006973018420 0.2999074421067411 0.8794945622603989 -0.3996205761522195 -0.04879734760338535 -0.1656332431823479 
-1.274045868421036 0.1447566007726541 -0.2210186596671520 0.7107118014467598 1.131406255203058 -0.07554756008451499 
-0.4457387025777714 0.9173285620581411 0.6752908572511992 -0.2829228372495546 -0.4028228294758255 -0.3020131787011627 
-0.2457057445699437 0.8323594658122502 -0.06544966985535795 0.6567723778185244 0.3231761077950720 0.4092323444310577 
0.3381438801149819 -0.5887477745796077 0.01280886758462332 -0.1529083257939020 -0.04174805452934445 0.4028469908631538 
-0.06723947436426145 -0.6770200212487825 0.6721125890293791 -0.03447474062867642 0.3295886791567149 -0.2247449685016688 
-0.5875725975042533 0.07539463515692846 0.9364306828299527 0.2517083807272366 0.04887931466911762 -0.1497851612330726 
0.006613971092029754 -0.5977126285454208 -0.01227299719806647 -0.3407030222072789 -0.1634769175851176 -0.06265210568441011 
-0.05850275211768575 -0.2776761924645670 -0.2077712604910287 -0.5468753829837163 0.9974379238697229 0.7621560067824240 
-0.9063079772259253 0.2538024527139318 0.4992680569003810 0.1878791134931666 -0.1247598296988914 -0.6712529514118362 
-0.3783706576686046 -0.05762221706861042 0.6731753385778569 -0.1677332128616740 0.1582857772644423 0.4478900868750986 
-0.1574135195762012 -0.09324581045985920 1.240644449834032 0.2442304646596102 -0.1911318469994424 -0.1675118720725183 
1.464559515645684 -1.101547087552013 -0.7846603418355669 -0.5382780907811542 -0.5268706575568866 -1.053069024581462 
-0.6736635414582446 1.196123749593381 0.5180556282179541 -0.2648628979120650 -0.9632840028672983 -0.09601908097404913 
-0.09341965300072534 -0.6790996840690763 0.5221880308415939 0.4244864484118077 0.6329331247265682 0.3188327671308671 
-0.1117941908410047 -0.4103797752090037 0.1290154022564086 0.4383310438457966 0.3355638407092655 0.07006075583191548 
0.3318083188008893 0.3874718411550818 -0.02223488500302822 -0.2903464111818220 -0.4762796743700639 -0.5746628363884126 
-1.031380646549329 0.7668277975919441 0.5919290827301995 -0.02817644601647232 -0.2499801921299941 -0.6457927363697247 
1.107938564817398 -1.042058791881044 -0.2943832471936277 -0.3689761881904804 -0.3096799186919043 -0.01279862582908099 
0.6462512403852981 0.07285189254687888 0.3651009993760742 -0.05794250752269977 -1.000180802695581 -1.062893100294292 
-0.4689380607366355 0.4285877192702958 1.028970592396736 0.2130788520933310 -1.520492812792288 -0.2397975133079938 
-0.1974452954410846 0.01159427667181604 0.7018996197561407 0.8355421220270390 0.2992043110533654 0.2883479001643585 
0.2757305108747050 -0.2144286912421164 0.1836987835279428 -0.2439392696672833 -1.255334697143427 -0.6846022199879653 
0.9761407691940497 -1.656526117208336 0.6359092300005262 -0.5608974065003364 -1.133682270052225 0.1115168220297421 
0.6383113153127391 -1.019571226770059 1.088560607902524 0.1314160618441455 -0.5161604478679668 0.002638308378026920 
0.3833412238277095 -0.5272905443975395 0.5091586445528458 -0.8447114129442997 0.2116970258124814 0.6128717316750070 
-0.7981690565664145 1.072731308308389 0.04243881841002345 0.4981256707961444 0.4966428184622989 0.7636731133549087 
-0.06064031680528192 -0.008002827392233493 -0.01509531510327799 -0.6489576917571527 -0.9167762225209840 -0.009892004386349672 
0.2403164670857459 -0.6502205156165443 0.5575825022926248 -0.2509044555302845 0.1835411945310195 -0.2622882940874091 
0.1407713771854611 -0.01070108991229906 -0.2990314663302197 -0.4778027345297289 -0.6612925367730885 -0.1966762862171712 
-0.3741853143331580 0.5148044387650251 0.5434381489553781 -0.2687778522463971 -0.5969044844827686 -0.6159312577218354 
-0.3031090240030373 -0.1217055403231031 0.5835918403556131 -0.5028662264183025 0.2426687296876785 0.4542108976937924 
0.5348160485774434 -0.09225395166591155 -0.8051239587433945 0.1384966870503286 0.1006751847537957 -0.2997388871028975 
-0.5338371712522832 0.1635716428319483 -0.7215492077717018 -0.2225477939818484 0.9405490085556385 -0.1192885310663264 
0.7965396664408609 -0.8540357343985446 0.3496437329909030 0.02527306436680342 -0.8694785372057936 -0.03557928445460393 
-0.2394284674823230 -0.3631995144662765 0.7066268375008975 1.147421907278003 -0.04705884995256773 0.2413664090157984 
0.3608820932871665 -0.03137295732128135 -0.9740147867331120 -0.2174662843861031 -0.3919591152963908 0.2823925776959920 
0.03184514485678111 -0.5592776677504603 -0.05350323947475943 -0.3568871967009969 0.05825750213885395 0.5480438325805170 
-0.5150851139626788 0.5894096146004555 -1.064977840806009 0.3092434707760139 0.9991892057771664 0.2077943371124202 
0.1309905455860808 -0.02960696589888558 -0.4136971507820080 -0.1207921318654164 0.2000336213136199 -0.2927781559180230 
-1.154163396284068 0.1555940519702915 0.5112580565222445 0.8127341154640277 0.09709005921052505 0.4190705236828275 
0.6854610330400343 -0.3448267032226652 -0.2209943161009375 0.1295594563910289 -0.3217799851403470 0.5022298302129825 
-0.008284918308652685 -0.3509517778552229 -0.09470525498282993 -0.01685363238561757 0.1530252001091131 0.1496143793822347 
0.4583225304983747 0.2799660323568686 -0.1817352063049296 -0.3482189985558754 -0.7305744405696387 -0.2036141865381737 
0.01097767283966022 0.09291855893659386 0.1973707687071162 0.6105324632482868 -0.4705929523904993 -0.5927480108261075 
0.01256174957081403 -0.3823759132989615 0.4568041931151176 0.3266724251110555 0.6357975200437695 0.5319712697047630 
-0.2577559698071046 0.7389766642327982 0.1162845598437036 0.04829001380618275 -0.4239875529525804 0.5309331614844468 
-0.3155729300031034 -0.2223989390049329 0.01662495801841700 -0.1846032446912642 1.250746162434210 0.5946043657924125 
0.09428453029352050 0.03086641782446110 0.3189340883923114 -0.1748331160097710 0.5781393133494453 -0.2150485951977791 
-0.8453982864263260 0.6950594763315604 0.8668135816797193 -0.1330867131974432 0.5688446826037195 -0.06328135196857208 
-0.2175358930318730 0.3348260686071495 -0.5603251448623702 -0.3934568086044600 1.090747223202561 -0.3093793842349395 
0.4847318222038669 0.5098345823810471 0.5667650323835988 -0.4629831070833538 -0.4685342970712133 -0.2781960513854682 
0.07672483868261926 -0.2416182959800290 0.009006825217804432 -0.1936693507129886 -0.005671181583698138 0.08193129648807300 
0.05831574205931639 0.2377087268243999 0.1760059403771861 -0.9906062052599554 0.1725594212136558 0.2148902654677087 
-0.02257511608624102 -0.3675827541800711 -0.4094770295829543 0.4211233721861402 -0.7096145370258070 0.1830544277850833 
0.09409512511546937 0.2504474850144444 -0.3735360550895479 0.05664202012703183 -0.1522732708136922 0.2738431993239427 
-0.6098071915856149 0.7219859834890122 0.2702982088025026 0.5609043435254810 -0.8603984720182751 0.2249151915893330 
0.09593599410191223 0.2007570516357440 0.1935055067405902 -0.6415410019437743 -0.7803171001145444 -0.6474065457441746 
0.5907274281286444 -1.435830266388661 -0.4764170534178627 -0.7820069656584746 -0.06035325087276366 0.02564026103175921 
0.4606859380777092 -0.9415667816299993 -0.03008167317218796 -0.5693215978005118 -0.08062108817128817 -0.4638292565398503 
0.3229650972090030 -1.006746654658963 0.4093800727433304 0.1467252016203253 -0.6274102329252605 0.1505649945411468 
0.5003505900103496 -0.1530919370065450 0.08656323282211409 0.3788119984955136 -0.7591589126253271 0.4756725608698973 
-0.2392180905907656 1.220846693881062 -0.5447077221382495 0.4444382872645099 0.2896463138363959 0.05200030228935663 
-0.8686809898486153 0.4249561102233869 0.9081977250867656 -0.5719265208539781 -0.1743477255107434 -0.1776841722848173 
0.5404668382330711 -0.2477408352888240 -0.1916028169376837 0.02774762837236841 -0.9268533120438388 -0.2872925437057237 
-0.2759911066191822 -0.2231744436176729 0.7965356137789548 -0.01863478443383624 0.2050463914919090 0.6202771404641069 
-0.6184106636362176 0.5785931511945471 0.6044058812377850 0.3480209989665826 -0.007505480078819768 -0.1466560869084508 
0.2207061500581514 -0.6255137724789184 -0.3074872348726530 0.03052465196882900 0.7393129014389510 0.04840836114030049 
0.4068127700483215 0.5096786771840126 -0.6844606403557620 0.3009805626272497 -0.8961033210951735 -0.09475238109876245 
-0.3461785236425399 -0.3404931230332548 -0.008449333006936495 -0.3592956769425619 -0.2490345014518479 0.3836941091490311 
-0.6106155022455430 0.5025419974849200 0.6137731504872347 0.2840561602303027 -0.4437255617499593 -0.4461183452504973 
0.2713907454031829 0.5026605668782103 -0.5646150048742584 0.3976524526001401 0.1373576513558610 0.5632202182613749 
0.04057391047415999 0.4407389912076373 -1.058592369603790 0.6475029591309014 -0.2335808539305667 0.1186737103561907 
-0.2883304789169043 0.2541200796670626 -0.3432251587808435 0.1409141568254541 0.8906966816264136 -0.07447084308120697 
0.2939720618763516 -1.440326743144066 0.3316619845636958 0.2807454299720992 0.8909707567566724 0.5158315022602239 
-0.5622994413814075 0.8299883828123161 -0.2522301668257902 -0.1406079229702478 0.01906108490855715 0.2677849847069271 
-0.1071261284100423 0.3900593152678554 -0.1043809067984965 -0.04059428979347119 -0.6454415129309171 0.4121340565935214 
0.1881365786407442 -0.6899457186507324 0.4684153658583790 -0.3209071451821785 0.1091826994905999 0.3402341935713246 
0.6821245247081926 -0.5020761687338094 -0.1406018430779372 0.3800922104572908 -0.5863710415686668 0.2440014943970549 
-1.147502288836918 0.1679390611154266 0.1613790489837317 0.5624803713074935 0.3239445083394196 -0.08288343390600482 
0.6056486696029024 -0.5024226747615917 -0.5774723741809044 -0.04049649114378405 -0.6893215198503857 -6.750696223879717e-05 
-0.0004556517761241224 0.3128466616993477 0.2051742385702223 0.1753996256017431 0.3075282982587279 0.5819963588056817 
0.07034121677874039 0.2823810206595290 -0.5536395294989067 0.1307599094534129 1.429105967455155 -0.4430708828310366 
1.013669701805593 -0.2614507508583094 -0.8545077474065251 -0.1414365838540058 -0.6091322626945537 -0.03400467793751144 
0.2002984598528418 1.104183884612036 -0.6955658759894329 -0.04569760753196328 -0.3829686296493614 -0.5675957538495192 
1.271891135095833 -1.551225240508578 -0.8156899643865610 0.5116831752577949 -0.4842993227749061 -0.04596013116255673 
0.5619010325685622 -0.6553272713147404 -0.06293000204314275 0.9549951036971560 0.6428828611220334 -0.4030670872235629 
-0.4377745503625046 0.7628188241318121 -0.2498997712870229 -0.3450818620494063 0.4020252744957775 0.1716371107687008 
0.3545926280444194 0.7904405816418923 -0.3157485289826223 0.07738320708530447 -0.1324488059108972 0.08270985682493501 
0.1104025286943225 -1.142805215143204 0.8895831885442793 -0.3584388494640965 0.05814860752271532 0.008941442754724235 
-0.6952339425321429 -0.2670352698606992 0.5349508133406986 -0.03435289264676545 -0.1605909500246321 -0.5078394241515847 
-0.3413781272569409 -0.3857060972861206 -0.1440426705509050 0.7391175749767738 -0.07476785762144865 0.07054630879837631 
-0.2723997271308217 0.8733748706519072 -0.4630396824080664 -0.7955671112505682 0.6650979365094108 0.6584893518568385 
-0.3999441750134610 0.3421730550446976 0.5525061903745386 -1.143057520713905 -0.7564228938979756 0.2618506252691530 
-1.417176723139866 0.1828843967709672 1.522879466237027 0.6223694638066709 -0.4137608676515928 0.4629568303480910 
-0.2436969640643577 0.1131428753664896 0.5119789320986895 0.2920377843005523 0.7702216725627252 -0.1021288602320919 
-0.4647525765387494 0.9161035664028945 0.3874902081938391 0.3104934822564640 -0.5504060029430890 0.4624347092471274 
-0.6935478060981310 1.149091716508985 -0.7383650159646652 0.3263252698788714 0.9156566514090522 0.3150406721784217 
-0.1789197494872056 -0.02801879494303036 -0.3306738765238971 -0.03516134543053601 1.123060528132193 0.2138979840569906 
0.08499799800538028 0.1492817141453802 0.6257195540186665 0.1348341121016377 -1.117743089152613 0.5084302775288031 
-0.2013000573335155 -0.06360743724761865 -0.7797292299533963 0.6102911413562908 0.1039871589156932 0.2832354743117073 
-0.5111526685703788 0.09142535474633055 0.01545363866282418 0.04861916642520752 -0.1035347297640559 0.1654396857923647 
0.1462738714218010 0.04826870453581287 -0.2956237559066703 -0.2990384608154630 -0.005029972105741489 -0.3448238422444320 
0.3232171021361155 0.2067005539596379 0.1290339061671944 -0.3942762610468099 -0.6674061397781239 0.2596162454035748 
0.5699911228577259 -0.2031024749140830 0.3593158152502238 0.1467121649631142 -0.08088647248488916 -0.2687284196243067 
-0.2743574322146569 0.6377248808397866 -0.1917476951700582 0.2531273512468066 -0.3059353108876549 0.5526749347260564 
-0.6078258760128943 0.1839902381653676 -0.4198048072478398 -0.5374591005212164 0.4667277565607554 0.3254792678534522 
-0.4172823548476167 0.7842061580823433 0.06833615423931065 0.8504779130956918 0.3813041059997313 0.6061267477220660 
-0.2418421532491408 0.4624498018017273 -0.7481037176133396 -0.2708764949444577 0.1020210106378697 -0.2266686851463792 
-0.01186812354785002 -0.04465685590380729 0.4145812555242373 0.007156651916777322 0.5519987747576490 -0.09290423559189848 
0.03545351870803287 -1.054579231004809 0.7515873140501288 0.6699402252710112 -0.4425156302510249 0.7874577218184583 
0.09984303543478085 0.4956831203765642 -1.187524346613823 -0.006656225754759469 0.9735450323802923 0.4184675130360130 
0.4029311165024536 -0.2090449359377001 -1.139203159678442 0.0001680957467421041 0.5700688224173223 -0.07803728961472994 
0.01270488585167212 0.6434362522881035 0.4076023913602005 0.5837898724435021 0.07991886743311696 -0.006015383066061787 
-0.3028240522968557 -0.3709756800389242 0.3473366690074086 0.2428010323749544 0.04059339610294478 -0.1702534815526579 
-0.03948291888210390 0.2114077196214869 0.3032672955592740 0.1299663738694009 -0.1337817873357561 0.2957557514952431 
-0.5090900300742334 0.5696853030240556 -0.4128911706264699 0.006270117907034105 0.1522119284398038 -0.02747557513760607 
-0.3104723810448662 -0.2168159687756310 0.7207406082576825 0.6892767337746986 -0.3878028896394180 0.2442931174697248 
0.5550093819446491 0.9375067479352722 -0.3937805904194102 -0.02935831175905157 -0.1397581951555399 0.3690173440149330 
0.1108603208293737 -0.09968401836617401 0.09812138618232800 0.7553139816595739 -0.2041077473686119 -0.5412250006590649 
0.7926032338362174 0.5345302749822440 -1.206769810615225 0.3792044543485982 0.3704771041889121 0.7002254961931454 
-0.1111522612976977 0.6370252179423070 0.4308846863175556 0.2639735743186031 -0.4925628974828022 0.1572041916265572 
0.5594047652077961 -0.5212957680384829 -0.6985192004856750 0.09407236582879660 0.2148097094706837 0.1883208247663326 
0.3873305392296036 1.029422397463931 -1.201712905898728 0.03408720629842889 -0.8217725134765637 0.1660766076444586 
-0.1523834795325917 0.3292564160610963 -0.3665930513630161 0.8818537184868200 -0.2090873011792294 0.09876906449516691 
-0.5556105319187391 -0.02987238354582808 0.8042652867488114 0.3319820805418308 -0.05703761283013175 0.1019089367414706 
0.2137022361548560 -0.1238743572913023 -0.1900738331890098 -0.3859410108367129 0.3655525396158258 0.5444644100495515 
-0.1174261750430792 -0.7309290746338266 0.3320266946288077 -0.05853273612361398 0.6035542403946432 0.1080498170668428 
1.242369931016968 -0.7272930963584824 -0.8410013578576382 -0.5684007717991635 -0.6209772593584908 -0.1270856765062480 
-0.09234145174257655 -1.225561817019114 0.07718039760945618 -0.1576414732392552 1.083203125015657 -0.2169558986060297 
-0.2786747691521538 0.2467091142680576 0.7057278922641750 0.6428188069140144 0.2071248332995126 -0.04281928608155054 
-0.02877094713385065 -0.4196310336354648 0.1660788094661124 0.2860409557848323 0.7343053204306383 -0.1746045402946794 
-0.02582540089886535 0.2299032116251015 -1.123400901471619 0.02755558642632150 0.5150776145708390 0.7153550252420906 
0.1922139345763616 -0.1147429513965411 0.5253252164911770 0.3646968962111313 -0.06997569084687583 0.4128232732835859 
0.3458144218245495 1.417376689971251 0.1256451332553578 0.8479703875387288 -1.052109725419274 -0.1840336038862944 
-0.03636246375971439 -0.02770868118864107 -0.09035079704246936 0.1098410312370055 -0.5776821788121055 -0.5599540468873796 
-0.7325725954117136 0.8103613337618969 1.236911245418645 -0.09465384645707604 -0.1464200214695979 -0.1850462577439703 
-0.1847695751427045 -0.1044820919958222 0.9314477202712380 -0.03608764881159286 -0.4739351357835855 0.4823686135115333 
0.01432869514567946 0.003328281860953083 -0.3873791065431025 -0.2017986169975113 0.8749997453776277 -0.1092876047455416 
-0.1643269091977659 -0.2787002722879102 1.167346483765726 0.1528240696475470 -0.2277044426426750 0.07236575438737289 
0.8265715250115547 -0.3622851797181902 -0.8298243989949505 0.07858063908679085 -0.1089634154475202 -0.3963852932508786 
0.3856659294402540 -1.345786463672827 0.4448130581626476 -0.5579562149532852 0.05173959467059890 0.1433194497144432 
-0.2698801099251263 1.046736628530934 -0.4094929383839801 -0.4159091685722638 0.4711760397632013 -0.3123921453192836 
0.6777828715587787 -0.6435872476221690 0.7994533084979087 -0.7108601152733329 -0.5980955496953472 -0.04264770559990222 
0.1251436913281400 -0.09610977409960278 0.2361257893920163 -0.08938495000282560 -0.03850394466404419 -0.09634088847234466 
-0.3246780114734475 -0.1037139754866630 0.8201973318510386 0.9724209479702248 -0.9858159953017998 0.1081839259825023 
0.06874938950441450 0.9376375078343743 -1.197590330356216 -0.3539116461291183 0.4784154025609720 0.1088580448559186 
0.2019390150125143 -0.1284298009485349 -0.1046648325019373 -0.5802693931903095 -0.3476832027181098 -0.04077126792742759 
0.2954547570589389 -0.3658141123647170 -0.6151008459749266 0.2786694601956349 0.5293472009098825 -0.1413451217784041 
0.3079837966547560 -0.2003322136864763 0.3112913129139669 -0.01755338385756512 -0.3947225610120297 -0.001132355967036370 
0.5515573418847891 0.2951610627160391 -0.04504743770875782 -0.6590145599747306 -0.3574063272872980 -0.03957950581920048 
-0.1092314271564008 0.4702547897227527 -0.5707584242473450 0.1372479057996559 -1.203984098992821 -0.5644794529203424 
-0.8362952320130509 1.725645182482055 -0.6184470929348337 -0.1492219717111700 -0.7521426870967077 0.03185475492615028 
1.633377998736089 -1.627108346920075 -0.5355390205951336 -0.6271011502827547 -0.5050781038190630 -0.6432142502553623 
-0.6037678744764208 0.1090284086094267 -0.07383239692741164 0.05626310481233970 0.6465023214697523 0.4140219619230724 
0.6723070839358639 -0.09767517091582571 -1.089368359821698 0.2068453742848674 -0.1374006781591814 0.03099038421997274 
-0.01394431792413029 -0.02638397315607902 0.5337942808590338 0.4980596320741884 -0.6694167300695083 -0.9645729665710979 
-0.06362089975763795 0.3973788598814027 -0.4691397103818087 0.4611127743019081 0.1753086815625297 -0.02425975126455178 
0.001929679123829828 0.1670319504909295 0.1819540549328117 0.4123029948482780 -0.4388979723614309 0.6136693373624460 
-0.1497565209360342 0.5306607163723237 -0.1549604637794250 0.2908475116619800 0.4245129514832135 -0.3288335665335457 
0.1782979104691781 -0.5303298288262446 -0.02489897117019244 -0.2121159562958702 -0.02485651132931444 -0.3471839853787951 
-0.4361061397052950 -0.5220861524885105 0.2235147764252141 0.2004460624336500 1.036294660804535 -0.5433706736768429 
-0.1441988204301678 -0.1177935289791207 -0.2495422749896564 -0.1082793540730263 0.8306488160644520 0.4344938445096579 
0.4970897621178181 -1.138418885034816 -0.09321691488883650 0.1563406913291223 -0.3605087985756375 0.1683425856953547 
0.1490534410330746 -0.9581351130247981 0.06959780595533428 -0.1656414510058891 0.1776520531942054 -0.04785594801788243 
-0.06058821787706854 -0.2518628366893882 0.6564323618177856 -0.2857342160575053 -0.1766958235824087 -0.1852456489848288 
0.2356722277805744 0.09493795797434232 0.2150914552949887 -0.05206952686784777 0.06281608303354420 0.2184440153602851 
0.7082557130501447 -0.06432121678029670 -0.1864625330154051 -0.1712272980163096 -0.8970004069739491 0.3103312656300202 
0.2904384231761519 0.2236576062439908 -0.1097620939535758 0.4592148484724325 -1.341031734550390 -0.3191911685158991 
-0.04111051671086387 -0.3969320585884941 0.06455601586749798 0.2022984284112385 0.2964969850286514 0.2585618227771546 
0.2093988604656838 0.08255479759305402 -0.07040391588603463 0.1496472310862738 -0.5694732201866481 0.1395035318120857 
-0.1738530568882843 0.9349175491547944 0.3577386348087050 -0.2364804148549560 -0.4636377994559860 -0.1456237497045936 
-0.07062936604222016 -0.6664431079988813 0.6510448958663486 -0.1446192406547255 0.7427744254651347 -0.1402088976290671 
-0.1024902889233753 0.1010313554415058 -0.1545850870406743 -1.156635612796675 0.3754001996543823 -0.1480508088943073 
0.4462114092312561 -0.2921947945905654 -0.4941721583243622 -0.9734397524918310 0.8817366104209808 0.1543350559513985 
0.1714902331336034 -0.8207024897777460 0.5701287523061451 -0.6650626867221672 0.4355469271444698 -0.1112142037093884 
0.6716632448485408 0.04979578582200520 -0.2909053250165242 -0.09969614760687270 -0.3727162782787009 -0.2785982730052323 
-0.6508050962961287 0.8023081740740161 -0.1093867012698577 0.3911894190925209 0.06288379053833214 0.4531663985219122 
0.4077527089871808 -0.2912703642693104 -0.1907684917171842 -0.3422958966488033 -0.7988461299850581 -0.2047619052449211 
-0.8327378727435754 0.3960126369532566 1.125808956643720 0.4465802501221410 -0.7054203800015372 -0.1866404384652387 
0.2696171170891629 0.1691307506570687 -0.1414323733860105 0.4733579661348689 -0.6424768106631980 0.1330410689243695 
0.2910564498907425 -0.5634711395047944 0.6237517304510771 -0.1209211192081169 -0.6705559206043047 0.05174834544711476 
-0.4565582756480191 -1.220104182337770 1.465736760171484 -0.4408462830838163 0.3363700531299514 0.1048187115085391 
-0.3078719953826159 -0.1011399397785740 0.3196933975034327 0.6630048778787336 0.9988414514954859 -0.06051730343979679 
-0.3387807027698879 -0.4827147715209794 -1.007727796496350 0.7993000797089687 0.6871386655799225 -0.1929748879596127 
0.4035558136769840 -0.3711339151469808 -0.2138838063688594 -0.1872639219738967 -0.6072928941468285 0.2945390354534001 
-0.1837663702050981 -0.1328625564739211 -0.2672239879001074 -0.06068122537504086 1.026368094346721 -0.5409774303119671 
0.2883965372881465 -0.9213059691322755 -0.9285495983419648 0.1064196398822650 0.8102320971451420 0.1111506234751611 
-0.1392472984481432 -0.3477867335395995 0.1616454136190411 -0.4889430821686696 0.4797022464397512 -0.1335342240393381 
-0.4012382884108768 -0.08293347447183527 -0.4262416236193356 0.9177982137829311 0.1760835898369569 0.6658249239162676 
0.2265618684911231 -0.7403850342514997 0.2507456464904063 -0.5231011911238684 0.5137421535135128 0.2215885802527436 
0.3241251946179079 -0.08198067781020385 0.6839637134183928 -0.2207925986925823 -0.1921349604019206 -0.6150831337137842 
-0.4734870518450807 0.5131434556040404 0.1938831715255617 0.7093400708152896 -0.1946564594870125 0.09493413513455447 
-0.3652271497288245 0.3818236568550859 -0.2960591834125099 -0.2495590397086848 0.8386152344524136 -0.6064072146393994 
-0.4141156856566572 0.4849964448847604 -0.2067814707937728 -0.7043674609933451 0.2824871286373695 -0.6439337337865194 
0.1728998416341188 1.098045699277689 -0.1489513525941474 -0.005934677002031841 -0.9704455420569343 0.02785376169027604 
-0.02447187534160452 0.1073819577534634 -0.4817265739791480 -0.05749684801231044 -0.2975983547904877 0.08441448126512725 
-0.5804928023655865 0.07819760275321447 0.02015531402721965 -0.09807019809512466 0.3410649865726133 -0.3096212910292624 
0.1985340186921798 0.1644514010851031 -0.1753959269566826 -0.1857882757130314 -0.4812144597575795 1.065191772018233 
0.5183711041309309 -2.199245700615780 1.354728448092132 -0.1466167366505227 1.430077528544941 0.07762597982813996 
0.4358823237926856 -0.3821953521669304 -0.1469524929298213 0.3374459423017761 -0.2171597714264381 -0.5117612623797843 
0.08894686323122888 0.2557457446326397 0.3256227174796834 -0.2738753799297468 -0.07093104660841239 -0.1202023367190498 
0.7711956551696566 -0.9068660864533176 0.3235748595739537 0.09027578787703378 -0.8124183393142460 0.5114263063277471 
0.8455749290574147 -1.337694301266206 -0.001712819847416799 -0.5118554192599062 -0.06113468021670535 -0.9647342939943993 
-0.03238322587086572 -1.162668662022002 0.4589174894362784 -0.05515066199324731 -0.1028624584588071 0.1766931044528473 
0.9086682548528944 -0.5450760338098840 -1.407883386090237 -0.2378528363082024 -0.2046001784373426 -1.114867203303919 
0.9365472474217643 -0.8559881610525280 0.4139345871447808 -0.2510518195499412 -0.6120787094266978 0.4069662580324772 
0.5195498273940697 -0.07924815634130648 -0.4120125711280766 0.01906976428522093 0.4894715585838458 -0.1793631546531778 
-0.7435453422273934 0.8381026580716998 1.077314672222170 0.3522050868628541 -0.3721983096029107 0.2045050723545709 
-0.4113680344765007 0.8857898334934299 -0.04196372805294189 0.6061707046296860 -0.2247062941321065 0.3310275119167928 
-0.7591530661894083 0.5347179847568665 1.080734970174945 0.5651559237166589 -0.3242282210426627 -0.5706268819611281 
-0.7194560507473162 0.02712039353691814 -0.5166576707078077 -0.2748698733871676 0.5146653171405842 0.2973939805361349 
0.01260928819746800 -0.7809358747842510 0.6325769773075626 -0.6733824717866228 0.2790464018223999 -0.1521156800041118 
-0.3659936938746993 0.3260704834057416 0.8288374578660720 0.4805163752934205 -0.2625130590834468 0.1633681496605067 
0.7055708947343040 -0.3934678916268374 -0.5687987396011664 -0.3078131461531419 -0.5235982854707532 -0.4763693029043507 
0.03916270827681002 0.03230692007043689 0.9864693774392492 -0.4695738023927684 0.1461598901899099 -0.4244762574873066 
-0.7036783303961776 1.221681855027704 0.1146647865908505 0.6855244595226333 0.5546620131665424 -0.2479700647074019 
0.03910100034473332 1.466262590670004 -1.245370477630009 -0.04072714170985024 0.1028809037474581 0.07540487568356423 
0.7908251506551313 0.6892500235043232 -0.3622609312392773 0.1641880614215979 0.5408086682019643 -0.01680329109891047 
-0.8710635334331120 0.8396541192679384 0.1876207659395502 0.5275859430241158 -0.3771311197291218 0.01427863638755906 
-0.3901464661558052 0.01862388321100241 0.1224369950797317 0.1459852707333653 0.5120687268182523 0.02795805400542356 
-0.2725523175248285 -0.02777272630186039 0.1636661418037340 0.2933846892926574 -0.7382370786104085 -0.2795438219271249 
-0.3798730247873498 0.7590958037279376 -0.6197852488021771 -0.08110771561327940 -0.1167649455165155 -0.4627918938567772 
-0.0001151006079857522 -0.08924273090942490 0.6890091958565733 -0.8855784073126464 -0.4232036744055114 0.4196585373062638 
0.6127852824533205 -1.004545896129314 0.5997045577488694 -0.4309777877203216 -0.9949116946560813 -0.5324889675476051 
-1.003402548519280 0.3759237585252162 0.2533663634933387 0.2466630390832370 0.5617674044079329 0.3657626641775801 
0.06008226462858569 0.01232368371602282 0.4378836646034791 0.1916302531516657 0.4503469516414488 -0.1829665754072317 
-0.5141609347818047 0.3958142962955730 -0.4471135857625753 0.1850907119047569 0.04238444163454613 0.04009392605813367 
0.01533902513601192 -1.080031893618912 0.1823998525607039 0.1692533861171322 0.1927387000359870 -0.06205309837296140 
-0.1178816371229586 0.3210832624036804 0.3280570558368988 -0.3372087995116534 -0.05207742067531863 0.2532023166621580 
-0.4128312846006960 0.1888211755184167 0.1563447016117152 -0.06613774722538351 0.6936082089753427 0.4062155524198716 
-0.09622970019651976 1.116512888983970 -1.179511335288220 0.3579928222324679 -0.02217775020340142 -0.07235872707240934 
-0.5647428432420871 0.9288321465312078 0.2100964359585227 1.110338748612706 0.5424879616195717 -0.2254258201094961 
-0.6955145442999263 -0.7395388011857937 0.1245189391819605 0.1440756648074093 0.4430782874385333 0.2330315771603732 
-0.1322617059653728 -0.1137935829812705 0.03069603199118664 -0.08716591332694668 0.4829745317180033 -0.9538306344612592 
-0.4542969691962858 -0.8496293276393622 -0.05555056812956132 0.8701355521715123 0.9585431452243102 0.08945908884414547 
-0.3423599200788930 0.7183847620326921 -0.3781725256720397 0.5103760579230436 -0.7132280432031453 0.8067331179396595 
0.5628145061812689 -0.8191410415106555 0.5658282372802027 0.3845115938279944 0.3974828672086949 -0.3476874247198038 
-1.054148005664907 -0.1097724443899063 0.6259471723888484 0.2759008161763744 0.9372285575964266 0.05455640869661146 
0.1935982189935316 -0.3276449010849901 0.1817447534001536 0.4870567714174653 -0.2168616640640167 -0.4393785599277369 
-0.5477746337391715 0.05175905848161402 0.4884804415467429 0.08879947532888337 0.2652822458312132 -0.01951452333362210 
0.9236826038474257 -0.3471782172198361 -0.6107979835900462 -0.9380965223656385 -0.5655760262985654 -0.6024078882396708 
-0.04127747778226711 -0.2541974574138428 0.5161692159420727 -0.007330616658267733 -0.5218793126403340 -0.3035179972509732 
-0.06711865664249266 0.9133172408711917 -1.720019192413054 0.2560451670059428 0.7941608017584423 -0.7477387601896177 
0.6659124044030105 -1.292994417646905 -0.1605298764534533 0.5749350657697571 -0.06410638075774511 0.8516480039832348 
0.08393049880840708 0.2211609072807934 0.08893572787612433 0.8263819389748317 -0.5155431384119618 -0.2219372041805533 
-0.001672916514312444 -0.7458385818786791 0.7144927883343791 0.08611442322112571 0.2540728255198914 -0.3184818203007008 
0.05115176420412568 1.119037025105836 -0.3072330357019875 0.3005444015530370 0.9405625115448442 -0.008177577455662744 
0.7399553875804785 0.3168279177773076 -0.4593938686982228 -1.974860375106679 -0.1282475132650597 -0.5568646708581817 
-0.08497552498670984 -0.4206202479587383 0.07947135502026197 -0.4022564514301756 -0.3212497227152790 -0.02062880047683594 
-0.1035885970863508 1.287569479152991 -0.7058762060261086 -0.5707265568261110 0.8971361086548900 -0.6958183021409636 
0.0005507596772433712 0.1490363968457464 0.4214799288882299 -0.6034652327403743 0.5282759299641857 -0.3753827624881108 
-0.2579910325060014 0.1064956524060232 0.1449096502409219 0.2849751170558627 0.2049084271592791 -0.1874388636576482 
-0.1767896930101524 0.2976295130722991 0.4245102004189547 -0.1531937361580553 -0.06641741880023030 -0.4241705546754196 
-0.3238169546321801 0.3878036395962441 0.8233936052254482 0.4851918168017563 0.4113116419486071 0.4431218089354032 
0.1928296527415084 0.7030452848276512 -0.9919394366200973 -1.010282460686980 -0.04418148966827311 -0.3868267991632233 
1.123661846894528 -0.8785700752908661 -0.05336189503936561 -0.8414723931760117 0.1818358336083701 -0.2461631635511715 
0.2217433716437186 -1.125093305064553 -0.08973416859876161 -0.3158310481402033 -0.07262714298559995 0.09183038362170137 
-0.06010832792542941 0.6300106628663374 0.04102091666534263 -0.4846504856225646 -0.06899176296430574 0.4159765112944123 
-0.2345393921658511 0.4888936655698226 -0.2877981881546843 0.5555469548844234 0.6237624979618717 0.1454686891266545 
-1.372388432903402 1.102290512002197 -0.003389141305354604 -0.1249896840681563 0.3877801604479650 0.3041573148100810 
-0.2392581570050376 0.2153771068540671 -0.1438199224621367 -0.3621588944778783 -0.7252713517037892 -0.6677454602320452 
0.5482678947422577 -0.1362161472271768 -0.1756396198397068 -0.5667151173011000 0.5123882342794868 0.04306801616453533 
-0.1520747863103885 -0.6510361620479665 0.7768705680679687 -0.3014575124887441 -0.2672490434150862 0.5387934478959838 
0.4017372112405687 -0.3471397158261030 -0.4899755936061203 -0.5801421269668151 -0.09108259005569218 0.3356404354956198 
0.1454433800281919 -0.3626567361261341 0.4589200477951526 0.2756160199422427 0.1442088141224659 0.1296056534130220 
1.319788281834350 0.6261139014110638 -0.6261615032666042 -0.2212627509643464 -0.5427544128656848 0.001520604829386479 
0.7409318449859328 -0.2069312184897963 -0.5040700283616447 -0.1352318183463501 -0.4443797830948437 -0.4815978039644092 
-0.2371862180857350 -0.3473620783538772 -0.2232782690409161 0.7187087775708609 -0.5033966256866147 0.2608130812990923 
0.5855033058228241 0.07525865817500144 -0.6092557119473943 -0.3590082669525850 0.3577053921894527 -0.5428303555787719 
0.1923408841196116 -1.733892641732194 0.5514327370347658 1.181942881602651 -0.4652067907060258 -0.1201939482287157 
0.2514321526292918 0.03980155102873744 -0.4608731430503197 1.371774000451014 -0.7994348157252396 0.9122669740596823 
-0.7380028157167776 0.8694391529387949 -0.02580968027709010 0.6829302946564132 -0.1901593437297817 0.1711870064229226 
-0.2808825125307796 -0.1743589820834781 -0.2791079441388961 0.3806316503115098 0.6885770884377493 0.2877405247070725 
0.4104209459198443 -0.4993873932520525 -0.3218793459554893 0.2909917754933025 0.4959577500460534 -0.1039180941283706 
-0.5527346152417048 0.2146834295230769 0.8082909089743745 -0.2906989945390436 0.2141665356416418 -0.1523534006120186 
-0.3031937120153849 -0.5000771024990500 -0.05202646687540850 -0.2144463499048014 0.1312654013433120 -0.2862860263583289 
-0.1886348148710697 0.08485782044387030 0.03105407763533227 0.2907840553607319 -0.06388132346138704 -0.09449175076184040 
-0.1474002138134874 -0.7343046136163018 -0.04734732118843750 1.112344479088703 -0.5254258327769477 0.2043107252052101 
0.08411277399147556 -0.1923670383063042 0.6559778140593069 -0.3945231995070476 -0.5023679612622078 -0.09335976790883264 
-0.4140730505515364 -0.7878449182814665 0.3577042618800004 0.8934653679670925 -0.5055578669132613 0.03655145265558878 
0.1675939433791744 -0.5394757451095504 0.9065690521071613 0.6424762624808694 0.08830262919461138 0.1672287324751374 
-0.09816604424385679 0.1838749690570695 -0.1453218856823609 -0.6073364393551307 -0.2979898965898994 -0.6031279873415736 
0.3369967269426590 -0.1009039236334200 -0.2270568011661699 0.01689909403184019 0.3232060201406831 0.4914315954198673 
-0.1159739911272045 0.7978813437014725 -0.5787092365281412 0.7568314696819150 -0.1755485770962397 0.5053866972851832 
0.6504894265261623 -0.7823668597007467 0.6315536773258860 0.5990563024211703 0.6935452766858983 0.1197751780528239 
-0.9189778378907081 0.1453515820731695 0.8096333134848095 -0.1189372072243228 0.2652511905577966 1.136232393218367 
-0.8699917497545471 0.7230136792771031 0.3013972368042018 -0.3128890213879926 -0.3492919901519598 0.5256527526854890 
-0.1667283817895826 -0.03715461359322247 0.3799590231859079 -0.4280530871771707 0.5108113567110257 -0.2092776949856192 
0.1120568193978748 0.5605867829424865 0.1102027461427590 -1.586663769229648 -0.1675917385170773 -0.6644563203497940 
-0.3019931337894196 1.319239558203701 -0.6220250985191472 0.7659333204354020 -0.4313120259442578 0.1365610774174920 
-0.2535393383117985 0.4704850499097207 -0.1215504421796588 -0.1947008235752742 0.2302585876022113 0.3848853417846776 
-0.2913985325655273 0.01498148143454487 1.085565850200679 -0.3851996697189727 0.6923369733723398 0.05726103232474543 
0.3290046515335304 -1.172534791272319 0.7882678635683719 0.07782182996812344 -0.1699984153241900 0.2960357291695088 
0.1846042058612219 -0.4069583596219546 -0.09878168196485876 0.8437624055625008 0.1207084275165145 -0.005231469710837377 
0.9361818669615565 -1.096628018374885 -0.2825035128953351 -0.3854599952473306 -0.3629525799726407 -0.06417138719040012 
0.9106082135920548 0.2618832721505138 -1.061045303670138 0.1388807470257845 -0.1680223001543708 -0.05925195832214863 
0.1459606441441269 -0.1160346025592801 0.9035751646737306 -0.3349711406751751 0.2690983568667114 0.8842876293363287 
0.2273964606429894 -0.5784875610308234 -0.1498101199885993 0.3901561278130876 0.1952375142748430 -0.2238134712065667 
-0.2241489608781623 0.1434428033503369 -0.07329801124497762 0.3810719357957673 0.3708279538403933 0.2887357540250088 
0.3904637196981075 0.5450237885698670 -0.1003729694319052 -1.060195852682417 0.8248562781660261 0.2497980861950482 
-0.2990763595676835 0.04135520823319609 0.7662043280964681 0.05602365462823054 -0.7308133831727239 0.1940572912521013 
-0.1199042380003306 0.5057429883873283 0.5497427024813826 0.05995333571584239 -0.3355357722525070 0.04156753478443098 
0.3018842347519039 -0.1583569830266720 0.4742482187086566 0.1922473697073363 0.1651180518799532 0.6923337126714569 
0.2074236393661306 1.145526713911538 -1.126149499951301 -0.3622283573659997 0.2610307842561024 -0.2075463579642355 
0.1474923759321261 -0.6159781015988057 1.153599412364551 -0.0002866105607337988 -0.4114322423716615 0.06715035495491856 
0.06124561786647956 0.5304517855843744 0.4452514164955355 -0.2018341529726841 -0.8045705440568626 0.1961362966058616 
-0.3253437945831854 -1.515781585176154 0.3433077460464838 -0.2931946770051528 0.1370988896555246 -0.3192278707313667 
-0.1979134542623929 -0.1605071154397500 -0.6221262001423625 1.078674647208034 -0.2107000649195162 0.3104782106623115 
-0.6830726417506257 -0.2459098593460458 0.2971417783475076 -0.1446766987701403 0.2459920617522934 -0.4362956402612275 
0.2305349896673975 0.06089370207186068 -0.003309541702668866 -0.2912739585379419 -0.2771494856190161 -0.03642711188371282 
0.1341327673021665 -0.3711361687903850 0.9188954351314541 -0.4326657235652042 0.4866623590004508 -0.4214350681785739 
-0.02507731292062281 0.2869758503880229 -1.634777818893947 0.7217662293277624 -0.2235507279733273 -0.6542042951604932 
-0.2551539672710883 0.1342071785201533 1.310683263309214 -1.175663246298179 -0.08097788936152620 0.2235582574747700 
0.8736012805889155 -0.1637759825974007 -0.3114563612948213 -0.02281061659189709 -0.4824680452698585 0.3734889277224970 
-0.5034128196677204 -0.1638932584922196 -0.09383739713812970 0.4151300444530930 0.6217078204105294 0.4219424882060025 
-0.2599104638264709 -0.2132648420939847 0.7378629596166391 -0.8119962933992524 -0.4287646033306820 -0.5537453901717350 
0.008594606722929657 0.7754276668568058 -0.6970622572410289 -0.5954564380048160 0.01702628051247579 -0.5680197480485673 
0.9906867007164266 -0.3074176007367585 -1.928150912618049 0.3605840964190200 0.1656644655481410 0.2116090040279179 
0.3779526494586818 -0.4750069218982063 -0.2148502738307363 0.2440635360269577 -0.4562515195468152 0.5010072827945264 
-0.1229521405442730 0.6005063449285353 0.5391750661713579 -1.319022395976680 0.02512646090648365 -0.1369175568562214 
0.07712869478561926 -0.2169558738115333 0.8944263259586765 -1.018100963306077 -0.2619967348893369 0.3158560164283559 
-0.3998728749677523 -0.1515787024879179 0.6294737471686188 -0.2653350871918530 0.6872049367672487 0.2224389502175568 
-0.3930132966862968 1.117531217728706 -1.001794645410751 0.09824704851328668 -0.5381523265234487 -0.4425740694515160 
-0.4460915378461252 1.138839490025702 -0.8295313908043624 -1.045151006936036 0.1607170116059096 0.2119303754095224 
0.4837747318302352 0.2853331267694257 -1.055296599159947 0.4927210460526426 -0.3633896024527849 -0.5583165510937178 
-0.4019738215134586 -0.1035531909185817 0.6459683434208623 0.3392488983622876 1.033098994905779 0.7562893278733064 
-1.272255991178282 -0.3438662429325604 0.4316890317784918 0.3288493059165271 0.6794112409258851 0.09671627966986106 
0.2523540317476373 0.1369668683662867 -0.5996952043414042 0.6492843740825262 -0.2829087649159830 0.1794645504898542 
-0.03713278034717195 -0.1999927401981845 0.2209530017379068 -0.5298076894684473 0.1067996113770602 0.2272527016757199 
0.2245246361645682 -0.6078294003384285 -0.01077968113757219 -0.8945841886858724 0.8967967598808002 -0.3631228964573572 
0.2638459691640691 0.7309226694344984 0.07814067357079511 0.1788473946018046 -0.4644050343036779 0.2374546626024369 
0.4536316760749323 -0.7009968734257997 -0.3343731317001174 0.4321540775780802 -0.3414250728411187 -0.05785652865468186 
0.8340698003406295 -1.278567563069976 0.04375619072037455 -0.3850653126885901 -0.4774457489816407 0.4818370717789782 
1.062343056049063 0.3035943429597903 -0.1437642660349612 -1.075150197459601 -0.9427471923553263 -0.1874603966390206 
-0.5830848427748117 -0.1597156192197202 0.5604176131170505 0.3393762584290034 0.04685697646108688 0.3533055852357495 
1.460690672594845 -0.5569100957972983 -1.528543981821008 -0.1271304736823767 -0.1244820570316727 0.1301977555475683 
0.2838753379360965 0.2783538734141322 -0.3899326670528443 -0.05935081593019997 0.2504475355264194 0.2545442819327049 
-0.2285999852178387 -1.408474360835897 0.9061086639246058 1.008455164640891 -0.8119047495046549 0.07345959377799882 
0.6652171521241567 -0.8463077157380098 0.06712973314453770 0.4221765260500161 0.08020422204498130 0.1764949502833125 
-0.1050427544758390 0.006192414102983004 0.8764426662342227 -0.4293570140626310 -0.5377664277446480 -0.6827569384380726 
-0.3151625900690953 0.1990878813299361 -0.6316832010980338 1.697381212886659 0.09764967356479160 -0.03444073039706334 
-0.1083084616260662 0.4039471674357451 -0.7896566937848496 0.3203493888023726 -0.01008515141918102 0.2650278421959937 
-0.3483588939953045 0.3815681364268241 -0.1925414430864259 0.1782686070564142 -0.02036087109610447 -0.5761007516124017 
0.01032738340875566 0.7572836897564899 0.3174951942883542 -0.9168914953106825 -0.3603148609862943 -0.6898792276956915 
-0.4418776265220688 1.446742109877283 0.1735494517101723 -0.05948116164779611 0.8176100067493073 0.05283571127879855 
-0.3702935985215151 0.1156759482761433 -0.3416008770393079 0.6385525856142545 0.01345294533047249 0.6997704392071370 
0.7804542346778716 -1.315966901337134 -0.2017151210772269 0.7174731198923783 0.1470849025951374 0.1482370270812523 
-0.2657404579741665 -0.6905105919923051 0.4865002124148646 0.6667379964684127 0.07129729571238144 0.2198040668060211 
-0.3784882816805877 0.8442006848723815 -0.2386902337479593 0.6527322073217987 0.03656291961987229 -0.1675854687168110 
-0.2520877823384312 -0.3180169822605817 0.9115735756783363 0.6579310489765088 -0.4882234400367502 0.2719911347941325 
0.1633128834118290 -0.2252412552863887 -0.2518861693318764 0.4452277915943917 0.4990315786083068 0.4781224205849609 
0.7928275416723943 -0.5109318524688780 0.04570186317230812 -0.7657550390592026 0.2893368595006214 -0.1703204969319132 
0.2765337952607639 -0.1905185911199550 0.1988310495017750 -0.04448591023675470 -0.4348746362859968 -0.2995140795903522 
0.2580863663927622 -0.3747371645750994 0.08711132358784855 -0.5955212302559633 -0.1972473922317057 -0.4270057972819236 
-0.3530348090798384 0.2211497650947499 1.061145408422422 0.07069410142884250 -0.6249826979319046 0.4530878479650773 
-0.2083135917188045 0.6513226499604985 0.5836745229772576 -1.341642854964427 -0.1585575024675960 0.8038302612699812 
-0.1984830610048740 1.415151890654358 -0.01607556628081074 -1.216966652256801 -0.4509532327829138 -0.4148135555990417 
1.138593857695418 -0.3146047173884217 -1.438768260373660 -0.1451408672997379 -0.9481671963622078 -0.3930732197647953 
-0.2819569935874573 0.1618690588129803 -0.5674715013476571 0.2931653560024604 -0.2282505954590025 -0.2412135014338764 
0.2933994052480385 0.8482323090428237 -0.4652794379196578 0.7514311032343443 0.7281100961076834 -0.2596535718002461 
-0.3341378022034506 0.3657337487392453 0.8900115327009883 -0.9516210199440358 0.04181268291146940 0.2130825707603151 
0.4937530061287395 -0.1567111300481712 0.1447871183474198 -0.04131072814727445 0.1872237092922916 -0.2875984977521244 
-0.008225562951234779 0.1307142048739059 -0.3629727122107661 0.1451210248233742 -0.5426852351626817 -0.2038494897839033 
0.3343253956517365 0.6398759955524470 0.01926238395552508 -1.592092714135150 -0.05744054408081085 0.2576391513745665 
-0.3295019011408069 -0.1524941016217366 -0.03967779139860905 0.3356064691823016 0.04575371516685135 0.03198560269657760 
0.04975104737154078 0.04499066428289567 0.9392195351452056 -1.203091461959601 0.5770298658028740 0.08733033487505977 
-0.2850126116137553 -0.3747124729382313 -0.7024133443994359 1.739584694014601 0.6776553884646542 -0.2499491656488060 
0.08292178242527362 -0.1797777146260587 -0.2129742048966141 -0.8308824754538222 0.04806698964722648 -0.2093384505217326 
0.6951685280976414 -0.3338399682654467 -0.3683613046158878 -0.4192362333591692 -0.8474631661360826 -0.3000489973996341 
-0.09446108116998526 0.6358209328936976 -0.5834794126093734 0.8206711458825889 -0.1884536833820510 0.2165847254770452 
-0.3276793969303524 -0.8782057246252865 1.147461137712926 0.2089075400839613 0.5074811926021013 0.3493639672509401 
-0.1518854303613705 0.1783340729399605 0.1587509100460656 -0.2610891721964853 0.2394273081148577 -0.1637466884141329 
-0.2087344057248719 0.6128556564777375 0.04760235061506402 0.5381190737842156 -0.05885629942428755 -0.8389628276809881 
0.3891160132078676 0.2965517370565435 -0.7353852220365127 0.1150079814534099 0.2145760455726462 0.08587006418833651 
0.4985914105059484 -0.1394478940458286 -0.07220968727027830 -0.5819275410816155 -0.1681507444651449 0.1317004506469716 
-0.8017886044985237 0.2179827771138207 0.2761601945394498 -0.5649174716355739 0.2497757099291891 0.1716762276196129 
-0.2681602563850771 -0.1770636133836179 0.2412593288987986 0.2557857209636607 -0.3585685745659795 -0.3806252458186458 
0.5355072515947417 0.4599981991068299 -0.5396409490419526 -0.01646122167994991 -0.09332159266117260 0.1943930551892652 
-0.6111241818221971 -0.2382019878777976 -0.05334481863932156 0.8224654084319716 0.2780434115949132 0.06238777469827109 
0.3268601318408461 0.1828222946164334 -0.6087764537381151 -0.2273701785137924 0.04553396111853864 -0.1721935075574861 
0.4719573873312710 0.8427452704136598 0.6081752515263648 -1.223373851918166 -0.5031202954870935 0.2674333309303716 
0.7227546905156028 -0.1842960761829972 -0.1321799443817357 0.4807890288264209 0.01203988499948962 0.01939547906146247 
0.2828632321329897 -0.2083129244343366 -0.1998560171766035 -0.6765154526992664 0.05519615060216969 -0.05541459580238951 
0.4902345655623667 -0.7197098221332163 -0.6701947164586965 0.1902183791731970 0.3693015751635001 0.06356152625637390 
0.2542793939795475 0.2057565590746201 -0.4713805646109980 0.3803774056548350 -0.4658417957582647 -0.5270165217171712 
0.01784408003580914 0.5260900256962165 -0.3425558315026537 0.5581489411818175 1.017104717889790 0.04824946254228137 
0.4596799186575878 -1.033056895880740 0.2393941844039638 0.3213490978520086 -0.2068036865503863 -0.5200916229476366 
-0.003048855245934529 -1.084713907693359 1.021251004372457 -0.1116219738799258 0.8813366236782132 0.1391521366391834 
0.4152996408069642 0.8579670640000778 -0.7979025741626873 -0.6954510995505282 0.03095647864788198 0.05834686042171282 
-0.05830574622148558 -0.1041598719799609 -0.8387587983003928 -0.7814885552876986 -0.3559941028837628 0.04984186312447927 
0.3296754910956710 -0.7406574351244216 -0.7044076100116456 0.8582129802027765 -0.04187577351495403 0.3354282903689290 
0.6780820432053349 -0.2867835133759897 -0.2374299194448875 0.7849316332444334 -1.244085844764529 0.09622316255095939 
-0.2646512750667687 0.6324745150879006 -0.4049978677790311 -0.8383823779406955 0.02755839912930403 -0.2459173450455486 
-0.3871737081732239 0.7461022624263199 -0.1557527707531065 -0.5135384032489001 0.2742301264698041 0.1968769910031733 
-0.5996518187510317 0.7733863988056672 0.05784134673109745 0.5403215615347974 0.006638131255000255 0.3933178978635545 
-1.368633416114629 1.349151562662314 0.7612807944756951 0.03040095168157126 -0.1362820512055787 0.3554493746658567 
0.06733018391198443 0.06721413811426535 0.2535384075341551 -0.6675511132048182 0.7319849161218547 0.8053413069448166 
-0.8084432800127433 -0.05841429374820967 0.9338042710730905 1.349634369136517 -0.4239947106699791 -0.08854330537693474 
-0.08116779058667366 -0.5165806311691576 0.7694565903294212 0.6265060184738256 0.07643074533480196 -0.4894531824483954 
0.01860145896774622 -1.076907217665850 0.04958682286494325 0.5898570781364070 0.4495412197486888 -0.2320567860344324 
0.8231552134466119 0.2146051956602118 -1.290259449976777 -0.2363912012037422 0.6961241150905392 -0.6760778325128174 
0.07321383032628659 1.350476135890038 -0.7470876344526560 -0.5148906135219747 -0.6223693739398304 -0.7131105916218156 
-0.1754200044922684 0.4758588463598538 0.3732037575829361 -0.3693322346934590 -0.6643628503769810 0.4523369845554518 
-0.1862671621326286 0.6620218689011170 0.1382761893303269 0.05888835413527609 -0.1569138118402327 -0.4201529642106734 
-0.9121519239743494 0.1619314166798552 0.9278391919694732 0.6943943386594801 0.09616958580564981 -0.03701271766542987 
-0.5527129936934099 -0.1600373010891263 0.4121895092437858 -0.4495243316090026 0.2455350261531736 -0.3788807469546669 
-1.064228795988092 0.1795140158282297 1.106087973083741 0.8331988587381706 0.5936084759725571 0.8524098929045215 
-0.1110324264021234 -0.8315235324034854 0.1960932144925759 0.8334314800330123 -0.4128108878823577 -0.4122642354225525 
-0.6109812267730667 0.9144829857532978 0.09336535770951460 0.1523860918140704 0.1533163132683774 -0.3783232543658399 
-0.08766058854913136 -0.3924963022770459 -0.4444767654860833 1.226020047530683 0.4214657837112397 -0.5569971402639484 
0.6320036276017134 -1.441436755618191 0.7111529591742606 1.543472891472533 -0.01875505786251630 0.1520965035404763 
-1.045016287747581 0.04080962370880126 0.4244568053992612 1.180700576043237 -0.2691265272065780 -0.06976501212044789 
1.508164963451129 0.3734361451473575 -0.1021536971847852 -1.149082143965229 0.2732246517152598 -0.1100367324594663 
0.6126357619466277 0.2952668220449319 -0.7156968861740217 -0.5565211111442443 0.5918089523985578 -0.5809807457621154 
-0.06222680759296838 0.5260815652139315 -0.2535027360936086 0.3491804763970155 0.7841106096844764 -0.09855345443265200 
-1.426069169230141 0.6106316250464514 0.7407293610554786 0.5888964521519686 -0.3185752905236835 -0.3512706041363699 
-0.3919611860755572 0.9228413661765638 -0.6694428072419154 0.07537815857455604 0.5951385031151286 0.3405377308194598 
-0.4832280756851348 -0.1108859181689750 0.9284251398938304 -0.09720797580829030 -0.2052977182945433 0.5352518405778658 
-0.4183332872195303 1.167011714508048 -0.7489765884384906 -0.2192071316356390 0.7001985283095546 -0.04659027997458058 
-0.2457759279441912 -1.172579806164431 1.381414396431248 0.6265993378798697 1.260247511464270 0.6744545513894995 
0.4285358561115347 -0.01009524874874035 0.7254388774701769 -0.5619086093075530 0.1696829282309465 0.6598035498843136 
0.4703609820778285 0.08253175157504426 -0.2139767889320265 0.2046371245444210 -0.5213714250084932 0.3309066033192533 
1.172063512876288 -1.171867108903390 0.4492684220124829 -0.3452992475150646 0.09254948379521624 -0.2567038548944695 
-0.5161662831149454 0.6521169472521577 0.2348370564342145 -1.041731389391311 0.01070757233431851 0.3402781563796067 
-1.129758623685998 -0.2170429123182693 0.9918668559456197 0.1752227254886272 0.4890189566882847 -0.004477584535132867 
0.6524030994494084 0.01781920127049519 -0.7128955580887699 0.2235243861416405 0.1913503466520051 -0.1752783659014355 
0.7328085326648998 -0.1335664412722804 -1.102981443072254 0.06329006279282866 -0.4096778337482862 -0.1117262385359071 
-0.2663712448411288 0.5693193211890873 -0.6741175655737408 0.3624511267561920 -0.6904188090593584 -0.2705635539754138 
-0.4168258480957319 -0.05513647550185840 -0.3650652428300548 0.8236134625820082 -0.6386209229084456 -0.4775945151968356 
-0.4264680412336135 0.4187046706455181 0.3300746746757456 -0.6075580006930832 0.5605213297154172 -0.2016383195813418 
-0.3845939785519729 -0.06057399680211863 0.2152296152531047 0.9257629087147905 -0.08252197616311574 0.1460908871165285 
-0.4469739749253459 -0.3021451892216082 0.5385217331910918 0.3300558302795874 -0.2923258655462409 -0.1884452636590219 
0.1870365436041337 0.09371329312421467 -0.4445350785026620 -0.2459893933357366 0.3731710251416304 0.5670254760142469 
-0.9122388146196052 0.5561640111659798 1.770486575714837 -0.9720294663614237 0.6349632635167295 0.3819811990715386 
-0.4245260375710886 -0.2422706803226887 0.04042014782996193 -0.5394135680760284 -0.1007760620335353 0.08207799871883623 
-1.045244055848868 0.4788778269182318 0.8555158658230397 -0.9277824866619321 -0.09098260641997205 -0.4114408114986621 
0.1669797187283256 0.7249346447914852 -0.2986841438974450 -0.2895634365997857 -0.1025151229928835 -0.02847252100519832 
0.6005818392013529 0.2541335434666904 -0.7474794540448705 -0.05607157101209188 -0.4012417509470254 -0.002194913128936279 
0.03121666443004577 0.2334286784942024 -0.3438126691225615 -0.1723735784461166 0.4471521341237075 0.2492437244996496 
0.8145206630412256 0.04835250844776715 -1.196798301358100 0.3127345469577904 0.4252718370398531 -1.106856220076954 
-0.2756047574024838 0.8811650419404776 -1.579450535087401 0.6701642053595188 -0.08204565266117775 -0.02942138470942513 
-0.1501161391174948 0.1580225019208470 0.1654079934086781 0.03771440564515525 0.3726645544208209 0.09663698955508593 
0.3404958320773250 0.5629444825798577 -0.2518174463485513 -0.9237813059349803 0.1221194504530338 -0.5664892791495716 
-0.3377619101953182 0.4354523353604446 -0.1903585010550739 0.3486945323812120 0.3012272598463908 0.02892291315322739 
0.5695129189394829 -0.6332366586310099 0.3681285981166515 -0.6550516916782845 1.144219939173707 -0.1390369915855763 
-0.2930923188691925 -0.9048740139000393 0.7807123539328770 -0.1753355251140596 -0.3178093634117393 -0.04322797782915411 
-0.3102784718425781 0.6845746111227193 -1.036707519743378 0.2411502351298462 -0.1130606076967977 -0.1949241919201136 
0.9665678960919563 -0.4227266671218907 -0.8799163609876035 0.3878770643178043 0.1409287717324121 -0.2964795771484595 
-0.8083963087156419 0.1970379449415176 0.1290003720088279 -0.1006290710353465 -0.04121663187507695 0.9359099962758064 
0.1493203937631101 0.4369455426144989 -0.8209446308326307 0.4654017098348273 0.04289560211503948 0.3339843516146245 
-0.05483481615533604 -0.09490278542787844 0.7329345436452954 -0.7922879546949141 0.6599754833953272 -0.1804468241537124 
-0.7259594697285761 0.08025391950097666 0.9423522162936703 -0.9661339481465769 0.1220790323665855 -0.1596243989410322 
1.825308306132687 -0.8172900643058877 -1.578382154619407 0.04447179113675293 -1.374331010054904 -0.3611382183805426 
0.3707069527287989 -0.7309191370271980 0.06716892984092397 1.423487555260923 -0.3231351454704272 0.3417165929859700 
-0.6234414748778865 0.08051871620273593 0.08068562589091631 0.7670764603736234 -0.006747093065505465 0.6313476948335194 
-0.5473795531215446 0.9377345179128173 -0.7539438848802452 -0.8856052411320157 -0.08045052318471797 -0.4762773210350642 
0.8586820528501525 -0.9698897949032931 0.5758564083275322 -0.07328702864690508 0.02093459686756808 -0.6025044166207258 
-0.1232280491291586 -0.07707281882373689 0.8883236369038041 -0.3189804099575623 0.6813604656343540 0.001344092044711138 
-0.3251233868352270 -0.01261360730581459 0.3608917217905626 0.06235543360899693 0.1022076805398044 0.04360494173987598 
-0.1885054159695837 -0.3851120020561452 -0.6930297365358181 0.9412115709930429 -0.3317391757303383 -0.04414757570989227 
-0.2355727926934202 0.06656832209078849 -0.1890294778165065 0.3961029036649043 -0.08296120460090290 0.5836532644403460 
0.4147256192822635 -1.007117975868498 0.4817760807809090 0.4490535058219738 -0.3454471784061750 0.2387619184901346 
-0.04417216893382970 0.7381638468099647 -1.133776330755384 0.5106430052539089 -0.7215056169752349 -0.01694578044810615 
0.09635165083903490 0.5834971538673239 -1.438007600208736 -0.1534441814720486 0.3192592369753836 -0.3911319101128236 
-0.6289742877631155 0.6796574406917858 -0.2142737548485412 0.1963256071895514 -0.1486315217173562 0.6656205952596134 
-0.1657220349522084 0.5894627006609953 -0.7759851448426519 0.08126896645648260 0.6231747652614400 -0.03026650933785286 
1.137369959175789 -0.3721752998767289 0.7545437584014180 -1.432345435661642 0.4366569166396831 -0.6380884954436130 
0.2273323144171745 -0.5968961856282275 0.2456081129783495 -0.1161679662740730 -0.3236165167404920 -0.005773474058045124 
0.8484708068769139 -0.5364659360686761 -0.8873522460867080 0.07209194854884768 -0.3461290562845484 0.4203831157441000 
-0.01506651271401135 -0.8740582619769428 0.3271842482196065 -0.06801955847014778 0.7272332726475895 -0.2102701214589844 
0.9671115780004503 -0.5366179516953972 0.1893643094765197 -0.5801010263947190 0.7440835975931003 -0.1907140441270358 
-0.1198583553811626 0.1197218322406832 0.6941651761916239 -0.1128747216936671 0.3788970380895254 0.2343273957190749 
0.2049055105302993 -0.4218424895617065 -0.7391071386101971 0.9818776386526616 -0.2440488625072826 0.3522308670445765 
0.03579080044000188 -0.05544915124210294 -0.6209699701350443 -0.01701216833677701 0.2490994606517221 0.04662002188504857 
-0.3194951784285469 0.1870133735876643 -0.8534417161261639 0.3252749456375320 -0.1556221028729346 0.6399294322995219 
-0.4048220080526451 -0.2756874037602948 0.4033307667529752 0.1427896313510336 0.1997143240474011 -0.4376458172185861 
-0.2615390608608030 0.8506144823112106 0.1027552984622699 0.4498335677941204 0.4185315250955428 0.2985970766646756 
0.4092297860982198 -0.07480072122946993 -0.5703339508999816 -0.4966934277660595 -0.4002691288208560 -0.5627022261172030 
-0.2228753542044016 0.6865537388920327 0.5008411020257918 -0.5925992687976684 -0.02787684031046040 -0.1030976173993700 
-0.2196524290891270 0.5210437871580758 0.2247630549931652 0.2380784792570659 -0.2316070502965337 -0.04550706916858491 
0.005725317968425944 -0.2265868355775897 -0.5843276511642544 -0.3229723244333272 0.5850510297575158 0.1748251739403175 
0.1204394599192537 1.214601636374016 -1.243647408756321 0.4937930737271118 -0.4836519158363068 -0.5924204218954819 
1.279305814600513 -0.02910899284796479 -0.7160783974612479 0.3778523025990601 0.7614270073083038 -0.1652768587811276 
0.2993969307268480 -0.4894725074842833 -0.2102484489383933 -0.2573626996099836 0.8362097441945273 0.3922976511552221 
-0.5231779271774458 -0.3691046404231604 0.6027110221874753 0.1731820352431913 -0.5345837093961852 -0.1469993634221594 
0.1794295751595609 -0.5619243135453965 -0.4259783337270418 0.2213320212257631 0.8537334455842491 0.2239522300395330 
-0.2630052738620016 0.1014911018663297 -1.099012524622897 0.3109754510311692 -0.1832242793563783 -0.06589947344881704 
-0.4716004310438896 0.7325124570342725 -0.4166111353568156 0.7884959927237501 -0.4321606028876984 -0.1564035978814365 
1.297972519799241 0.2850769412600351 -0.8257121080332953 -0.5380990330249610 0.2277102466189954 -0.004979895819177701 
0.5460523436185467 0.2423614375399635 -0.1373239218943714 0.3820268208819975 -0.6657632921706134 -0.2126496750523816 
0.003059517006794502 0.7222802777706017 0.1774465151506164 -0.03095083893265298 0.08725529295931053 0.02561216540773446 
0.5903645677341977 -0.7950005172210759 -0.5505003652854390 0.5077886095917388 0.02095131029632408 0.1969169303557574 
-0.2630865394058550 -0.4619718707865987 0.1315655728366948 -0.4060740770872791 0.1881055440840061 -0.7359131311165288 
0.6188903760126467 0.2296844051594061 -0.6507839238416843 0.1402084697990733 -0.7613773394045835 0.002880776286748875 
0.6962394092370343 0.001075532240641590 1.089918100066925 -0.9269425033318854 -0.08466468216115510 -0.2833425154728915 
-0.07828675018998886 -0.1409671546171405 -0.6556582428787451 -0.3920291491686832 -0.2110444237915900 -0.2278460295365496 
-0.08711370717969003 -0.5581673995008910 -0.09770798132816488 0.7080775422849030 0.5036064262515871 0.6807327465952293 
0.1091453550730473 0.08587149687215195 0.6578051984527915 -0.2374252378163180 0.2694818480032591 0.6402597752789314 
-0.5522758312097454 0.7255500984865525 -1.452679265192807 1.752760056178568 -0.02511943344396904 -0.05793438289657067 
-0.09655602506852425 0.1451591124099229 -0.4134953420035269 0.4411060828756157 -0.1376701293044113 -0.1739572522184533 
0.3749342454632674 0.06129413642618276 -0.09754465301760147 0.3039463969756619 -0.6978755620430405 -0.9563407990601172 
0.3945246809292025 0.08083101809044817 -0.03982516929578574 0.1646754324283363 0.1177848685159164 -0.5518258256412977 
0.4507180885566851 0.6952690970160219 -0.9903836961792147 -0.3187687922385741 -0.2545176740801589 -0.3725775422569163 
-0.5832314404097153 0.6795014993882060 -1.413465552082014 0.2280537064968815 0.4560062582909640 -0.3870367634104308 
0.3084973065910441 -0.8620732882712872 -0.4635744311113834 -0.001722402580598610 -0.2746145824722213 -0.9307211675499180 
-0.1070447704578840 0.4546371376300570 0.2626113010180954 -0.04709902945909543 -0.5094703220637099 -0.1492206022388241 
0.4340882806277976 -0.5134132990744159 0.3767263203784238 0.01529694949576600 0.1052441740859471 -0.2013803884586992 
-0.4530762837048932 0.4688154498311177 1.236099181668114 0.2950587921626809 -0.1121557738636010 0.1101479271412795 
-0.3538505377465827 -0.1331374043974277 1.098603689699159 -0.6496419776189445 -0.04162617994249664 0.01368859704947802 
0.5214646161896981 1.271286801407654 -1.463440927249380 -1.133277419605892 0.1597638202570870 0.3702396945256125 
-0.2907683961043508 0.3043519489194355 -0.4538283736227309 0.6220129800546086 -0.4907131844180637 -0.1188378913695863 
-0.09165959027383956 -0.1920621102045120 0.1652395607133836 0.2112732921856070 -0.5250341133450519 -0.7822690585672106 
-0.5654482171660870 0.9531370589455767 0.3856589771752324 -0.5493790093245078 -0.2417179995015369 0.3080060865162717 
-0.06199236200134909 -1.087283406396401 0.1870702567657509 0.01746051669833313 0.2107654437185330 -0.3367221717101184 
-0.09433464244127782 0.4733466981754993 -0.09068472744821910 -0.05172306707858008 0.7922486477343488 0.1069473751303599 
0.8144893773378176 -0.5264798095468677 -0.6925626210590002 0.6264231205179052 0.8179514809682588 -0.1387534189486946 
0.2227647724654235 -0.4527497526272780 0.9668436704031171 -0.3742993003292520 0.3027135395741930 0.07564236860845085 
-0.4219803945319196 0.2706447114910708 0.9651215013983275 0.001601224717364526 0.1062603583346867 0.5130629639646134 
0.06848081744889083 0.1425364465325585 0.8644960409796790 -1.171361672541919 0.2247818030376108 -0.3379964247889704 
0.2926982275080666 0.7548827399903886 -0.5939221503121834 -0.3251321992059283 0.3407899261847357 0.1189050337379106 
0.3783283390629861 -0.1666881187979130 -0.4463073563629073 -0.7688734761732960 0.3338516959258697 -0.2105474652782811 
-0.1230779864790185 -0.07672961248672437 -0.1014434190609053 -0.2404867597190264 -0.2831231175213962 -0.3902747466702465 
-0.3025772600597519 0.2130624822995002 -0.5019238840086347 0.07281778855119611 -0.4764937484432347 0.2963242214392429 
-0.3677747573170406 0.9561177984125377 -0.1324518150240235 -1.143648837350306 0.5810889445958628 -0.4805257650916613 
0.7588575464346302 -0.9105196268368602 -0.5838178688140812 -0.4377824230360998 0.1035044587607146 1.147913358641445 
0.2353448599987790 -0.5172980093252543 0.3013288966449108 0.3211884723170421 -0.3339756947235074 0.6952111213743883 
-0.6823865039478595 -0.6564765365288815 0.9596278140470504 0.5465363975838098 -0.8408733848984148 0.2343237912446258 
0.7313553215683729 -0.1858920853656326 -1.100274763570053 -0.1937365339863838 0.2124752962523452 -0.2178975380337805 
0.02920710834428771 -0.09275251260902699 -0.1801430801349122 0.1979609754301002 -0.2046557787144416 -0.1730844436150792 
0.5156861405631126 0.07651266245854366 -0.1583600657737828 -0.1526960000571964 0.5553114370481518 0.8197893477854091 
-0.3179348935525607 -0.6864175827357801 1.363155931896230 -0.3241653270850018 0.3193232486362030 0.2063542297513331 
-0.07874551162566562 0.3906228705350113 0.6067954280930027 -0.3437598606128581 0.1258230696404873 0.4848458559931126 
-0.7470523153186273 0.2917271860058863 -0.3891829842058077 0.9702909007614408 -0.1611264132636861 0.1930638842967209 
0.2477220739548696 0.3108082894775727 -0.6581165987373379 -0.3196308435542929 0.1135654469900120 -0.2652630803067771 
0.5850803661631166 -0.1891652412458601 -0.9802518678740075 0.1147476072073472 -0.5519642933836475 0.5543677575907934 
-0.7653108526354766 0.4765421017722485 0.9753879872874412 -0.4819034492049636 -0.1910473500470470 -0.2377770270738858 
0.3590090015550603 0.7950219281765845 -0.2337906404271602 -0.08774486388251997 -0.3946930053629502 0.4323742068505931 
0.04755950309236392 0.08834240251720700 -0.7151751695343581 -0.05249407838023742 -0.6337754681805235 -0.4505577974801133 
0.2822023331003579 -0.1727633996858281 -0.5054855158595021 -0.1082490794423699 0.1323596392009181 0.2285457431995863 
