solver_type L2R_LR_DUAL
nr_class 6
label 1 5 6 2 4 3
nr_feature 599
bias 1.000000000000000
w
0.2679776163469445 -0.1855348386103393 -0.08493218255376280 -0.3016175976099715 0.3400898630548868 -0.008589030763509718 
-0.07219433674908823 -0.5358801725624935 0.6017564159925725 0.6154111749433291 -1.094565640836100 -0.4803793692361182 
0.3858557695361147 0.2397554444107478 0.2153016619876306 -1.323089468286197 0.4810346617210357 -0.1645034728678929 
-1.751012481980403 -0.1577821532218450 0.3209493712167062 0.8475043708771044 -0.1582502588169628 -0.1093257557444305 
0.2257401067148346 -0.09550531691480865 0.5866895618706507 -0.4865560053959085 -0.3698271525766959 0.04659108471623708 
-0.8528154386261484 0.02082531676995641 0.1933931719482890 0.007030447471010244 0.8662521823079562 -0.4401849106132589 
-0.2473071730370714 0.02448904884282380 -0.3995967733935772 0.2903175805088582 0.3002597358964371 -0.1467662352926912 
-0.08143837288066715 0.4452298547302936 0.2687962398142886 -0.1514490423428862 0.5041824225310493 0.4958763951166318 
0.01594766177864732 -0.1105704534898433 -0.4429851743289494 0.5059063097493036 -1.726665240037936 -0.6170079410307099 
1.211681426118496 -0.4829836240353729 -0.6705475205311785 0.4337384760684016 -0.6736027567743910 -0.4324708522765952 
-0.4262701888767839 0.6868739229181282 -0.4038706085279726 0.5580840511776934 -0.2640247589932672 0.1118208012958302 
0.1420630136655285 0.7257757476594572 -0.2095713524272883 -0.02602888564050095 -0.2939003788196384 0.4230733129842850 
0.7896820449108672 -0.09469741841424488 -0.5515762485834207 0.5364172833662093 0.0007369580414020277 0.09171728965263320 
0.4371396446480250 -0.4861960766768225 0.1380415104995044 -0.5650901402851556 -0.3794763122248553 -0.4261098214078766 
-0.2083963025280971 0.6711981467269988 -0.1047136577284739 0.4695767202582817 0.4871050758653966 0.8521960302629539 
0.2633515534525312 -0.1806539798294080 -0.5222033816180064 0.3580800881188860 -0.02482290865955407 -0.1300036888883416 
0.3488757077271780 -0.08569563421280024 -0.2373742038828272 -0.7384795702953938 -0.2690677046448872 0.02633813096905220 
-0.7464893417039352 0.1536382243758525 0.2565329565449008 -0.4508482699150539 0.09475015343692848 0.1466500222607431 
0.01654524687389239 0.4869918892375508 -0.2901577298171497 0.7509778270132550 0.4173190154511068 0.01981135205834261 
0.3324690103882803 0.07557509485403713 -0.3925939964671857 0.07026092829543511 0.1764227601803176 0.7489106580962308 
0.03903504205962145 0.03915582553421163 -0.7025390374302682 1.405599720387835 -0.8045198707995063 0.3801877792208975 
-0.2246475025771290 -1.354736263471558 -0.1250859852761868 -0.08660624170846383 -0.4178975395164818 -0.2720301054365386 
0.1208179824651038 0.6223936201609355 0.5024423439680067 0.2558184465409980 -0.6324126009874546 -0.4245935442927714 
0.1765170315286590 0.6849600581357036 -0.2961322649928077 -0.01024867292895959 0.01586472775622386 0.08004261807300471 
-0.6630748625779745 -0.1727957602758176 -0.09006491006114618 0.5382813222898452 0.5218251980628624 0.005497919957417438 
0.6625546997542942 -0.1643978006611713 0.6020582694998130 -1.129011687567340 0.3911881487863171 0.4153662841115005 
-0.04954996326817120 0.05498495856334418 0.3684619620488407 0.8341406625562712 -0.2959221475278017 0.4094327871848746 
0.04137739195126711 0.3278068271695263 0.3866608531094011 -1.550739131057320 -0.1191117634086507 -0.4239473895024358 
-1.306297095153212 -0.5566709333044065 0.8821055342451252 -0.4107207261382994 -0.02847718865455459 0.5544669260531620 
-0.7126244576367575 0.005004322094640074 0.8387409039952743 0.2345655034343938 -0.1218064482503132 -0.2707897177913902 
0.4470223925975462 -0.07781621063164927 0.2163574355909337 -1.817508618977982 1.218132706756319 0.3399147840767423 
0.03068985219466823 0.4725688843293645 -0.8824711079437303 1.557303558219091 0.2519787971533063 0.05223287829257139 
-0.3791562385464047 0.2017092742128384 -0.1075874494778521 -0.5486994425076377 0.7937529037096345 0.2781396134619799 
-1.257947679242528 0.8900708945880205 0.3266929251529754 0.004725960642308305 0.5293334390149840 -0.1543585253322775 
-0.1929448454415693 -0.2479846184557018 -0.1385011046971785 0.2133503451409069 1.021335717577777 0.04513269319561286 
0.1149033324031963 0.5789754189106647 -0.1996068023098015 -0.5467341367351652 -0.4039832782993653 0.1441364255417117 
0.3056926479864565 0.4063301623322325 -0.7981886709399415 0.07060138340974180 -0.2451800063834007 0.1060177045636926 
0.5413519761687763 -0.07098222352376812 -0.1103205263429528 -0.5511408604109471 -0.1790431333794583 -0.2113947793019873 
-0.5914872776689188 0.2837288512184646 0.1076077601422423 0.1087783177465221 0.7718431943680400 -0.08006128199878272 
1.717402748059161 0.1445055510444538 -1.263459638259804 0.5128521231764749 -0.4944740174153384 0.6101005003321872 
0.5864892286215383 -0.1125668371508283 -0.1563040710061047 -1.501191106537143 0.2889369826892362 -0.6730397131268071 
0.5064908011337502 0.04362634967670633 0.08711688504796596 0.4961909042100640 0.4590132208273521 -0.0002151235854222667 
-0.5861850701283197 -0.5916567687930616 0.4799668031176999 0.3181069653703733 -0.2863521738334772 -0.3642681705143648 
0.4947196455137660 -0.05529427308952783 -0.6486297810061545 0.4670935557940705 0.5244926024953657 0.8482359498004511 
-0.6067839584958106 0.3072107284807759 0.3402306328290841 0.1830895907685432 0.5749878936506586 0.3633402601213465 
0.4643499921046776 0.4725467478340653 -0.08526115314055609 -0.6273417362120071 0.9542204455322219 0.3891496634009623 
0.8171782362162517 0.7442613994020023 -0.09420873449949238 -0.7292578108758848 0.3718516109634941 0.5395347619372685 
0.05500772383402169 0.08808120384580449 -0.7169987702239882 0.4325349572192972 -0.1428204340913645 0.7209307368489790 
-0.3155262343775011 0.4885577706451151 0.5008511213073287 -0.5420105196763590 0.1319587291248829 0.09740305984959677 
0.1599730618683470 -0.1154589472660715 0.4042828689927316 0.06867584462775647 -1.288477746146521 -0.7255007090664097 
-0.6230585731219315 -0.3819818536588450 -0.4996153329819395 1.572181929282957 0.6083914352595909 -0.2448042629866107 
-0.2310311186084755 0.6972523485055825 -0.5580257055359379 0.4640388710975989 0.5667140719877186 -0.1211415988777666 
0.7772224317084113 0.03656589862223810 -0.7755701343139675 -0.1136642053895436 0.0003792919677670296 0.01115905313369684 
0.3170961354850273 0.09968322999265364 -0.3401077754016811 -1.038841953335478 1.095293278055832 0.6497519679948357 
-0.1054584743506657 0.5212479143758844 -0.7863878886387703 -0.004271095777422128 1.530227668222433 -0.5003540962930941 
0.8658434507618085 -0.4197799037619477 -0.1372788098231343 -0.8909715154288361 -0.5715457334354528 -0.3495087157989548 
0.3327343323418650 0.03193853074944406 -0.003066242000442919 -0.2810130880996676 0.6612086879631902 0.9862614757050244 
0.9499294465770529 0.3509757976536340 -0.5093231775970157 -0.05593978032599035 0.4341269014170771 0.6950843620624847 
0.7731704898740019 -0.08425167756993591 -0.08446910937317299 -0.1409481617909238 0.2993647231297277 -0.3326969168055514 
1.336014603385122 0.5254607984481054 -0.2945472628494609 -0.3353215339011419 -0.6626593347460636 0.1917464954949010 
0.3644449412058173 -0.3398354207608036 -0.06652464641045054 0.9283303203897929 0.07848239969252781 -0.3090692868311757 
0.1144950870716544 0.6757341228615342 -1.185277364603572 -0.2783046325924369 1.190726171221341 -0.04511418750310931 
0.9352456613701274 -0.3239527400587653 -0.5060039856804586 0.7236360637802450 -0.3880498202406830 -0.3030833312056516 
0.9503204278155019 0.4730478950586086 -0.2631110992826615 -0.1374783690168929 0.4706197459822953 0.4154508738338038 
-0.4002372910226233 -0.2006233247384783 0.2110130422176490 -0.1367452700773080 0.05911368010363366 0.5603713425929204 
-0.5861465970317484 -0.09345919110542004 -0.08712556359895456 0.5218261821617242 0.1669252744894484 -0.2051489724005543 
0.07877113959587176 0.3749529633631170 -0.7496683633747553 0.8189739245128186 -0.03781642996548605 -0.06006569705337633 
-0.7305275739336953 -0.3731253154339166 0.01705314393802140 0.04979966873366365 -0.2309140345069520 -0.01373353083877859 
-0.1562246932867352 -0.3618997934644794 -0.3938081438433542 -0.1577841689894444 1.129055523489306 0.8369940019566526 
0.4203116361927168 0.1651820978848619 -0.8931300088034094 0.3541480764721526 -0.09297974165784098 -0.6078599113802491 
-0.2964022430159616 -0.1357485177560484 -0.2782247399644411 0.5178158239964419 0.2332291349547087 0.3174347880648115 
-0.1047009569022874 0.3909194529133247 -0.3820005449207037 1.255057498214785 -0.009247410783099990 -0.2448548865414866 
-1.262601725192968 -0.6730709597478994 1.385837088232014 -0.5626894615663285 -0.2212734147715526 -1.081075827748216 
1.312606546547235 -0.3086533403744182 -0.6276843207020912 0.4018863101552275 -0.9671642937302193 -0.1196288172118775 
-0.5955720716095168 0.3497620400353305 -0.08800900375579490 0.5554756294025522 0.7019777676767208 0.4102434100586104 
-0.2977546105021161 0.5478826962558003 -0.1565428325279694 -0.05768395375579246 0.3498700867724448 0.06321000134363705 
0.3377303121253359 -0.2266372682851828 0.4688469506965100 -0.2415955321306962 -0.5888464296640991 -0.5643425722880311 
0.7123642047064361 0.1232549489139361 -1.049944747461642 0.6509816554442965 -0.1661303786070509 -0.7196215331290527 
-1.211084504561170 -0.2827022661882548 1.123238691280255 -0.3671754274366936 -0.2874311217750744 -0.1173623405392864 
0.1890243316498024 -0.02791700257603878 0.3995579505209340 0.5139190477079584 -1.044247878226429 -1.070009542381451 
0.4401213722029034 0.1338087280786861 -0.4527485147141476 1.272033248626089 -1.658194490281541 -0.2366936711273008 
0.1393678626148281 0.8094005317008154 -0.1277799315449177 0.8606398958726755 0.1690245527561264 0.3411227148364661 
-0.1467595917758619 -0.06190050432869761 0.3856259942924245 -0.1094710379176169 -1.146637635437740 -0.6958253945810572 
-1.662525311043176 -0.4882299412128883 0.7962319612470588 0.7028108407254925 -0.8376343393499623 0.09257556233882750 
-1.240479316706103 0.1224570746930843 0.7391468522307834 1.173392066708912 -0.4956851780616057 0.04970091254350097 
-0.2793333006841328 -0.8513820995267001 0.4654086711795942 0.3647623748224130 0.2604893686770881 0.6938100057918511 
1.384069652435392 0.6411577089836846 -0.7125081497423779 -0.2968164459766972 0.1791144276185141 0.7397974839348960 
0.05256354910718057 -0.6066626225002955 -0.1174904159139398 -0.03475045419879543 -0.8764564419419028 -0.05498832848470969 
-0.6777912936213161 -0.3610346096542473 0.3261032238828111 0.6073861767774975 0.2748231228960555 -0.1553223289345730 
-0.2572715201366121 -0.5708616743439796 0.2249584175479330 -0.3053647295604620 -0.7082661628178569 -0.1314083897234651 
0.3857250186063473 -0.3797831080115587 -0.3019419386493706 0.6079674921334979 -0.6378430777468161 -0.6379807581489954 
-0.2471517959403868 -0.4601820214390395 -0.1965309679035122 0.5262861199409005 0.1864307258016514 0.5200924176006287 
0.04279515888637415 0.2402804331711472 0.5607954406729394 -0.9318747868129869 -0.04268208655378902 -0.3647384995616400 
0.3486089816257663 -0.2348589157392886 -0.5493912315785374 -0.7572652662193543 0.7346049215268516 -0.1448939781391414 
-0.6558590556396880 0.1524015447032741 0.7370051988916133 0.3183953481682882 -0.9175301041457191 -0.1029267413694378 
-0.3722943929091697 1.161894459991335 -0.1422090099333091 0.5431262873625025 -0.1637703535490455 0.4375286871003216 
0.08206795791651800 -0.4943487852656489 0.3511144869052547 -0.8455605864660432 -0.4742825551011066 0.3297784943081558 
-0.4824465558404891 -0.5148468118178150 -0.08894167574802163 -0.01197838504696819 0.3357304007524154 0.5410916987382027 
0.8363043294969296 0.2768389590192101 -0.6012830417631675 -1.148181043957370 1.005922292638353 0.2178020318794371 
-0.006961689524063968 -0.07052213495493650 0.1004680464839496 -0.3349322892310341 0.08016781806830017 -0.3823695154851073 
0.1119112227128613 0.8727361747972173 -1.174917140766092 0.5089283786594241 0.2515337893218861 0.5175323159717730 
-0.3572277993181897 0.1915177256280282 0.6010733795974178 0.04146704716685203 -0.4184841390653998 0.4879100356418681 
-0.3781995117875563 -0.1390375170641480 0.1666550255044543 -0.1915411594230040 0.1221501318928274 0.1418749524092270 
0.1631575530252620 -0.3643742510221169 0.3397310504601500 0.1277408369633085 -0.5734747578202015 -0.1267691825306905 
0.06250142495529663 0.6095723109817085 0.02243982277115867 0.2006125426291245 -0.5682719751657810 -0.5438038171490865 
-0.3050927038620272 0.4605246705448577 -0.05537138454151794 0.2186888917469346 0.7233719284553018 0.6422542283253632 
0.7515472282223250 0.05655771870484416 -0.1676713678538993 0.1939995924475581 -0.5980903783758580 0.4640835509721435 
-0.1432371488022048 -0.04601399197226549 -0.2162298842060359 -0.2376756358635711 1.198839859788456 0.5697588139540998 
-0.1230776505226624 -0.1585515678941054 0.2050616393580271 0.1716585347098391 0.7250798923720301 -0.1700224601321624 
0.8112125145377690 -0.2617049480070422 -0.6723549083634035 0.7333342850242777 0.3412843607117082 -0.05899540344715890 
0.4357698184100564 -0.2355807375202831 -0.2915690597484644 -0.6574891145179134 1.049368069048173 -0.3213931795072934 
0.5468883408112083 -0.3201852997176614 0.2389857788722962 0.7612162336797069 -0.3801806062952773 -0.3508497244896034 
-0.2939482871648058 -0.4083474051757224 0.1416822661337168 -0.0005111536612627726 0.02328052369934279 0.1298741457744683 
0.3555403324110183 -0.8707892716690800 0.2803533472984013 -0.03502686325580325 0.005613072857799595 0.2146962811829258 
-0.5309876430048016 0.6198565173356083 -0.08924897474542395 -0.4016472647045931 -0.8438159707344782 0.1359052335094319 
0.3852092153553232 0.09169493158185633 0.1247970183246122 -0.4260823717466946 -0.1734787471196367 0.1065057928955752 
0.9059383510447323 0.6167847324847895 -0.7562158824056123 0.2803045563276562 -0.8720471895752159 0.4487207638934944 
0.4527927792152636 -0.7335292780725945 0.1336113538236617 0.3039877577667650 -1.014700313368388 -0.6447543750446134 
-1.402185646375378 -1.070440382219609 1.018670353585811 -0.7558480081451574 -0.06614990891168622 0.05394108081324541 
-1.262346787039943 -0.5332247529807910 0.5556045841015779 -0.08625382066564574 -0.2452302373979403 -0.4723675260514925 
-0.9878895450894112 0.2251718235455979 0.1810681987504233 0.5033267021232520 -0.6841001090062520 0.02179782534423868 
-0.09417363824674187 0.3439070300474755 0.4151047744152405 0.04661739482253618 -0.7255496754165551 0.4141875846879284 
1.296076383475274 0.4831162458029306 -0.3274245922749322 -0.4798033807426254 0.3963067182742734 0.07333480468720227 
0.3793664989666754 -0.4051426097518118 -0.8850661749747807 0.9782747429960444 -0.2723552653947047 -0.1818994247278128 
-0.2132392313728752 -0.1037156534214080 0.6701338797178729 -0.1493167131236063 -0.9526651367517501 -0.3559003628291543 
-0.2290224178363072 -0.1323072336952247 -0.1865470049763337 0.7595264470481626 0.2072853199622426 0.7479174837570118 
0.7344636499575520 0.3863732652787031 -0.6277952627647706 0.5446170498552102 -0.05721983571742011 -0.1401394546159642 
-0.4728167707791224 -0.05364374875031015 0.3972430903274350 -0.4384381267925872 0.7026880453096812 0.1074774211746654 
0.6392416323190662 0.3703290082637120 0.3569393506766821 -0.6475849378877635 -0.8392296096706856 -0.1668141709436343 
-0.3371387427870280 -0.3683227419074397 -0.6178680552543623 0.2299248039874102 -0.02594964107702436 0.4169287055506643 
0.7343707331822509 0.2843742201583157 -0.6766498838455153 0.5739988957707890 -0.4448840552665433 -0.3643615501674514 
0.7937150326935440 0.3103469341824982 0.08676480680076268 -0.6252818815155038 0.1377460998922939 0.4895420735989819 
0.3260108762918574 0.4807910953396909 0.2928756318068486 -1.232838643380944 -0.1303978909747952 -0.05678939761119074 
0.3384316750634148 0.09251674720205422 -0.2993116624217971 -0.2456783113171169 0.9755932583598226 -0.1958934014985958 
-1.398169521405523 0.1801754240879660 0.3850230573861240 0.1967669994511656 0.8891600889358450 0.6367539342021321 
1.015272753658247 -0.07134075254492363 -0.6557796375166666 -0.2967658612302428 0.2019246356450209 0.1674486351752424 
0.4946723781330082 -0.2296251699987706 -0.1661570224327951 -0.1281716002826776 -0.6893017648644590 0.3410457267244372 
-0.6529362847693434 -0.3485045436642516 0.1826243416553479 0.6582392796679694 0.01651657467641279 0.4513099609300227 
-0.5518687442798573 0.3936491684568389 0.7701998903348511 -0.2131128155005559 -0.5754710000855539 0.2149793909281204 
0.02051186954365712 0.7976396751833673 -1.281405917006264 0.3790471405994746 0.2075729431274757 -0.01625511881205284 
-0.4870464798933984 -0.05687804772841419 0.5041425169915864 -0.5043525593459608 -0.7075797138583280 -0.1058921040570666 
0.3861557323009617 0.2448286392077413 -0.1532594728737839 0.3358826976959357 0.2409343119380715 0.6866407903563038 
0.2319057907476889 0.05675814668275295 0.2719500888512373 -0.7290505954691751 1.354359862143651 -0.3870014519333133 
-0.4266376942605604 -0.1025524419465609 1.024917340647808 -0.7714808586776630 -0.4671088616000930 -0.1858982410018029 
1.064922113101871 -0.09660192823420827 0.2429769600926653 -0.6070211634191526 -0.3817557484498680 -0.6728270726076825 
-1.572759547034154 0.4500063668406379 1.570901702495335 -0.9774684300297025 -0.7355016167152191 -0.09679958807378765 
-0.5801092260565852 1.205928430037216 0.6956681832755754 -0.3311043641901024 0.5140098046840080 -0.3166831898406466 
0.7070824762184444 -0.4856160836850195 -0.4641743345249195 -0.3047429309236643 0.6876103221232337 0.1686322194657744 
0.7183398492006329 0.2357481602301642 0.2530303443747963 -0.2928256553183152 -0.08558670399000075 0.1457038802394478 
-1.168051323950570 -0.3600479542992301 0.1450566153745870 0.8194295414632822 -0.07896281376322780 0.05355032774676346 
-0.4214206475883746 0.1234292697878911 -0.8486497486751059 0.7106907111566287 -0.1065008318210661 -0.4065626738940114 
-0.4186959550794667 0.8214401511218297 -0.2968845348032678 -0.2932391797758637 0.002224388760146409 0.1406737999878182 
0.9671522182769496 -0.7113742769530613 -0.3839675267780770 -0.3711312222313004 0.6734447873443486 0.6462841818473045 
0.1584510143148704 -1.173205190009370 -0.3403777792538496 0.5412433760671637 -0.5104027848465797 0.2626215340668763 
0.1015802429566224 0.6142005469514694 -1.304514107863402 1.488601632327532 -0.3854636347267757 0.3836009262279231 
0.01472892680742447 0.3427408327298581 -0.1677507786718471 0.5028252722302509 0.9082052640344903 -0.03840313637161731 
0.7803283452923201 0.2169684313181887 -0.3055236387315802 0.3366774752911653 -0.3598283596746275 0.4674533161746082 
1.383542853653786 0.3964225628678116 -0.7706642153043550 -0.7805610322561575 0.8611302217902466 0.4251083837759561 
0.05190090795400065 0.04377034187267077 -0.2642651542147315 -0.1638986814046686 0.7743180901127958 0.1527477455975475 
0.2197515358434118 0.1426178723188819 0.3114299139195099 0.5732365949943649 -1.126607269968313 0.3991048540174947 
0.002516697216180079 0.6552662267895294 -0.04732707169739656 -0.9602914732272300 0.04512903161771045 0.2799733043451903 
0.1286007828867968 0.1802135127416770 -0.4663547189072546 0.1166872960637846 -0.3316035822033081 -0.007310303105422715 
0.02439625041904891 -0.4748227766639230 0.3509835285379721 -0.2646060108299621 -0.1562513251506725 -0.6009841281095684 
0.1851540976571497 -0.3153141786960845 0.3906303642000450 0.02795432326412359 -0.5438295621744330 0.1799181861144417 
-0.1910315208761297 0.1481514084288719 0.4958912499854988 0.4944451421059462 0.05708749409812708 -0.09298908513939115 
0.7429352556058254 0.2745768905000014 -0.3558361094387448 0.006250579188073152 -0.4230732970377691 0.5021504116236617 
0.1653660727270440 -0.4363865319409958 -0.7434498945410299 -0.5952480076345245 0.6528878501942935 0.3272757490207189 
0.7778333566756483 0.8178048069418835 -0.2945636216085528 0.2460034993416531 0.2849041929134865 0.5626687398520177 
0.3538033918332512 -0.3107800565777448 -0.2662219040067702 -0.6545791377408661 0.3269696673524388 -0.1449433964420895 
-0.01940921652590352 0.1522881680462151 0.003009389360906330 0.1525014745998360 0.5919135084221983 -0.07134174457354257 
-1.040182264745031 0.6758331389782681 0.03314395829745746 0.8201475349696311 -0.6258591258933160 0.7391569456488257 
0.4407765484077056 0.1548194259808801 0.1433457263629823 -1.402253364670458 0.8841645482979491 0.4813762349643990 
-0.07725467984320368 0.04150389344263468 0.2403494918487214 -1.126370577402388 0.5671084603441079 -0.1737029883788056 
0.7709714195408481 0.3937656075503295 0.02376455344466745 0.4613905637036287 -0.08379238171092392 0.07666608567513135 
-0.2679532802445018 0.2607602792867163 -0.3866633405115361 0.2028833023110729 0.1964105603836436 -0.1293489870137854 
0.2095233821020550 -0.09331083125529696 0.1963227548563085 0.2222577923495535 -0.3284478690170486 0.3076232588596664 
0.4723516582769335 0.08599816541731453 -0.5593131086742625 -0.4366335362978761 0.2300588172235236 -0.04512348393212678 
-0.1010953184639314 0.9318608535604006 -0.09972751764331822 0.6036739886229414 -0.6314065882385281 0.2747590195366509 
0.9025576575559233 0.03223014034995742 0.5636739403400218 -0.4779048887561976 -0.3267200819540632 0.3701253706170687 
-0.2724461038431267 0.6539570509476773 0.1525874383992023 0.1161900857488661 -0.2426327565078646 -0.6484302453380592 
0.7356760458164956 0.1324091293891551 0.9740918960366604 -1.424093856610124 0.2827878666926895 0.7072366856878902 
0.6021785518191278 0.2123465471521608 0.06532468288191456 0.3377713317044942 -0.4928193546189403 0.07827693288671090 
-0.6024665239198365 -0.01344681111516891 0.6830162291602667 -0.6672945276546306 0.4084812120594010 0.1974015186891577 
1.052997336580337 -0.01405635098989837 0.3617244846328234 -1.248851820382962 -0.9841024345467722 0.1989463809541316 
0.2816207348619030 0.9772465996613990 -0.3107406240265894 -0.1552165398794042 -0.1635809650340892 0.06745405538809150 
-0.03311625362728786 0.2540958739719842 -0.5816798369102991 0.6874824354639220 0.1367411359025656 0.1911241329950338 
-0.1553021351237694 -0.4136827252519864 0.4037121625320941 -0.4371117901109600 0.5993375932023661 0.5433684950038673 
-0.8710380332480324 -0.1024928768627957 -0.07095881033075242 0.3323278009083197 0.6967696809384509 0.1169038401506647 
-0.6283361889704863 -0.6138195339893806 1.195119239622049 -0.7385814210455127 -0.6537107356059574 -0.2674232555101975 
-1.072838877466404 -0.4166660128045754 -0.2068715083444305 0.1329559948301126 0.8184320473501775 -0.07856098783463798 
0.3386049031424099 0.7105739320342928 -0.2558134833356590 0.7190505310071468 0.08215986735913115 -0.0008385654807715884 
-0.3627035028942651 0.1949654797641488 -0.08725602567781938 0.2306989686966581 0.8217840987660219 -0.1592833804670303 
0.3201814517338169 0.01994074537342803 -0.2651761770240104 -1.044820680462933 0.6016980630883360 0.5732444096054693 
-0.2028609924285108 0.2827469254473570 0.1585666958411771 0.5375226053578198 0.01564099028709616 0.4071470724008438 
1.715266074560590 1.051646870076228 0.2974607123754603 -0.01683379023723946 -1.317521591371863 -0.1255720610315189 
-0.06824473049216218 0.2005399433042752 -0.02979721106982422 -0.1851317027962169 -0.4348987531014923 -0.6115688856028746 
0.8555909406719969 -0.3348041167019991 -0.6372407010273796 1.115978798539762 -0.2078290035189300 -0.2131230145818121 
-0.1213305111803655 -0.1121405718762237 -0.1276818712610747 0.8045953031101188 -0.4077538505392523 0.4675014666148766 
0.1112481182247628 -0.3434453290619979 0.009222167070807748 -0.7676136636840116 0.9601314498148522 -0.03240097678793398 
-0.2104976255924210 0.5387992200459861 -0.2245270484627523 1.114901887494824 -0.2180563652878135 0.1688899211022134 
-0.4801793999482258 0.3129740968352394 0.7606888254670401 -0.8202285365157447 -0.1813137740349263 -0.3571083426704229 
-1.185483875556306 -0.5733460394993349 0.3530261191832884 0.1578758140420130 0.1613873268183019 0.2923802523080069 
1.060080878775822 -0.6241504139455444 -0.4299307265075063 -0.3135222903088377 0.4260095840980497 -0.3580825512799558 
-0.6016045590006818 -0.6400502242463246 0.7770095850618296 0.6521328418546815 -0.6872280398742561 -0.02045828164963380 
-0.1216466266069486 -0.1136154143496470 0.1686038311305804 0.07746516102966089 -0.06977398587733875 -0.1137402113965466 
-0.08927156981672998 1.015777449317840 -0.3872596482991691 0.8588279512690278 -1.183717986057873 0.1351105607950167 
0.7878412016073162 -0.5250538060090485 0.3259396190250321 -1.117226303976290 0.2793295567517237 0.2152182439306726 
-0.09114422543275522 -0.7517453973564722 0.2550967708122351 -0.1162814557725036 -0.4016097589031745 -0.08823574902064076 
-0.4279154062350887 0.3770239173353838 0.1401652075839610 -0.6016838325793858 0.5989222769687420 -0.1151208806861668 
-0.06085771690906570 -0.3693133691393522 0.1818114586913041 0.3418071033335670 -0.3615961167240782 0.1702942494645298 
0.4063800025786816 -0.6276579179752414 0.3633190381526571 0.2046707447165891 -0.4919896742663898 0.02901557287911496 
0.3866707305791698 0.1237255308417506 -0.1791134084360822 -0.3953695943330992 -1.147167561672250 -0.4795779705997775 
1.742990374989802 0.05969416992276685 -1.143610952276303 -0.4534828834044754 -0.7357589115611312 0.05018992532920709 
-1.658784881807213 -0.6575491757922295 1.625735695915077 -0.5275195923196320 -0.3839442847597268 -0.5977982710969867 
-0.1131249432393733 -0.01752922836150231 -0.2963052435049156 -0.1341369434934048 0.4835907137362902 0.6585683265621058 
-0.2562225978575912 0.1321810247079195 0.8937372800234566 -0.9984187140469167 -0.1785513773616541 0.07170856533073505 
-0.1333335105992126 0.7642720601664930 0.004553961486351848 0.4961762643651616 -0.7969785212680250 -1.064717250332179 
0.2954808656317399 0.4913341822036373 -0.1576869659260437 -0.3686537003779238 0.01506204100793727 -0.07291141681528907 
0.1938978661065143 0.5959430650710541 -0.1193784671789906 0.2468260437138097 -0.4734532763196458 0.3491150200747006 
0.6161488592711154 0.3250544758432765 -0.1070146254218118 -0.3711859965818733 0.5028351926309274 -0.3385819600799378 
-0.5767420854055902 -0.2291597813166311 0.03906286093460522 0.2315670505377195 0.01343933054779772 -0.3387495119814626 
-0.6439384787364312 0.2623051121477787 -0.3615187075995547 0.1663178967560394 1.047875328574726 -0.4790441496447955 
-0.1518515853870020 -0.1880491141635209 -0.002693837043107763 -0.2750360118451512 0.9004772303387996 0.3171907581947130 
-1.157070368417715 0.05658523025733143 0.5853857405080521 0.03403943812503855 -0.4354789518575614 0.2297201518725771 
-1.155317078495763 -0.1084323951247727 0.2735930289155599 -0.006233504337743333 0.3843636544438490 -0.1821973646572718 
-0.3192356492667818 -0.2749167443766109 -0.1078548389664072 0.6055384807616666 -0.07759389647026220 -0.2592111514766493 
-0.01048129512695364 -0.1823782377551725 0.3155910630867145 0.1510377260946677 0.09480628465582537 0.3674185687119982 
-0.1285993972563023 -0.3158714903382427 0.7434416012997240 -0.2834701095517550 -0.8387387601423676 0.2464466159058261 
0.3355728427925442 0.4325296653916647 0.2595351090945819 -0.2226328530628008 -1.433683562019275 -0.2697090751833319 
-0.4801907242346321 0.1589603629055702 0.005832061343846745 0.1032891138210037 0.3608325918314345 0.3749103445564511 
-0.01485487257557416 0.07650533717335463 0.2995446812855214 0.01565883915254957 -0.7433573006582941 0.07313954140718278 
0.8419682760986056 -0.06365749186280603 -0.1449634957568428 0.4049555454827873 -0.5170821543516964 -0.2168334962169276 
-0.5764382281738850 -0.1828303817801147 -0.05099370975976120 0.5887515808829366 0.7394763279833397 0.03735109139923687 
0.1454604240086320 -1.203271362193203 -0.2144834635168022 0.01670809421483694 0.4650688953185130 -0.2508798238322963 
-0.3036329650091370 -0.8778218488827747 0.2024852943206573 -0.4376198289346142 0.9810661702667473 0.1645740712371673 
-0.8170281616180617 -0.6686758113851188 -0.02062613234287289 0.6884362507667906 0.5112111263037970 -0.2132374688137105 
0.2112320683232556 -0.3061923183609561 0.8078430977524367 -0.4719422530065917 -0.3970074216697804 -0.3559508359209507 
0.9152884057095179 0.1972165354897997 -0.7285991322259834 -0.2038438122251692 0.2129805627229073 0.4665477600356313 
-0.5199967138441007 -0.3085380627326027 0.4678139330754222 -0.1215407403923130 -0.8236488980153729 -0.1658305980611858 
0.3759737668884275 0.3317675877210703 -0.9065956759627146 1.155584623071349 -0.6464193567079121 -0.1702602126791270 
0.09594343579348562 0.4192964622442638 0.2790428940464927 -0.1248344704360751 -0.7870566294557063 0.1191093489950156 
-0.6183430798529057 -0.3789794048844514 0.3042872164654178 0.5735233923388244 -0.7336247548149316 0.02318485268469461 
-1.266993456580676 -0.4198714137198851 -0.6873694025574932 1.613064023913001 0.4633910392266951 0.07865696896538833 
-0.1994448804097323 0.7406575613106834 -0.2176900414387777 0.3186365767589712 0.8494671105749104 -0.1470332898701351 
-0.4612299152702034 0.6916197747738007 -0.4237402370737433 -0.9221161545160182 0.8404347434127222 -0.2536057297213811 
-0.4110372460268437 -0.3487611501548280 0.4562262278089349 -0.2540544756118770 -0.5914616252387184 0.2474067158417888 
-0.2049172477442175 0.03388674394050692 -0.007130940110206446 -0.1155857195201274 0.8045127490131802 -0.4643921288616468 
-0.9761829304873897 -0.1183060235579259 0.3173022777739383 -0.8697378886843777 0.8930580484506929 0.1327590806406958 
-0.5128798981939626 -0.5238336304959340 -0.08505967887557654 0.3105987204904678 0.4423498137219958 -0.005207948021880808 
-0.1500347350613458 1.027145524330173 -0.4151209518935337 -0.3369760430950943 0.4444105429940852 0.6272082542498489 
-0.8497649331300724 -0.4194370584275422 0.1311909233970315 0.3177057349687119 0.4527307235552379 0.2806942122275312 
-0.05270786675655510 -0.1652081975342198 0.4871804861476265 0.2320401682830895 -0.1731360112623707 -0.6578565788020004 
0.6635164810917242 0.7642346990126359 -0.6503203728878820 0.1887382587453856 0.1089244493897216 0.1880610865590544 
0.3712780555676151 -0.2418851698816713 -0.2805680848086677 -0.1458398449839997 0.6948208399650855 -0.5549142882124637 
0.5273304024252063 -0.5559446541553601 -0.4801485202856026 -0.05796192660362841 0.05228641041199073 -0.7162767330331230 
1.225685285910464 0.04277501605967972 0.2789078392771218 -0.2824877591364966 -0.8824426220716960 -0.04325803106503812 
0.1160178651155346 0.08231161279609968 -0.1335753354274711 -0.6098341919193939 -0.07205141469542468 0.1478767855794083 
0.1765380005879667 -0.03007659392810306 -0.6642063376214634 -0.1287965716260677 0.4623129583005096 -0.2167964084690508 
0.2548369913294176 -0.09508565151287689 0.1036701837546313 -0.02252925538211676 -0.4335806266606324 0.9765411566903437 
-2.242483209915434 -0.3002037966811744 0.6148499589457477 1.333028343406840 1.216431834767648 -0.03571372213875423 
-0.5359800947893258 0.3801528658112298 0.4711568884069032 0.004672639248885986 -0.04844488811711383 -0.5492447636723681 
0.4326645881325094 -0.3101087787960784 -0.07373703204979475 0.3637843908654339 -0.02838472125896901 -0.2348692024274008 
-1.003885984066376 0.1088885057740408 0.8160540861474338 0.4252713279129274 -0.8338487714244360 0.5969974404894319 
-1.174538393922845 -0.4583143104226777 0.7901899454215330 -0.06855073919090363 -0.1076310433896171 -1.028820310787360 
-1.143973241896238 -0.09845356272205688 -0.1895275871270147 0.3115896529325504 0.06200597027214573 0.1878869551476227 
-0.5683911733483424 -0.3896522466666137 0.9158234625603275 -1.363991662250741 -0.1664602579700549 -1.109247080451430 
-0.9211103008236627 -0.2551971683602231 0.9305895043058513 0.4924029366974711 -0.4178593756130109 0.3044005798924575 
-0.04694547469225655 -0.08022601282812902 0.6204069757358267 -0.3840318082820350 0.4749356173407773 -0.2334024494617869 
0.7888127781584067 0.5800473023776179 -0.7787385162311214 1.285442995740195 -0.3931592422521864 0.2361474654321241 
0.9102095114206517 0.6267697952302400 -0.4283924666764147 0.08268882171719172 -0.1797114677609351 0.2811088078755327 
0.6568330322646471 0.6753587288703887 -0.8172645659280218 1.076574730766043 -0.3169092725374894 -0.6494949769854822 
0.2083595230129457 -0.5162816456319780 -0.6427946632512468 -0.4497426310626305 0.4709373888740664 0.4423163311688773 
-0.7624470525791020 -0.8003213530753867 -0.05829508959817195 0.5862431420717733 0.4545891895510430 -0.1217726162757111 
0.1667629584836861 0.3071163844222386 -0.1853481457648290 0.8154128869912514 -0.4717829181210523 0.1987502327942881 
-0.4510942407100848 -0.4495808786092677 0.6329487277092998 -0.5905432863836728 -0.2478282238783190 -0.5682224388432918 
-0.01222270764789524 -0.4627907440124603 0.06378835950296577 1.012872130575923 0.1932415676935003 -0.3438172418185343 
1.416712789025817 0.7856425123204932 -0.7364512523307278 -0.1625319674516077 0.6496368629431184 -0.2819580633037274 
1.342608698162267 -0.08557761428077741 0.2583078299475598 -1.344666785578855 0.1699620624197990 0.06249540799515469 
0.8288268954863163 0.2560897172204090 0.7088250093684598 -0.5077227780627378 0.7050035711629550 -0.01287499936192610 
0.7878227116598546 0.4754577180513329 -0.7667008717857007 0.1719840774853046 -0.5601994894030273 0.01600952890842233 
0.02050005948716927 0.2121285247824843 -0.2577879998940544 0.001097980898643552 0.5745369118339944 0.04763640831414926 
-0.08202670586914430 0.2398293253947373 -0.3466603642880951 0.2929627350375602 -0.6850429921942316 -0.1836679660426349 
0.8823941583440088 0.03571717283348681 -0.4446360347601474 -0.5793741516252688 -0.02950648019204684 -0.5069005124572298 
0.002236931269849651 -1.043338071588190 0.1002413192528906 0.7117904158736962 -0.6415409363315157 0.4324875071476476 
-0.8645394829708030 -0.6120440101891882 0.5760847210733889 0.6804538392162308 -1.164512021305217 -0.5962180538063012 
0.3976507673879905 0.03742252749211870 -1.007795421271419 0.2213397201494894 0.5951835465820420 0.3735510311548282 
0.07432896599113516 0.2406653039010047 0.05336111300909453 0.2011991954512497 0.3490044297508578 -0.2779455825558847 
0.5019146452611901 0.2100617545100119 -0.5728573493763596 -0.3896812247273854 -0.01717615475365434 -0.07016091654910325 
-1.029283307229475 0.06298069640195843 -0.1928856287282613 0.3022351876070550 0.2829075124535494 -0.1595069743282175 
0.2708435937442102 -0.4513140380507362 -0.1180875064101759 0.4508893082066393 -0.04084465388120579 0.3117506429281381 
0.1454430854708497 -0.2092844197158036 -0.2616553716239958 0.2402662434450291 0.4762378144196263 0.3072119651231368 
1.128296166054110 0.2904450274522392 -0.06562457586210880 -1.212851993940687 -0.09218338436615685 -0.1468510595734339 
1.006198479922407 1.154274385394656 -0.6191021271933796 0.2686901600903611 0.5099062443908500 -0.2278482344064143 
-0.8277822209245019 0.2791596622508538 -0.8968347205218224 0.1933746522613813 0.5505396426897555 0.3393887077871882 
-0.05113470232501075 -0.1281140599972176 -0.3712943373322982 0.1362339296574200 0.7562559995248153 -1.000794260985306 
-0.8774383167851500 0.9277672600885501 -0.3477601194555887 -0.1709070401130976 0.9690658366214908 0.1938516230468181 
1.062559334023141 0.6197567577034453 -0.5728580758435968 -0.3024948990528078 -0.8927003844939710 0.6883770072401560 
-0.6843673283422881 0.4564368876733439 0.5122402754576963 0.4503978133912083 0.2235766333898473 -0.2695430729777674 
-0.2404719783550023 0.1902872608544334 -0.8821580865314860 0.6661613812526525 1.021319692986086 0.09915311024037958 
-0.2941596472947734 0.5470047092885865 0.2311713657642116 0.1372905585357759 -0.2717859142147711 -0.4958257316200854 
-0.01779301207646017 0.2228089823682347 -0.4634062090844073 0.3755704297712577 0.1135923683353136 -0.1648997400209173 
-0.1024472924350703 -0.7765448806650834 0.7459152464189421 -0.5614535277200661 -0.6001415512660646 -0.6453488285760468 
-0.4203671087269585 0.1528437813923300 -0.1252015106103503 0.6868996023596642 -0.7128951099811972 -0.2590932762746623 
0.9116468663909110 0.3804077416217133 -0.1266479393360331 -1.771702870214455 0.9469285121158737 -0.7009717787243043 
-1.255417727251190 0.6199168366227729 0.5848020769333965 -0.1969625574617638 0.04674189506880687 0.9353967780136341 
0.2948258025065253 1.012855959582569 -0.04037984013578350 0.07352703104052107 -0.5222934568151714 -0.08481277823274351 
-0.8913933632805930 -0.05681443423665553 0.1435908289039270 0.7692163002123954 -0.03293156145220236 -0.2322626590709999 
0.8588476182990471 0.4493632248216931 -0.004042847920167974 -0.01034213691725351 0.8668115589495324 -0.1142002384165385 
0.3008673527421406 -2.208546172364408 0.8427205029930713 -0.3626266821882863 -0.1180472167900087 -0.6854162288843668 
-0.2911403129201717 -0.6377648307464538 0.02513347993186991 0.07701301541205077 -0.3926348273249616 -0.02939826730742358 
1.438154749383822 -0.7787449996709870 -0.05283600580914068 -0.7212659583387768 0.8672764780458064 -0.7612481086937176 
-0.05826515495160452 -0.7711570400694892 0.07097876038861416 0.4166995699504960 0.6130678267002826 -0.3841475931208987 
-0.1731838103272625 0.4238820912825725 -0.1689645158932888 0.1238545725445343 0.1990800365177818 -0.05080777661939927 
0.3021569121373994 -0.3303948788607000 0.09039958072808932 0.1888460683055644 -0.08807072583965797 -0.4804364536507046 
0.5242765135260269 0.5354049320084555 -0.3810877703520650 0.7821151144016529 0.3557870166125658 0.4849581031037262 
0.7384971809108859 -0.9348070795303368 0.1926671799665357 -0.9447705633511105 -0.1680538032296148 -0.3760806439337188 
-0.6597039101521585 -0.8283440488593031 1.112269059272641 -0.04063509989771310 0.2771213679977463 -0.08884801530220848 
-0.9979921599396304 -0.4391188479214402 0.1722815168294898 -0.2743213449353340 -0.002635430545730722 0.1276660915469090 
0.5720549235853170 -0.4044066507843345 -0.008358229414292711 0.1378348446476664 -0.1933997489653094 0.4288159615755845 
0.2533252186709332 0.7903205229234331 -0.3421716093173333 -0.1685929783996862 0.6309306512165899 0.1662887708324353 
1.288549911364964 -0.3098487924206960 -1.396381297668713 -0.07857345260952611 0.4832814814211855 0.2349838981543041 
0.3757013852460805 -0.5127290342838362 -0.04870487228587622 -0.2464010038729643 -0.8028348024596106 -0.6799496847337569 
-0.1239431561612010 -0.6851519426972287 0.5660474591584965 -0.03022754007997311 0.5252861463451254 0.08473747525776000 
-0.5287282570030521 -0.3986025167403344 -0.1554348085895296 0.7761460956327509 -0.3598752802874325 0.5617891246027982 
-0.2265340678943910 -0.4871194291023100 0.1561410814023286 -0.4166447929089904 0.1077301553758660 0.3478529045701480 
-0.3618651463777398 0.2096176529162608 0.2250267852558985 0.4396223775629435 0.005919596552097257 0.1516495852065646 
0.5515812428346707 -0.2482037379725227 1.381072821787723 -0.5397807733953885 -0.5671462341723821 -0.1540315955198078 
-0.3688736142885112 -0.1816512086945571 0.8157364741732633 -0.5465389709687772 -0.5247166904244912 -0.5842287684049368 
-0.3650164823089594 0.6409438895423536 -0.2563017624538466 -0.2153150587806459 -0.4656007127104279 0.3113883665438607 
0.0003919932808858465 -0.06981379566976192 0.5132034846597329 -0.6880268790227687 0.4944751777786919 -0.4955603754998271 
-1.903209013505641 1.297985182789530 0.1100806775237337 0.5418934912060038 -0.1294533824988510 0.09491014428652499 
0.06988607159438999 1.420436239968662 0.1222228879453225 -0.3816193197539854 -0.8013816420010994 0.8687300943853021 
0.9822539026413193 0.5978551684562033 -1.039777249334011 0.2285551119872916 -0.1175670156826113 0.1389783018876326 
-0.3283250035019980 0.4388758286959676 -0.1508944791033219 -0.2707472602679045 0.6836729880592250 0.2168681165719927 
-0.4489137672744808 0.3287595626408713 0.3987539276112428 -0.2941481130878263 0.3000392750769643 -0.1645248051663021 
0.1348194147893548 -0.5333064972913488 -0.4166168096262263 1.010516720900448 0.2794913677535079 -0.2350284038273443 
-0.6392821232390477 -0.3330769272476761 -0.2273521415271966 0.0006367089344364366 0.01886310635029925 -0.4246351738458597 
0.008127327313851563 0.09648774669285468 -0.05116661586405416 -0.05088113091079617 -0.08307234569546129 -0.1795594993202395 
-0.6830583656755744 1.386155482412526 -0.3422442473995285 -0.1556144279677547 -0.6413710853838444 0.2999428509357492 
-0.1304082430463240 -0.2842968778408920 -0.05185028894506819 0.7122545526143614 -0.3509619456505407 -0.05650258349936483 
-0.7796549087406051 0.6768764583309537 -0.2968690001968023 0.3708669988835422 -0.4381442123837132 0.003322852568596984 
-0.6515948633740283 0.5277800221869199 0.3452077139527631 1.017513522480098 -0.1334909884289667 0.2028032812848422 
0.2450129940507544 -0.6322207880167106 -0.03794929061517959 -0.3936005574366205 -0.2547211053630823 -0.6219214872212675 
0.05881714200045409 0.06842263784922470 0.1740563564196284 -0.1583754441567382 0.3747745765775641 0.5893113886833984 
0.6185290358272000 0.7396917620104477 -0.005319476041730090 -0.5740429169271305 -0.3127299333148063 0.3588337537146089 
-0.9376175353136590 0.6690782048302822 0.6297386802891409 0.8483123937676281 0.5285957177354014 0.1933996093082250 
0.3032741507215896 -0.4105429981422941 -0.8050773309384006 0.9284595076653477 0.2257074782277640 1.006247390381088 
0.9045959910183140 -0.2355309926988487 -0.9404058570016217 0.3277645740693584 -0.5584594374179657 0.6153174444039247 
0.2834163412921408 -0.2896371356295782 -0.3353012941706056 0.3540135321377460 0.5992210924256120 -0.2466748955125921 
0.4993894973017163 -1.376272456084558 0.07807001004875513 0.07859174382232975 -0.3756354521129633 -0.5393923712201053 
1.397452485077249 0.6703066573757860 -0.1313868798412242 -0.7802963228673470 -0.5684608814037365 0.1925399880364799 
0.4717427115709755 -0.2367862893473562 0.0006058099709352452 -0.2784033996277429 0.2690221348651070 0.5208825153039193 
0.2503556611148251 -0.6404742483597627 -0.2345628965917141 1.090320471033607 0.5502860949784818 0.1332889548779595 
-1.289623691482913 0.2928385350354080 0.5326565900388772 0.6627112744248516 -0.2345554845973457 0.2918248070428496 
-0.5215489412968427 0.9280101945461527 0.1881866667435053 0.001818711782012513 0.1145392316177639 0.03671520492136749 
-1.289553471919715 0.02528549135594069 0.9119823336167789 -0.4732714128607213 -0.1183925327409089 -0.2608366599569686 
0.1102923377856127 0.2354253743625468 0.9254927380336300 -1.022441112308087 -0.1492759581278152 -0.08524994239780088 
-0.06667166490714022 -0.3813792700311989 0.2161626799231850 0.8580151693471696 0.1988182872416738 0.9910091556407484 
-0.6051208476233897 0.1918569437376829 0.3474145981689731 -0.2477225451544177 0.3284175520618534 -0.2530251004205539 
-0.04732805672405086 0.5006784993512571 -0.2130939311453408 0.04154539356188212 0.2318332394262944 0.3900524340061934 
0.6690478697749012 -1.028157854443525 0.1432074178072688 0.01175920875428294 0.8484544348319779 0.1992249552462816 
-0.02182749513400608 0.02185431272224443 -0.2745121003372108 0.9318127044839214 -0.6875288692699640 0.2113089917950102 
0.5666617190297378 -0.002079165818143562 -0.3846724875232966 0.7633694295195845 -0.1238178703685230 0.2730936793547461 
-0.2477920304886248 0.1269864577165394 0.2862376048485283 0.4607670546837979 0.2583599812043738 0.5527361575341615 
1.026911593305664 -0.4318204444477395 0.2944576624678875 -1.189622411923053 0.2856343692075043 -0.3280916768620278 
-0.4133981294221692 -0.1877929758493495 0.1517409544772730 1.297694912160619 -0.4542872402010687 -0.0004721156915560874 
0.4023204754323308 -0.2940352005720881 0.2807709073804202 0.2707192767273610 -0.7523372443610594 0.1268655907507579 
-1.516630907934943 -0.3344773848754691 -0.3346644205628280 0.3337451023298992 0.09806045847689251 -0.2690139356817085 
-0.2718093509218609 1.195139469349326 -0.02033362757740297 -0.6410901356027715 -0.09970762648091622 0.4462286868614890 
-0.3118800377996067 -0.2028125485623497 -0.8685610515722929 0.5767904329002128 0.1031192959438244 -0.3059960088403852 
-0.1991484350523569 -0.1733942358213305 0.3203914697404641 0.02537914594220343 -0.3217836004928990 0.01027285850357281 
-0.3195347532435990 -0.4551331540562519 0.4600611592903850 0.8331759721096628 0.3861632971362721 -0.4197492042660719 
0.3422113919289552 0.8889005036215370 -0.1387996040720906 -1.584413776883752 -0.2563416882395821 -0.7637870053129749 
0.2975676616734391 -1.120033659107804 -0.5059887529133481 1.301140283544362 -0.1647551917872480 0.1800959685230539 
-0.09995289086811520 -0.08914930555436623 0.6983819011163320 -0.2769692556859781 -0.2982479700228004 0.2852171599019113 
-0.2355815380157783 0.3347965841257256 -0.2333196366576812 -0.1504446768454536 0.5928102667901785 0.4559870570526129 
-0.2667898039699289 -0.9531606741338711 0.009594987319952843 0.6081557515875834 -0.4624684239024591 -0.6040081312726089 
0.5666984484274956 -0.4626496108285768 0.1597066909382608 -0.7554740577586195 0.01614193583113353 -0.4972122688997073 
-0.3802065137474747 0.3516649066254947 1.306595026486761 -2.044918643987376 -0.03508448905787789 0.2568467784359579 
-0.4222084486978908 0.1356270508334044 0.3226352400698672 -0.1463494320317819 -0.4396216536612663 0.4884234310247271 
0.7375881136551657 -1.360037853921821 -0.1497679666172865 0.4161494651364636 0.003444623614716797 -0.09552217351266185 
-0.3033308346682623 -0.9825100753536239 0.1686031034641267 0.8862246005309438 -0.5257577516040793 0.2848407615124581 
-0.1747537708638909 -0.02269632458720094 -0.5519363165936191 0.6583861429326193 0.7081124941469540 0.3369023701739705 
0.9858419339028026 0.3302567526290256 -0.2115771594616014 -1.064042214219001 -0.4262980896615418 -0.2907955735821444 
1.146754118310839 -1.158702115297142 -0.4664293038517570 -0.9154021120469129 0.2393238130596328 0.1425862648483470 
0.2164811941522241 0.6126253876145951 0.2763866597659434 -1.059319519446561 -0.3338434340786510 -0.4725797920053297 
-0.2392583376555187 0.3180258262320371 -0.2140546739441043 0.5167116926816558 1.029186793394174 0.9085985189099041 
-0.2352437141321426 0.1203126800260684 -1.232600817543853 0.4963559481296941 0.6433882476046933 0.06865477963762270 
0.1008168458328103 0.5697235751289401 0.3005164343866578 -0.7462678413553415 -0.2813433275879654 0.1688617889025240 
-0.2434688080556381 -0.8634983376490786 0.1863626629275178 0.08447683419576414 -0.02995228415571861 0.1362532926117431 
-0.4238861348260444 -0.8694628636191128 0.1146668288060166 0.06566096944123714 0.9517866846305763 -0.3677626484825736 
0.6427141307022771 0.1013068071525728 0.3342295055575046 0.1198033439867398 -0.7515246656721539 0.4455740261522023 
-0.7376709634326372 0.2691304528572588 0.6067834474081180 -0.3864391988534550 -0.3423390063235154 -0.04020477726762972 
-1.308577565277272 -0.2386246263907924 0.8390869168670336 -0.1133988411525372 -0.2652156607211270 0.3973842212314825 
0.1669941509195415 -1.052041856412397 1.309221047821567 -0.1469528435804109 -1.167735804432910 -0.2703713516349771 
-0.2112921703583759 0.2265364435188065 -0.5241997399360783 0.5926008396673923 0.1632635343092160 0.3697782393291715 
-0.6993469129384025 -0.2131195516632987 1.603834636673831 -1.679185993828737 -0.1660390082851247 0.2027950593703401 
0.2548870801165816 -0.04801335098326668 0.1622692940948054 -0.3708100859398698 0.02628301288967331 0.3109589031391681 
-1.559071030203681 0.9245431341686954 -0.3421439911264922 1.057955007223847 -0.7046295745575606 -0.03561511572381674 
-0.8610014527178133 0.3184187740567946 0.6446019972186452 0.05096033313954929 0.2703536040198390 0.1689633952426097 
0.1261825925373400 -0.4070743868755132 -0.3428302785127160 0.8924792729911012 -0.3732802633254421 -0.6270708016136175 
0.1060774856114512 1.673827585307500 -0.1353878093195777 -0.6797323114136886 -0.1036805681143025 0.09146193298456100 
0.4555679864735673 0.4266242750942919 -0.08162582723514558 -0.7247148816587581 -0.06180756493255904 0.2197752447893071 
0.3066051311853159 0.3505036783900652 -0.6153550657529588 -0.1232680381160573 0.05519779638411521 -0.5497406375155681 
0.9195914245887502 -1.191941445773299 0.1626185028782184 0.1804025959599288 -0.4609125995252729 -0.7139565699804324 
1.404397798921023 -0.2552922181931657 -0.3637712938917089 0.2034204535247693 1.031564801739454 0.07098373703721074 
0.1076426781128806 0.6119457275013969 -0.1442469750470683 -0.4946515855564581 -0.1183482842467300 0.5783194356737852 
-1.252599392443007 0.5835707996385979 0.7918416317411586 -0.1660918119953970 0.2943037179556985 0.1380796275361975 
-0.5393724777140733 0.8093233089451971 -0.3687828936152066 0.4492133637241891 0.2348841293701222 0.1654065625741170 
0.8755357232430578 0.5742438725257437 -0.5708150132841447 -0.07137809964426983 0.2679139796572178 -0.1014137327851624 
-0.2559412542919890 0.7512075371388524 -0.3868636720691263 0.9616910756910977 -0.3918637966004561 0.2789024753693951 
-0.1151427828104999 0.4410942498932211 0.06426945325694722 -0.1201353068148597 0.4692761515041966 0.5894169767991630 
-0.5424978886557126 -0.6445298521407786 0.7577906154166199 0.1187628341500012 0.3715797968263409 -0.2061935166730680 
-0.08631399970582261 0.05013230257884467 0.1439459968610151 0.2649542866558697 -0.5186772233563541 -0.3548502522945396 
-0.3887057730007115 -0.6802055279684567 0.2992343512515379 0.04090689118935689 -0.1608739446322608 -0.5238697519924593 
0.3679924510319740 -0.1490722942982302 -0.3553028679851508 0.9910441968708419 -0.5234956891450245 0.5675815713540933 
0.6457160778743412 -1.348623796314950 -0.3201355841497001 0.4974159132680620 0.1261757770673496 0.7926312232996453 
1.414887721687839 -1.170668766343771 -0.3643743863380851 0.1379712129862908 -0.2961730585380721 -0.5514615695550984 
-0.05361843371402138 -0.2781386185402664 1.143697910167548 -1.512358944775651 -0.9798783680771616 -0.3801918187106349 
0.3182501405273612 0.2375809714625626 -0.4158050710742858 -0.5368777838688592 -0.3144299335134901 -0.1123148319037533 
1.170058965308348 0.6666718065995922 0.2189191200791607 -0.5594039431286202 0.7943306853094538 -0.4417831991227676 
0.2814996389398817 -0.8862754632561979 -0.4152466412870282 0.8951047209904568 0.06489644296762113 0.1664956370155708 
-0.09712405595243584 0.06203980681058737 0.3989045122828935 0.1838129672344425 0.004335257034055317 -0.2747486476889174 
0.1783081208582627 -0.08809091050941734 0.1518024629388737 -0.4538852416186975 -0.5885203744962749 -0.2510508387056653 
0.6008293333207884 -1.513088417208296 0.4539304775262741 -0.1372821545852447 -0.01300553595807768 0.1599058169155728 
-0.3796888928608867 0.1029782875204778 -0.03986042917143474 -0.07617068515195174 -0.007046471259467216 0.1547612031346109 
0.004957809565632811 -1.341577433727205 0.1767621756772302 0.8795448762241801 0.5924958421464721 0.08793236375281023 
-0.4985159544138756 1.936177143749587 -0.7964419241711800 -0.3712328516932674 0.6859747327872158 -0.3098835295191155 
-0.3975576459345430 -0.7454351482410185 0.1238699681094268 -0.1272939136977456 -0.1316332639708926 -0.2996702898847994 
-0.02708708832301069 -0.4479388534278045 0.6720786817815081 -0.4018740351596628 -0.9720047809446928 -0.3497622978512591 
0.5837469252512099 0.9060590744399725 -0.07936518047650633 -0.5216806336677127 -0.1434727279608133 0.1830049756688260 
-0.9174915342950061 0.2450709424753446 -0.2503263830757061 1.090361972633280 0.5325727032268871 0.4091950860169639 
0.2589323540333656 0.02672511541930708 -0.2452013310518030 0.2111157612677056 0.1247383401127769 -0.07736331092406919 
0.5493240027992368 0.7816736842060781 -0.2237030386936433 0.03659392767533370 -0.04771455107307050 -0.8013988061320682 
0.4668107726895767 0.08447278060438426 0.5513742456638646 -0.8836078824094846 0.02624366717227167 0.1648444264767656 
-0.1560970523688154 -0.5484333456123565 0.3556895446400863 0.1279824367284799 -0.2247178703178916 0.1873612590739738 
0.2898886861335062 -0.6620725233056859 -0.9274362799354022 0.4281209768180346 0.2711137561019172 0.09053203676330317 
0.07912368769950365 0.2983567318753318 -0.5252104510935646 0.1542601895708062 -0.3785500231546075 -0.2182685562865306 
0.4257873852626519 -0.1281578838780095 0.5881411637829796 -0.7366009718948208 -0.02859733665249161 0.1279648441915775 
-0.2780261883353987 0.7687795656394775 -0.5860332286516776 0.02114666589253279 0.2749334641300065 0.1469187141399031 
0.3339174404776931 -0.3781187728394700 0.2823940114034144 -0.6474464306399164 0.08094602847024934 0.02608730029159212 
0.9959959242940418 -1.367824976234339 0.4064344425199522 0.4376507445416249 -0.4987094861213330 0.2141900277923786 
-0.2415482273902084 0.4951868442955276 0.7442644611557185 0.04157552342771015 -0.1237376477403795 0.03049561097935561 
-0.4390451891756160 -0.5239170453117613 0.4707672817506026 -0.09747943634343909 0.05386981090537749 -0.1199297169402419 
-0.6400916545529161 0.1957554396087491 0.5839233700740368 -0.6524531070083363 0.3363403626287272 0.04532586946383864 
0.1643613504315653 0.1458468123651858 0.3112433631960603 -0.3811810921323127 -0.5738640843349887 -0.4280273581632959 
0.5417852802383646 0.6262165440626777 0.1561161790037249 -0.4368502686350997 0.9728766031006876 0.06899954318623694 
-0.8953588372753211 0.3275873030153336 0.4012213239971346 0.2579144240642417 -0.3215337216806444 -0.5158485598274455 
-1.292276069930708 -0.09027081607595017 0.07688932836393567 1.132273288121062 0.8441782696011737 0.2297118220142614 
1.072795286219117 -0.7566213092280374 0.2803428650751332 -0.7768029403534403 0.09770377695027585 0.08783397557904771 
-0.04323972837275362 -0.8602476478928907 -0.04005535182288724 -0.9429148958735120 -0.4403141922436956 0.1151971365079682 
-0.8592633582365476 0.9512883703727450 0.3764946380813208 -0.6060751962044728 -0.03804891145707483 0.5154374285875025 
0.09413611030406904 0.8021537720030356 0.4347248737211393 -0.1189123163695144 -1.573372435042801 0.07178146022234345 
0.8051045878132624 -0.6270438861697423 -0.3318873526173926 -0.5713761041342169 0.1568853188189764 -0.2704776303937835 
0.9135076482650553 -0.4250942099157163 -0.4861897916697458 -0.1655109431834293 0.3779848786623727 0.1535103789035865 
0.9544982601738329 0.3543033528344359 -0.6119984652747921 -0.05754128973363993 -0.04813625244171690 0.3662458695202533 
1.237340135039119 -0.1027931454177657 -1.289196836549787 0.7843034485479413 -0.1448501430795585 0.5200809347432102 
0.07697677787642511 -0.7261445905028994 0.03215929822734246 0.2954898232152625 0.9211304981346877 0.8046084213034274 
-0.1718957066271042 1.419833367683402 -0.7747874945202899 0.8621751109230462 -0.3887354365713671 -0.2098090634139891 
-0.5449436925389682 0.7023517785963568 -0.03881808112752359 0.5937162010896170 0.1208291458804416 -0.3704862679945838 
-0.8791910136891115 0.5609738887989527 -0.1272107203251825 0.2574760423418662 0.3802100492651572 -0.2348308186233561 
0.1714254500809280 -0.1414121281948566 0.8615731197011258 -1.466422621811410 0.4945553702056382 -0.7760876045837509 
1.167966837682810 -0.5207661428761691 0.02003583513426999 -0.8414705455731767 -0.3264931751240844 -0.7219779785615194 
0.4951968087004815 -0.3022239329999470 -0.3796345940825610 0.5433140153170096 -0.4909284205900997 0.3797111600330971 
0.7951387974955296 0.2199546563835850 -0.4030380791545402 0.2600374549373298 -0.09139212885248846 -0.2374975639373792 
-0.01162651929449456 0.7544722295000272 -0.8921489245485239 0.9279409478505054 0.2107474787288356 -0.1760721393916765 
-0.1480477917618179 -0.2223569933335088 -0.7259845501928387 0.6099815098805272 0.2481380228444986 -0.2721035709423445 
0.1428878919801589 0.8272752273119212 -0.8797146798025737 1.213653212430199 0.5374834594181463 0.7786709936794444 
-0.8618111447068463 1.016027099349322 -0.2095925281441349 0.1810337505759019 -0.3646275909945181 -0.4081849309471314 
0.7380602069399063 0.07379860624421497 -0.6266091334981795 0.2115031327612980 0.1385060631889687 -0.3441859598338919 
-0.5329109737116810 1.105342276701780 0.1594094808945229 -0.6048150279553383 0.5208079209773718 -0.6350726945393647 
-1.395607576161542 1.707729462523753 0.6055867357713721 0.8029773214821155 -0.07395119170961474 0.03030295755964903 
0.1008284982152970 1.238536086742857 -0.7422148026394046 0.2447533270680907 -0.3125553206417307 -0.1716742934004205 
0.4479271909738329 -1.285564193472081 1.409009840030196 -0.2163303234170272 0.5576204847050804 -0.1092888447852973 
0.04980630318309964 -0.2468646269859004 0.7448632100132390 -0.6367170191752606 0.4268047560738552 -0.5090908769043092 
0.1950255328811043 0.3388954629385711 0.04532172849252655 -0.2582862552089196 0.6254152029272508 -0.05452158830963785 
0.7737853090269144 0.7520952899308087 -1.508335273128849 0.8140827274621698 -0.2285098624500497 -0.3476481507310330 
0.9447538329320752 -0.001920249428383995 -0.3854238218513010 -0.6764095205016821 0.6321206784325707 0.2767529970825530 
-0.1069173374054017 -0.1086831333183310 -0.3768649341480175 0.7969471046851824 -0.1928587501515589 0.4790593938156575 
1.162338919432085 -0.3136388918727816 -0.2541424278444473 -1.054363569903844 0.6925606914037282 0.04501692056434988 
-1.116456137633868 0.4400119695038108 -0.1629297399179266 1.368989399165562 1.445392335988980 0.5315514954472027 
-0.1405113151027114 -0.6133090971031319 0.4618342648072129 0.8064534310229748 0.2293753334556602 0.6123248537016526 
-0.1386815117330091 0.2078720838369088 0.5206558058047486 -0.09669286783523615 -0.5456115337700524 0.2115469421649843 
-1.005784188401473 -0.6284805409445553 1.245804293096345 0.4112922831363616 0.2044572436551438 -0.2666280033161722 
0.5028409802785688 -1.003169726512908 -0.4510804031066464 0.2836125664653335 0.06325221030305364 0.2190789633206291 
0.006406748124100266 0.2712744389973829 -1.244090529712336 0.8502258809987332 0.6278133921162145 -0.1183881717932216 
-0.1039029664412894 0.3200275526885809 0.4631101009890094 -0.5664223090241897 0.2006784890527149 -0.2173598786177910 
-0.09490517371627598 -0.1381103995002988 0.8866027993696071 -1.178817819777865 -0.4814993232279451 -0.08701853118534177 
0.4954366709985689 0.3935691401803957 -0.5030140670094915 -0.4581509611439411 -0.6324538379087714 -0.1377705092602720 
-0.1082428754626412 0.8706146761136636 -0.3191736680021950 -0.5163950850669846 -0.7776706549805285 -0.3726160515901447 
0.4239766900731860 -0.5904350175942583 -0.5428740845597960 0.5789389050912722 0.8390691200365795 -0.1294644323602214 
0.07214987588989394 0.9864734153748245 -0.4319494686379731 0.06120303626097503 -0.1454908549034778 0.08803496117598940 
-0.04697150597344072 0.2795800530535427 -0.6731547520050509 0.7089128239501460 -0.2401057158928190 -0.2475514022648722 
-0.06592359814756092 -0.1778960505628963 0.4107810976256349 -0.5903482298093526 0.2249930983109267 0.5549865298009203 
0.7037443000188859 -1.146014305177414 -1.174141457797185 1.974893774589319 0.6319749096498123 0.2805004477666498 
-0.2368319413062239 -0.4427604594607864 -0.3278945395572185 0.1123863229861214 -0.3379358964335462 0.1173876617248346 
0.3143257171693256 -1.047039370248289 -0.9679093752763012 1.001634401577196 0.1630387311132394 -0.4784804360267200 
0.8475656695992111 -0.2143723353747339 0.06530347849515080 -0.2611552219981458 -0.1707124452571838 0.02921695709889366 
0.3476050616413974 -0.2651829709347365 0.5963814105292515 -0.7200278958995062 -0.3191076280257981 0.1556448340850579 
0.1568806038312140 -0.2822920182683430 -0.04692355383157505 -0.1583049020249112 0.4660730702653488 0.2210489923569040 
-0.05886541230266952 0.2332102252706302 0.8991654118761352 -1.227379171305622 0.4426023708601796 -1.124860200610863 
1.077634136083575 0.7732579496631583 -0.4271402728763635 -1.653964599740337 -0.2071095353985747 -0.02004506932817221 
0.1861573641497598 0.1214599467434147 -0.1129659161198383 0.1852315989335790 0.3522850501029717 0.1838037513210024 
0.6445713267178824 -0.8743450807541471 0.2838199308341001 -0.3637502591992891 0.2665286085030258 -0.5159114035426524 
0.4215092357005664 0.2960454545407747 -0.3295606504195522 -0.2782491147220936 0.3859080560804372 -0.05100167786909935 
-0.3420479986896335 -0.8013302270368697 0.4866633502879257 0.3978642274249795 1.094979282326884 -0.1330112918831785 
-0.9182187850312881 -0.1642857199514564 -0.3698625504888086 0.7124600111007683 -0.5127133114338073 -0.1042753498555340 
0.7994438889516560 0.2855632493177008 -0.1792621811484176 -1.271320884744306 0.04992093445153516 -0.3302564736687212 
-0.4337094795788046 0.2578750687698929 1.048488911772515 -0.8827950108527556 0.1664735056353646 -0.4839412195430671 
0.1163705668824298 -0.1221744398989978 -0.8120415996283205 0.3038334311637756 -0.1280318831532738 1.124808018776334 
0.5351879253072179 0.4312020517401096 0.02221633475130407 -0.7679036975211062 0.1546057162074707 0.4173978848513032 
-0.08029673985661097 -0.8479243081039616 0.1222724641962692 0.5758321959610660 0.8098113115902555 -0.3048402312579270 
0.1720399613579280 -1.012650014936561 -0.7772975758982186 1.002684950425038 0.3481673874095700 -0.2691215111686797 
-0.7356454149480822 0.3179388173951297 1.702792095516821 -1.620722770467724 -1.262582018742713 -0.3222544982407881 
-0.7278637811100525 1.356018206456867 0.4157094696798496 0.03332538325563712 -0.1872341358227087 0.3373957122295079 
0.1001642931825106 0.6387945715443071 -0.6373945024258113 0.1714747641366644 -0.09595312788758854 0.7097439516066598 
0.8393402061132761 -0.7372337757386628 -0.4218962719535123 -0.9083540905250274 -0.2065304279288032 -0.4422401479226751 
-0.6963042109352483 -0.1378590666088406 0.6585400890575671 0.4760639265609415 0.2416227848726777 -0.5279342297593098 
-0.2347383791176169 -0.2842560422781773 -0.04477650378944932 1.124800844775950 0.5540740757682221 -0.08607061097075648 
-0.1571923960969942 0.1402143247902534 -0.2248769732835275 0.3331987301835722 0.1600800480472681 0.01328887812841628 
-0.2418823256501265 0.9794097573987672 -0.1749237972750062 -0.7529191367158568 -0.4126376526241304 -0.2063194061440728 
0.3363614698639460 0.3253286586056418 -0.3545008278752885 -0.3388043477036329 -0.03893545598887001 0.5677763171287615 
-1.274312263724865 0.4899313939558265 0.6062198311903414 0.3715958981968020 -0.4508404369146841 0.3190623767543137 
0.5413333353048427 0.6527325502395048 0.1565416406643947 -1.272445266479915 -0.7725758860261172 -0.1252979123963025 
0.7073619500987551 -0.02715083964269616 0.2028918556657340 -1.647975014873707 0.2010573469311842 -0.3475351048132474 
0.7421214164667511 0.1455845888680203 -0.5131686543365902 -0.3116809102843217 -0.2858348331380604 0.5567002905602952 
0.5713006643658348 0.1143963319459393 -0.004423607465337162 -1.007323141968599 0.7529992130258980 0.1035391006051526 
-0.4538631447578501 -1.532297506307384 1.101269121314618 0.8607071449459468 0.5500896036681977 -0.5380069267434954 
-0.5220733154373234 -0.2682642043870719 0.2692867333437512 0.3502549532854267 -0.3807530581057087 0.004701906726675751 
-0.4633138865676749 0.06782161317385707 0.8232099529146352 -1.007414576922659 -0.2250862604821859 0.4254318508008930 
-0.8969769607928720 -0.1406815087705116 -0.03745511139677005 0.4606415453330737 0.7454329623882396 -0.2717238285317193 
-0.8244508631098146 -0.5689203331594278 1.167904467950087 0.3211311266585056 0.7531599758624247 -0.3744395112557312 
-0.009080449973706290 -0.1743400057789826 -0.03213146697442780 0.7353729231753954 0.1416341053233744 0.3412175122922356 
-0.4948362660376639 0.9226582110197779 0.3190849618962716 -0.6967512689651174 -0.3874374701133847 0.3808125813046880 
0.02528875473136218 0.2381064068858436 -0.1608686133912700 -0.5616283447399434 0.4704988153875661 -0.2276544666371913 
0.2263732779039860 0.4021678091366256 -0.4459879077847240 -0.9158561134192977 -0.02023419739033857 0.5761357197012420 
-0.1175592879349363 0.4615222933593790 -0.5853889520988806 0.3314817484138573 0.08863265361195785 -0.4024494283218799 
0.8839487925824150 0.4436354588420731 -0.3114334800037386 0.1622213846752457 0.2839981879685642 0.3243512445545334 
0.02132017708808474 -0.5380800040929813 0.4862919346083638 -0.7131314007992438 -0.4644291834868066 -0.4939630318699790 
0.8582405071901381 -0.5580580518615724 -0.1953428055183312 0.5982756078488949 -0.1364540685429953 -0.03113539549752731 
0.5289206438828303 0.1225744180852230 -0.3980908012057586 0.2264124237780933 0.03591839291763151 -0.1168039366542030 
-0.1144605043113859 -0.2695705027701573 0.02646002775386875 -0.7692471003038551 0.5181055404923844 0.1442614860370853 
1.008995810714931 0.5613508833198100 0.1794672417790209 -1.140462991600129 -0.5268720059312653 -0.6263762344281639 
0.08971438696116403 0.2328690509788773 1.183858549335890 -0.6717240182406993 0.8833989214013197 -0.1139278170493002 
-0.2326468086509936 -0.2993699071103655 0.1662978697629395 -0.1740462723190647 0.7620031450500504 0.3061831325278291 
-0.2345989516932607 0.2201024537813982 -0.6485137288612673 0.4711234420815471 -0.4033957332380427 -0.03737690804437358 
-0.6038122720958352 0.3385593044129715 0.1326567220982711 -0.4109932800310880 0.8430096605849373 0.1533466748246568 
-0.03305077777793976 0.2352140004896732 -0.08432025964191404 -1.282215049667401 -0.3702252448268705 0.1246846874429988 
0.6384092459112798 0.7666780770911180 -0.4141407886490602 -0.3135134081109975 -0.6331841348420563 -0.07766145065225508 
0.1243535858208551 -0.3593391358383313 1.483856390290252 -1.011722517648741 0.1159484827665582 0.06521290738723355 
0.2065668485143363 0.2617268026608933 0.6699209170016368 -0.2569863210264925 -0.7992010447254301 -0.1441814461879542 
0.8205959487862052 0.07760073563407884 -0.1847420380146121 0.1940317538668949 -0.03097254052533248 0.04688744522916851 
-0.9104402898896804 0.5511487243535229 0.5870455666705839 -0.5062472177207719 0.1045566968369374 0.1455320754598641 
-0.3888247356781784 -0.3300924119457321 -0.1459884313866670 -0.1076690616207435 0.1838473091094735 -0.6705911153438672 
0.5213633248364646 0.08345849849740600 0.5240524663920019 -0.7051503920713612 -0.7829966136801343 0.09326011865381886 
0.04883895254903913 -0.9109684061227747 0.5324771046287883 1.124279506094390 -0.08615506339675721 -0.2980264031378819 
-0.02688839545394901 -0.4391013483001912 -0.04589883814804333 -0.6081864025723105 -0.3464489836431742 -0.1635304127417734 
-0.6337974656874781 0.6453193826641180 0.07486045720849825 -0.1678904613801885 0.5637529010285861 0.7096562641155967 
-0.009693816208289477 -0.2064825904644253 0.02010891719670482 0.8246612618014760 0.1360850518887459 0.6468035148644894 
0.9174680809628989 1.586864462294172 -0.4738288174615682 -1.527499030279378 -0.1373125253697432 -0.1244653473250208 
0.2254114294841950 0.3818775622751433 -0.04695657396912513 -0.5500006905126706 -0.2199068978407210 -0.2350384632024420 
-0.04156542812447213 0.3215381349758404 0.5988354337681304 -0.2335046693044440 -0.6173403092237518 -1.049101315458332 
-0.003816705649309001 -0.01721319911157313 0.3863934279310129 0.04680797785255270 0.1655769009359393 -0.6219845410812533 
0.6303418590272397 -0.2577197322881977 0.4426679963104646 -1.132455351326317 -0.09838561347878788 -0.4192174985214237 
0.8070158290672591 0.3377925283197674 -0.6080737893211171 -1.575143698305670 0.3383789005615286 -0.3741791971610406 
-0.7471833566734462 0.08103608533298746 0.3384975724974573 -0.6950105348495488 -0.2594748873240068 -0.8887747284855549 
0.5742216431128600 -0.09505273196036873 -0.1917304900658788 0.08363448667026481 -0.6589574078129616 -0.003932248588857947 
-0.4914051639010221 0.1029672015400338 0.2550306464618636 0.4959588161030771 0.05326267077147582 -0.2841860497394977 
0.5763500281235588 0.3330349656507051 -0.4603286860578911 1.152271773835483 -0.2190228832029597 0.3131785683761467 
-0.09899494061142507 -0.6091023722511459 -0.3089280367555201 1.157363535482957 0.08897744851398080 -0.09953350544761340 
1.493821726806051 -1.028133936551753 0.3882606014605534 -1.488331151801987 0.08420859255370197 0.2528883425612989 
0.4037279527966924 0.7251087538581545 -0.3166288727704912 -0.5346442326952036 -0.3298518766569795 0.07125264548483212 
-0.3738222025884068 0.2550525076886979 0.04379148426267697 0.1528822278544418 -0.5388672384885235 -0.6781055089981627 
0.9546991178111169 -0.5520713752258631 -0.4510982379422746 0.4626217668240116 -0.4001661295413214 0.3607734047704509 
-1.237185339094590 0.1483218121788440 0.01563191776102436 0.3584246493400899 0.3062908741340714 -0.4183289770451437 
0.5222760849690595 0.05643097469213622 -0.3280420053108745 -0.1009408125396194 0.8892721899513742 0.09267480200873862 
-0.5765889062994678 0.5712300708250123 0.8691249587443061 -0.4881144367163677 0.8547887969667116 -0.1681174252455326 
-0.5690714434707862 -0.3449626263374577 0.3027167680190433 0.9624907788556507 0.3456272608884396 -0.04179215819954029 
0.2741000451620442 0.09691781057188174 -0.4687679242993007 0.9684579155435332 0.2343592817791931 0.3877662185140382 
0.2629574844609888 -1.332951736656141 0.1217430292245336 0.8893574446950832 0.1861857488669279 -0.3795781081058140 
0.8292787290448134 -0.2830315128739264 0.3712158386347545 -0.7413400968399334 0.4526924294323450 0.2675462258619468 
-0.1384189512675843 -0.7271712457191848 0.4233265520119331 -0.5153211627207526 0.1800603129892641 -0.2261918641604948 
-0.06746997543680297 -0.3494589065383305 -0.06436466181645399 -0.03398366263831260 -0.3768298597000550 -0.5095906531842301 
0.06230051763001715 0.1950463574816666 -0.4378411029107992 -0.5622874888492297 -0.4298794226893464 0.2688804028726252 
1.123215980062519 -1.156011488341162 -0.4368076377702976 -0.05528819562555842 0.4244538492131263 -0.4798710572081013 
-1.013670203603845 -0.4333523289376377 0.8435660812812296 -0.4648407013991567 0.09726526897966599 1.118027189886662 
-0.6953373279725167 0.4529996962359235 0.07664827580731659 0.5330985804629210 -0.1686616225104898 0.5968156700730608 
-0.6435346842605947 0.6041148104171997 -0.6778317421258845 0.9520727025859798 -0.7491134499615221 0.1351088173556101 
-0.08739119603415804 -0.2536351102635736 0.6998788007460416 -1.172408615397518 0.3484911511378285 -0.3684682155598033 
-0.2462123289130980 0.06469227754025686 0.2716195709805904 -0.2408753534450585 -0.2587156904788864 -0.1460544287462390 
0.1586196403215374 -0.3058036275739357 0.5918928553522738 -0.3510195820265726 0.4362129771130193 0.9774089156505287 
-0.6897255272196909 -0.3271665645914784 -0.3365088561227953 1.438704950176122 0.3518644250199475 0.1827939329162031 
0.5132586622736390 -0.4476500314613910 -0.2865828670004411 0.6732138393120096 0.1357141740976008 0.4109841962402359 
0.2720929765234214 1.009793624846006 -0.6794825666012290 -0.3999056593513932 -0.1830612105849527 0.1792485245640408 
0.2943109480468308 -0.1886288066442545 0.2369198227270769 -0.6628498460116793 0.07608416566066735 -0.2278783479695493 
-0.1233740071778832 0.1081234336233120 0.6760086659012302 -1.073882032095741 -0.6080813848779183 0.5707834668789533 
0.2593839715562434 -0.3474161076696125 -0.6973348304641243 0.9988741473691838 -0.06959644905670431 -0.2650362515566627 
0.7836843082875767 -0.1865808643695280 0.3904871035930001 -0.1216724231679595 -0.4564528102601028 0.3592008298522728 
0.1085483004866036 -0.01640235768153932 -0.1322486860062656 -0.6610394940753922 -0.6368949522644326 -0.4527927996139521 
0.03910745166706381 -0.1595741491267878 0.1781278553761809 -0.3760024626801645 0.04285073077146070 0.2196813297382269 
