solver_type L2R_LR_DUAL
nr_class 6
label 6 1 2 5 4 3
nr_feature 299
bias 1.000000000000000
w
-0.4029439403386496 0.1057759083913249 0.2666019086598782 -0.05853643618040082 0.4168136679869886 0.06215213873280827 
0.9885603185776293 -0.3114733887547649 -0.3941301676564298 -0.8857529060901687 -1.332214479747735 -0.6567832721034590 
0.006210670617835369 -0.2733845911371404 -0.01798956626756238 0.006458957312988649 -0.01563076443796437 -0.2031739387038121 
0.05730015581379269 -0.3956631237244545 -0.4604685549196586 0.08748173899815803 0.8688110806150878 -0.6043659013161325 
0.8608828418051411 -0.2888107366383970 -0.4471223689055057 -0.09205297790552613 -0.5257081510428169 0.5973902347495907 
0.1055289856733354 -0.6339385917251957 0.3099011134892043 0.6208404901612296 0.1734756150793488 -0.3647088153156003 
-0.4232379277470334 -0.01037882522818971 0.4517732840965903 0.4971863508451785 0.5072426099842277 -0.3573347355080598 
0.4012183235786848 0.4511864824456838 -0.4526633090259867 -0.1912063869856481 0.6542819637479396 0.3092995193702369 
0.1378583113235816 0.1253736344006659 0.08504184097408472 -0.9664821638068971 -1.422203720664787 -0.6845016628561396 
-0.4465394929520150 0.6747038878690754 0.4349931276210967 -0.3593184467029046 -0.5621800830536238 -0.1465207768608311 
-0.4317916588105975 0.7140241697968570 -0.3013337677664200 -0.2153764202855286 0.5304672630717451 -0.5420525901534052 
-0.1747967137371275 0.5262655665583622 0.4754879956639335 0.2250302957992422 0.3856048601238997 -0.3839596558300645 
-0.4085623644446406 0.1236874336803441 0.5108149274092482 0.4176834782930029 0.3282544462285114 -0.01720437695024936 
-0.1516448422798284 0.4536130498459773 -0.2101411073675917 -0.3745116023579291 -0.06278630912327865 -0.1882431110533957 
-0.1504692041796921 -0.1700391544096457 0.7009581317530564 0.3108068219547372 0.3338506558726631 0.8676814309926971 
-0.2226254354872641 0.8242306534066790 -0.7957081322600481 -0.7240426950575343 0.7266579979851342 -0.1950331220067015 
0.3556859487452328 -0.08468190010296649 -0.4460346862283309 -0.3772212077443202 0.3815305858193748 -0.1273684254621861 
0.1797421595790404 -1.056285688327609 -0.2053031578067810 0.1996386010496993 0.1895287776799304 0.3074132438082209 
-0.2206097278079819 0.08735286493648524 0.5525477850069862 -0.09076893316632070 0.1853578894648831 0.5902058212680007 
-0.3093133851371256 -0.1160845469326750 0.2167012798079197 0.4956473148589705 0.7364426548259829 0.5549226364444777 
-1.212041876131454 0.5640547247884755 0.8314932738658015 -0.1151113006707509 -0.3111348714476414 0.6031588838834177 
-0.1996357852926295 -0.1440379049810586 -0.04889014274980170 -0.4979652887725560 -0.4613468810725440 -0.5350735150243825 
0.7594055026589123 -0.5233017059545232 -0.01789850798860735 0.2008080800883443 0.1008602780161430 -0.2865387928168193 
-0.2616334035491655 -0.5939741228496656 0.7969800185010965 0.4415105045814088 -0.3069872482256792 0.5137157655660511 
0.1974191901033870 -0.8145615567221222 0.005494141975136435 -0.03152253450503902 0.3323774985897656 0.3792751191720218 
0.3068449486326928 0.03410950012379482 -0.4428054537673036 0.1477054530890797 0.6374605952171598 0.4916359679026027 
0.9934803570562186 0.2385180215892775 -0.5021735945328435 -0.1473703257912437 -0.5245725558359512 0.2585524414132026 
0.6553440280079380 -0.3316908510187049 -1.059935921674609 0.5310818252702884 -0.4703105006824103 -0.6380752689885772 
0.6342831987515260 -1.102389631547229 -0.3786100532262682 0.3179470816846164 -0.2072216423801044 0.5842680007202640 
0.6440369857362752 -0.2510253495379096 -0.3291424355578600 0.3132938217150840 -0.2126086976505885 -0.5186042616157153 
-0.001406049983381751 -0.4608013833184708 -0.9343151133979032 0.5552726853533660 0.9397789193547923 0.1896755632665188 
-0.4360519284649091 -0.2468851957369964 1.040970673815861 1.088471296820286 -0.3503466139459701 0.7535843374673974 
-0.5839831841179121 0.3059376819003173 -0.1467267714432603 0.6842473729579652 0.5388891094496776 0.2094327113023806 
0.2674418399214826 -1.002093888641219 -0.4564093396476297 1.186120087263175 0.7343794296689669 0.1316228070815550 
0.1595388638723034 -0.7686395903911379 0.2378268174626193 -0.6437207668796331 1.255327626598650 0.04380690867214770 
-0.4445985233174066 -0.1104870827633991 0.5170235452223888 0.2545154649118955 0.1378976570995697 -0.0007481137094920157 
-0.7366035227768579 -0.3377109921521482 0.2012068009216759 0.6693498530254247 -0.2012764404875992 -0.1147656660655768 
0.03291831018083130 0.3938104780802182 -0.4480039072959020 0.06184672860120158 -0.08857028723772664 0.05342769863392210 
0.003690777443619840 -1.131807044637473 0.1117006264768130 0.6531255488952080 -0.09533687614283973 -0.08640231425591102 
-0.5914648053053349 0.6707174117059688 0.4190348092809370 -0.2492903573611438 -0.6838329721261653 0.1667439248563354 
-0.2260683428281418 -0.1014245022222190 -0.6049378191640420 0.7876078856197304 0.07871383029408797 -0.2405879470702478 
0.1021689077093678 -0.2816504720488871 0.7084035185900883 0.4547164650340205 0.2091734910365891 0.1261932632756166 
0.08850231589978026 -0.4745062501270475 0.03471088406818147 -0.5042165036011801 -0.1903772757573163 -0.7057184151580145 
-0.2770047284592095 -0.1022539179246383 0.4001199045344845 -0.2452689110258073 0.1904810460446043 0.7035679594729519 
0.05283601291169934 0.2615650322712204 -0.4378304283601519 0.5804934760430255 -0.09215998085742116 0.4886898150325841 
0.5858681793755396 -0.2829239696987956 0.1802583977529030 0.3427085835122939 0.6377706514912090 0.1570126593531033 
-0.8483149300785128 0.4503606710907616 0.4028466696633353 0.2477052212375003 0.05322513871982240 1.185928852092244 
-0.5836720436343487 0.3303074984237865 0.5017927464445258 -0.3234563539695930 -0.4610886507940469 1.012278124554168 
0.2909050127527385 -0.4122363219892641 0.02276398496501174 0.1574144683154425 0.1086227528680612 -0.3429825769288656 
0.3304350382741033 0.4044647735023773 0.1445702212774451 -1.033798856042928 -1.002085428400738 -1.066069350224931 
-0.5314398136617107 0.1441521971481417 0.7726117637951829 0.2706291931586591 0.3832453773899298 0.1798906895294520 
-0.4263798233843752 0.3051378740740648 0.4781780847698019 0.01952237634907826 0.1028485274197554 0.1267279220454644 
-0.5332146406069604 0.4627781706487631 0.5285329825672282 -0.4277034555546749 0.5228158845964797 0.1165929627787789 
-0.09575438597817491 -0.7119555962855236 0.02624855439283764 -0.1023343539190936 0.6653619348885637 0.7219273477141064 
-0.1976890497902475 -0.04759156763750606 -0.9070570814949406 0.4127746194317351 1.341616586711373 -0.3319717577873002 
0.4176230449894042 0.4149228130556619 -0.8120420495633617 -0.2917868889184559 -0.3471429907017244 -0.4064225896154626 
0.5025584130834789 0.3366216228767084 -1.305576619611013 -0.08253594903156504 -0.3111781090159292 0.4168188912183188 
-0.2940812840083690 -0.01620468686418808 0.8495062570674340 0.1226818369702464 0.5109592806008686 0.9101539348436852 
0.03232338691670970 0.2347722131696759 -0.4595217427951683 -0.05227283696261039 0.2389726773966234 -0.2645543845379100 
-0.4267834329447224 1.007982343856912 -0.07784984546574367 0.3527556185427305 -0.1787421767237268 0.5586883201436518 
0.1191631166246154 0.3497114179301661 0.3879045703587219 -0.8688239225808805 0.07217923013466923 0.1011701348596786 
-0.9492584872134151 0.3453546612965602 0.2497924434238094 0.2994055644705039 0.2571632314787898 0.03997087121383953 
-0.3822429255156456 0.9386530098692678 0.6290935621791441 -0.2202936300448521 -0.6296560207242192 -0.1634664812969898 
0.06060619668358161 0.1124248667597070 -0.4953106420642497 0.9586677903346532 0.1489625405955299 0.7035968357675749 
0.1694648772904812 0.5525147098310442 -0.6753278432418954 -0.3440911060939682 0.3607894623079233 0.1532453500297544 
0.1786797700949789 -0.9835710213054781 1.001034169906490 -0.1303013984735115 0.1373474759085916 -0.2845438771533551 
-0.2781716567383333 0.4255384426718469 0.4543295706349694 -0.1143257162633604 -0.5058885309716413 -0.2231201530532650 
-0.09104017538807593 -1.256174251878317 0.6830568284147485 -1.029158608846437 0.1890696644165937 -0.1917027425604599 
-0.3477588367070219 0.09767825756562497 -0.9674830463499126 0.4415872627240646 0.4875850564026081 0.6141719450586821 
-1.024547677514740 0.1508846767097779 0.3318925144908805 -0.02767267310061583 0.2884377791137042 -0.7895598217492406 
-0.1602244103776094 0.02504535544237013 0.2948572811312412 -0.2721415361948023 -0.06447901719206232 0.5248615392600408 
-0.1078951714111744 -0.5126677958449755 1.204208539225808 -0.008584839745300960 0.08041094844567112 -0.4123672836882266 
0.5976125075467447 -0.5609463687396362 -1.314625843685976 0.5150466477836480 -0.8507635474219348 -0.7460823785052046 
-0.6126637408604325 0.7287520830612497 1.001884672756407 -1.065713242017494 -0.5960138037757721 0.2156150123947098 
0.6831786879981231 -0.7367573742381581 0.2975551251279214 0.1804141756591771 -0.1778403381709591 0.4856113319789288 
-0.5358889367304527 -0.09097406334255824 -0.2095505733725874 0.8729442666925219 0.6753267527860556 0.2304877733861165 
-0.04031786174912929 -0.004213855106979787 0.3697703865531599 -0.5959351874626808 -0.7098091248042533 -0.7326100300824710 
-0.6595966655357669 1.073118248363005 -0.2472345886981298 -0.2123454774587663 -0.1290946973444251 -0.7583024350518280 
1.424803017552064 -1.055788557764547 -1.301939098330089 0.2172235119998080 -0.3318724110971787 0.003404850879125148 
0.5695368742754967 -0.03226037261671850 -0.02915558635387828 -0.04831003307487417 -0.7799177225520311 -0.3516046110115623 
-0.2414910857085736 0.8451758571520167 0.4092668362536119 -0.6593684409681102 -0.5085763379281402 -0.2307997131561473 
-0.1332497966562344 -0.08005211040344869 0.7939188312185129 -0.4342511312618896 0.1522165589932444 0.2711320385458905 
-0.1718000256473140 -0.2927790115957366 0.8628331031402884 -0.5790615953029176 -0.01827257196226964 -0.2782698281254968 
0.5041483262091655 -0.1344762587488013 -0.3654343118998958 0.06138498595210477 -0.7397153904961726 -0.1210102028570553 
0.08277479823349910 0.1062735461611799 0.2413734706011935 -0.6933438153630915 -0.5046081288451367 0.1836323299312311 
0.2862282022211194 0.2929879680800620 -0.6282229896252515 0.04430229171177173 -0.1404524354611866 -0.1865122912837214 
-0.3477155602131738 0.2286950485707460 0.4901197302585171 0.3928454597645571 0.6977481426236933 1.019707542145456 
-0.7193978796106858 -0.1613729729930092 0.2485319459715878 0.1619448107676570 -0.1610510343888659 0.4719110484394987 
0.09987437641872363 -0.01928187306108243 0.07695243505821943 0.2720079417116989 -0.5236080045542326 -0.08659451884750159 
0.03465801845050532 -0.1488254433851659 0.4128615596205493 -0.7997427237422826 -0.1793616210878476 0.2439683178236131 
-0.08991554511940285 0.1115725333584198 0.2800833939159357 -0.6407771598634884 0.4382932436859698 -0.4983385020680144 
-0.2023222678998272 0.6645863242104360 0.2867014861619379 -0.4431248749312581 -0.06895813546880080 0.5231817018046608 
0.4586893671024223 -0.6550732522759314 -0.7242156902597146 0.4309616131283658 0.3357563908107369 -0.3272396420128921 
0.1524159650514530 -0.5944321281437114 -0.4365872611051911 -0.07350349834450151 0.3757208292023962 0.2002706049956625 
1.001097569468247 -0.5488986185059944 0.5807093944422557 -1.039320232120668 -1.489876433014705 0.06907995028597673 
-0.2576370954246295 -0.4796249969151715 0.6887127830376157 0.7954759715021560 -0.01825201060606393 0.2346892878873294 
1.245443250169479 -0.5471371915131609 -1.437732422366628 0.1097509493979400 0.005760868015677360 0.2947317934865418 
0.3733485183363020 -0.3739875151960065 0.04441120869121306 -0.1660277709376814 0.2891976577434512 0.5352321016199194 
-0.5457481245562631 -0.3392882272048410 0.05392911128231578 0.8357280419817500 0.01967235720212974 0.2237320346252826 
0.4420028012805731 -0.4558909743226231 -0.2371098176211029 0.05258817627331613 0.3195118218934919 0.06024868102677757 
-0.8183382982635471 0.2174084896078491 0.7900393182867350 0.5408567211975914 -0.4620590289348089 0.1125687051745590 
0.1546374786778156 0.01668090535408570 -0.4129908655717336 1.172873340387328 -0.3332345299517442 0.2206728017427844 
-0.1223400799829976 0.1416365749392623 -0.8208121686581914 0.3250880019946444 0.08234982833031175 0.5120516141895319 
-0.1815798834194373 1.042568946362272 0.07562783374172527 -0.05862301930359930 -0.7677442078046798 -0.5419325473332024 
0.1381959850425499 0.2374008826815783 0.1632551962457430 -0.09145213307948193 -0.4839038721389901 -0.8952329733043947 
-0.3798215268680198 0.8305639032913689 -0.2053616179080048 0.005692733457531773 0.7588142979753203 0.1463792165412741 
-0.3878252985123511 0.1908667317921135 -0.01889248385684097 0.08313632956529630 -0.3257727482665030 0.9401112174856200 
0.4688924741704518 -1.197517987185081 0.1211432995009522 0.7212228651931598 0.8699538062589690 0.4577690801776735 
-0.05594306179424952 -0.1182141963099969 -0.1406648240199461 0.2254318748692688 0.2357184210847584 -0.2092627646831938 
-0.7301446099001708 0.9046398894157789 0.2288180536390099 0.3936109221179805 0.2967559985163789 -0.1641451401212631 
-0.2271624966098007 0.1625673614911869 -0.2005938155747813 0.2638143279923343 0.3361952622573169 -0.4478813936530222 
0.4855950198801534 0.1166402750411406 -0.4682511886836753 -0.07756048365756252 0.1679351778508088 0.04443157308193343 
0.7043827467975080 -0.1624075561229642 -0.2956906457620903 -0.9110016584253754 0.2570392755339978 0.1233074213764388 
0.3168659750778126 -0.1794105816473300 0.4284735238530179 -0.7025031965604921 -0.1947120074387277 -0.3511049035458080 
0.3037405734740183 -1.048690615203960 0.09519650245346878 0.4180148006053613 -0.5581851793403124 -0.06847226643146002 
-0.2352117995640508 0.7183238189995803 -0.04984000811865002 -0.1667186103271249 -0.6629217747095474 0.4088621793496020 
-0.4761846554281957 0.7618104746749349 0.5296468302880954 -1.010150100226591 -0.6094307100987782 0.8499820533550955 
-0.1385040234347707 0.8474897836860151 0.3528289469754926 -1.342033056142423 -0.5054954339300853 -0.7168050137192351 
0.9571908806410186 -1.158649631314876 -0.6009072319152975 -0.8514539728839129 -0.4927077909217659 -0.1358674679157701 
0.08404741956015352 -0.4593952216435254 0.02190685900188488 0.02654582509516546 0.08836800963940758 -0.5045986886735078 
0.2730047793099623 -0.1070068340020486 -0.1172298978539968 0.5081301077880953 -0.04898140107176015 -0.06311830535399610 
0.1332168851193511 0.3087107375811632 0.5716312421634550 -0.4861077906443681 -1.111701817274271 0.7861573997547611 
0.2447050978431332 0.4480568622048073 -0.1495332208916639 0.1401254428303062 0.3648852710382707 -0.3696570500935385 
-0.5371667014230964 0.7938216647900198 0.1306976756717202 -0.06021560640703599 -0.4454423238593616 -0.2678017612224432 
0.4631160255538071 0.5500852841929246 0.09747991496425744 -1.330197972854440 -0.8961985503463928 -0.05390931033144259 
-0.01360172182970798 -0.5518898174377816 0.3954450114822383 0.4137668473371177 0.1192373982569607 0.3443349374903347 
-0.3948631873993479 0.5333368557645539 1.175142623632820 -0.7076282717580195 0.08381035613588174 0.02919477760975715 
-0.1654082504441475 -0.6003305507738610 -0.6526157087176647 1.176663458806606 1.444563312697210 -0.3610303262398033 
0.2776752408583645 0.1063840206569535 -0.6150706001458806 -0.1759802828247716 -0.9076650814791207 -0.2169697033360648 
0.4522540331998505 -0.3192949388792059 -0.2799695027068750 -0.8155490574226780 -0.4232570960424357 0.05284299866345345 
-0.1560552522988613 0.6128342909342027 -0.3380928635223036 0.6401288164341562 -0.4242673389884484 -0.1220809058969952 
-0.1924164126373595 0.2642937675450967 0.1397838408710250 0.4784780346345196 -0.05020163036326702 0.6633134842562393 
-0.2503689708105552 0.5144556985945173 -0.2995763646231341 0.5585295582863763 0.09109404358971680 0.006731535391853461 
-0.2244949948088080 0.1868707290520364 -0.04876208289547231 0.1214856776134269 0.7679169539373151 -0.8180397602875193 
0.4580930891572946 -0.4955696024824866 -0.09437827966154190 0.2075837818942154 0.3863565348966768 0.4189140444911245 
-0.1735370528668386 0.5726353697355817 -0.2296148303409269 -0.07137015028310179 -0.1235468280665824 0.2039402128243865 
-0.6465632658450055 0.8805665462338335 0.08203361372089171 -0.9129641243025746 -0.4641725082233001 0.6130681516840926 
0.1420142663654941 -0.7717761795637407 0.6822808177257934 -0.01854443374168924 -0.07385710480254991 0.2422042733840847 
0.9151220177080988 -0.5666835668141976 -0.7213567351257370 0.1125059776766311 -0.5823458872889712 0.3716467167707072 
-0.9551779657947967 -0.1348165734783372 0.5155146455032007 1.056940017352135 -0.06908897372716921 0.1580672407843652 
0.6570995349362017 0.1383426627926139 -0.8706853878553945 -0.2288808502565253 -0.6054047496053810 -0.1659400982787166 
0.3258618315273286 0.5243404705339092 0.02191505084508119 -0.8144332216656100 -0.02467722411517520 0.4602826784887579 
0.6502844760715087 -0.03283683187775761 -0.8813757833232201 -0.1594640577035806 0.7913038052288374 -0.4217808189452558 
0.6431065448590760 -0.2407794978834383 -0.7144670820170690 -0.7802041781319559 0.007602077230211876 -0.02914172519833132 
0.4634327553553974 0.08503368349628572 -0.9281403704345335 0.3158002437945808 0.2090306262017564 -0.4090334476101331 
0.7327680217066919 -0.2229057899318498 -1.036490669020346 0.5658212496794289 -0.1443711098353047 -0.4146877559163150 
0.3758187487156184 -0.04329813957603993 -0.2093386828977918 0.7714062619412781 0.6688651635783278 -0.5336032615494103 
-0.1459787559337964 -0.008377024416065934 -0.3813673790924266 -0.1987823803580193 0.1836432099488181 -0.5149882385752623 
0.4506086151602768 -0.5958720423507653 0.5010229666247912 -0.1451671889055560 0.2292899486455941 0.2067143270701745 
0.3105632818303139 -0.0005302614612726980 0.1528286421808435 -0.9702486428679911 0.1906520436339522 0.1069909511960649 
-0.4702679248418453 0.2805164882692300 0.1913348977910123 -0.6735857949923530 -0.01603326584525816 -0.1382267082236801 
-0.1045884552005834 -0.4160391947351543 0.001568961197155438 1.183341938748673 -0.4571561307690377 0.3284524426210806 
0.06433057299817814 0.4678037424887866 -0.08264323666796712 -0.4327322161073630 -0.7371115460056407 0.4205307650858175 
-0.3942066487007597 0.8341609618729312 0.3357366195482630 -1.350649182626180 -0.7394465573543998 0.2420991505389613 
-0.8283295097752557 0.5859101519283523 0.8666769165378301 -0.1340808092009590 -0.2564218180559461 0.5978146081062479 
-0.5254238717972795 0.6349692375156100 0.1194688912435384 0.5882732151698472 0.9437986878388709 0.2785083970972478 
-1.080745144285265 1.295525358211142 1.052617994878508 0.002010860907994135 -0.3759133685976503 0.3119194474549332 
-0.1726377055045561 0.4320739343270598 -0.2160621498293347 -0.6418303060642817 0.8686090265497559 0.8132410072867474 
-0.4186556499498222 0.4904013977418807 -0.02744443000371215 1.148194506675820 0.2364077368696913 -0.1248748975617722 
0.2031548274094100 -0.4880171851811554 0.7973142523530985 0.7763316511160352 -0.3845100432288613 0.08528037740907765 
0.02602411273044522 -1.077632993885607 -0.1869863004431542 0.7875488448383782 0.4736398552357765 0.2033616930994091 
0.4611731061114684 0.3978709080990374 -1.291538922564357 -0.07803901705062963 0.3924091375086489 -0.3274552800299410 
0.01832339967079552 0.9644341493486060 -0.6892299002374983 -0.8239110199756999 -0.4928770287462914 -0.7338762776917283 
-0.03436658908174264 0.4021582011834347 0.2967713338716628 -0.7766076754550404 -0.9385156065015702 0.3905609633086619 
0.1733716246373314 0.5694406319557684 0.06509334221544903 0.1869498252442594 -0.2525203574512810 -0.4993940662891584 
-1.005275201010203 0.6891412539504276 0.5538578897182023 0.5592512935031055 -0.2559478932094301 0.2988176065319929 
-0.9209130500134970 0.2649979743602556 0.1886295658604357 -0.5960387321785121 0.7865456334321055 0.3146301745137789 
-0.5273555388312102 0.3503731721528641 0.6188462071471201 1.267486226074257 0.5268446577034759 0.8045372303552570 
0.1108576566870090 -0.4106269858291269 -0.8486293025004827 0.6364679732749084 0.4960575764085494 -0.3722746988566011 
-0.3851160724145050 0.1679499496747386 0.6618497992620561 -0.3773255578392378 0.7570556247044999 -0.2184411010776236 
0.07477267558747082 -0.6850023432120236 0.08343613166730625 1.487509248461619 0.09493022591634867 0.07005442013696055 
0.6317949920146899 -0.9120519585447840 0.01729997656090917 0.7593375557292628 0.3266372980760913 0.1972630399425052 
-0.4795838696855055 -0.1828931457698259 -0.6298506112829632 1.051444917033239 0.6511660393537902 0.06627362315692037 
0.8816805206875042 0.4520726486092108 -0.008503444542161256 -0.7361660572853789 -0.02235264334471829 -0.3025009591839593 
0.3813186832403794 -0.1365938901679716 -0.4419689744499034 -0.2520493547292218 0.6214135859426116 -0.3284172080377551 
0.1443284375983328 0.3556701221087577 -0.1976705726139874 0.3892688309247877 0.3477429788509884 -0.1067283988947191 
-1.128063143850455 0.3658475130102554 0.3680634368857722 0.2991997656166188 0.3666827593745649 -0.1907322120007518 
-0.4758821454535232 0.3940971585479615 -0.2373351066151466 0.5748055125290580 0.1754132340010279 0.2750952631999884 
-0.04013618282090205 0.3594552930041268 0.5196386384068519 -0.3901913627712020 -0.5073903656847334 0.5036926736129903 
-0.2436328720034199 0.4312254242193673 -0.4210633334836931 0.3971479516497775 0.2315121793060282 -0.06604846024996013 
0.1419314380982315 -0.4528754719918819 0.2654294657735418 0.9850705040303424 0.5548039012944367 1.039617623008244 
0.08095240237998139 0.4124230359305663 0.05452003031333000 -0.3063505000043761 -0.5058613912400007 0.7463236589835391 
0.7487226632523353 -0.4747705636275891 -0.8149927013331392 -0.1334051457525192 0.05877756981596499 0.3257959513239560 
0.9065449120492165 -0.07176115512561877 -0.6928724004266770 -0.05758535988176704 -0.4351852059349126 -0.1467133946008769 
-0.3425326353405115 0.9095840013348618 0.06730001250277755 0.1716198585215794 -0.1820886308550507 0.3797194554901017 
-0.9598881201827160 -0.2387743323573148 0.9849533503862393 0.6033734107654477 0.3482609426905389 -0.02439766813258191 
0.6247427063420170 -0.1626271917559654 -0.9906577966724240 -0.1488624477372179 0.7699290084683519 0.2035510379735430 
0.5021908796354605 -0.8976056246976940 -0.3048943283985758 0.3166038879160245 0.4052124855227110 0.09397565900614657 
0.4423424684309752 0.3544054791868442 -0.6941945189738290 -0.1948143877711123 -0.5487171378514762 -0.2147557596390136 
-0.3498043149230102 -0.6791233203394363 0.03857424154358237 0.6117338594636460 0.5066111652540619 -0.3437314117914908 
-0.2994170069298397 0.3717161184459176 0.4977504131602043 -0.2203561844747999 0.1845356968891385 -0.2088678499029467 
-0.4335186882745117 0.1774469099526871 0.2569490868399100 0.9647617403598392 -0.1746996794204921 -0.1487937425921946 
-0.3039199560588865 -0.001583181304012799 -0.04895633802004178 0.1685945812626467 0.2356827332497321 0.5983017483051154 
0.3270913332649238 0.2910003476070748 -0.2320298487915465 -0.2639687016634575 0.2070234958787511 0.8853525899194035 
-0.4649901372379681 0.9332084548699717 1.503708252528528 -0.4368660229431926 -0.8837815161060326 -0.06437773053781062 
-0.1903401464494380 0.3998051959561856 0.3559245123684390 0.1279804728917786 -0.2549938184060278 -0.1800257847323246 
-0.6411821728118913 0.2167947179383581 1.214574269191250 -0.3091880284664518 0.005123425145762930 -0.3787598574139946 
-0.05316503175969824 0.3095778042365802 0.3457803410187111 -0.1498157984877613 -0.4412636470964519 0.3376176703569755 
0.4802125259796909 0.1225900562773604 -0.8591813183574679 -0.3222084926112743 0.1162215396935347 -0.02002617977493655 
-0.1650318478637299 0.06873338103001853 0.7124380520397637 -0.07991443918545636 -0.1116877690581214 0.08921197491572310 
0.8371487131227011 -0.3357224233700683 -0.7613952696479342 0.5012956336418637 0.2622594498901736 -0.8121347874872474 
0.08613280024627192 -0.1441845954423247 -0.5739222235492350 -0.2595552585758993 0.07926017137588168 0.06607203643136411 
-0.1366316065893245 0.4875842955982895 -0.1312005491629848 -0.2911033792073952 0.2642142710176011 -0.1672495828299000 
0.4783170823317296 -0.09063503237961562 0.03123034886608480 -1.160252659347673 -0.1954917584213129 -0.6624258762372391 
0.05693921925011285 -0.3004193907579110 0.1679720678001149 0.1941617527982719 0.2902190857958392 -0.2947088909342417 
0.06985159684847342 -0.5174723984918737 1.101564226718549 -0.01159207963298430 -0.1144685445723322 -0.07995652168768394 
-0.1807208500793910 0.008219324702218613 -0.08267993863743728 -0.2167051887559860 0.08557675127807009 0.1503919916555599 
-0.05037537628157840 0.4250428574252825 -0.8058973672654268 0.07094878513415810 -0.2557526309426202 -0.2562233110119921 
0.7896398163785113 -0.7831430123993716 -0.7309721765023229 0.3311026647621483 0.8726043288375415 -0.3739295548464172 
-0.6114611058867716 0.001172474624825631 0.4550891916432060 -0.01760067605960905 0.01068796950297208 0.9518348765981580 
0.3906325044924555 0.2373160218268856 -0.4905217544253971 -0.6435780800788141 0.1674906802310418 0.2492301734557318 
-0.07044404727879146 0.4462000450410397 -0.1233894110801610 -0.4412157272201257 -0.1368057640818777 -0.4457183457271417 
-0.8057797958896655 1.015724471162849 0.6193994996628456 -0.8894812371569482 0.2550202454409234 -0.004503671439722502 
1.985827710507773 -1.167230544623957 -1.477815803320047 -0.4004014662181361 -1.035526981349511 -0.8145348707605915 
-0.03901430328762184 -0.1777057729263886 0.1375322476670975 0.6880250524275395 0.2828631819429568 0.7384801978698770 
0.05460005931612839 -0.3545684264997140 -0.3802762359131852 0.5286699030681660 -0.1255797926401956 0.2938052450580022 
-0.2605266336359394 0.6010251351120312 -0.1568012198538231 -0.3805410190613475 -0.3102218518669277 -1.044108790485294 
0.4006394374007630 -0.6889132286587971 0.07925542473184595 0.5765060041039122 0.9182824063295323 -0.4803314283373148 
-0.01024072286976849 0.3929060854402822 0.8463506981494513 -0.1270253043849067 -0.2607302386663340 0.3649090698518875 
-0.1107735155590666 0.3486678447474891 -0.1935026709242480 0.1651776457738114 0.3545796351249041 -0.1154986161481069 
-0.006461519223268103 0.09027895643978130 -0.4434229444663696 0.6336813614035403 -0.2218098864428497 -0.2725106834623521 
-0.3988943741867318 -0.3138230924761978 0.1349781219485168 0.4877753754643379 0.4470999720440194 0.1013533235688027 
0.3650546944253377 -0.8971430172033970 0.04248239316532686 0.1883205724005597 0.2817994953583715 0.2767671663466040 
0.1937419116658325 -0.1427966797240668 -0.2378049866809591 0.1538032197748059 -0.7251005375755252 0.1111220910313046 
0.01515493856314206 0.07223263155200461 -1.120832175972643 0.1555798606802183 0.2624085017435881 -0.2495467721001637 
-0.4544813557699167 0.1063838546376670 0.6724676969993814 -0.4595491692388957 -0.4335322202724582 0.3923416036456958 
-0.1014351442799718 0.3624671130406271 -0.4101988415153868 0.3560257719264139 0.03900510020710533 0.2207102554962463 
1.166884014901743 -0.6976621106395245 -0.1791670104709831 -0.8412313960767904 -0.6497074191733987 -0.2676582864148790 
0.1758931882190591 -0.4308896835178292 0.1546681184727735 -0.1011144780130341 -0.8669156518583961 -0.006497813071449698 
0.4674560128038838 -0.8053918561592746 -0.4478585649543849 0.02387621658835065 -0.1703635759927036 0.3537636507426206 
0.1420324643979899 -0.4796375784487382 0.2790163301303476 0.2408917040160530 0.2179433755717976 -0.04255485710693419 
0.2562400325630824 0.3339854221306737 0.3306208987058811 -0.5471779303304849 0.07168776056210169 -0.5051687034177746 
-0.04950871096333554 -0.1199240901372934 0.5187747616532904 -0.1773590772501525 0.4396310670037760 0.003233681241417618 
0.01552292046683920 -0.3924420945670349 -0.2372311501107277 -0.2163849629642044 -0.1134729764110314 0.01188364843772378 
0.3900401223460979 0.001673827323625931 -1.067925473378761 -0.4181143672218526 1.140204362487536 0.1737583335356905 
-0.2214945245378060 -0.4364706368384240 0.3351570758277775 -0.07132653169580243 0.7161104961078033 0.3996341846673167 
0.1632351844842059 -0.02788511163494048 -0.001719786887351431 0.1075279843308489 -0.1811808900363254 -0.3267692180068265 
-0.4640163750205764 1.047745901882338 -0.4111891634811854 0.1710862564765411 0.6638223407900363 0.4527441950873657 
0.4013276903269726 -0.5176653689373203 -0.2054051980381756 -0.1782030143670391 -0.5476098681472888 -0.6514961663079749 
-0.8167562082237377 1.090464079460963 0.9541608977540912 -0.2840893210440344 -0.6519104315046373 -0.3573494937865818 
0.1788189489249362 0.07942814418387702 -0.2106397507841596 0.2184388374158289 -0.6883799338680658 -0.02428273499574780 
0.04717186766438980 -0.6291060604259702 0.3321756737789259 -0.01746568097982785 -0.04335171259980698 0.4566674046436401 
-0.1732357373703583 0.1048172675570765 -0.01876003139200586 0.4262141836890461 -0.1004991919720861 -0.4147294735980117 
0.4805010853310430 0.1438712310816143 -0.8440498264822511 0.3383606355152045 1.348657839564279 -0.4791155865939507 
-0.1897576662046062 -0.2601692151773938 -1.345955273308883 0.4402518775830246 1.199050787418041 0.3307806234373504 
-0.006330455212232021 -0.5931884152122624 0.3490171825047187 0.4178513365445629 -0.3827925521939085 0.1726215610919949 
0.2299108439123326 -0.1007276860277134 -0.4840505515502987 -0.4641844072309646 1.049908389923175 -0.1281464961710328 
-0.1822121090313167 0.02934900465618867 -1.191409765876885 0.6690336714000489 0.5795202460983333 0.08601688019041960 
-0.2123578684293047 0.07614109535625681 0.009587869072353858 0.1451405833755775 -0.01200042201512084 -0.06472233761057682 
0.4683851767265397 0.3371436989447516 -1.176681479569790 -0.1593015306246210 0.6495821835667468 0.4311660455956393 
0.5609126786696373 0.002686680871006918 -0.3439546173480372 -0.2292635599803591 -0.1572011576579702 -0.1405219042594512 
0.2340334939126695 0.4331526029732456 0.6873761626949629 -0.3171986099603303 -0.3907574419402683 -0.4183363088190409 
0.007546075883332948 -0.2193471231672415 0.03783294696516639 0.8632033788046298 -0.6645679507195458 0.2767988914589386 
-0.2425181370581516 0.08026175765084610 0.1212242756958190 -0.5156952316493035 0.6740526077796126 -0.8901197733246659 
0.3323592573775421 0.1759958966775932 0.05206172613728069 -0.9481189965128220 -0.5444741685315050 -0.2978785500972775 
0.5516844150286858 0.2568593339463564 0.5292462193659656 -0.7297483597756173 -0.8465222176425630 -0.2502970911480393 
0.04895108823546526 0.2074625922654581 -0.5138461384852787 -0.1084900083181199 -0.3043380268514307 0.09009757191335760 
-0.2761540371513416 -0.2503763295661604 -0.2052353923503358 0.3622804611627499 1.081837953083246 0.4951821067253252 
0.2212120281666654 0.01401808169705135 0.3955219313478371 -0.4445921199676274 0.01249114460475410 1.105692680604699 
0.05965955367234024 -0.9371290770623142 -0.03101500925572178 0.7066747677412751 0.8180939265977487 0.02901421976722631 
0.2905442294933597 0.2308524500623575 -0.3040415829808127 0.5730148128154700 -0.3897884678074682 -0.6734016790698685 
0.5222946908543245 0.2398582710196625 0.2174915681899422 -0.04253713681959916 -0.8429227021733730 -0.9092272099203775 
0.5708134174330245 -0.5094758805779112 0.08083448340974970 0.1162902379752386 -0.2676455670290985 -0.2221890493318065 
0.5901360446210558 0.09081424469939635 -0.3688112689405945 -0.7642102774237478 -0.3276411438298780 -1.054825747736019 
-0.3878700498442137 -0.2024404174960681 -0.4959946258239265 0.1992147641221794 0.3626550806326214 -0.005892074185038020 
0.8492418052392506 -0.9807569914843887 -0.6887018176978454 0.01486787815901498 -0.2495579745771065 -1.530595595117407 
0.3794160677255181 -0.2194960695507566 0.0008079852553335353 -0.02877566108493855 -1.294451143661261 0.1653423812460527 
0.2999754439100347 -0.3765084039258132 0.01904580944233076 -0.3914465759981683 0.4968144449984137 -0.5410696597135631 
-0.5448956394637088 0.5183752514550346 1.097240739037928 0.2688866736856744 -0.4123498648573964 0.06924237356739348 
-0.2696349208186293 -0.009313760808978859 1.019519276906260 0.2162173229044267 0.1011499862652815 0.1461713409617279 
-0.03593360353606679 0.9082609881027011 -0.5495934101171962 -0.9497874674001456 0.01253464587875255 -0.1124214497492990 
-0.4050647388689909 0.3413963102378237 -0.2003205598771335 0.6206874195821518 0.4641165479422609 0.3986650421471151 
-0.06506614199653635 -0.7726738503320523 0.7540451319733635 -0.1052434841821418 -0.3941785809313085 -0.6638754705350469 
-0.2978302322983947 0.9475540276736161 0.6112027948606702 -0.5387462822964755 -0.6323701504709229 0.2639812786626000 
0.2009222342680259 -0.3019463054834173 -0.7178778668663052 0.2696099314379102 -0.04382187084394339 -0.4723176953945166 
0.2413890299160795 -0.1239056061643869 0.7971238964764915 -0.4660203284766169 0.2163790759000683 -0.2956442520519435 
0.2049260241961059 0.3857736334241974 -0.9248940460027087 0.8981171607099202 0.6170820894634506 -0.2632499515457692 
0.2581797327138445 0.2495611829049799 -0.4707326033914718 -0.6450912930034549 0.5863776535640816 -0.1569960709634358 
0.04087030416701301 0.2904173419453636 0.01595303687732413 -0.05505795009801819 0.2653746687179394 0.3360768300953624 
-0.4347174288178191 0.4919781144130138 0.9720462381497950 -0.5798378919669996 -0.2151449355943159 -0.3111033596776797 
0.3295544242122451 0.3207250412086528 -0.2496463608031056 -0.1672181280862073 0.3192853778371206 -0.1296057519871971 
0.1146195125942040 0.008776516449289989 -0.3514959958074196 -0.2711667107614512 -0.01325972241908716 -0.1547259436274232 
-0.3577144530986501 0.9389876948500345 0.04550667133588406 -0.4280880428453431 -0.3073516210898248 -0.6757573746839373 
-0.3020859310937976 0.3549121559549438 -0.3114284280659242 -0.008413945804748047 -0.3667771159948282 0.6070279730467550 
0.08353106379883102 0.1468449758187316 0.03822969410515997 -1.066424399557676 -0.5318583165808001 -0.6292910710066736 
-0.3274356266559483 -0.3537975039454728 -0.3024321917141772 -0.09506922110160919 0.6227374232586315 1.159212046439551 
0.08149449408162525 -0.05834219416251004 0.4628482789073501 -0.01374801586442875 -0.01572636288478358 0.1512643457397111 
-0.6242895845937492 -0.4320252299970421 0.1340310409925366 0.9927901564626076 -0.4599637338748920 -0.06756675733119431 
0.3539474523512997 -0.07542466454023680 -0.8262620599502426 0.01567630295596363 0.5747946489064997 -0.1877400916955623 
0.1877292981722378 -0.2685075888361976 0.1252284319640223 -0.04257328984804391 -0.02728973665241466 -0.1102653642163546 
0.2637059791054980 0.2263881434809223 -0.4286878914145710 -0.5488476756051672 1.160631705592310 0.8050660242960440 
-0.2220710798334945 0.4109786909491886 0.1781376052396677 -0.2356605900293641 -0.03193899379182660 0.02953072175513640 
-0.5905873429059452 0.9524953350359983 0.8807418487371373 0.2120568545771068 0.2581986529542538 -0.09914332982177722 
-0.9529640128840853 -0.07013131797020636 -0.1770709160978459 1.028298309535579 0.3018389700842908 0.2375774781553613 
-0.1705427252117545 -0.03926727362936544 -0.3012241202721067 -0.1928515099459403 0.4570961793721969 -0.8026850564253913 
0.1731331407446525 -0.5090626979635376 -0.3600456374085254 1.308256302824604 0.3637965211943851 0.4049437764135564 
-0.7168183614679577 0.5043140754252544 0.2450568904121110 -0.2094997478064209 -0.4190869489762077 0.6817652735002615 
0.4991224778327414 -0.2642168528719240 0.3354243170313012 0.1772275602739302 0.1578617307368762 0.01039781411722081 
-0.6219106393436045 0.1775591956774674 0.4797049887375482 0.05601132174163306 0.2107782467288437 -0.4069252996559251 
0.4077229350050922 -0.6080858361526879 -0.04334179461561493 0.4340864888707749 -0.02277566624426095 -0.1960710950168088 
