solver_type L2R_LR_DUAL
nr_class 6
label 6 1 2 5 4 3
nr_feature 266
bias 1.000000000000000
w
-1.066124493017597 0.7017326599056756 0.6015372840476916 -0.2653765491276167 -0.5516205745405497 -0.5999694407654833 
0 0 0 0 0 0 
0 0 0 0 0 0 
0.5523111518298177 -0.4095538523422030 -0.09028551121259476 -0.02941249935048130 -0.06157606993982986 -0.02586907006146604 
0.6499109499380431 -1.519552867709007 -1.254359339798545 -0.6757917447477394 1.551467061179667 -0.1952848971779945 
0 0 0 0 0 0 
0 0 0 0 0 0 
0 0 0 0 0 0 
0 0 0 0 0 0 
0 0 0 0 0 0 
0 0 0 0 0 0 
0 0 0 0 0 0 
0 0 0 0 0 0 
0 0 0 0 0 0 
0 0 0 0 0 0 
0 0 0 0 0 0 
0.2960212275443259 -0.1771053750554289 -0.2255758011959676 0.001651251143882042 -0.7247493945356154 -0.4344126115734250 
-0.6409049257913328 -0.1507594954010865 0.4452051003121150 -0.3215309540738188 0.4841657543919635 0.5529800649939177 
-0.2623407306675728 0.2491112795466945 -0.2799811523390430 0.2861339626000203 0.1182635427146714 -0.6397618235142601 
-0.06377620301691855 -0.3986161822289966 0.2072285491825149 0.2230730677014108 -0.04139749785978126 -0.06495832737277185 
0 0 0 0 0 0 
0 0 0 0 0 0 
0 0 0 0 0 0 
0 0 0 0 0 0 
0 0 0 0 0 0 
0 0 0 0 0 0 
0 0 0 0 0 0 
0.05614211034196141 0.3797350227506101 -0.1341509918971521 -0.2139917976776616 -0.2519643316464794 -0.3166270310129335 
0 0 0 0 0 0 
0 0 0 0 0 0 
0 0 0 0 0 0 
0 0 0 0 0 0 
0 0 0 0 0 0 
0 0 0 0 0 0 
0 0 0 0 0 0 
0 0 0 0 0 0 
0 0 0 0 0 0 
0 0 0 0 0 0 
0 0 0 0 0 0 
0 0 0 0 0 0 
0 0 0 0 0 0 
0 0 0 0 0 0 
0 0 0 0 0 0 
0 0 0 0 0 0 
0 0 0 0 0 0 
0 0 0 0 0 0 
0 0 0 0 0 0 
0 0 0 0 0 0 
0 0 0 0 0 0 
0 0 0 0 0 0 
0 0 0 0 0 0 
0 0 0 0 0 0 
0 0 0 0 0 0 
0.2126111689329236 -0.6507567102046535 0.6787449037288376 -0.8917945892267146 -1.721010547419908 -0.1979695837207183 
-0.2719551475367210 -0.08167008554201913 0.2639298039502668 0.5067881104178410 0.003139075173909515 0.06317591857364581 
0.3613714004760374 -0.5112523919140661 -1.159509055293452 0.3535175916622097 0.1082933054152378 -0.4239846205600469 
0.04388191088743297 0.8016020536571719 -0.3226720631686096 -0.3669312982710152 -1.057044516712376 -0.0001295341726372775 
-0.1517690698192380 0.4292274961065740 -0.1926856715894135 -0.6687264762949785 -0.1514934209890441 -0.06548122506025640 
0 0 0 0 0 0 
0 0 0 0 0 0 
0 0 0 0 0 0 
0.04434363996373220 0.3481886855515236 -0.5723467217989934 -0.8084989516781200 0.3460147437969340 -0.7009485703011988 
0 0 0 0 0 0 
0 0 0 0 0 0 
-0.05573481996648988 0.09671803977231191 -0.2086277120753863 -0.1034493410336104 -0.05555547240866244 -0.01702961098602951 
-0.07008919105669291 -0.2903253347981900 -0.5880633873819233 0.4456590013587094 -0.05780586071907169 -0.04486024905131772 
0 0 0 0 0 0 
0 0 0 0 0 0 
0 0 0 0 0 0 
0 0 0 0 0 0 
0 0 0 0 0 0 
0 0 0 0 0 0 
0 0 0 0 0 0 
0 0 0 0 0 0 
0 0 0 0 0 0 
0 0 0 0 0 0 
0 0 0 0 0 0 
0.04589670883498859 -0.3461474512274342 -0.006120638001843941 0.3999910187548677 -0.2760142069045651 -0.1135278875231715 
-0.4647357191953686 0.2978232204706932 -0.1213178531549982 0.4345871084720914 -0.1744812184515190 -0.1685972680264247 
-0.08522121819009168 -0.7596191492232294 0.5048498784875766 -0.2874723044845943 0.2424872069528230 -0.2215269353928310 
-0.5287605667647941 0.4991125425357437 -0.05956241778189340 -0.007649211861891148 -0.007825443099130340 -0.0007717708573137359 
0 0 0 0 0 0 
0 0 0 0 0 0 
0 0 0 0 0 0 
0 0 0 0 0 0 
0 0 0 0 0 0 
0 0 0 0 0 0 
0 0 0 0 0 0 
-0.3539367240524463 -0.4083462799374104 0.7277816704928881 -0.3036188889433788 -0.009933421736924925 -0.02691878647777973 
0 0 0 0 0 0 
0 0 0 0 0 0 
0 0 0 0 0 0 
0 0 0 0 0 0 
0 0 0 0 0 0 
0 0 0 0 0 0 
0 0 0 0 0 0 
0 0 0 0 0 0 
0 0 0 0 0 0 
0 0 0 0 0 0 
0 0 0 0 0 0 
0 0 0 0 0 0 
0 0 0 0 0 0 
0 0 0 0 0 0 
0 0 0 0 0 0 
0 0 0 0 0 0 
0 0 0 0 0 0 
0 0 0 0 0 0 
0 0 0 0 0 0 
0 0 0 0 0 0 
0 0 0 0 0 0 
0 0 0 0 0 0 
0 0 0 0 0 0 
0 0 0 0 0 0 
0 0 0 0 0 0 
-0.0009572990388218988 0.5132827295068559 -0.6548012155294101 -1.006766294205270 -0.4987625786439035 -0.4061723751127732 
0.4337673795079201 -0.1162690193832123 -0.3574477811900475 -0.4432670561011536 -0.2653690967147663 -0.1399275743386900 
0.3013996372239040 -0.5608663090673820 -0.5857193638898321 0.7016123863869362 -1.010326594875379 0.1805099123735391 
0.4067005505587293 -0.6924484356111216 0.2473781162256836 -0.1976267740960199 -0.2474839239095245 -0.1947554622631614 
0.04270697227658292 0.08103831298011542 0.2114234803248263 -0.8858926178132405 -0.2804717480544392 -0.4937656034672822 
0 0 0 0 0 0 
0 0 0 0 0 0 
0 0 0 0 0 0 
-0.01967407160756157 0.08920817311200485 0.05908517275999289 0.2038999851346327 -0.1183816139300444 0.9217565953212937 
-0.3846610173186419 0.9897931791077323 -0.8529204450773287 -0.1096243247986060 -0.1806702602958818 -1.101857095881820 
-0.5504420984055055 0.7044606149637821 -0.4103368261406855 0.2188287077225210 -0.5191520571798828 -0.3308714903163393 
0.2796727250706497 0.4281024239162647 -1.430496834348864 -0.09534924438860147 -1.068751400862105 1.113911163440484 
0.1495761757055409 0.5665395007566906 -0.9482752727669117 -0.2177122376071685 -0.1904089982965704 -1.018193473142978 
0.4315251388911156 -1.009262674089321 -0.7179165675438093 -0.2024690385681467 1.078318890071558 -0.1394368863613357 
0.1351316189811378 0.06207672416247979 0.1354124464667931 -0.1409936505524897 -0.3033007628565186 -0.04214749905211283 
-0.6416473622750452 -0.4665144345950314 0.1397894448763924 -0.4220110208861976 0.7209054999806382 -0.1012492059458668 
0.3111981949837016 -0.06467914607162123 -0.04257366431681998 -0.007972920436839198 -0.8085131425495521 -0.002316882858976702 
0.4561281945645418 0.03901090291353275 0.06320593740847424 -0.5160752758485647 -0.5536706491582977 -0.3276419159861057 
0 0 0 0 0 0 
0 0 0 0 0 0 
0 0 0 0 0 0 
0.2883739259521104 -0.7684502435736230 0.1911107539861261 -0.8502651651089773 -0.2028772203202373 0.09364179868172950 
0.5568762948198699 -0.5701678889824994 -0.7243351943820568 -0.5236210164725990 -0.2215839374224295 -1.036696561769428 
1.155112956912622 -0.2608066213284815 -0.9498595431232768 -0.7598360461666275 -1.169213022743799 -0.6518915521800691 
0.6171711157981311 -0.7230143071277266 -0.1765640220726441 -0.2978692389330669 -0.6085053370747637 0.2043349556244457 
-0.3281762455017847 -1.045532682216935 -0.3574017854075100 1.242426894084691 0.4281606244111849 -0.1472742993051446 
-0.2085493385929588 0.1441430388471802 -0.2611249762892094 -0.1984045793244984 0.2585686375991542 -0.1554780727732326 
-0.6410031694290310 -0.5115231150549938 0.5012277188079140 1.009879967973588 -0.2728820846482363 -0.03603889343376934 
0.9095422264259279 -0.2293314345485924 -0.3472320282966827 -0.6732212831861419 -0.02801523605047292 -0.01678107532479087 
0.2510450605302939 0.5379951263519327 -0.1737274386203350 -0.7253519213898387 -0.2471425256502213 -0.4448350704591635 
0 0 0 0 0 0 
0 0 0 0 0 0 
0 0 0 0 0 0 
-0.03728252861065479 0.02642738375784350 0.2620136092591708 -0.2509865434016280 -0.2962767936719671 -0.3940561150979320 
0.7304939922064279 -0.3567625816422554 -0.1122334316457407 -0.9450200740257964 -0.6904103044375172 -1.594125496873570 
-0.3475998400495635 -0.1662536771412950 0.5177455290522710 0.1807668008582620 -2.136022947649987 -0.8857598395461932 
0.9083186380607378 -0.7013152650794405 -0.6231602920112682 -0.5743285158409269 -0.6166946757761040 0.4298824794477448 
0.02950079600138476 -0.5274900504494329 -0.1951194368088738 0.4299753560101639 -0.08566196827734622 -0.8184922112942598 
-0.3408531990646958 0.3677882383287245 -0.1512205386724144 -0.1595998657094891 -0.7111137945791961 -0.1573440898805012 
0.03561698036838640 -0.4519898930227186 -0.02835237652857010 -0.2157183083994442 0.06223884536964672 -0.9475783524223867 
-0.005609211939958197 -0.3845938105555010 -1.058676755336456 -1.150729301533611 1.137216554772725 -0.06820990769965918 
-0.5639948132751318 0.5259960094889361 0.07620992503195435 -0.5727580906296219 0.05451037137211749 0.09920973997082373 
-0.1219015393073636 0.2903365124318501 -0.1785791341322073 -2.424445371688287 0.3334083467408444 -1.333699026086934 
-0.4311237648500349 -0.04330542108272385 0.2817384400442866 0.001343850645191160 -0.2226729736853973 0.5950135681640151 
-0.03009119874982374 -0.2809247126344030 -0.2102805416456036 0.2007410660499427 -0.02854797717304050 0.02221130909186158 
-0.03876536178788347 0.1113439321974061 -0.1572525252633221 -0.8520124643509190 0.04386233652655373 -0.1699271171593040 
0.2153606682995054 -0.3283853813292165 -1.056703513775259 0.6244545384012578 -0.5486251448420619 -1.079979510076893 
0.3542067408272028 -1.242437570231986 -0.1954639058456174 0.8452940574417978 -1.626344660993835 0.09568637373113824 
-0.2323061943304527 0.1555141922183438 0.05396723534436232 -0.4577676017436251 -0.2466075413411847 -0.4775977790883219 
-0.2013808612828836 0.5786234407414237 -0.6225269659286070 -0.3496873042743836 -0.7405542695754711 0.2068062624747749 
-0.1315529651583217 -0.7196013946086439 0.1252576056275540 -0.02339718387591049 0.7229584492047230 -0.3986477583752848 
0.1627366300966403 -1.079562995332069 0.5022797127888726 -0.4966493794273447 -0.7990910088403290 -0.2914193577934467 
-0.2468187366420756 0.2268209874651070 0.009752946178757839 -0.1688082216953595 -0.1142533408115605 -0.6803560652849493 
0.2683626859527411 -0.03742115814810976 -0.6547106832878488 0.1602820968903773 -0.2640258761244464 -0.7289659073889695 
-0.08552976832445566 0.05738703200083376 0.4062826599715035 0.1198113822772273 -0.5778428389376091 -0.4350415434138499 
-0.1387608531635149 -0.1631154971565219 0.1049465169019860 -0.3391571458055249 0.08092220352392698 0.2752405829328522 
-0.2928409564056630 -0.6433121894057847 0.9318168339997084 -0.1313627365493740 -0.03182373100512261 -0.5233483179990637 
0.1770378176584262 0.001011960266388348 -0.8561888716495754 0.2458609232412553 -0.04174028028353070 -0.1842989993354343 
-0.2156037894025865 1.438284320219492 -1.015863070560495 -1.080378224465415 -1.159915565548543 -0.3733948297593363 
0.06398464003398277 -0.5807789102346416 0.5399053411738522 -0.5396439223934014 -0.04068055137628979 -0.6587849226220168 
0.2264481965204982 -0.1237703385494963 -0.9289280737529628 -0.2452589129233339 0.4187306680800344 -0.5187972247024781 
-0.006096981201800897 -0.4862482499187310 0.8043871876835152 -0.1779869046292694 -0.5672365955111159 0.1999888195179111 
-0.06990831874810308 -0.5143963685704249 0.5197554768056298 -0.2782792225328276 0.06671360962539923 -0.1874035959997926 
-0.1872401971865425 -0.5076432644064959 0.2844871473575209 -1.183590690231621 0.5762807489335909 -0.3989228871343521 
0.07419763733763453 0.05610455073906824 -0.6957761171523922 0.4984364835842212 -1.810396900003075 -0.9818882639559441 
0.07236776291440605 -0.2428192520890412 0.3392503560058465 -0.5096141215412993 -0.1007957018901846 -0.2948387037386944 
-0.3322690715873622 -0.4425116192815132 -0.05667959395876684 0.09716257227777714 -0.3569748286010893 -0.3767339320198839 
0.2407775344716689 -0.1844395423754715 -1.176474541010407 -0.1370740207213360 -0.4316784865540723 -0.7873220005225431 
0.01301818347174391 -1.049140334123219 0.9755415800134755 -1.592462955626333 -0.2022117687955155 -0.7050004158838169 
-0.5336935300782506 0.3771805246490683 0.8286997824520635 -0.1496585961078348 -0.3819393620837178 -0.1322080790787023 
0.1629184205895964 -0.05281042434359806 -0.6328819977554650 -0.3278534277968740 -0.3401228285858664 -0.6215085754151578 
-0.1322013446757069 -0.2276249385588759 -0.1026496979590166 -0.4375941978714260 0.4396488139093168 -0.6348912097126950 
0.1293635491719379 -0.2290752754095689 0.1548528093575409 0.1861276464100528 -1.146039689083136 -0.7168464337410403 
0.3970045150926173 -0.4956719050208498 -0.3461425668555995 0.06220607064234737 -0.02725032340433065 0.7200391012325585 
0.2077704994477247 0.05079319571415292 -0.2114462401578188 -0.1570818947572537 0.1307254058094434 0.2874105125003365 
0.04621117367944352 -0.2604695074677985 0.1732098316227642 -0.1688729453792399 0.2748325673776175 0.05238574996611330 
0.6892580739454475 0.3325761434025519 -1.711719459165472 -1.062947255090268 -0.07536055209955672 0.5959116936636837 
-0.7956056055722586 0.9576465534030559 0.1392129230449679 0.3693476662020809 -0.08524170122075661 -0.1273239723223635 
0.1119518343098017 -0.4368733581433413 -0.6151732388996032 0.9219585134614767 -0.2228343755931458 -0.1341610990711248 
-0.7150201766432177 0.9216724586492591 -0.6830251111174691 0.4820166176608693 -0.7205517664509806 -0.2036387410823369 
-0.3508757378307878 0.2669102830001163 0.4670654791255133 -0.2665916870697275 -0.3035496661810226 -0.2212695179490536 
-0.3350109530820885 0.1680378346735567 -1.325296029197266 -0.3132203625921289 0.7475855226766428 1.721449832519143 
-0.3822965891103498 -0.2298986877243437 0.1930864977291927 0.5489253303774877 -0.4292837397598048 0.4538709227825368 
0.5303980469393932 -0.7169500307183808 -0.8270757603934366 -0.5207665449321180 0.3160858643357389 0.07511736675228936 
-0.8862139586923566 -0.04480804459000153 0.5540380184472802 0.4728155590174424 0.4813206691745545 -0.2301275174253543 
1.182624762834625 -0.8899122380245181 -0.7109776854140317 0.1130704064322777 -0.1593212845451861 -0.1929492225432068 
0.3121173732793653 -0.4758850122183937 -0.2527475760512263 -0.1543804465868903 -0.04355473294164314 0.7871445331458085 
0.3473211031250979 0.3060775276036192 -0.4196389101741342 -0.02534658178802306 -0.5410453226220315 -0.1114366201813256 
-0.3308390922377923 -1.055902912632614 0.4023796902719524 1.338756083339135 -0.1527750147674516 -0.3247949534985624 
0 0 0 0 0 0 
0 0 0 0 0 0 
0.6090952586401854 -0.1351210136137505 -0.3075736260108313 -0.1942478817157354 -0.02125491752693435 -0.02635055684443058 
0 0 0 0 0 0 
-0.2961506963015105 0.5609919850681357 -0.08510247550212524 -0.004794001689158187 -0.02317588488659578 -0.02937568056225941 
0 0 0 0 0 0 
-0.01509165310192139 -0.3724549846783192 0.1143560510807270 -0.1538342986377699 0.2568044104008034 -0.02516915323593404 
-0.7461821957409477 -0.7145044540483333 -0.7339228068626580 -0.06911822438229297 1.992619901825221 -0.03541228054564586 
0.1506025425643270 -0.4641559349647044 0.2616279915063876 0.1543212212612502 -0.5314489558972658 0.01871047213154133 
-0.02611341044963054 0.2122266941798410 -0.4433233472872596 -0.1834354283585530 0.3890881565650922 -0.5451218289681466 
0 0 0 0 0 0 
0 0 0 0 0 0 
0 0 0 0 0 0 
0 0 0 0 0 0 
-0.4657924602517560 -0.3121998606012393 0.3673909175630070 -0.3385254343602029 -0.01580227824751657 0.8822579322405865 
-0.01848389175672240 -0.2925900736962863 -0.3889139256171846 1.423266972625811 -0.2387797818123002 -0.2997902748484231 
-0.02517562775298843 -0.6764034405944436 0.7638851768422091 -1.001057716226316 0.5714216939851149 -0.006358055806284871 
0 0 0 0 0 0 
-0.1202048082508969 -0.5351630124595586 0.9953645949237715 -0.3031414465205785 -0.8286713236070914 0.5635991543574546 
0 0 0 0 0 0 
-0.1790092455018021 -0.004626180887454513 0.3102508926028454 -0.2940550151562865 0.01370092314649363 -0.1832603735524905 
-0.4438944141988882 -0.5373032735738246 -0.4124055265835344 1.533910093978297 0.2150805763243014 0.2018826033036127 
-0.001551222455233578 -0.04853352819593797 0.3302284230511159 -0.4398280922362617 -0.1010962197612352 -0.1574749413620468 
0 0 0 0 0 0 
0 0 0 0 0 0 
0 0 0 0 0 0 
-0.4061445197104191 -0.1010162425375493 0.5477247895938187 0.8674450333660584 -0.5210669371014773 -0.1518374288336772 
0 0 0 0 0 0 
-0.6472555745736357 -1.264086020358031 2.410668119273427 -1.130788286184450 -0.7903008184568449 -0.4970447560138327 
0 0 0 0 0 0 
-0.4130534871628258 -0.07430765681379735 0.6188223020709314 -0.02213374707287779 -0.1270055931412898 -0.01049835596822874 
0 0 0 0 0 0 
0 0 0 0 0 0 
0.2214262395370865 -0.1596324735245464 -0.3364421925142456 -0.1185140657728734 0.3324924093002616 -0.1305853305542205 
0 0 0 0 0 0 
-0.1186938657594868 -0.6523685585573981 -0.7111542400060844 0.6539337671127344 1.139507421777641 -0.03466528865493251 
-0.06751652448263519 0.5598581078685659 -0.7231459272625789 -0.8469345993365578 0.2772150626575957 -0.1765206310593062 
-0.5163293565293678 0.04342592394135484 -0.4737730400424824 1.918639615677598 -0.4823359214390595 0.1346729165351162 
0 0 0 0 0 0 
0 0 0 0 0 0 
-0.3235193450974242 -0.02329124781756360 -0.03470111450708914 0.7176443065992995 0.1254536531566011 -0.07146821864322542 
-0.1398304214555361 -0.6647467711460299 0.01758518929289379 1.336164058688556 -0.1762463330828710 0.5583852899074355 
-0.2195580227497208 0.7066769983948920 -0.05412086327292413 -0.3271579570742277 -0.1440190214859271 -0.04311177890845348 
0 0 0 0 0 0 
0 0 0 0 0 0 
0 0 0 0 0 0 
0 0 0 0 0 0 
0 0 0 0 0 0 
0 0 0 0 0 0 
-0.1362654462920434 -0.9498748968527512 0.4677789114672143 0.9440645260342655 0.3899283323096504 -0.4713704170229072 
-0.2576499046003734 0.7275627254538167 0.1179130630659721 -0.8680648002965968 0.2820917606851623 -0.6640736283725173 
-0.4063371641106892 -0.6890474434024154 1.249293603832783 0.4585944943292935 0.002587209402717340 0.1337066857801406 
-0.05519342199946335 0.03754987597244745 0.3352972087572536 0.3757952601412856 -0.3520337499449717 0.1285841121688429 
-0.1815717652463598 0.03918149748092019 -0.02093146228884843 0.2327005770113199 0.2675979094177305 0.1043701636344237 
0 0 0 0 0 0 
0.8504533068144370 0.9155844501958205 -2.013123280851438 -1.398227923899802 -0.4018640850162625 -0.1827471437430699 
-0.7558331007016896 -0.3353501744438102 0.8589025530725243 0.3740505273398885 1.053473668264683 0.1115290800161707 
-0.4298809244607485 0.05382129718937555 -0.1021621680423803 0.2429951101594018 0.1838211532039736 -0.01430114032053260 
0.2922517697529714 -0.07757757362360786 0.1984117182587484 -0.8591517298938278 0.1416972812553720 -0.7606606547839440 
-0.1816757796810001 -0.7664172717886282 -0.9643600895242670 -0.02062775010179617 1.504145566890337 -0.02838982527472338 
-0.6004688203377229 0.3570752561437722 0.2833486188204433 -0.3251536242733614 0.2463045197304087 -0.08414141530898700 
-0.1238637628173347 0.3287741234768800 -0.7294391023960410 1.115632733046170 -0.8383146250641189 0.4679358631986238 
0 0 0 0 0 0 
0.4432103381061878 0.1085647146716181 -0.6636328907790155 -0.7331794800213497 -1.645509228392358 2.103056211155447 
