solver_type L2R_LR_DUAL
nr_class 6
label 6 1 2 5 4 3
nr_feature 299
bias 1.000000000000000
w
-0.1965994478161596 0.2448011680827369 0.3209523073705639 0.5258628167250304 0.5435400757736000 0.3685873883490341 
0.06744513094140292 0.2155800470333429 -0.07448885334030780 0.3125868053977953 0.5050641604790465 0.3709056816064914 
-0.2397434311441067 -0.008002315900878800 0.8136005049429843 0.2719104139580883 -0.3030177414843959 0.08713654879901472 
-0.2776029338511780 1.632989548458349 -0.1813485625991813 1.150791936358252 1.001402868131412 0.8804642204510844 
-0.05140615892884563 -0.1888147197166202 0.6222324834116505 0.7570641955354506 1.071291488359726 0.8913237306367884 
-0.2419585850226931 0.2242499451285994 -0.1418625233768657 -0.2167022972243494 -0.6028555946757679 -0.1857604777450795 
0.3073442495689629 -0.1159945802759450 -0.1218204533484118 -0.2989623101506550 -0.3984812487460037 -0.2638531154244531 
-0.07478335000628869 0.3854021703777595 0.1106863524213602 0.1969967459109507 0.2336372651942947 0.2501456796589677 
0.6138272080319470 0.3155667691619118 -0.5985122692294995 -0.5243755278246706 0.3191592333369219 -0.008320186742539114 
0.5748380716940537 -0.9356677680122123 -0.09877288633042523 -0.4033225073461674 0.2144003060600181 -0.1774172002559202 
0.1837555033848006 0.5248777790027037 -0.4581439382240430 -0.2436111042330978 0.1459938182495209 -0.1177116752737175 
0.03309271418057840 0.4225217277945697 0.3614567946243590 0.3773834667263589 0.5203467091300995 0.3865301571584143 
0.3165253421221380 0.01008196411542252 0.1024344420961517 0.6200119593220923 0.2415131430354735 0.3120732984243434 
-0.09978639571180148 0.2070440928754423 0.7636516044071385 0.5987686626152333 1.036218930012340 0.5816339223860814 
-0.2387328136613516 0.3576584609468770 0.3461612438323954 0.1493029434117835 -0.03520341779086621 0.1619925073904138 
0.2319980580439587 0.4415457902380946 -0.2000185590290994 0.2328005329032514 0.2621313104854070 0.2705308101476324 
0.6352641730573064 -0.7272045555231454 -0.09336498278694551 -0.6236228186338889 -0.1856741974639594 -0.2618926776765365 
-0.08705951418492802 -0.3992105939198983 -0.7221852726867790 -0.3039852500250173 -0.4499770625329498 -0.5285681006567471 
0.05051273074176892 -0.1786598505412936 -0.4859196086419159 -1.067889931897975 -0.6451822752626112 -0.4683509128329415 
0.002174555213048243 0.5735367507255619 0.03410899967428949 0.4768992185570236 0.02084927829415609 0.2334741696288425 
-0.5822140888170387 0.6672198624822891 -0.04285920781350068 0.2511260191440309 0.7060198876768304 0.2261590322969290 
-0.3485432988138654 0.2364745463887575 0.09237398033054892 0.6164284675067792 0.1851910095731268 0.05489092569737077 
-0.1649941680369105 0.2228999537100837 0.1144310886244375 -0.1757410314255806 0.4393847218368736 0.3141458310648608 
0.3261316405760196 -0.5548084384019076 -0.09226037492908501 -0.2736371249138347 -0.2113428838400091 -0.1142774278073610 
0.2304681370396731 0.2644719219953787 -0.3955051643196924 0.2120124881903737 0.1085158066105862 0.1718301301187592 
-0.07079676281249958 -0.4038136503992919 0.5410643722737276 0.2559543393762190 -0.2237264120803909 0.05069807443124456 
0.9897676262884024 -0.1419982549349928 -1.132241633671838 -0.4865865937895303 -0.2996695424664781 -0.3842373276588392 
0.06921094011908520 -0.7486643186347286 -0.2274709684035379 -0.5173193776987507 -0.7501355182178514 -0.7024658810149150 
-0.5569598979642851 0.4686780539411459 0.2518892178565701 0.7218993391452887 -0.1309525929164193 0.1192795898360865 
0.1469058008733353 0.4258427063717091 -0.3253052202302542 -0.03557786807987047 0.1839769961112787 -0.02391615056055798 
-0.3530199454856271 -0.4790129540490925 0.5995555867609660 0.1992506055451983 -0.6765804611384959 -0.3217831759234687 
0.6485670560848864 -0.2522079931212202 -0.6704198053263104 0.09587462770763809 -0.4136649452417386 -0.08426547178723061 
-0.4049128761361540 0.6610765119858870 0.2220528064043972 0.04542977482628331 -0.2042241366636698 0.1037878125241306 
-0.1951894959165078 -0.06145321990120937 0.1328834577017326 0.007139009209193897 -0.007545797978943744 -0.009092890069590907 
0.5571503765329241 -0.03251383471874048 -0.4513938275776607 -0.08716544956787843 -0.1364989251059093 -0.1519416578094013 
-0.4049444388123214 0.5848446231354729 0.2301338337623767 -0.1849087173820389 0.1035214038368499 -0.1445222886743469 
-0.03572906981009533 -0.4909449532325239 0.3914798788222911 0.2548583014648510 0.09151081474997702 -0.1479710683487008 
-0.06154978883869060 -0.09808644441338174 0.2949087575657633 0.2691184679447882 0.3536138004937179 0.3518276170782045 
-0.2157824301176233 0.4173018605489402 0.01225136814178050 0.6048481937261824 0.4328377008223437 0.5104409733484380 
0.6756679928103333 -0.1543860974044778 0.5440741656985353 0.2680719323178917 0.2417272763153200 0.3134302104204618 
-0.2996257308621406 -0.2407844941165924 0.9709245812461210 0.4592796572133160 -0.1667785460689837 0.2307918892458012 
0.2896608677696823 -0.8319188273435507 -0.09988863374958987 -0.1297827603588865 -0.1011095005927178 -0.2360061922823468 
-0.3216328170392241 0.5998613793316421 -0.2445977460706079 -0.009775868113408036 -0.1226387833113975 0.1436988085806949 
0.4954039840306601 -0.6050947067527355 -0.3737616286166818 0.03211136186370200 -0.1215155442274725 -0.3133880197069926 
-0.2877038329514806 0.3608564136353209 -0.6139302084897995 -0.2198937445115415 -0.3482515245870190 -0.3651230468348731 
0.3165775202875166 -0.4533308575788106 0.7494854471737448 0.3562327642007690 0.3907921737930232 0.3278395340078877 
-0.7102327885817833 -0.04885216768900512 0.7369274521540481 -0.4351636557525757 0.07598914787919704 -0.01638812633899189 
-0.4391210445733412 0.1997678183185636 -0.08485328928968700 -0.6402181447741567 -0.5681909323897458 -0.3640504550515731 
-0.3727362902564980 -0.3619621181692804 -0.2073306717052005 -0.7674838825116239 -0.5354307228761672 -0.7994288690111455 
-0.4170630370905037 -0.1372432144511054 0.3162096168426063 -0.7011456526934903 0.05291239388924080 -0.3695722182238828 
0.004510865709501125 0.6219805582966895 -0.8391550193603772 0.2507241589687182 -0.2636555140239772 -0.1477938759608266 
-0.1242673037349310 0.5355978294884147 -0.1579400714232821 -0.09676372452853690 0.2878353663575431 0.2831537654110211 
0.5034148528868735 -0.3893480669533526 0.3172652195810762 -0.4115907283126065 -0.1479401714591581 -0.2323917020094771 
0.01173218487945564 -0.9501041720661817 1.001614712967180 -0.1528260714246031 -0.3209276396817149 -0.008579812365443739 
0.2101409159598779 -0.2178071678502118 -0.2508804236017098 0.3261914515719206 -0.5348464688172618 -0.1174867972823982 
0.9964414580443741 -1.032178554290141 -0.1244733490573511 -0.4162399490230099 -0.3592470329887824 -0.2939654523754121 
0.6466714155490250 0.05356651252577649 -0.2302014504173529 -0.1827361760152864 0.2115223308089488 -0.01358491443577405 
0.2153609267574810 -0.1873273948123490 0.4187939300686338 0.01336085287150645 0.4298689796727750 0.4014654324170365 
0.2995231262272817 -0.2297622558513789 0.09356137556677484 -0.1526311246468162 0.1506726443265180 0.1796598740944626 
-0.3075113318858102 -0.2086420939113880 0.3000993050096020 -0.1983717746975471 0.4364011876954107 0.1880900705950465 
0.09336669915825484 0.06242769614349961 -0.7921901428000411 -0.5088483207411238 -0.1541245324006256 -0.3618797570208972 
0.3702442549434310 -0.3263321035712200 0.07326386253995024 -0.7297241015414365 -0.8533434775725568 -0.3898132766427839 
0.2212352109354019 -0.2713608650216847 -0.6037414645699280 -0.4188646310791233 -0.8295454612592711 -0.6240929435605426 
0.3868317734432392 -0.03803051721257674 0.8397556652002176 0.7133152119457848 0.7739584309255747 0.8668290526772146 
-0.2236423530220854 0.3004759642378934 -0.6066238639404147 -0.3605717019079309 -0.3165055946807897 -0.6450439359945964 
0.007987535031593966 -0.4557349643176711 -0.08796816137403160 -0.5989233869244207 -0.4689225260012123 -0.3113672608769010 
0.6237541948045895 -0.1168585845506195 -0.3426420826757447 -0.4253576427309220 -0.4248132466585866 -0.3198849832157906 
-0.2972391235892019 -0.6221323140905023 0.1949316834606064 -0.1708250495168494 -0.3995016381985642 -0.5211225781492086 
0.04113996836879844 0.08679838198765690 -0.3734408832340033 0.1720811987852616 -0.5050041158430520 -0.3052946542722078 
-0.1792940235150252 0.2012407916696720 0.4570063613437034 0.5179731672825213 0.3286076265276365 0.3701193825646560 
0.2106074686463515 0.009117494635786430 -0.1133855651016888 0.1078762312379882 0.09144765429330358 0.06628577670334002 
0.4842555001937104 -0.2324236057569036 0.1066472780272023 -0.07962251588689769 0.006089459213742429 0.09179548855258403 
-1.000387389850914 0.5886619212442444 -0.2135465149393070 0.5686674455257342 0.1232157292904321 0.2185855451711919 
0.1599530211955001 -0.2021456174384602 0.3976728715284088 -0.1254491526484475 0.3280450906340605 0.3574634243760930 
0.2486806614921850 0.2322939594858061 0.2912874234159371 0.3107678722762612 0.08433814057304090 0.3826657967526346 
-0.3039189873469431 0.3662146958401356 0.2833717442758123 0.6457876226537499 0.1714697356588850 0.3993215546500913 
-0.6871701203602015 -0.1695745788518878 0.2226953123369787 0.04720547567050070 0.1285527139016994 -0.1332115464187703 
0.3911419218806121 -0.01787581970844137 -0.6971280596568037 -0.2653595853755499 -0.08520419378614671 -0.1426699438855311 
0.003919504562396737 -0.1112759313630668 -0.9741831539369129 -0.08803408225256164 -0.4289761859196056 -0.5528046410417214 
0.09767605506071186 -0.08256878253916990 -0.4321258935497176 0.1909722646508096 0.3053428093024714 0.2458848786626621 
0.03080808133142514 0.6017292613547618 0.04796263856396767 0.1947652914094227 0.9082212824772236 0.6880205321324907 
-0.08935079166336013 -0.1465571623358993 0.3196864528346706 -0.3496362167600898 -0.3684101674575094 -0.2435073230471786 
-0.4899444227553360 -0.2407317249085130 -0.1874995230526599 -0.2957189003195356 -0.1256879672014304 -0.3424364630390084 
-0.7224980848459226 1.232757138413341 -0.5375730314381627 0.2003404492566401 0.3022679448088032 0.1392123447077840 
-0.6874343336209403 0.8445075596631809 -0.6442021009944038 -0.5903095591057598 -0.09257062904577120 -0.3389351951582850 
0.06854886415368147 0.4301692027422374 -0.1005521300900051 0.4494793572165658 0.07374743119798575 0.05198671810965690 
0.03733190745610873 -0.5950067717362848 -0.09402914373828741 -0.3600812314130547 -0.2946710620201826 -0.4315725195779582 
-0.4701269339494122 -0.3977435091897021 0.2849082988546122 -0.2070606924962209 -0.008166398400925423 -0.2609176230138963 
0.4348624535103483 0.3170050442761049 -0.3361500767470997 0.4778488330408219 0.2554942195451770 0.4440426747664573 
0.009394400886599975 -0.1512349236125138 0.2678978985603492 -0.3056344585850487 -0.1264755571831976 -0.04151365795948282 
0.4909545510097703 -0.4724192280802201 -0.6232369046388542 -0.1985717164549373 0.3234478232579734 -0.2663059270902214 
0.3970495399215925 0.8044757597459580 -0.2322016795560488 0.02770457380509820 0.1984298133743512 0.2154405968124027 
0.1245505704674894 0.1099624126884646 0.3428915716250444 0.2500070316370828 0.08059051141712506 0.2051598690996589 
0.4978525640693133 -0.1725178125865709 0.6779097204738022 0.1451933098075765 -0.006086065541021399 0.5004856814547950 
0.01694844262198589 0.1810604759260334 -0.3448461286231191 -0.8890043636773388 -0.4895564253468031 -0.3759362860698037 
-0.2727584910845813 0.1471381825256553 0.1946460515205993 0.08966088810462255 0.2236031697098514 0.1426584344145869 
0.7688198215814019 -0.7790076442270538 -0.5857795665175716 -0.2741607559412485 -0.5190288901208835 -0.5845865367249072 
-0.06039905065473256 0.05056449322999881 -0.3016171255243947 -0.02448576843881540 -0.3046001834764185 -0.3464485233645651 
-0.2621878194723697 -0.4606511989806784 0.6201880409588068 0.1227589806216308 -0.4840132399204600 -0.1311260759326611 
0.2163428865943146 0.2171007793787820 0.009235935454632341 0.2276759946535557 0.4139868034283269 0.3435390282213201 
0.7134870745877664 -0.2276505961740863 -0.2085637464288958 -0.08634622805495977 0.06782726919115907 -0.02267528988567737 
-0.4937997252682554 0.1138855039566262 -0.1001973859878669 0.1767455397261015 0.3563763612380296 -0.03605258376096118 
-0.004323558284467044 0.5235273756448423 0.1163639833929276 0.4380339590080851 0.4978704974761815 0.5487080036350377 
-0.1666003737179595 -0.1069468279495266 0.2804579836250538 0.4210431124970948 0.8122531414886843 0.2512490709929152 
-0.2911604888962051 0.02122503139354505 -0.1572167818527943 -0.6959915774173855 -0.5229591465002504 -0.4407613955287811 
-0.1670421647807049 1.064159204809462 0.01440429139444623 0.4660972523748710 0.7086814548779582 0.6007429082730965 
-0.2280204581806755 0.3362711932260621 -0.2291611310320224 0.2218971010001000 0.4485740490712569 0.03161524227346804 
0.1608299118084713 -0.2830061044539342 0.1410800014495699 0.02082047157493987 -0.4213111979115186 -0.1936114150089189 
-0.2008895014317030 0.1253290674217162 -0.007222105572774245 0.1156590917570039 -0.2301953213412817 -0.05591709925895515 
0.07308483760417457 0.2696621459180115 -0.1041630062967426 0.4711718937398195 0.2356218453647809 0.3373148946811304 
0.09171571841610528 -0.1869836197723449 0.4836564779281056 0.3304319015152922 -0.5542222031559089 0.01706874768779403 
-0.2045988655836206 0.05269792865735280 0.2267393826620093 0.6981040725633776 0.7144305030624779 0.6956002978074249 
0.2397850081706164 0.3109513179321929 0.7012188984441227 0.4937637340298560 0.7174442635986104 0.7813187638679897 
-0.09385723953990943 0.006455727633592250 0.6149387903163752 0.4007511733327908 -0.1411777173574411 -0.01148114963902568 
-0.004590928812510718 -0.1258301502700118 0.2440092259910483 -0.1944079280508135 -0.2875721061744300 -0.3580854654989442 
0.01912319277387382 0.03919699774394599 0.8287377157225728 0.3793137084496484 0.7256198682792347 0.6377131422359386 
0.1269631142637858 0.1060223398505437 0.04535708191500412 -0.5706828208010151 0.1087847406765343 0.06981501966913915 
-0.2660037880938482 1.061232398917117 0.08354663373019382 0.06587463153084154 0.4348253130949371 0.3539305927394384 
0.2438071289663471 -0.3462146825232811 -1.013876669692288 -0.8750750524957059 -1.236343626315618 -1.132805034451543 
-0.08189557431179446 0.9479903177741145 0.04260512607511080 0.7754878690861787 0.6112750619713591 0.7997871577664056 
0.2342753787721127 0.7013802725664826 -0.6563810148961270 0.06475972415313835 0.5002825623896638 0.08520819451550125 
-0.6033040446990325 0.7546059695092177 0.2780703396289432 0.001902138639314100 0.5270291647858384 0.3487606895942416 
0.2473429100180542 0.1588223798838766 0.6393932334361848 0.07308443517706549 0.5178909215602175 0.3005710501668596 
0.6391559939525777 -0.6602429787852997 -0.7435881334872674 -0.3708736152943618 -0.6684390274508643 -0.5942556595139853 
-0.3216639572435266 0.5585508027920842 0.2305791075846119 -0.2756739461614608 0.1262591476252658 0.2742465225025492 
0.2101047800303271 -0.005720772651226684 -0.1441912492535213 0.3146082519706751 0.1551789549307843 -0.08986652605755302 
0.2747685911370262 -0.001738688580500343 0.4253093170671233 -0.6248787150060146 0.2057678345945508 0.06957743242569936 
-0.4782226040475351 0.2031887302670231 0.4970854946724549 0.6483131460955770 0.3224129213896339 0.2912577901065325 
-0.1497263316957790 -0.3834902091587992 -0.3800184555083191 -0.6718648757028706 -0.2056104590859112 -0.5392465910096389 
0.5404752757627547 0.4631060112982945 0.009777216674632336 0.2736390938998015 0.1959771177504432 0.1062554926777453 
0.2417115582363732 0.1829115347761617 -0.4935992378587792 0.2882868252283055 0.2636593861334837 0.2034408563349548 
-0.1394525543021021 -0.5689352602724413 0.4231790189512024 0.1448861512944717 0.1981016947632282 -0.08736008472994954 
0.007467601550576230 0.09944811992457730 0.6022603237840343 0.005552033265998713 0.6360965888168649 0.4672317094154811 
0.07675317104676514 0.09850570030780581 -0.02421054706989632 -0.06063026158856753 -0.6151054893876876 -0.3727406179977000 
-0.07900385383051274 1.356705583516224 -0.01679901661893232 0.4116898415318616 0.5645694813170460 0.6541385750841250 
0.5897163915030743 -0.6259089913163481 -0.4925330659039747 -0.4779712132778227 -0.5145842173094253 -0.3323954602366313 
-0.2905025237340637 0.2562887437368061 0.6430456186366866 -0.09206876751052380 0.3665531645292597 0.2108259242849864 
-0.5636976713658499 0.3096150232636070 -0.2871688625650467 0.1827931564347441 0.04420046868133408 -0.2245221669551118 
0.1610775877778486 0.2501090956760366 -0.6722878904274302 -0.5099182462869463 -0.4460480154645194 -0.3764420583522563 
0.4325975358330212 -0.4406366931625815 -0.5309945942107815 -0.3489205029928202 -0.6003966116696242 -0.5458890377695372 
-0.1713400058012518 0.2987367952586035 0.4826940962020246 0.1434006893550330 0.3614952207245935 0.1513606679558694 
0.2148930713646809 -0.2777096182598305 -0.1134346473435787 -0.9428707402508352 -0.7350824082072706 -0.5741392810400642 
0.1740052109419550 -0.2534843988256284 -0.09409647613335577 -0.2345166947094086 -0.3493376067051289 -0.2424973642943319 
-0.4218361651855250 -0.1093043957935615 0.07900322469849042 -0.4010559305226923 -0.1125786582891254 -0.4355235705975112 
0.1091807289512756 -1.002603146656088 -0.1752277014485673 -0.4975094923672016 -0.3686689811028400 -0.2624582272997458 
-0.5361184336901609 0.8393801789395052 0.2456347500069624 0.4064946535517861 0.2425723167937251 0.2434685603376329 
-0.4212224972116232 0.6614376448346752 -0.4829277865376402 -0.6639581268548840 -0.2881381422207639 -0.4756166494742447 
0.6052961996313642 -0.7683900925240055 0.1494107613775074 0.01981958116083165 -0.3120974320727863 -0.1673044351516987 
0.04058719427689040 -0.6491339827883549 0.6112418277606108 0.2718271650448293 0.2897419635689518 0.2504117806907359 
0.5484641899125957 0.7723533699915875 -0.9724704652783408 0.3179253211085116 0.02708566928110801 0.1689005145491616 
0.7857784416458018 -0.7369348662079964 -1.380640157099148 -1.162679013173475 -0.6967178354139295 -0.8164640680326398 
0.2294525246668855 -0.3093452715428571 -0.5023124649302992 -0.6329822115768531 -0.5871880014400538 -0.4824380811540386 
0.9358659534812132 -0.9344492837513367 -0.06191086807051688 -0.2122505005399107 -0.2082382746238823 -0.1861627129410289 
0.1865171755740397 -0.3708308253145007 -0.6231342798255637 -0.4649202972185387 -0.3486086069716188 -0.4547909916010940 
0.2640368279468818 0.5043170569142683 -0.5597591051695384 -0.4912313783997699 -0.2990705380700285 -0.01430899040991673 
-0.3649107318217030 0.9687116902145299 -0.05928865126540164 0.5524276369970754 0.6507037091185914 0.5976739881007115 
-0.4780766025958432 -0.04244258779533698 0.1354088039727119 -0.4624823505761702 -0.2627814970444327 -0.2463735436216201 
0.3052143208339982 -0.1276150071754073 0.5857404904013908 0.03302108136128971 0.5883121206893404 0.5763146272630428 
-0.2269108630755181 0.5771189427282714 0.6055411951770635 0.8768549814831303 0.009500215521505146 0.4758056868878772 
-0.5073670180310964 -0.003583925895975016 0.5430748330975353 0.7772525105302758 0.7799860110733170 0.2506849021868966 
0.06215691231496771 -0.3491860557656969 0.6107948547436398 0.3795422150528819 -0.08322952620367279 0.1589396847134967 
0.5314595503002083 0.4548709468332322 -0.5277832047675555 0.1672414987308234 0.3698731074691559 0.1109013192358602 
-0.04638496610536489 0.3922895259630218 -0.05251955308103145 -0.08522662938145183 0.1910295777294420 0.1977249137470357 
-0.4453052196924128 0.05402016002864492 0.3101405719592727 0.1428539210254647 0.2326237157149025 0.1329597449499369 
-0.4945893459804832 0.9838129620952947 0.9429924174984741 0.8337362834780035 0.7913850845593474 0.9330104134290204 
-0.3569034418830903 -0.08357316387334570 0.5602756748475634 0.2452767322191672 0.3934957852723968 0.2690471574220268 
0.09448911364222311 -0.4041419108931801 -0.1649789275061527 -0.5497663719076521 -0.7754518822024709 -0.5135082037960639 
-0.3705545308968031 0.08580833666724078 0.6537981545771734 0.4136849506993696 0.5512412073162611 0.5193315511236343 
0.03356323357315671 -0.2467459882622890 0.5688033380913720 1.093297351462974 0.2150460197893306 0.4067896948419180 
-0.1586466893403057 -0.2217854803422806 -0.2100785250777084 -0.2187816957673189 -0.2563794744824954 -0.3640598067469567 
-0.1499453048030866 0.1284972239977789 -0.4636604947731323 0.1684241115755904 0.2473492661506641 -0.3610596146199123 
0.1781410450223489 -0.9982877743557312 0.7019039537892229 0.05112459450362325 -0.4137252759495275 -0.3334245626772379 
-0.9715463008770727 -0.07996094691653063 0.2185071274085018 0.1796849400897291 -0.5401971328098989 -0.3304466465999044 
0.7301149591949487 -0.02739667228264603 -0.3121029821880384 -0.8752060700728361 -0.1348682559571824 -0.1958066275436520 
0.4544686137841159 0.4816190214515666 -0.4290885547291766 -0.005766023956081580 0.2249494261635631 0.2806935622648886 
-0.1557924336260659 0.6240117937688766 0.2911661504354752 0.7310179777438752 1.003018621038764 0.6799969435608516 
-0.4421280560168263 -0.2514774831532995 0.7213447817529748 -0.02000835688201031 -0.2045006892033484 -0.03035312679158618 
-0.3144572558290932 0.5426261681063169 0.007769174608009260 -0.07435757907704063 -0.01954424063753629 0.1758976483986271 
-0.6685685310509664 -0.4300782931611402 0.2822321026206209 -0.2327604558535974 -0.1346530603222745 -0.1445268640816141 
-0.4199014791202062 0.6765073908615015 -0.09142090407188228 -0.01782846970216872 0.4962033418294537 0.2422136158603790 
-0.3531433331249329 -0.7615668828115962 0.8995107790101543 0.2065834189434258 0.3317145995878219 0.07472900083770323 
0.2234809267613382 -0.4113617886308115 0.3737990128195121 -0.1228766426092973 0.2303878423103080 0.2861363903063366 
0.1693178150162874 -0.3083609112712988 0.1682417415859282 0.1597260030682104 -0.3526395183650576 0.03899420647315861 
0.3333635051109603 -0.7438588921661136 0.4310910663420519 -0.2130034486647852 0.06789066072737510 -0.1273967559951369 
-0.1266798977757108 0.5822668252438575 0.4256852872442873 0.1800840073923679 0.4857028290330591 0.4308920109924025 
-0.2504425041709844 0.3251589988055644 0.6993197443314831 0.7184852156400457 0.2746570267494338 0.4704400273794608 
0.2913777023096257 -0.02888798207803449 -0.4063117948357374 0.06258963829279784 -0.4835894131249711 -0.3452371582474113 
0.6335884814892754 -0.7059072679041583 -1.168222345554066 -0.9224076468541907 -1.260509144309872 -0.9708075818633769 
-0.6240585447453726 0.4929653822199328 0.07096941786661362 0.5115061718026923 0.2543836614588705 -0.01107265286769468 
-0.5676283295166643 0.6274572895725774 0.3505986083500048 0.2661213157548956 -0.1070929845962237 0.1879878967884545 
-0.2170246272782118 0.1228563221039933 0.4591064196299913 -0.04494904928810655 0.3519087577321052 0.1742704867097930 
-0.01623501154669145 -0.01365537098308300 -0.1132208887459474 -0.2870960233791029 -0.02983275899228812 -0.1000152514835225 
-0.2439226652518805 -0.3172015230476432 0.7550922483612234 0.4347156077331337 0.1798022792342892 0.2004535944264350 
0.1954101691472895 0.7923121886143519 -0.3870439269707948 0.2562313493069869 0.4757530024498620 0.5473618773167045 
-0.6426011067213637 0.4098107380399472 1.187703407485372 0.1236602081577530 1.049973781075655 0.7053297302370982 
-0.09932493416515834 -0.1992285658510080 -0.2656853611359587 -0.1110810106605831 0.2914957141006159 -0.08058835447636434 
0.003473196845451374 -0.3672928255078107 -0.03217329351566091 -0.04380074307547014 0.01481389444937476 0.07927944943637698 
-0.009002888248563420 0.5254868894230262 0.08984865480905224 0.04939703161263049 -0.02932901164899062 0.03724024957067423 
0.1919368837579909 0.03865106461678333 0.1545292712187512 -0.1215240219325902 -0.3082023685599383 -0.02720525586919705 
0.02031831431013471 0.3456819370907360 -0.6059310871585961 -0.1026229654284596 0.2171657587076719 0.09967622546654478 
0.04721457427582806 -0.03297464063169206 -0.3763599295808102 -0.2707810416641828 -0.1327962009115712 -0.4670076038007128 
-0.3362623604939697 1.120002363211674 -0.8479702953153583 0.7601519331264898 0.2827359557401717 0.4165385057067630 
0.1064021740120330 0.1735284702199554 0.7019937137963940 0.7540985346468050 0.5511764776502891 0.7536474481014748 
-0.07192777751321669 0.1556911131421203 -0.8040995254678608 -0.1456688917426831 -0.2151877608645594 -0.3580647023565513 
-0.3108288396632381 0.1903085112571852 -0.4963756803812659 -0.2107790074806566 -0.1216120914078406 -0.1579813377889937 
0.4214854882815947 0.1675864996898718 0.3351064812366424 0.4268741288384790 1.055458888178431 0.6633202534769178 
-0.3169640883938764 -0.09370419964730440 1.404620085855630 0.5813211505302679 0.4121030946319863 0.6784925452544822 
-0.2440579361712560 1.014084033525996 -0.06611315280756373 0.7057125333643970 0.5050394477235883 0.5330769623461903 
0.3048701150653956 -0.4324231377164901 0.06845949766494105 -0.3485081256606889 -0.4844907149781410 -0.3376083641316238 
-0.6285157743916469 0.6500773925393648 0.1806368664621884 0.2181156478231617 -0.01913322638988279 0.2442535289782593 
-0.1874353246326312 0.2769997197614002 0.1557811510945963 0.7376749187244703 0.6803892956481283 0.5830338696072116 
0.03812808544953659 -0.2092148824076935 0.4337068033644755 -0.02585737153688329 0.7294587628480791 0.3121361161120775 
-0.07983099396921996 -0.4706916592154066 0.5422899999712425 -0.03668273651762603 0.2344213219050479 -0.07507909939746804 
0.2118555380171061 0.2230010241737735 0.1574175496683695 0.7019422873568884 0.1604240653309562 0.4699954912516751 
0.3690186765330353 -0.3890873906490015 0.06951179804598458 0.5177158501854279 -0.09202888875914417 0.1137734205629689 
-0.9918180251422740 -0.05901133007148007 -0.01056530975787045 -0.4854209638790205 -0.5742013397758045 -0.3969791038998304 
-0.2993334197283632 0.3120656287294902 0.3032282568476761 0.2325232581089287 0.5698175913277100 0.3671081316467976 
0.5357122055168694 -0.4092322048777222 0.5836461876637541 0.2482507582573318 0.01225153405921294 0.3691109554822825 
0.2357525189613420 -0.3174719675623903 0.3722027958006887 -0.2096661828058034 0.3039396734095470 -0.02060694416839206 
-0.3836112113543987 0.3273116645111600 0.08221082760032995 0.3690076994115470 0.4259135725577415 0.1550292120206392 
-0.2227932102821292 1.008262098421174 0.4996352366102463 1.333726356379246 0.8468286915170553 0.9111241588416994 
-0.1310004606206154 0.2217339801810384 -0.3915838033765848 -0.2093840256144444 -0.5971302642521686 -0.1398734863718326 
0.2407793210191318 -0.8090150332730263 -0.5242390267346054 -0.4716914409624120 -0.8141155981075077 -0.6744168811301195 
-0.09274009021964899 0.4567255018908891 -0.3592015738258334 0.2806861813568484 0.1067267004763683 0.1433466069883099 
-0.1713580055140709 0.7311961684872212 -0.8920279417679134 -0.09264936764532783 -0.2357678679723420 -0.3091918651877795 
-0.4815714524379037 0.7379496897076159 -0.3847525477184580 0.2637778073795022 0.1867891405723891 0.1798129459710676 
-0.3434051550855910 0.6532136612379360 0.1861532825150569 0.4348733738401295 0.6161122211928177 0.4983436574523636 
0.2258950989725823 -0.2564032221171512 0.3226941209608212 -0.2748821747656294 0.2469334018767130 -0.1077683178858005 
-0.1146617292860787 -0.4912640753909369 -0.1066562501335260 -0.6367601376422724 -0.5366424570554277 -0.4604538929885536 
0.4886454376535084 -0.6230558548648893 -0.4288919969164018 -0.2769759858176160 -0.3406280857580037 -0.3464723607051776 
-0.05101268104969636 -0.4954806123803280 0.1617849461567966 0.01769777064073985 0.1544418163635953 -0.08178771412990840 
0.5495612747946794 -1.108697104822206 -0.2530761484297077 -0.4146304019621107 -0.07024504914069825 -0.4712513042120123 
0.1921147416305402 0.2732189409932526 0.2012372078900483 -0.1629911015457185 0.1241743737369328 0.2417889802498201 
0.04978227085677885 -0.2668490109568367 0.1449110754451594 0.5264412110203050 0.01945011778128140 0.2100477700432680 
-0.1176611871858532 0.1406824336357667 0.2689855924277563 0.6252207982447903 0.3460922041688994 0.2110440740141161 
-0.1755770425936136 0.4992391064418683 -0.4085266322213092 0.3109642870403437 0.02360556858583481 0.1549262293233490 
-0.7676374260232485 0.08640525057907195 0.4060338419629807 0.1359167708717462 0.1710042282616003 -0.1675886048653175 
0.2522793993202161 0.2877745490731067 0.6562069539179213 0.4374089024685671 0.5241750586167071 0.6797547002121372 
0.1846586358463011 -0.5079744436031820 -0.9341024577688518 -1.224887144734210 -0.9480609042821443 -1.151919114289152 
0.4557149263249885 -0.04830494756731571 -0.1017650052771105 -0.3411323812639079 0.06295853290883195 0.04216819264733140 
-0.02743168117272837 0.3784425951883916 0.3209378553877330 0.06354629602511948 0.1602108970147963 0.1854391155921312 
-0.1191207657917296 0.5289369217106289 0.1469238441802084 1.016921653604979 1.018061260748454 0.8152504544595361 
0.2018114033290853 0.7705200748504665 -0.5919162099731824 0.4497109932842474 -0.3607240654982010 0.03083343828552146 
0.8655879659338594 0.2937635727262694 -0.4575777828888364 0.2445573631163737 0.1865672979650670 0.3928779139765484 
0.4664775514386444 -0.2505632179299087 -0.2853935377328966 -0.3751600729750076 -0.5399794944658783 -0.1640296484701092 
-0.4437394555198145 0.09351606822685889 0.3031083473601060 -0.07606730533815510 0.02964793239802091 -0.1364549102644071 
0.4440840449811632 -0.5531547417959041 0.1842956703969675 0.3036715658363727 0.3729272281690250 0.3852714670216256 
-0.1833451460100984 0.1029853794846322 -0.1500415747371132 -0.2401087777012358 -0.6522504870609965 -0.2550535313180593 
-0.2777121556814730 0.3078221212646657 -0.5079221542957430 -0.1732729848871224 -0.7768921404510332 -0.4814603692563501 
0.9709514743795067 -0.2956306500271554 -0.6935766794016666 -0.5534396095533404 -0.4536982698531094 -0.4556141859639384 
0.1982247865523267 0.2912134168117486 -0.0008157702926509698 -0.01128483064710471 -0.2298369323987040 0.1257620677207827 
0.07209160774650285 0.5139181665425288 -0.03022445825214164 0.2360927428972337 0.5652500936729467 0.5077209322422024 
0.4937587320756114 -0.2852019847032091 -0.1333219699726242 0.2915052460764049 0.3941323408618718 0.3451449855554035 
0.3192674869732474 -0.07621442434115970 0.1513036114990377 0.08417374086406239 -0.03282277647978575 0.09445585381128528 
0.4728948319404631 -0.2368435559308612 -0.2368565330177780 0.09830386672597490 -0.2358097655585585 0.1354990224372393 
0.3710117180615957 -0.4534016309226940 0.3899974496688305 -0.3610479070048707 -0.1506267113873424 -0.1524325775690634 
0.08543979879569766 -0.5846133075000077 -0.2187460648643697 -0.6858094145314199 -0.5583350652432826 -0.6787052936034891 
0.3836945532347130 -0.4333112336524255 0.4661981693810531 0.6460768699573284 0.2183822688322825 0.5026352265301405 
-0.2633534737986885 -0.1388629292159825 0.06737415999776573 0.1310061655875058 0.007463525347888815 -0.1741821512753738 
-0.6220984309476153 0.9867395780452362 -1.147532552597744 -0.1807384325234732 -0.7403790871501387 -0.5500975290499020 
-0.2875061871297153 -0.2122811885755483 -0.6127315012366841 -0.5886490232188565 -0.2335437053481171 -0.6343489801525084 
0.6636740943075452 -0.4605423708486764 -0.9128465856048841 -0.6041313007670188 -0.4283893347116267 -0.6144901735703133 
-0.003503935995325456 0.2706952631216931 -0.1238504069399915 0.04377908968263271 0.4994767245898485 0.1134904235253346 
0.02653738211372512 0.7217625687967406 -0.5706840747691689 -0.3253124390519636 -0.1624040685603874 -0.1731341730228110 
-0.6830725448961220 0.6402295936854640 -0.1769271768164071 0.2021365543853372 -0.07753014263356663 -0.09501048753111067 
-0.2963038779262611 0.1279404329782132 0.9785828102313686 0.5465224734556833 0.3418984695845733 0.5880958758399563 
-0.4762474066620311 0.3649227703410594 -0.3623073217152245 -0.3759043807632911 -0.3452148326181992 -0.5186204581245949 
0.02129011088799302 -0.6342079725139711 0.08593407772400408 0.02901429685911702 -0.03598306742554967 -0.1473274995692098 
0.1491893641801924 -0.7079044039808685 -0.3147353444115955 -0.6278845558553395 -0.3979078116197946 -0.5854592186938785 
0.08449717204765722 -0.2842773261125642 0.2534814906999657 -0.2425545047132688 0.3383678995339738 -0.1637670484998222 
0.6125721778617157 -0.02849922434985515 -1.275816533501730 -0.8427904646647936 -0.4278686615368051 -0.4152139981604184 
-0.009368495271099616 -0.1660837955497044 0.01759065583082661 -0.1678668264275627 -0.3089571726450285 -0.3246085380225807 
0.007067267506644514 0.4793170484269740 0.2813161487201003 0.4203834266702668 0.1748379769809136 0.1855499452535365 
-0.2038667908985718 0.005519523308727912 -0.6878020149629572 -0.9480535182763732 -0.4449526419683779 -0.5783308521173633 
-0.06804713207403852 -0.3319772020757225 0.4872675865516833 0.03449431720701979 0.3256382334070407 0.2407525330042553 
-0.3229106688170519 0.4926197130971468 0.03193471691331180 0.2328652467209977 0.5454986647546051 0.4582068614941819 
0.8721515447312137 -1.001336365792988 -0.6490901835267532 -0.5024801484712094 -0.3746227259796914 -0.4532306396972813 
-0.03758864925392765 -0.6901079980683311 0.4805894457627493 -0.2174051677784199 -0.2687916917645946 -0.2662063680013582 
-0.6898429633978803 -0.2012882514474395 0.2084578742097873 -0.03538983613778433 -0.4322040794752988 -0.1907934981093980 
0.4928367807394686 -0.5407635013489140 0.05585208174729536 -0.4780387278586593 0.04165940653510501 -0.05883928604812024 
0.2308943920049130 0.5668568683552405 -0.3744120150879603 -0.3201969918343037 -0.001300849646329090 0.03275521472971147 
0.2916611409284941 -0.007019228864701755 0.1531830893368416 0.3943542725846909 0.5997124732472225 0.4398167100896466 
0.1219543039306687 -0.3789859105390167 0.1757577839450898 -0.07392820530605154 0.01654921210632215 -0.009177762054973533 
-0.2427763348613973 0.5882161871178391 -0.2825632435685554 0.5393542687572855 0.1673783637674668 0.05401940390120644 
-0.3938109541903705 0.4932227949039206 -0.05966258710559134 -0.3511088889061021 0.4263514743665686 0.1233612031175470 
0.7906943562185519 -0.4112344859810118 -0.06483918999207477 -0.2462434993161106 -0.2764795977320388 -0.1065894676310012 
0.3684311643332973 -0.05946714708854863 -0.1536259402080450 0.1691836806509508 0.5010140281621965 0.2649008244726517 
-0.2939996712814797 0.07415999035182017 0.7733369368487074 0.8134490227059271 0.2382423711622908 0.3633300604763140 
0.3288889710486084 0.2182573414530734 -0.4552768807841920 0.04002097410717381 0.1926060872227083 0.01609899913856402 
0.1968349485336880 -0.6928203856496451 -0.8762416538955929 -0.05902022528319527 -0.3869572333324634 -0.6848182027452726 
0.3749406615001089 0.2368600213631987 0.2651825906609094 0.4521487903372158 0.2740229910868360 0.4762597618401456 
-0.08816817674886412 -0.6659683903331891 0.4386863627416266 -0.4097227428557427 -0.1758882985873026 -0.1227696864245934 
0.1712869979635507 0.3049917770253084 -0.04070077771020701 -0.3397360969812465 0.1965939542345463 0.2447825207142338 
0.05053877628352060 0.2210336084432186 -0.2119742073937191 0.2267954527539063 -0.5267114784268914 0.07760237270958353 
0.1268038828881018 0.5489435805932937 0.3175026629426602 0.6967406129047158 0.6346185760994756 0.8367470232389564 
0.8309640508148700 -0.1195719313189643 -0.1901083555661025 -0.004221428791975878 -0.4259404830637015 -0.09294384957334621 
-0.2103413458383702 -0.02484386129882723 0.6341324448892971 0.2077302711108834 0.4159431837827652 0.2241441370179282 
-0.05138359911459026 0.4626499602370778 -0.2349642929857803 -0.3792278142720665 -0.06680836053253665 0.1006914879908989 
0.3997592552936355 -0.03012959487569024 -0.9715943667270176 -0.7758298059597629 -1.307067980704855 -0.7902783665591567 
0.2141194941161551 -0.6370575163027616 -0.8999483267391497 -0.4836804332143918 -0.4843048266866838 -0.6297906937995635 
