solver_type L2R_LR_DUAL
nr_class 6
label 1 5 6 2 4 3
nr_feature 266
bias 1.000000000000000
w
0.7764331638198856 -0.3531441418796061 -0.9605549942061757 0.4589912169723930 -0.6997824084974614 -0.7087520501729200 
0 0 0 0 0 0 
0 0 0 0 0 0 
-0.6098892798234841 -0.1386501742398339 0.7557128244078090 -0.09773295586679483 -0.1310115602841498 -0.02814807087540416 
-1.550421343985122 -0.6961881788659491 0.5767297006477570 -1.254106612254633 1.553031118977557 0.04924069625870532 
0 0 0 0 0 0 
0 0 0 0 0 0 
0 0 0 0 0 0 
0 0 0 0 0 0 
0 0 0 0 0 0 
0 0 0 0 0 0 
0 0 0 0 0 0 
0 0 0 0 0 0 
0 0 0 0 0 0 
0 0 0 0 0 0 
0 0 0 0 0 0 
-0.1844019090664191 0.08593511771331483 0.2469667270552453 -0.2192142551640862 -0.6699586203571303 -0.4804459106012017 
-0.1539262264774393 -0.4858545589945443 -0.5451575290139359 0.4889872985316198 0.3530294068693017 0.3189578578194517 
0.2147763268901052 0.2671600653483134 -0.1233464446405823 -0.3867396190946665 -0.04742570989201328 -0.6753904016248536 
-0.5533624085658475 0.2141338635010373 0.1594104575924922 0.1756385060474806 -0.05714784323942659 -0.06531426978127760 
0 0 0 0 0 0 
0 0 0 0 0 0 
0 0 0 0 0 0 
0 0 0 0 0 0 
0 0 0 0 0 0 
0 0 0 0 0 0 
0 0 0 0 0 0 
0.3711286349496873 -0.1597960317625064 0.06482538542834822 -0.1598584448258352 -0.2535432069855782 -0.4008159110459558 
0 0 0 0 0 0 
0 0 0 0 0 0 
0 0 0 0 0 0 
0 0 0 0 0 0 
0 0 0 0 0 0 
0 0 0 0 0 0 
0 0 0 0 0 0 
0 0 0 0 0 0 
0 0 0 0 0 0 
0 0 0 0 0 0 
0 0 0 0 0 0 
0 0 0 0 0 0 
0 0 0 0 0 0 
0 0 0 0 0 0 
0 0 0 0 0 0 
0 0 0 0 0 0 
0 0 0 0 0 0 
0 0 0 0 0 0 
0 0 0 0 0 0 
0 0 0 0 0 0 
0 0 0 0 0 0 
0 0 0 0 0 0 
0 0 0 0 0 0 
0 0 0 0 0 0 
0 0 0 0 0 0 
-0.6676439785263700 -0.8239232010774074 0.09572435197654780 0.7233984178068686 -1.628504230895519 -0.2081939869210245 
-0.1663476844608335 0.4225238550138318 -0.1599948155926467 0.1200193945127219 0.1077112099632908 0.2010946278877097 
-0.4921842585276554 0.4254237020924346 0.1715952899506928 -0.9535760165605174 0.1220412482671100 -0.1778096435910507 
0.7007404200397727 -0.4502283283541918 0.05554880401069304 -0.3979634868334351 -0.7464586772837597 -0.01928316558121403 
0.4620687415601236 -0.5662652414338950 -0.2775752146252195 -0.09588484465091508 -0.1633971187730846 -0.04456305848467567 
0 0 0 0 0 0 
0 0 0 0 0 0 
0 0 0 0 0 0 
0.3271351553792282 -0.8166231333924605 0.1095969680958175 -0.5289266481552798 0.1995796865954732 -0.7974111974176163 
0 0 0 0 0 0 
0 0 0 0 0 0 
0.1322384353379147 -0.1099868157863653 0.06088584972891566 -0.2883677177954038 -0.06760159238102227 -0.02001024914615064 
-0.2665261053688032 0.4094363691319659 -0.2615056531270523 -0.6283154505315540 -0.1427833208114650 0.2088238372482158 
0 0 0 0 0 0 
0 0 0 0 0 0 
0 0 0 0 0 0 
0 0 0 0 0 0 
0 0 0 0 0 0 
0 0 0 0 0 0 
0 0 0 0 0 0 
0 0 0 0 0 0 
0 0 0 0 0 0 
0 0 0 0 0 0 
0 0 0 0 0 0 
-0.3765893476156246 0.3990820534848464 0.06194950208695739 -0.01108220757692586 -0.3382042352391245 -0.006178669403431832 
0.3462238959723229 0.4266385544499590 -0.3078940053943865 -0.2381964385078228 -0.2586013133606477 -0.3161376657584802 
-0.7227589609847824 -0.4450695811552534 0.04044355979838080 0.4252253514318284 0.1303160693629433 -0.3496205070612033 
0.2430945777755629 -0.01240708899915562 -0.8493793143840567 -0.1341312972278654 0.8425273740646632 -0.001106148521476756 
0 0 0 0 0 0 
0 0 0 0 0 0 
0 0 0 0 0 0 
0 0 0 0 0 0 
0 0 0 0 0 0 
0 0 0 0 0 0 
0 0 0 0 0 0 
-0.5751213771910703 -0.3569507195176341 -0.05692264437869238 0.6711884411469771 -0.02113030949067245 -0.03475402123273977 
0 0 0 0 0 0 
0 0 0 0 0 0 
0 0 0 0 0 0 
0 0 0 0 0 0 
0 0 0 0 0 0 
0 0 0 0 0 0 
0 0 0 0 0 0 
0 0 0 0 0 0 
0 0 0 0 0 0 
0 0 0 0 0 0 
0 0 0 0 0 0 
0 0 0 0 0 0 
0 0 0 0 0 0 
0 0 0 0 0 0 
0 0 0 0 0 0 
0 0 0 0 0 0 
0 0 0 0 0 0 
0 0 0 0 0 0 
0 0 0 0 0 0 
0 0 0 0 0 0 
0 0 0 0 0 0 
0 0 0 0 0 0 
0 0 0 0 0 0 
0 0 0 0 0 0 
0 0 0 0 0 0 
0.5013001181484684 -0.9643058662075523 0.008269902412480850 -0.6973192771359961 -0.5488042588685521 -0.2530461212930597 
-0.1352011995566653 -0.3596956085359793 0.3411336497304425 -0.1489571984313671 -0.3502188528753398 -0.2603010353671399 
-0.6413572072270027 0.6862602063925982 0.4073550036156269 -0.5671005752159339 -0.9009946040022795 0.03843482660619538 
-0.8162485050450317 -0.4414125105009716 0.5383340828477987 0.3540894092938249 -0.4676999922715202 0.1331444655060563 
0.1307807182018836 -0.6738391123029970 -0.03238235804119845 0.1938522073257247 -0.3378010428533352 -0.5812608008728780 
0 0 0 0 0 0 
0 0 0 0 0 0 
0 0 0 0 0 0 
0.1149785359051539 0.1721662647990964 0.02145728117403779 -0.002509620427969650 -0.2355505714206855 1.016170388222302 
0.9666004779458057 -0.1101748188219410 -0.3458563577267473 -0.9324898438877440 -0.2113294311685579 -1.143339371054686 
0.6984256108677300 0.1115059314303393 -0.4751030063238829 -0.4869945470136647 -0.5286084729917742 -0.3310675367127503 
0.3695883070669691 -0.2302359391559541 0.2697303720089826 -1.447275403878274 -0.7318912160676729 0.9893456122565666 
0.5478281151123454 -0.05380929496207801 0.03604591355060652 -0.9931761086069393 -0.1279089302965820 -0.8076831465695535 
-1.233233526476692 -0.1732932663024734 0.4757259731400193 -0.8083921444271973 1.083170394293232 -0.1635658933450301 
-0.06572335378208786 -0.2006494525291146 0.1421052982228518 0.3391740206278010 -0.4321425998981893 -0.05329905179326805 
-0.5238480409781320 -0.4516710675107405 -0.6402345201473068 0.08962859138094639 0.5682628563389059 0.1796577971369658 
-0.07510428085327292 -0.007040641562699616 0.3486339153771166 -0.04512817518012041 -0.8096876749591380 -0.003385045421179818 
-0.03851279051949345 -0.5605115405290930 0.4067734779776375 0.2497828455508592 -0.6085669957598195 -0.4222287154835634 
0 0 0 0 0 0 
0 0 0 0 0 0 
0 0 0 0 0 0 
-0.8018378457650062 -0.8940693612044387 0.4660484292559814 0.1523216033323590 -0.1990531904389980 -0.04011495135453211 
-0.4791785105655007 -0.6906650240396515 0.6761305753785463 -0.7106225604211261 -0.2604041187403807 -1.290191550919163 
-0.2109325749100916 -0.6942830203753901 0.9678391512838644 -0.6445563693438829 -0.8581530169892782 -0.7989186814145622 
-0.7133438903487260 -0.2834412999925656 0.6106501334625036 -0.1094845308675018 -0.5730417011090291 -0.04364401922809783 
-1.012214839748481 1.078168008046200 -0.07933762445726822 -0.4596331574060674 0.3883369649803963 -0.1605786582159619 
-0.1587003251679412 0.1158948643235511 -0.07560239058135884 -0.3648834002404124 0.1310602127771641 -0.1602348931188806 
-0.4771013343965860 0.9630272997352083 -0.8575213868256575 0.4865525434063672 -0.3198708143769283 0.2171918597081644 
-0.2098836799587637 -0.6814257109728180 1.063592426477570 -0.3685371730987166 -0.03045133903509022 -0.02894108439967809 
0.5658319004296908 -0.8060462687843104 0.4278214926088677 -0.3277531269049363 -0.2954675676892085 -0.5408478080018392 
0 0 0 0 0 0 
0 0 0 0 0 0 
0 0 0 0 0 0 
0.001508145434343322 -0.2363289559666169 -0.02715639250117699 0.2309035607129169 -0.2998210741151230 -0.2533526235164504 
-0.4135256213711265 -0.9712471513711521 0.7438996968555350 -0.1284199633676225 -0.7015060358544529 -1.520451671171941 
-0.2378000115726642 0.2035205822624949 -0.2463150281289989 0.4291052842092762 -2.249155228915492 -1.019160868209167 
-0.8388507417891817 -0.6163588176803856 0.8047941315616852 -0.5683857768927747 -0.6436163759769613 0.9592596191218479 
-0.6065339840079600 0.4686122914481576 0.04753623751613667 -0.2556900103361105 0.07217711281490305 -0.9053301539760115 
0.2410292541880609 -0.1305245047616613 -0.1978248520064121 -0.1999338443753895 -0.7613129080202454 -0.2633196241159611 
-0.3740116426117249 -0.3040758158236172 0.01219554283856868 9.303398396209991e-05 0.09428695646411564 -1.045132993659633 
-0.4234949973401848 -1.230494183858309 0.05712620254990483 -1.048421122272519 1.155788709907791 0.02914458538346126 
0.3866323209600593 -0.6495528045256799 -0.4176276913398593 0.04519103430374721 0.07041534159502554 0.005116148741767989 
0.2400912564340960 -2.492701584762093 -0.05483685787572785 -0.2633028184469279 0.3314363248244248 -1.330691592988406 
-0.2128506003552277 -0.06154051785020064 -0.2865282384033007 0.2990203775096765 -0.2272477113469718 0.6035328077261893 
-0.2582881174964674 0.08709093260722539 -0.003993777469868204 -0.2293676418359993 -0.02032670881203464 0.02087303140052290 
0.01930670622787232 -0.9655396293069864 0.002032876992551377 -0.1333624544639870 0.03448485082204070 -0.1611188450180642 
-0.4660160817459810 0.7125999604179407 0.2248320011882635 -0.9781030023553505 -0.4547437415637031 -1.133640415425594 
-1.291600354113532 0.9149142981169094 0.3819671223248534 -0.3339986938289610 -1.646611222288155 0.1715658200822137 
0.1163273888756368 -0.4536967121617878 -0.2035885837657379 0.04107283204175397 -0.2784081837664708 -0.4099440924905718 
0.6575128208100697 -0.3621349816144835 -0.3070140141526160 -0.5247359048385493 -0.7224898954690904 0.2635677156406771 
-0.6816758066135682 -0.06192504168760062 -0.08613559274986698 0.06021103299922258 0.6793445568618355 -0.4355858402795022 
-1.123006921021547 -0.6125016979865889 0.1525573114951260 0.5298854839705638 -0.8319624943295701 -0.3070900232522398 
0.2720081178151838 -0.1805401255420778 -0.2657718976473568 -0.02241003380548439 -0.1746786113461440 -0.5379644227473206 
-0.05290837020564029 0.3043100185202242 0.2724458295729283 -0.7397212428195048 -0.1076946666427528 -0.5773239352467975 
0.02115183531107901 0.01558526120997647 0.003451015000007857 0.2963524944418280 -0.4511940387851408 -0.5993530228040667 
-0.1334366683272433 -0.2679196540878838 -0.1117922351544998 -0.04178151158070517 0.07669800890147245 0.3029537096096244 
-0.6034326547790054 -0.1791523273807428 -0.2829771617417293 0.8404579437258657 -0.03449569000992173 -0.5657343302528425 
0.04001694041607586 0.3381664406331921 0.07099554777577527 -0.8634578386861484 -0.1043927932639715 -0.1652310060824229 
1.408615242648490 -1.035260852887576 -0.2974424684866474 -0.9970188951591097 -1.261890713543639 -0.3855346353208445 
-0.6461213930402999 -0.5593022483997161 0.03372970608949633 0.6170468265102932 -0.09014748539439305 -0.4424874275094755 
-0.2231520164832103 -0.2230974633079717 0.1890251830606891 -0.7249858951814020 0.4368797292882997 -0.6457381053411618 
-0.3538918849776104 -0.2619176799407926 -0.09048992242743573 0.7713631621401080 -0.4232303160327654 0.1591844106820043 
-0.6002466261431773 -0.3146459638166227 -0.05094238271203211 0.5982145173795985 0.08202888897423635 -0.2323482163984124 
-0.5324631611074773 -1.279412227094271 -0.09906010994048589 0.1087367068597547 0.6049961917707919 -0.4312400007343450 
0.01962919320518812 0.5370307112575111 0.06578219456771323 -0.7510555322003468 -1.709915906248462 -0.8989937607219793 
-0.1579022769598322 -0.5244857570673527 0.05451161838839330 0.2860162430404923 -0.1145643851311061 -0.3258096912855829 
-0.3696187473695518 0.1017410517156746 -0.3634932866519005 -0.08589709933252802 -0.3124930412006186 -0.2347523663377098 
-0.1039008523651350 -0.1447531377125969 0.1461202286371789 -1.164952054423519 -0.5773439272513792 -0.7853617626256238 
-1.181397519528962 -1.660759828844466 0.01955526473324563 1.094644672256325 -0.1518490228642472 -0.6984258033423370 
0.3364711609587538 -0.1182383263179978 -0.6342124535121385 0.8539680331116826 -0.3905426670912933 -0.1118711414221034 
-0.02938518142340019 -0.3114588022251807 0.04043546169982552 -0.5420408302152674 -0.2755127627752376 -0.6822306028331008 
-0.2042532483851361 -0.4200953240322489 -0.2209316215415912 0.009148585384695688 0.4949949951283982 -0.6351803191625488 
-0.1776322499539368 0.2080746044291812 0.1066910214482603 0.1443366583579422 -1.157475483237829 -0.7240691697834044 
-0.4574079944328862 0.04617616527844095 0.4023924916469218 -0.3954875626901591 -0.06847833765158179 0.7793209228967274 
-0.05516400255466143 -0.06808548156645544 0.2013273315788685 -0.1396228474391485 0.1887587767037735 0.2613277665502375 
-0.2405531498384789 -0.07078258517056753 0.04618576486828467 0.1061424529383470 0.2417525612895180 0.09559444468809414 
0.4727963389756091 -1.055399667343772 0.5961343969889630 -1.707506937662385 -0.08563980944138307 0.5090304797364056 
1.026464041103742 0.2610658134822552 -0.9824644443739956 -0.01324282723536338 -0.1037805783298257 0.5589888636617520 
-0.3245943944526560 0.9927874927532141 -0.09443054461302935 -0.7101894328911742 -0.3309315191802936 0.5669517771417256 
0.9103843680655705 0.5560318714464288 -0.7006372627631178 -0.9151984700334975 -0.8873576752493496 -0.2280584953889990 
0.06363040177460468 0.007277783747822102 -0.4679226011340212 0.5026155300271290 -0.3241680424997591 -0.2061890623782032 
0.2005641009377240 -0.3653410466127309 -0.2763189207166628 -1.307231981070052 0.6503209876123048 1.736674268032727 
-0.1954274831002303 0.4019344675804800 -0.3980525673698897 0.2392431657594497 -0.6283280312781642 0.5246904338788095 
-0.5734233892658066 -0.6361477957210718 0.5800831626014725 -0.9963754560983701 0.3950260183142432 0.07870434399045767 
-0.1259022991164144 0.2353014102040715 -0.6089630161607671 0.4448888501590534 0.4558602633885586 -0.2775423443752381 
-0.8733808264244184 0.04645619499118735 1.192114901187712 -0.7070117543798881 -0.1501918568423851 -0.1910437473137842 
-0.6611878273372457 -0.1717026917110365 0.06906471930364700 0.3379683102182983 -0.05387075721560689 0.7045837953038450 
0.4133322491660816 -0.1309066147081043 0.3652982725366962 -0.5815337134227467 -0.5798998611002366 -0.1199305001886614 
-1.074545037790431 1.324997633551954 -0.3132263349276385 0.3727108216469515 -0.1474026089715605 -0.3093076049663163 
0 0 0 0 0 0 
0 0 0 0 0 0 
-0.1365691787218363 -0.1759402031163696 0.6003750226462772 -0.3167512440960045 -0.02460307553759246 -0.03186394570463642 
0 0 0 0 0 0 
0.5202514556313558 -0.002969406769179383 -0.2853927553811156 -0.09749874726367518 -0.01807953928504144 -0.03716471985814093 
0 0 0 0 0 0 
-0.3635805070472178 -0.1388370764388924 -0.02760048192891879 0.09092285777912298 0.2867628333738511 -0.03257856304418434 
-0.7160542225371831 -0.06925504082579342 -0.7438464210059432 -0.7555505649666980 2.010985211532573 -0.03641853546323462 
-0.4440108334793488 0.1561291705805681 0.1255277848605382 0.3130654520358054 -0.5690854604058287 -0.09651468087685248 
0.2424715258375224 -0.1930465214490517 -0.008935635682269669 -0.5357257874243456 0.4352339187740161 -0.5194395059288285 
0 0 0 0 0 0 
0 0 0 0 0 0 
0 0 0 0 0 0 
0 0 0 0 0 0 
-0.3306143908744842 -0.3272410192462273 -0.4621479055497234 0.4063410276278050 -0.01362275818824251 0.8449202146133005 
-0.2839971705649697 1.335743794409619 0.1231649726677130 -0.5337431435320509 -0.2612407359981954 -0.3833083080179423 
-0.6612779024790271 -0.6783590931965012 -0.004722497620742755 0.6610409744209131 0.4039118145676401 -0.02341252039568567 
0 0 0 0 0 0 
-0.3985067817680962 -0.2730451966148486 -0.1272916825985296 0.9272239219892966 -1.022202077455638 0.5042971922802524 
0 0 0 0 0 0 
-0.06433542538624192 -0.3396466643118904 -0.2028864345049484 0.4259257721482679 -0.05029195977139015 -0.1996671193667707 
-0.3874268816921435 1.571907129296197 -0.5207323919320561 -0.3800152330385790 0.2588512555079035 0.03785969311676993 
0.2612674292068356 -0.4488966474534469 -0.1199302680502236 0.1126382724646410 -0.1107072389479891 -0.1941074375599120 
0.2555776488971862 -0.01931337549940820 -0.5344915074944674 -0.09587090366253832 0.6420952503906172 -0.008212610704105686 
0 0 0 0 0 0 
0 0 0 0 0 0 
-0.1256643170802433 1.295352488970450 -0.5059768083848998 0.3339225857055742 -0.5713540452344490 -0.1229758661924528 
0 0 0 0 0 0 
-1.303466006867898 -1.165754688063729 -0.4582252578380489 2.185711553775426 -0.7570415358397306 -0.5701032837197573 
0 0 0 0 0 0 
-0.2692262670231246 -0.09490569156963978 -1.370421560002215 1.863830437766057 -0.1458752756864056 -0.03724891668466606 
0 0 0 0 0 0 
0 0 0 0 0 0 
-0.1304347344749060 0.3000008432920995 0.05465878332099797 -0.3275209786596142 0.2776411395407414 -0.1288087502322840 
0 0 0 0 0 0 
-0.6707222740127077 0.6736208506077268 -0.1456684820314146 -0.7179778111481825 1.145834100529691 -0.03085947717472332 
0.6608682454711270 -1.127643441238796 -0.04782110732865076 -0.7858387777063097 0.3065855623238763 -0.2281278644422810 
-0.02437956339435847 1.926758039029562 -0.5899138954370726 0.04253834836032245 -0.7293297805742552 -0.04135660908309301 
0 0 0 0 0 0 
0 0 0 0 0 0 
-0.007221720468782528 0.6209428969531655 -0.2281323897510752 -0.02894752741432634 0.1113519347649905 -0.09673522466549288 
-0.6174033663254207 1.084939226668614 -0.1143746094364282 0.02683810523651923 -0.1922603903652631 0.8107126875002968 
0.7122635194944942 -0.2796763993635810 -0.2423139347732294 -0.05820975551937027 -0.1414209452628657 -0.04906655166305050 
0 0 0 0 0 0 
0 0 0 0 0 0 
0 0 0 0 0 0 
0 0 0 0 0 0 
0 0 0 0 0 0 
0 0 0 0 0 0 
-1.054683512205560 1.040113915360828 0.08342999022256509 0.2913968362395144 0.3354709571748104 -0.5106194223299344 
0.7161890212779859 -0.7717606390510298 -0.3830713737459754 0.1854146649625342 0.4258135753079417 -0.8002645831536798 
-0.8998838923924996 0.5153856318616914 -0.1724773528406503 1.118630271352496 -0.005374775823194164 0.1034819981753027 
-0.07311858826137954 0.4030331776539263 0.09874182394029046 0.2833483169297465 -0.3470777303561122 0.09991333364156585 
0.009502964208233190 0.2088232003431143 -0.2448805634241740 0.2016230907565230 0.3603153180473452 -0.01931076430079974 
0 0 0 0 0 0 
0.8976690831563512 -1.631286633415007 0.8289331726391774 -2.029477453559283 -0.4206216029772922 0.01014405777297681 
-0.1935029139000446 0.3177340491722541 -0.8315509571517179 0.7043576268422835 1.176217098890050 0.06923904029597150 
0.02572822249478619 0.05905180192515855 -0.3715436247066905 -0.1300524688273419 0.3176279085705087 -0.006984452462678566 
-0.1406095436138362 -0.6510738374323839 0.2738525151869619 0.2131500823820514 0.07345154809789050 -0.8585353057943000 
-0.7272098887395775 -0.03841043378121219 -0.1795368176880584 -0.9109415962238886 1.615376900312964 -0.02261180559587380 
0.3187514011514042 -0.3082392889194269 -0.7292532134684637 0.4852847741972559 0.2996067484984245 -0.1169729005553415 
0.3115371560451197 1.073303965323819 -0.1408434759635127 -0.6820100684241831 -0.8450654967310183 0.5294205657038241 
0 0 0 0 0 0 
-0.01386934404653055 -0.7784364006238117 0.4253594443927172 -0.4765814235503930 -1.793537104533517 2.231808319307455 
