solver_type L2R_LR_DUAL
nr_class 6
label 1 5 6 2 4 3
nr_feature 299
bias 1.000000000000000
w
0.1805012235668525 0.09491528498813391 -0.4500505954229607 0.09987640537480715 0.3320956975148109 0.05431331087161798 
-0.2314519160911092 -0.9281443366632857 0.8842003523645040 -0.4467703457819836 -1.326141715235010 -0.5850196472544626 
-0.2458645828609881 0.01051278350889496 -0.08270074881718757 -0.03719698877161278 -0.01485137131809810 -0.1416505535597887 
-0.4449468653512665 0.4299101652311009 -0.1023139176041790 -0.6060197900078752 0.9268485255852623 -0.4694305305359173 
-0.3034607713614634 -0.1459544470979280 0.9770736426536902 -0.4881008255403874 -0.4738572178447197 0.5983278394307133 
-0.5959234683134261 0.7303765061394666 0.03309081000048439 0.2104511100520856 0.2228933111263600 -0.3472178094739049 
0.03642375369126555 0.2910073111759444 -0.2494134431893887 0.4660257990798317 0.1680827224155852 -0.3026466705208270 
0.2214292952181639 0.1132596270637336 0.2831107698433195 -0.2067469260362591 0.7119854615683071 0.2248816335873704 
0.1848764800255686 -1.256474829353767 0.2188050112688798 0.04684190372198425 -1.600095782589430 -0.7826564294724913 
0.5599660674301383 -0.4223752455755323 -0.3437450233757401 0.3565249267222889 -0.5689227000577044 -0.1249822328722150 
0.7615059272558549 -0.2734186801878361 -0.4223237003873416 -0.2652328261951102 0.2291141248371071 -0.6001625504016955 
0.4402656352486117 0.1406423074051526 -0.1081945800249434 0.4470328219854116 0.2814424551811674 -0.2993984185222350 
0.2300464083882750 0.4942913563768526 -0.4375285646721435 0.4722446956525561 0.1307682469138682 0.06485624609317690 
0.5690304365717390 -0.4238762990653020 0.03089369039452937 -0.3816466796735674 -0.2016406316488642 -0.3789353478754975 
-0.1375427538098994 0.3683088036368777 -0.2819574617990152 0.6876926345274248 0.4683545069568968 0.8661830810166253 
0.9174776912273083 -0.7993295196586990 -0.2096882315230889 -0.7941816811108316 0.6259597485611245 -0.3046662797399100 
-0.05932261618741307 -0.4423664563043612 0.3771283754148697 -0.4705283823350903 0.3079441912030663 0.02355380764305370 
-0.9232153202277590 0.07279289349696194 0.1562321571220958 -0.3702223397159021 0.2611003326594747 0.3144452682943525 
0.1731418258544716 -0.1029690639731185 -0.1686234007517656 0.5111415458030590 -0.02852280687435991 0.4709783266333460 
-0.03524776650378578 0.6169738103960369 -0.3419135073681243 0.1978900972225643 0.7143182788162720 0.6660541698003313 
0.5084267160208717 -0.1495753033084618 -1.172086981414106 0.9905678217712667 -0.2366754440189398 0.4971890681397930 
0.004609651976122980 -0.6278136313610059 -0.1519989769383257 -0.1896019932470320 -0.3965861837296583 -0.5591954420750394 
-0.5225082992548842 0.1171769494607133 0.7886041464803242 -0.03053980969845948 0.1500288974856061 -0.2187547561228851 
-0.5282267618862196 0.3048443913902420 -0.2203785975548281 0.6959164919888998 -0.2423679017500027 0.5105593731072308 
-0.8106321607815224 0.04252248486394606 0.1458382479267892 -0.03977026286992055 0.4967628227281802 0.3779915691499211 
-0.02819102969216398 0.01564202070113646 0.4511933955974600 -0.4567682449996722 0.3349396377880480 0.4332521375484491 
0.1473483237365597 -0.02073547135876579 1.030318725043981 -0.4829082622283675 -0.5233387154705406 0.07014311990048318 
-0.5864814353794079 0.3238874627205341 0.8557521846127092 -1.127336099993820 -0.4881206564684901 -0.6720594056001338 
-1.113989892802089 0.2999773548125668 0.6639986191545169 -0.3208353315381052 -0.3080012579102230 0.6565121654406757 
-0.4564147556052859 0.3511405136903224 0.6994164079634576 -0.4114744433164447 -0.2367066958729479 -0.3838728791939193 
-0.5488033072669823 0.5834689538975030 -0.01183323099000743 -0.8371045843812274 1.195312701341619 0.2434629511005174 
-0.04076308467472742 1.035154423742390 -0.3988322278025202 0.8410380503706930 -0.3597401798100396 0.7060829758768061 
0.3515842765637854 0.5913761045032720 -0.7862771205792980 0.05178438518433987 0.6783056789323718 0.2801912066242008 
-1.108326217143540 1.248605600072187 0.2801569743570080 -0.4202378357214691 0.6781653183219280 0.04387076662861150 
-0.6110757789225695 -0.4827948981005373 0.1549402946756595 0.1167619793756734 1.228817171414579 -0.01852134576429692 
-0.05194610516808065 0.1500028711517993 -0.4478212173921173 0.6595626513847108 0.008549202293912756 -0.03875456643721952 
-0.5029965367538173 0.6545196913626938 -0.6887984037685914 0.1701298984756582 -0.2069986554610620 -0.2724982143308067 
0.4004992794688979 -0.02996637724482260 0.04120029239911104 -0.4222016868079663 -0.09185365904224409 -0.09518675707525445 
-1.005750671952513 0.9737590973130288 -0.1379102104737066 0.02754513171351667 -0.1095640000105524 0.09406990448912882 
0.6499562428690497 -0.3006575144399067 -0.6613885903175092 0.5549260719134870 -0.7694410637088555 0.3378587864005976 
-0.1688143324454764 0.6878182490698135 -0.1895624937123984 -0.6150086686973898 0.1968914616214495 -0.2258738769604283 
-0.2470255876388433 0.3693767349825870 0.2272623567009354 0.7482776610390143 0.007131470619794749 0.06705142607641265 
-0.3917824983673136 -0.4302609467860293 0.1897391224713208 -0.1117634951569987 -0.2559957542020536 -0.6875582139860918 
-0.1039302719507792 -0.3173468938636242 -0.2500047256629547 0.2565929527430618 0.3639125159920071 0.8709091110241907 
0.2103739441652984 0.5646032907051116 -0.002253664218050535 -0.3284565878036128 -0.01461875906516415 0.3397411285749493 
-0.4315279737178136 0.4023998614069121 0.4790265653662583 0.3514311241385952 0.6812143343075358 0.2975951631860077 
0.6500918973843784 -0.04244001063396987 -0.7508657752408153 0.2786620405370388 -0.04377008411612548 1.098790069401120 
0.4546004857330398 -0.2917410223005374 -0.6467420696423326 0.5560202313002077 -0.5899490724940287 1.056316150845222 
-0.2118451271066044 0.2874721708222618 0.04632495406698277 0.03987657885915770 0.2173070123157579 -0.2849713100355135 
0.4655671001706194 -0.9463783358380509 0.2133444865956060 0.2243689117219005 -1.038368097583878 -1.050501209839640 
0.1585303226838662 0.05383830584822993 -0.4492381290393520 0.7369704840265754 0.3740521958184885 0.2747335627233892 
0.1490860325637885 -0.02959188988742433 -0.2623605531606962 0.3778627606669024 0.2289542917614066 0.2801244710268651 
0.7417390282002871 -0.7053171617545020 -0.5875341000564188 0.5514415882492377 0.4571817861512504 0.1065205679574306 
-0.6357979970912430 0.09490915907514501 0.0002299897157936419 -0.1122694102063136 0.6614584159425504 0.7278355547458271 
-0.09190455573287004 0.6329655710362015 -0.3100850281760904 -0.7183334135800588 1.549732158080109 -0.4568738135200921 
0.3005310131991356 -0.09151940289117556 0.3484723443512217 -0.8248628337909353 -0.1853709048873551 -0.5230535903212467 
0.3894285577731945 -0.09831279027774069 0.4518912972814743 -1.350487234926343 -0.2321335048432312 0.4029513560989841 
0.1033718447978781 -0.07317879907873863 -0.1831997974460531 0.6732731063003408 0.3848587450235683 1.137699663714524 
0.2843069574075992 -0.2336665941268710 0.1701034977858862 -0.5841629015534396 0.3371258457344619 -0.2796876333403436 
1.028646342139520 0.6033091003949416 -0.3976013476359686 -0.1506655696386714 -0.3745699299647988 0.5467412226596549 
0.4739548635161357 -0.8590369016001017 0.02490983934027288 0.4123200530766086 0.2057475297688064 -0.05536768024991613 
0.2478598727398939 0.2376148141563225 -0.9134268079418121 0.3494489773928414 0.3292510959874261 0.09097814616468865 
0.9729633283575932 -0.2902573745479928 -0.5061644888879291 0.9074144531516385 -0.4404726736412145 -0.04734953518087886 
0.1321358018889480 0.8394169128108564 -0.02081791520328569 -0.4798078650013160 0.3515167088692076 0.6168903686258365 
0.5054730865018126 -0.4291498217832538 0.1819786434670473 -0.6657277735063498 0.4196095457280002 0.2421606688613520 
-0.6663946706438464 -0.2682060967362206 0.1982533457030060 0.9098552062756695 0.01614684801213653 -0.3009403424138358 
0.4850433051720361 -0.1087837669300800 -0.2713027334544635 0.4131927767300684 -0.6343999342195336 -0.1876720998064431 
-1.267912168395436 -0.9289262781987500 -0.1043632693275313 0.6347016718852984 0.1938112069928837 -0.1707554545808724 
0.07237035291332461 0.4672518047109670 -0.4464678627168089 -0.9314375623975119 0.6502785162344965 0.7543834259587788 
0.2493258793047394 -0.2191058728683974 -1.075441415657662 0.3741512993122316 0.3094360980154493 -0.6332086461102697 
-0.2096394348311421 -0.2277554470747644 -0.01401772201936017 0.2946871166925971 0.02106834585978301 0.4198373736546494 
-0.4987452671095652 0.02361877516258637 -0.06269230131705203 1.088706295311746 0.1163086111662434 -0.4722386815504813 
-0.5624263546119024 0.4635641311826382 0.5680438033140014 -1.158809129006760 -0.6942320519901422 -0.8328324746587503 
0.9085196605425465 -1.016479518615332 -0.6953503950057897 0.8380746341172621 -0.6612824007312106 0.1797535869850663 
-0.6364455147123429 0.01372362771559788 0.6172581920456620 0.1816718333008393 0.02463899698901706 0.4882148313996129 
-0.02249891508759838 0.9657706136659282 -0.3816979145788902 -0.5205226674720773 0.6598670690643412 0.1867932047038518 
0.003306240794623997 -0.6473606812062885 0.1321243881451551 0.1756995236498724 -0.8550363435438847 -0.6675056041594462 
0.8394464861008181 -0.1384119065651728 -0.5434114707777168 -0.2561966612252462 -0.03270166246258915 -0.7425615923082975 
-1.336488640812278 0.2164522837716584 1.661795464336537 -1.327409092865239 -0.4047446491220078 0.005612187243517673 
0.07273330262135880 0.02500060283390972 0.4042883439248681 -0.02395838347653283 -0.7403497841717341 -0.3730694309990622 
0.9368141839355602 -0.7412426727231052 -0.2420486155295600 0.3769167407183445 -0.6182822363313930 -0.1825799527811687 
0.03106311375910169 -0.4593750069011866 -0.05665131773734384 0.7778802812341579 -0.1673657147198916 0.2906363476344789 
-0.2389991711574348 -0.3483347010602635 -0.1426597970875974 0.6091810401840084 0.07095978215101632 -0.1716420772093128 
-0.2579050173798450 0.2354646872359450 0.5438012723688448 -0.4027822556717504 -0.5228864394234544 -0.01963084957478726 
0.04099778073079200 -0.6949982134749326 0.1074347752404984 0.2820489915405094 -0.4087645279794755 0.1629502608610394 
0.4175988448941886 0.09493334064960635 0.1773545424089063 -0.7639993196237865 -0.02607459597564893 -0.1123722609193065 
0.3464946466392819 0.4811452155235106 -0.2878494993680636 0.3181934011865250 0.5344214294068909 1.116736037172109 
-0.04314895176561642 -0.07916866692392663 -0.6694992420994827 0.1846278446395496 -0.05469894554512776 0.4171183022112575 
-0.07968735318346610 0.1933403864444072 0.1866231064510996 -0.02335604585979749 -0.5206039913243191 -0.02238220518112898 
-0.2202322262524044 -1.046386964373713 0.1160214464839117 0.3318525110328272 -0.3532437639279449 0.2819341126570671 
0.3151535746078094 -0.7513208178977765 -0.1386649620171674 0.3533928741138218 0.3165849231696650 -0.5162886279633299 
0.7811103959492280 -0.3777868622388384 -0.09962974577038074 0.1077237735248654 -0.2731339906844840 0.6930447997988057 
-0.6925982278681849 0.4012444600784361 0.5730326853384214 -0.7340466436919484 0.3525326541016866 -0.3531886469441221 
-0.5093641672459854 -0.02354738104152663 0.1252046257383930 -0.4860721432186595 0.3863987238814849 0.1012508742460140 
-0.4687737825677327 -0.8997375005692121 1.115992863420950 0.3779097751288965 -1.599794919424445 -0.05276945332637680 
-0.4621048759869296 0.6205087470966084 -0.2239175059498268 0.6374233995050682 -0.04283050095148872 0.3907186780337756 
-0.6581356579489828 -0.1795894632899832 1.323518019394518 -1.375017626402213 -0.003272749613161215 0.3321431791478279 
-0.3403985471054981 -0.2387050170000429 0.1545372976444573 0.1212126333088759 0.3847620418129000 0.5402675565472216 
-0.3761823722227148 0.7240862118461624 -0.6562380740140534 0.06262531686155509 0.08877283538020868 0.1813918456290846 
-0.3867386614836935 0.03203576613908910 0.4063785618030079 -0.2368190549550030 0.2821169946272339 0.02816672027105296 
0.3583863772103055 0.5142105602462992 -0.9553255889324058 0.8317259724358831 -0.3942406407635933 0.2261963643314915 
0.02765404746216402 1.188869109289958 0.1347091738733054 -0.3662626429530206 -0.5195011705826758 0.3286857025739668 
0.1477516598334462 0.2403010601784115 -0.05167438087187953 -0.7936562996710556 -0.04547293608763629 0.5078777714957858 
0.8713393810896111 0.07807424483281153 -0.4253240859775245 0.3835067453393475 -0.6248255120977411 -0.4964713103863544 
0.3696443047026166 -0.2667774516660671 0.2325597725584227 -0.02250753628222450 -0.5407995014265937 -0.9006428528663623 
0.7338747098740016 0.02063839999719378 -0.2909369861458764 -0.3681519674959382 0.9601813116263569 0.2401184123267128 
0.1927333355708764 0.1761206322119481 -0.3163365423631755 -0.1073105989958961 -0.6082001291789780 0.8202779139675448 
-1.095496919704025 0.5828772976142396 0.4694723780176696 -0.08181021508916610 1.063121598364864 0.4648531417355498 
-0.1023704169739781 0.2638276531630249 -0.05557692578845942 -0.1580827891513794 0.4198556684109261 -0.2399196696764003 
0.8919404370770777 0.1753121630448261 -0.7238086291707256 0.3224791681253366 0.3568381982104979 -0.05300999595550163 
0.2662851472209891 0.3945546980119899 -0.3651545883766682 -0.1595076926617568 0.4323090399834978 -0.4362727277129193 
0.1128069942228124 -0.03289989815721273 0.3112551330008774 -0.2566791036656462 0.2585822464934768 -0.004245097900655477 
-0.1928761338808829 -0.9776534379442680 0.6574394260966021 -0.1674124544715891 0.2859443494414747 0.1480727116302686 
-0.05226261350782700 -0.5961571005003216 0.3519949532226872 0.2477561158677485 -0.3324067791175561 -0.3738638488837328 
-1.124096119349233 0.4164430074455942 0.2565584016990937 0.1234380550645732 -0.5129590753061919 -0.1722953735660449 
0.8458679774135837 -0.2077995779529092 -0.2251149836219078 -0.1232445936469808 -0.6910093930172655 0.3642350380504845 
0.8278870529624432 -1.086923690041797 -0.6153494190482366 0.6336343641972338 -0.4059437149646200 1.003182075236971 
1.030702857031354 -1.310684813168363 -0.2434862854391773 0.4822853453947963 -0.7502461012434861 -0.7894697367095663 
-1.053560439817688 -1.155819379452403 1.159690836246264 -0.7750664999152465 -0.5820515398506821 -0.08653487076697562 
-0.5781149143121357 0.06826463114529371 0.02640202885038055 0.07676054862816350 0.04291303302557639 -0.4073869013965716 
0.1723218531194319 0.3956321841935160 0.1997389187938880 -0.1660120637132283 0.08348898474564921 -0.2892023272679298 
0.3929134924311271 -0.4745354398556437 0.04070924216920199 0.6773323854489150 -1.031571028671467 0.6949208422393706 
0.4909342137956534 0.1500434623695285 0.2432259325350422 -0.09402531629037253 0.2921748956940108 -0.3360826026393661 
0.7204644988140819 -0.03272356999812185 -0.4596206359883261 0.1158694943087104 -0.5148419738123291 -0.3470267253826190 
0.5221258909980964 -1.300271428717799 0.5696564240842503 -0.06141453110360525 -0.8777632617475801 -0.1716012667478331 
-0.6939301436766064 0.1533001905665347 0.1747492468175851 0.2312831740594585 0.1462565069511700 0.5821699048734874 
0.6028542935721245 -0.7750324849403937 -0.2598088706645370 0.9908562582398388 0.07129330991105814 0.02305786021028993 
-0.4972766838579755 1.218044365668814 -0.3760321935168608 -0.6066522124052390 1.493918030303696 -0.3194912897635628 
0.06223336518773047 -0.01644852076495268 0.2946001693522992 -0.7036185924920463 -0.9242276078733264 -0.2911612780886194 
-0.1331531074359248 -0.8571806202929613 0.2605307031729574 -0.1302228844047232 -0.3194932085684492 0.06027275296890809 
0.5589240627513191 0.6405782743107562 -0.1343506814982073 -0.3837128819428752 -0.3265813381766872 -0.1173442319772851 
0.3351011791896594 0.4895345751946290 -0.2245323928102816 0.05025446758405845 0.09838173713704727 0.6769748288428931 
0.5174696257575375 0.6279551375098943 -0.1979562713296285 -0.3973929958921232 0.1487765681757170 -0.08265735128632744 
0.2645037929433698 0.2379194057499225 -0.2206881301107319 -0.06135055374758291 0.8327943525255087 -0.8681402913190999 
-0.3300218893659517 0.04297303293557446 0.6351679417757304 -0.2303803575766173 0.2335887231124656 0.5779184581217780 
0.5904513413492556 -0.08445137980027254 -0.3017706112849557 -0.08616426984268276 -0.08633748838381809 0.2598153650796846 
0.9744361671226093 -1.152136495309069 -0.6939007276266744 0.1967947431319557 -0.5033437473880812 0.5038149504963040 
-0.5939645876295493 0.06354694509882540 -0.03692467271353433 0.7589095214252974 -0.1384608548412712 0.3685626413029857 
-0.5987689435164337 -0.04808328037792743 0.9915062749593980 -0.8974119060843586 -0.3902857244401752 0.3067537168282386 
-0.1900493868290019 1.191643687980593 -1.051009450013966 0.4907278777552316 -0.1588223995760866 0.2522081730532265 
0.1982672876289010 -0.1358766889533495 0.5465503066606443 -0.9511201727880116 -0.5864688076534698 -0.06364962911171350 
0.7338691328208962 -0.8915986234876916 0.1657624480183922 0.04723409513501675 -0.008207123809042574 0.5090745862263932 
-0.06834659358696334 -0.1937076800703026 0.7131822561887882 -0.8642327237700695 0.6541626522620309 -0.3948229637077024 
-0.5139687616052497 -0.6969468265505674 0.7880183597628521 -0.7434013955633098 0.1374013938082317 -0.09909061161195967 
0.05509766093660316 0.3070960060284979 0.5521933717337051 -0.8384547897884517 0.09133105522390253 -0.5124677862788226 
-0.3427201697762127 0.2901626772582416 0.8688898547658992 -1.092238041459102 -0.3341677293581516 -0.4194299797767240 
-0.1050788794270365 0.9344259946555348 0.5881185135412380 -0.4932239534338250 0.4485021363402685 -0.4153220252772972 
0.02729710204266425 -0.3850129392189812 -0.1911495761134650 -0.3143475694059940 0.2639190083808217 -0.5515721621281401 
-0.6640833892135525 -0.1985299189291362 0.4005050790977394 0.6746765462638805 0.1415097596571676 0.3097105388349604 
0.05885298515747307 -1.054823227943035 0.2535561483914015 0.1723014395790172 0.2169341850973289 0.1632441218598972 
0.2046001555285851 -0.7439538653370215 -0.5209763208328676 0.1452506312331202 0.01060236476493945 -0.07385670973772993 
-0.5425903577867426 1.352488870846236 0.02730693241812546 -0.02119394999311825 -0.4758598330309208 0.5208420448022877 
0.7003371549818093 -0.3346378820940619 -0.1807499533201487 0.01496308598923800 -0.8675396870580919 0.3783829245879077 
0.7698519762293995 -1.270064490177617 -0.4157331471719943 0.3078463274036571 -0.4760906182697687 0.2506017412105565 
0.6582509960260312 -0.01453491630109003 -0.8249467713721713 0.8451458552767450 -0.2108235904503991 0.4855939152374377 
0.6739711477423406 0.4714924796992132 -0.5033574606741725 0.08445496665277500 1.015614463827113 0.3197185481986931 
1.046613047197960 -0.04722084349560089 -0.9088794992332948 1.071240927797361 -0.2991735514141520 0.4522758141449520 
0.4872792351925362 -0.6719499327180565 -0.2705073598784341 -0.05712899195374736 0.9637059158539590 0.9322569347469669 
0.4432065479380956 1.223326496614860 -0.4216019155085913 0.06081209377228717 0.1388348775071904 -0.2298810783822778 
-0.4566885267640610 0.9093764337455963 0.1910749207003011 0.6186205100926749 -0.4077716180592647 0.1002829064569747 
-1.026619617937693 0.8739441915765258 0.07191454162046103 -0.1987459823885543 0.2229221355574976 0.1522710854969828 
0.3904440482611829 0.09289609918157240 0.4390316407695816 -1.255974864313107 0.1490296208704724 -0.5399770559832562 
0.8176933719962634 -0.9369883892641127 0.08290521054546829 -0.5162891537333242 -0.4530340316866109 -0.9279298930619081 
0.3437114738142552 -0.6700831299172416 -0.06804773250541335 0.3589544120044123 -0.7766624271186607 0.2236789341992637 
0.6690772900062348 0.3075336349292991 0.02655633355215643 0.1151324516641903 -0.2490528881870317 -0.2205517367108946 
0.6310385930830997 0.6688913335793251 -0.9379192014324900 0.6460679996200609 -0.2808966816722512 0.1319094319396109 
0.2129723470248813 -0.3996103189461708 -1.019107844816565 0.2338151115280257 0.9440772972987029 0.4108584116987666 
0.2281350296229809 1.129160332419017 -0.3912214377698083 0.7212347368132327 0.4520363556662455 0.6891085322735080 
-0.4937206733187092 0.7888285227778806 0.02571276226671642 -0.7769762434510504 0.6779161043306818 -0.2490815280255482 
0.1197898280809664 -0.3619000904053962 -0.3747534646761984 0.6666877439045085 0.8690720985421180 -0.1517301996342260 
-0.6572914735431784 1.386965152387871 0.2635880445799138 -0.06418465807637169 -0.02511734552073267 -0.007358217692290528 
-0.8859530202684756 0.9839992921870754 0.6533885676901259 -0.04161781588148245 0.1948680403612833 0.1540787265979812 
-0.1302785835518196 1.065396675646979 -0.3813758652245644 -0.7994214781470868 0.6908345294149932 -0.06867814908677203 
0.6325280428151469 -0.9385040352934731 0.8447408547017569 -0.09082530630186195 0.01867818854677615 -0.2592477245372133 
-0.1126950325336284 -0.07031921060856192 0.3333248917332327 -0.5484862815851173 0.6352161570936078 -0.2676377049629889 
0.1741054526174020 0.1915314308450128 0.3456618917344244 -0.003967500772658865 0.2328047089764063 -0.04766341015976882 
0.4731887839195160 0.3857002447198322 -1.240292497150634 0.4567800650858611 0.4319731018676828 -0.2108764389685766 
0.4217851327942878 0.6941922073919824 -0.3838445470365525 -0.3365995217577860 0.1158409829759216 0.2846267330464770 
0.3984610394586299 -0.3167660700270681 0.04282679135703039 0.3874537795451376 -0.5656943565872078 0.4205064937231238 
0.3767232024340397 0.3135548996890860 -0.1446001434584061 -0.5494192219430312 0.2995263460908874 -0.09870717348348809 
-0.2554088206368799 0.6010193140027129 0.2614067275919049 0.01760681855740713 0.5430180010914204 1.018054577643371 
0.3770897291918692 -0.3646466260653624 0.1620079985103675 0.03201570369289929 -0.4627317886789001 0.6445394160470458 
-0.6373335463825456 -0.2425960338394400 0.7717145773775269 -0.6961368488679929 0.2454936044096357 0.2285617432189253 
-0.03408337979680578 -0.2871083734505437 0.9830811670039049 -0.7761272997422438 -0.5009074934874764 -0.1169439327962611 
0.7409196452192601 0.3070873168910048 -0.4414699289500604 0.2982443540137120 -0.06298794673459576 0.2887354950435773 
-0.07443103709186837 0.6787004825356578 -1.036735169185107 0.8958407396247741 0.5527062465255778 0.04577572493913748 
-0.3304591508522366 0.05619433837660495 0.5874774034626871 -1.028805478356575 0.8675980309100986 0.2283145500864545 
-0.8898791632730352 0.1565115789860691 0.5957884616596139 -0.3692136899872843 0.3924071553676186 0.08889777782416863 
0.3323427107324875 -0.2350557427325409 0.3164694878300610 -0.5274562621263360 -0.5295799433231487 -0.1974400115727442 
-0.5317538099453116 0.4555944444693555 -0.3536766461333789 -0.03776681905314540 0.2577839375500472 -0.1673081002443103 
0.4190835762114686 -0.1851283301709124 -0.3204702358883413 0.6101599167981280 0.1227731768144849 -0.09379897010776388 
0.3887250494475643 0.8875076407164063 -0.4596680420193150 0.1811008063408630 -0.1199906740874937 -0.1776909152543046 
0.2106671506397003 0.05704820394101712 -0.4853763000468636 0.2673464942823164 0.3294967024619404 0.4912709847564646 
0.1820858140796913 -0.2713486070913647 0.4204354223711729 -0.3270323305933223 0.2637725240453447 0.9194945308299551 
1.259825683902550 -0.3651475041707936 -0.6188749696339941 1.484803745272923 -1.053983939881038 -0.07725455712046080 
0.3770110225174827 0.3733250028108002 -0.07961404957232640 0.1566554874648607 -0.2841460726543217 -0.1838767072049750 
0.08897882070340939 -0.4938391201287460 -0.5394340799866195 1.257952817059267 0.1631606413333326 -0.4672774883532115 
0.4093415197073768 -0.2687261953610395 -0.05476120571762694 0.1731607965215793 -0.3202050573593234 0.3208584409960181 
0.2031129362477289 -0.5486517103181592 0.4992156859215579 -1.020228757482887 0.2978428880873058 0.1609820763967409 
-0.02370226944341231 -0.04829916673744222 -0.2611483612683246 0.8561488812089372 -0.07532113231555569 0.1468682120810879 
-0.4884726188475422 0.6217748418253219 0.8442328714068823 -0.8016719887109638 0.3190127241892031 -0.7819648280770900 
0.1036654754994849 -0.1499643982355657 0.02084776496040196 -0.7686115256950147 0.02647236228746775 0.1778287108176133 
0.4902189970350099 -0.1606866343493694 -0.2376802474140151 -0.09782094712173289 0.1279234385347041 -0.1436715823729129 
-0.1255585537379254 -1.115190213463621 0.5451421162577383 -0.04835100278965050 -0.1505483237192508 -0.5994700382149529 
-0.2543609732910582 0.2061701474356709 0.02431104890784162 0.1983776589126111 0.2599722871210736 -0.3698759007811440 
-0.3497581302783382 -0.08320593747900908 -0.02330150765511206 1.203352135674824 -0.2635441885997829 -0.08231177598395001 
-0.1207742749915783 -0.1465872498980719 -0.05802837212595696 -0.1134086622380425 -0.1727038647143234 0.1969595815326984 
0.5622358587481118 0.01247915852015198 0.03643226817952615 -0.9858272516428600 -0.2131500243922979 -0.3470757701015998 
-0.8949833141176802 0.2954584249439228 0.8244377951231115 -0.6916590448351783 0.9322735499703133 -0.4465974175386517 
-0.04243683514999220 -0.1795736980851006 -0.6139668625575033 0.7648523408879669 -0.1033915139099287 1.157552810071098 
0.3331313861335041 -0.7065520717966997 0.2164541760783056 -0.2727863820034384 0.1933783860565677 0.3261248103100716 
0.3360652588024978 -0.5279777541487366 -0.04164649215195272 -0.1074683787912986 -0.02251071245678397 -0.4522015601679659 
1.096695352884800 -0.6688551979551108 -0.9591907718806304 0.6733516186530749 0.3791453665033650 -0.06618510642010564 
-1.054653884967789 -0.3724777339802611 1.971115020541854 -1.459115053162667 -0.9360730213114118 -0.7378401974204831 
-0.3520287994298526 0.4746552295841944 0.1692666429251503 -0.007707834080070320 0.2985886305546482 0.9178020357342317 
-0.4442316504469627 0.3782823971409623 0.1832577943690891 -0.3674797374427548 -0.1745385276046967 0.3961579999093425 
0.4470338938189180 0.006380800595360655 -0.1572147113483521 -0.2864937291670647 -0.5525925094016104 -1.109442375466944 
-0.5353262308104269 0.7016268339535789 0.1830569289608149 0.1183833029321161 0.9828214028383189 -0.5018576862996327 
0.2572201651890652 0.1566300564998304 -0.002374624319876589 1.037953553095109 -0.4277431421303274 0.04749874588241913 
0.2516793235666476 0.2269547527374694 -0.04628634760037393 -0.2415553227118788 0.4635079793264627 -0.1635223323495265 
0.1893916560640672 0.5869117114945742 -0.1044432875224697 -0.2270389028497750 -0.4220170913950077 -0.3592026746646313 
-0.2473936067034811 0.6756361565350956 -0.4844169919958353 -0.02480745355734807 0.5562407925046380 0.1521596687758294 
-0.9912213729530538 0.1620254813788126 0.4723651840931326 0.04000183109456790 0.3476370414195737 0.1905101904348215 
-0.3158357528308426 0.2261623751736461 0.4053500923633087 -0.2221431807849507 -0.8240527268697925 0.07537302130680837 
0.1653945383688742 0.3194073878807631 0.05156502790570391 -1.281680129044343 0.3171314878212379 -0.3073650154865589 
0.1312989888446848 -0.4465195177480767 -0.4333901326283338 0.5849868245043324 -0.4646390045870168 0.2747011207226816 
0.3542060302796951 0.1723483335963940 0.03172816650918259 -0.5437922654475437 0.08090062204857855 0.3545628482592088 
-0.8227020823083256 -1.104559886909420 1.080566924165615 0.009977682134184190 -0.3293535994052653 -0.2610704852272001 
-0.3912812731586895 -0.2502732174527052 0.1830325269008942 0.1489791029482743 -0.9596684397677850 0.08683417250451886 
-0.7417922919052724 0.04079101310066381 0.4569815302955002 -0.5573846247760518 -0.1119894664591186 0.4474643768736070 
-0.5358062877277235 -0.009120768559133000 0.1657402990041285 0.3843675712492202 0.1309253630437263 -0.1399838850867811 
0.1820863611197105 -0.4915958150782215 0.3749027559180095 0.3373064768718108 0.1165451375670953 -0.7010464371509706 
-0.1112336674655614 -0.2841603937138382 -0.002936650061777029 0.5657107358548427 0.2453392539298180 0.1947316247658212 
-0.3751452258718184 -0.3365139671028797 0.03627448370346808 -0.2120083834709102 -0.1177342078952719 -0.05871754624470921 
0.08486420961172932 -0.1190370111282361 0.1021779675201977 -0.9705081607535639 1.320912615045621 -0.05589793486561023 
-0.3739970641871021 0.02279073190689746 -0.4014928846367576 0.5859262395462389 0.7014037304749643 0.2969780547407137 
0.2230853300158119 0.2325028973571312 0.1150832666226237 -0.1800566317854934 -0.2797469246135593 -0.3280178266720008 
1.131319714241875 0.1394705864330615 -0.5658913903658908 -0.3715430644490276 0.6837775473530497 0.4607146494950685 
-0.5360968463650091 -0.2276818952970146 0.4034945519626022 -0.2566685330700424 -0.5839846394653827 -0.5582503772796372 
1.240252138882464 -0.4216275682548217 -0.8318268630460492 0.9132168747762477 -0.7117266101024335 -0.2640936779537955 
0.1838187738206678 0.1872221116060106 0.0009168082472516935 -0.1118622646444510 -0.5118496845796453 -0.1000488830455476 
-0.5508289902575186 -0.06518339894643060 0.1022490362531252 0.1733781131470987 -0.09549367575319231 0.3849165172709227 
-0.02291375963317113 0.5467579798854281 -0.2683644352284076 0.2423649034408577 -0.04960955366855320 -0.4716106931237695 
0.2472329730378409 0.4015870356739708 0.3853842811295239 -0.8791498697522210 1.351663744621881 -0.4718987849684599 
0.02054507373250056 0.3641116988778801 -0.3306215327023642 -1.278086151862315 1.215431546801389 0.1943377179142356 
-0.4819673498949655 0.3573595473313624 -0.05273893339618412 0.1847025290944573 -0.1901410293613716 0.2133499894203279 
-0.1725242433222968 -0.2857750388231546 0.3018767485331064 -0.3066030456689883 0.9072436915649705 -0.1972881776593848 
-0.1674633365774415 0.5147633126133655 -0.08852192215424315 -1.220057600612447 0.5982853910527045 0.2700163116335995 
-0.01828455917978742 0.2072110935378486 -0.1778594658470129 0.08176355957491897 -0.1793242635326089 0.1353528152490937 
0.2503020557606434 0.1296535397070154 0.5375333100559301 -1.263881998737672 0.6601331671338776 0.4905861213067413 
-0.05689971164976820 0.01185337267956111 0.5239040539403773 -0.4515212185100404 -0.3440496512536862 -0.06236906023058272 
0.5820749321019638 -0.1618322446833029 0.2211182361556356 0.3381583764556836 -0.3486263393326178 -0.4713954897048849 
-0.2042024375860495 0.9521911626132589 -0.1089276244069378 0.1139482078756281 -0.4373796002227919 0.3328060748757347 
0.08628859590543381 -0.4916504258147694 -0.1328649004293102 -0.05553289843358463 0.4036654915126197 -0.8270153375615094 
0.4430401076054468 -0.9266702145905806 0.2039306282569528 0.01141602860765016 -0.6124080720887193 -0.3294972806460834 
0.2741442351581670 -0.5513337069370476 0.4632170070684638 0.5122370379211235 -0.8645138918494173 -0.2905814617791495 
0.2526234271595289 -0.03882143499017293 -0.003865139234136185 -0.5439001614607303 -0.2830889410552961 0.1320623336096158 
-0.2360808281356026 0.3485534702516340 -0.1922734448783050 -0.2574657432550152 1.134700693609348 0.5668843245279332 
-0.04222317589098362 -0.4085249154900577 0.1636089753048509 0.5748611904131974 -0.03042502100079808 0.9914963572579928 
-0.7669733932074994 0.4933704297619199 0.1396515100124438 -0.05417292787999579 0.6042362765556442 -0.05987437975523655 
0.3150983491281966 0.5725118222607023 0.2827459138396097 -0.3531834078547055 -0.4106972617421403 -0.6836246805236327 
0.2905314325268912 0.005567173917174049 0.5392284272501858 0.1456888038642172 -0.6640748115353159 -1.099829693609909 
-0.7034861439270640 0.1049491755118898 0.6865127547014955 0.1454624420214780 -0.2468093476993366 -0.2361401192636488 
0.1027615809257456 -0.6641373107167913 0.5617027412480101 -0.5320577040385729 -0.2445555191674533 -1.165178850029736 
-0.1456344518006582 0.3834337214087948 -0.4839206848764301 -0.5854001993137556 0.4123029670632730 0.01606890193682988 
-0.9729667042325952 0.08493869502720865 0.7858655996681442 -0.7708893360863529 -0.1193477008643932 -1.527783878331136 
-0.1578080092604724 -0.06586067990277489 0.3028998420726743 0.07269104390094700 -1.238518065954108 0.1665127185498989 
-0.3386959625766611 -0.3407416413187560 0.2559713984354997 0.06745193092891924 0.4716452113611451 -0.5671879189899960 
0.5468929763626083 0.4111959407728414 -0.6154772353873423 1.138224024766514 -0.5313298225466192 0.1725283644196047 
-0.03494797802445069 0.2536829757181908 -0.3647385096029721 1.119681189756733 0.1725742239364139 0.06864747939184407 
1.184681557345159 -0.6800070033900653 -0.1302472189232695 -0.6758719400003642 -0.07053872110275111 -0.2064196644425646 
0.6722150358551984 0.4683397012092804 -0.4042754409540723 -0.2783277899701359 0.4783131532996394 0.5676819914930549 
-0.7891923461672995 -0.2866464464111547 -0.005053578327000157 0.7866316073467364 -0.2663318289470533 -0.5683593574688726 
0.8854337472394638 -0.7147555403878327 -0.1890125073222756 0.7307813316119738 -0.7970113784110346 0.2938033551306263 
-0.3874681713407058 0.3136125432540147 0.2626451962585671 -0.5584348540252273 0.08190024105171834 -0.6390067487315736 
-0.1704785006252789 -0.3117330100898859 0.1862355210504878 0.7462162673150847 0.1534580747950015 -0.2182000966914885 
0.4322767782356581 0.9655735815683694 0.2098115873278374 -1.015188891505769 0.6345247918816803 -0.3158768869720118 
0.1598990250974623 -0.6425063156435006 0.4230295657526429 -0.6765084447386689 0.6276628772443411 -0.2316371565328688 
0.3209568551680865 -0.04881555465176549 0.05453432494818886 0.01565146837086528 0.4896250154406373 0.2536887160450415 
0.5235158877587620 -0.7464894571723419 -0.3563393816033572 0.8119471081546015 -0.3636158265110768 -0.3157171806651654 
0.3571981481572634 -0.2982941463926040 0.4528015897323922 -0.4316761213851043 0.5280494584432718 0.03439459558562040 
-0.01432655134034802 -0.2564935340114151 0.05143709061817324 -0.1697774342700141 -0.1229708969273296 -0.08164054222786407 
0.9648043305389333 -0.3592366377332945 -0.3741385103493279 0.1624891259365323 -0.4037155072626345 -0.8352138570371046 
0.2410458586726250 0.09202244541269942 -0.3035569825854689 -0.2648950866911242 -0.5720717866143895 0.6552277953846625 
0.1280538487832336 -1.210494876596456 0.1008134957642376 0.3214580661608101 -0.6475831815186723 -0.6551689668974070 
-0.3830922776830591 -0.2668449071926195 -0.3394945353414986 -0.2794649139158266 0.7588972616681179 1.119597862030686 
-0.1434822144859883 0.1008824509515909 -0.02998487329026060 0.5165156062292240 0.09690574947294152 0.008893004171767187 
-0.3786837237905276 0.9973803268478363 -0.6561478364014715 0.07650429787790630 -0.4003626155765054 -0.1544548513756797 
0.01549419129221940 -0.03819163341118239 0.2097197177236943 -0.6586534950146995 0.7290514606619538 -0.3662820337504032 
-0.3184524083350407 0.001850853290407755 0.3118098097058705 0.03418268170210140 -0.04515534276121808 -0.05178904766569235 
0.1846453995268647 -0.7121838813006438 0.3006840601118726 -0.4516767608364575 0.9357814513718010 0.8787031948575765 
0.4523250053907998 -0.2932160237109810 -0.2435294557390050 0.2830833228797256 -0.1400608576849766 -0.07178802814393513 
1.049311156310383 0.3337693250419815 -0.7951297762193705 0.9911120525297368 0.2788936867715899 -0.1600165089849885 
-0.2060614252328352 1.118194327194080 -0.9818159188063826 -0.06766776867734979 0.2758246235476904 0.3406745845908092 
0.09343188524354590 -0.1807422391759440 -0.3102133603306250 -0.1674040673754591 0.6763531956264650 -0.8216236433426508 
-0.4345421478341277 1.278543854032384 0.2474076802150288 -0.6582155686291594 0.3632400957563515 0.5512735457561292 
0.5214979318838254 -0.1139209953252904 -0.7602208321487581 0.3062768429053453 -0.4250507826141604 0.5631130022771904 
-0.2292592072272209 0.1949724370038284 0.4622515180916733 0.3226575452302667 0.01812905304939052 -0.004355486049001032 
0.1934516707653097 -0.0006086888413376312 -0.6431517890929782 0.4815939794793253 0.2164925973023381 -0.3279087537921157 
-0.3690142630120665 0.3432183864233991 0.4028210761214282 -0.06647569600166088 -0.1212828203980410 -0.2738311983745799 
