solver_type L2R_LR_DUAL
nr_class 6
label 6 1 4 5 2 3
nr_feature 272
bias 1.000000000000000
w
-0.8864526333490172 0.9005010597496844 -0.7709308495080749 -0.3238506249322074 0.3177175618373781 -0.6961529942529633 
0 0 0 0 0 0 
0 0 0 0 0 0 
0.6694330114317403 -0.4921539566634614 -0.1142220540815860 -0.1211396174069722 -0.1223170421194136 -0.02818013396519624 
0.2498474062406357 -1.429649800536666 1.532234431257502 -0.6635196537784367 -1.174893540337159 0.05384625442960127 
0 0 0 0 0 0 
0 0 0 0 0 0 
0 0 0 0 0 0 
0 0 0 0 0 0 
0 0 0 0 0 0 
0 0 0 0 0 0 
0 0 0 0 0 0 
0 0 0 0 0 0 
0 0 0 0 0 0 
0 0 0 0 0 0 
0 0 0 0 0 0 
0.2397157782560402 -0.1025433469180063 -0.8171919062543096 0.03294972750900591 0.05015018783269509 -0.4739327892084455 
-0.5409406222072521 -0.2240730185185202 0.3553462933494955 -0.2900274326631549 0.5934546699917038 0.3633172677104792 
-0.1398268262079749 0.06871258463284427 0.08796742861894441 0.3215185547970682 -0.2935009924101241 -0.6420550921271134 
0.1317769667406160 -0.5303529251702105 -0.04720530169654162 0.2622316922221624 0.009579781440827922 -0.06434098823525863 
0 0 0 0 0 0 
0 0 0 0 0 0 
0 0 0 0 0 0 
0 0 0 0 0 0 
0 0 0 0 0 0 
0 0 0 0 0 0 
0 0 0 0 0 0 
0.1201721362081339 0.2760850804216812 -0.2385266082318962 -0.1747761629769990 -0.1659446232539096 -0.4009801038049156 
0 0 0 0 0 0 
0 0 0 0 0 0 
0 0 0 0 0 0 
0 0 0 0 0 0 
0 0 0 0 0 0 
0 0 0 0 0 0 
0 0 0 0 0 0 
0 0 0 0 0 0 
0 0 0 0 0 0 
0 0 0 0 0 0 
0 0 0 0 0 0 
0 0 0 0 0 0 
0 0 0 0 0 0 
0 0 0 0 0 0 
0 0 0 0 0 0 
0 0 0 0 0 0 
0 0 0 0 0 0 
0 0 0 0 0 0 
0 0 0 0 0 0 
0 0 0 0 0 0 
0 0 0 0 0 0 
0 0 0 0 0 0 
0 0 0 0 0 0 
0 0 0 0 0 0 
0 0 0 0 0 0 
0.1343883585259359 -0.5833538347770564 -1.568925343256612 -0.7892969185426182 0.6628948502947456 -0.2148796461860226 
-0.1448981956947258 -0.2222907830930121 0.02766253725759125 0.5284900848214322 0.1865868977673857 0.2109384297322453 
0.01674525777360207 -0.4331173131640579 0.4375567628759389 0.1050857026315152 -1.091008927846093 -0.1696027416496807 
0.02050210947554497 0.5843708158694267 -0.7240327693012938 -0.3027574804290348 -0.2054502460254404 -0.01893627374753116 
-0.2018658524418429 0.4557590341318869 -0.1908841196198877 -0.5035644180458528 -0.004744875835983498 -0.01843156276793102 
0 0 0 0 0 0 
0 0 0 0 0 0 
0 0 0 0 0 0 
0.01502673020421652 0.3493548268835879 0.4004183477741279 -0.8649834866525021 -0.5092501548781717 -0.7953456412937907 
0 0 0 0 0 0 
0 0 0 0 0 0 
0.06637204881060568 0.2525501051315958 -0.03542983060702309 -0.1024660775447942 -0.4622801414993067 -0.02046781322092493 
-0.2083507249908906 -0.4585919883584160 -0.1051535668221570 0.5782772954106228 -0.4839567355132485 0.2217854590076984 
0 0 0 0 0 0 
0 0 0 0 0 0 
0 0 0 0 0 0 
0 0 0 0 0 0 
0 0 0 0 0 0 
0 0 0 0 0 0 
0 0 0 0 0 0 
0 0 0 0 0 0 
0 0 0 0 0 0 
0 0 0 0 0 0 
0 0 0 0 0 0 
0.04457944378067881 -0.3312455564208836 -0.3663209947210519 0.2979688915964482 0.002517801656899320 -0.01560202072009365 
-0.2199845464009806 0.3244243627749955 -0.2138193472707080 0.1520628108429432 -0.2716322527235721 -0.2875462550095846 
0.1033381104683332 -0.5101468551518124 0.2715136434346498 -0.3337574813842391 -0.01901031489050553 -0.3577988620515886 
-0.8116446562264561 0.3802938774935150 0.5571496395632567 -0.008701769811702821 -0.08728116973593840 -0.001223114132571959 
0 0 0 0 0 0 
0 0 0 0 0 0 
0 0 0 0 0 0 
0 0 0 0 0 0 
0 0 0 0 0 0 
0 0 0 0 0 0 
0 0 0 0 0 0 
-0.1359694044961368 -0.5680158955790074 -0.01687498251089611 -0.2999593528788698 0.6269865829009120 -0.03406072822336598 
0 0 0 0 0 0 
0 0 0 0 0 0 
0 0 0 0 0 0 
0 0 0 0 0 0 
0 0 0 0 0 0 
0 0 0 0 0 0 
0 0 0 0 0 0 
0 0 0 0 0 0 
0 0 0 0 0 0 
0 0 0 0 0 0 
0 0 0 0 0 0 
0 0 0 0 0 0 
0 0 0 0 0 0 
0 0 0 0 0 0 
0 0 0 0 0 0 
0 0 0 0 0 0 
0 0 0 0 0 0 
0 0 0 0 0 0 
0 0 0 0 0 0 
0 0 0 0 0 0 
0 0 0 0 0 0 
0 0 0 0 0 0 
0 0 0 0 0 0 
0 0 0 0 0 0 
0 0 0 0 0 0 
0.1186285645496782 0.1646069984578669 -0.5228542077935210 -0.8542163113258078 -0.3700679701366819 -0.1855423796596878 
0.2466951971363486 -0.1591772612617123 -0.4706341798058311 -0.2690044430704707 -0.05543685629838803 -0.2361795803035710 
0.2384485210562334 -0.5307836235624502 -0.8121914951639564 0.5135495048686864 -0.4007509468928330 0.05485814607426912 
0.3177353988622981 -0.8456675633560444 -0.2771268148356964 -0.1455640792263324 0.5384815801701198 0.1474070254849157 
-0.1062777880024899 0.2002921689133065 -0.4398277098319186 -0.5818620476180651 0.2542042791773378 -0.5896746100244392 
0 0 0 0 0 0 
0 0 0 0 0 0 
0 0 0 0 0 0 
-0.02394304564179772 0.1578899677202212 -0.2975677995113271 0.2718344338948646 -0.1021175085880864 1.018700307946679 
-0.3196521889153674 1.006669987245825 -0.06999012830344060 -0.1213830338193821 -1.069716927906655 -1.100507049532500 
-0.4162378339751712 0.6815226683140264 -0.4564060958813695 0.1509744211354873 -0.6474124852164779 -0.2944839780589467 
0.1850156145632803 0.3492211786582128 -0.8235566847770530 0.05562504974595423 -1.281534832581153 1.044095768289054 
0.1218704923434547 0.6262394263282676 -0.2852410376419766 -0.04197088154644106 -1.126960948085879 -0.8172882788033502 
0.3906232322096472 -1.395813560368360 1.141225116525783 -0.09642299920673132 -0.4590375144151541 -0.1746774855474565 
0.2949331634249214 -0.1017464367236216 -0.5574797495653272 -0.4624363438414148 0.3227578347405269 -0.05320823453346667 
-0.5734929594290903 -0.7113952921829136 0.6302114198546913 -0.4571080238313548 0.1132704838381629 0.1870442340354514 
0.4977169096073700 -0.1989429223766845 -0.6681881465493824 -0.005648860691622570 -0.03350327704670944 -0.002896420517942186 
0.2811467792731714 -0.1065890841753882 -0.5931010553251401 -0.4955761747489769 0.6382053079371185 -0.4211290687088996 
0 0 0 0 0 0 
0 0 0 0 0 0 
0 0 0 0 0 0 
0.3212822331130276 -0.6587736487178300 -0.1757606775040204 -0.8735957495797115 0.2615341601779225 -0.03418391943542393 
0.5130647058446030 -0.3944278978063254 -0.2783067837654605 -0.5862196476487629 -0.5344210826635444 -1.261687653223681 
0.8087382508817349 0.1907740552965405 -0.9716931658050356 -0.7584422633507933 -0.6441981701367805 -0.7999524982627356 
0.4668686359388437 -0.6296052698040353 -0.4540140610193340 -0.1543241217562902 -0.02799964226178596 0.001301772079899651 
-0.06633826374965945 -0.8050440251019555 0.4365260436563745 0.9314830418333120 -0.3284286121295332 -0.1567402623139453 
-0.1616271250703640 -0.01784769345264803 0.1174950007282623 -0.04267728536477131 -0.2789173218761317 -0.1625914129099919 
-1.009492780757947 -0.4037281216463667 -0.2714335333606085 0.9980240604441742 0.5682409183183879 0.2266517246173556 
1.036783943509219 -0.2868876128969633 -0.02317293095327775 -0.5727980420087309 -0.2996043850710652 -0.02546424362251863 
0.8024397968027281 0.06344909086076342 -0.2242745843660146 -0.5579943236213943 -0.5174595965092074 -0.5229759715311524 
0 0 0 0 0 0 
0 0 0 0 0 0 
0 0 0 0 0 0 
0.02521100883133876 0.04748213250535427 -0.3299763901596546 -0.2751487139021636 0.2020261155819585 -0.2494583433333670 
0.8470915686002365 -0.4006268868637183 -0.7870955991414501 -1.108964154414552 -0.2446936010263697 -1.516684769133385 
-0.2463498325093352 -0.07507957102982615 -2.131884677127129 0.1113961157647447 0.2828825973861378 -1.016830703631269 
0.5917542025521717 -0.7169590955305247 -0.5745697187905802 -0.6749744829233009 -0.4665834480334934 0.9481167907703669 
-0.1034207261295290 -0.3587555536166033 0.1740293155430762 0.3563395380738527 -0.1845313963254843 -0.9070639301195220 
-0.1459196786090914 0.06412484233382935 -0.7286870647286948 -0.1795658963062889 -0.09384694053058668 -0.2212505226092061 
-0.005472479541969617 -0.4028752582439894 0.06424751775592102 -0.1278797631169840 -0.07036161593367157 -1.032768499699764 
0.02860066702217171 -0.3877752328206870 1.050579908507289 -0.8587128772709763 -0.9882658284501719 0.08645766062123351 
-0.4505952580329766 0.1452134648723405 0.1151332202493804 -0.5452591810151379 0.2832303332238924 0.04394883059542803 
-0.1042969901259217 0.1594875368609293 0.2663857175112406 -2.237244985355563 -0.09906344948516665 -1.297400049238871 
-0.5299763936864136 -0.1576411690650985 -0.1205811883864313 0.01535999190475383 0.4421990436799571 0.6286614806689493 
-0.02681568209694561 -0.2114394690009980 -0.06936730915652375 0.01888513760526474 -0.1161580191292611 0.02430257354886608 
0.02736427135090568 0.01590379804739783 0.07488991779251616 -0.8991736504401548 -0.2228627148485607 -0.1511630111910023 
0.1129714185365994 -0.3750598069270627 -0.3638393559406116 0.6790748822175421 -0.8538610975497382 -1.119021787089689 
0.3353064591290816 -1.202134847265827 -1.652176259089691 0.8780976201682172 -0.3464770766621841 0.2058740785504708 
-0.1459561883558638 0.03877755331519450 -0.1664630213212273 -0.3736555428941258 -0.04125298466842554 -0.3906436593214658 
-0.2698422310796952 0.4655606187024896 -0.5117680275341236 -0.4244085508859640 -0.4459972544283453 0.3305092189213006 
-0.2713340218870487 -0.5759996378269313 0.8321553393499396 -0.1589398890768106 0.1121869151584908 -0.4266270877941349 
0.1412315711898269 -1.103080322122027 -0.6951450719636740 -0.5207124913961444 0.5185969565099967 -0.2973003608336486 
-0.3170893320456903 0.3134140420789237 0.08190618000737096 -0.2345392038388187 -0.1591456737144993 -0.5265974115211969 
0.1170915818656392 0.1186102882371150 -0.009606134878234227 0.2882104292256758 -0.8053116388100334 -0.5582164313492360 
-0.01650479671677765 0.1000454220618075 -0.8544694848160358 0.2160536214942174 0.6925950236635923 -0.5922390199942791 
-0.09071881850908456 -0.3428471441228981 0.3662713356774090 -0.1861852953223185 -0.2329041189240791 0.3085284879749091 
-0.3244946504172953 -0.3685865875943035 0.05940991583202374 -0.1233989879587287 0.6436444325336856 -0.5646535888336245 
-0.07491390288017540 0.1354361907751588 -0.1845660141860104 0.2871839020157711 -0.7209168430933112 -0.1245127894164292 
-0.4371990035425616 1.569282520105062 -1.200176697880903 -1.129063523329065 -1.041816377050119 -0.3858270840498662 
-0.1150528158351567 -0.5314420579749115 -0.1309554824732520 -0.5101905339650658 0.7757596386999409 -0.4427544449937026 
-0.004299490149614275 -0.1493448196069746 0.4162067271383219 -0.1328089682329982 -0.5532232587634507 -0.6325960324728097 
-0.1768276712512145 -0.08659947216001293 -0.4058997812238707 -0.3089178856863534 0.6735721741551590 0.1530381940790948 
0.009359789888714123 -0.6010714891463125 0.06966805646314486 -0.1488415408450781 0.4475577112137854 -0.2103568523330696 
-0.04976198750768757 -0.4758050867816500 0.4116135959982438 -1.343387037200991 0.3613806030316998 -0.4186934971999488 
0.001163385333494027 -0.1911072352018128 -1.190891782694680 0.4477046127943647 -0.9081889348073855 -0.8475411148484537 
-0.1408942200761519 0.06662233426642569 -0.06738407869687472 -0.1046195067703352 0.2954095817459823 -0.3234250527363385 
-0.5176732249324860 -0.4240067452744797 0.05600640123595639 -0.02021944862320256 -0.06858104051517906 -0.1722829398115429 
-0.06620783603393952 -0.02133856159010109 -0.5263783819822845 0.1905187083353120 -1.155683206734912 -0.7509287511431442 
-0.1222744903963566 -0.8643184459264016 -0.1199679434475223 -1.682649179871453 0.9083145669085720 -0.7010465217901563 
-0.8002541090306596 0.7592703372906677 -0.3636084476793112 -0.4760771777835789 1.121187515772059 -0.1070752477944861 
-0.1346913087263495 0.09406095462355048 -0.3663585032214388 -0.09782988868180278 -0.6492413982500340 -0.6486120772926175 
-0.04772884205677717 -0.3193898932530123 0.2227529622484162 -0.4446609989125940 -0.08567754513643723 -0.6241260193407059 
-0.01550147959057356 -0.2293097618638727 -0.9680732683631686 0.2184035611605888 0.1939353539278624 -0.6856084642147579 
0.4286830912300478 -0.3861722379219319 -0.1809768444770471 0.1308919284416387 -0.5577335767828450 0.7887689728459587 
0.2282639985366280 -0.1075862220725597 0.2001442030246001 -0.04350334324315712 -0.1216638665073670 0.2531229770442938 
0.03137572879228481 -0.2296018097429787 0.3093399132317826 -0.08291171065052563 0.09672085083087373 0.09574644727263373 
0.6170062133835593 0.4436085724515999 -0.02370333297397143 -1.210200788572964 -1.736271789122426 0.5512234971073660 
-0.8558200787354291 0.8741969939851123 -0.06715145620984099 0.09998256148557298 -0.2154661398746526 0.5887687195712725 
-0.09118903832999165 -0.1519845962885375 -0.2897880624885986 0.7924718544658581 -0.7967003058264276 0.5603404272429180 
-0.7648158016681417 1.083729506049863 -0.8036260360450586 0.4369196460732965 -0.8366292333286950 -0.2196051062770258 
-0.5174366439669555 -0.1054120521680906 -0.2760514220557099 -0.03740018344983823 0.8434302227591947 -0.1979022481310834 
-0.2737927666600465 0.1245857274253855 0.7431533663041174 -0.4151265899508713 -1.378489362262678 1.724556290835118 
-0.3876372253150447 -0.2797188267313701 -0.6150839345861630 0.5351900651625958 0.2446869951100054 0.5303403266401420 
0.6884936625948397 -0.6232973168037839 0.6067284492631990 -0.6636659540600001 -1.237039902088236 0.1090384663783599 
-0.8497615125960476 0.02765040738132345 0.5074025603996886 0.4531898144482005 0.5491515346213534 -0.2833558511467370 
1.238129912882721 -1.131089959378781 -0.1318912482949672 0.1429699151417839 -0.7299130253853201 -0.1723148228297797 
-0.2107713372707835 -0.5296603313858248 -0.06055164974223470 -0.1539664857527220 0.4637406256606854 0.6902940140135017 
0.3304499165151174 0.4635588321409354 -0.5538219575801039 0.06901362120785391 -0.6965851237967762 -0.1258507152761767 
-0.3364233488285529 -0.8286645960510366 -0.1273230869511855 1.501473987897576 0.1548125906319393 -0.3286380926341723 
0 0 0 0 0 0 
0 0 0 0 0 0 
0.5572619186541833 -0.1277269363256162 -0.02456604815202543 -0.2132497404266064 -0.2689826445267430 -0.03224585882188163 
0 0 0 0 0 0 
-0.1402353747080699 0.7839626036897850 -0.006123213945923955 -0.001735379395879710 -0.5044167620036154 -0.04333412014743830 
0 0 0 0 0 0 
-0.02852395632774848 -0.5706650386732904 0.4584063057074755 -0.1325693917929841 0.2265040339787096 -0.02975159200265290 
-0.9161055476153483 -0.6374350873294818 2.135545239636883 -0.08093548488429880 -0.6593653019716637 -0.03486806400092236 
0.07074896439652356 -0.4517987436335984 -0.4321648709966260 0.1472037857927850 0.3721555601345122 -0.09990799827109312 
-0.05733903505203823 0.2492692583336218 0.4794579627326511 -0.2176179248684734 -0.4273368685326368 -0.5223383346630238 
0 0 0 0 0 0 
0 0 0 0 0 0 
0 0 0 0 0 0 
0 0 0 0 0 0 
-0.2660760502951194 -0.1584852226981565 -0.01304828847895159 -0.1293656581633325 -0.06933208339034796 0.8221781065765480 
-0.06168066940164567 -0.1061504796148153 -0.2297496219932227 1.304735867495635 -0.4591169479515054 -0.3931660507883140 
0.009313039372590093 -0.5492773712496604 0.4358173503754898 -0.2563941986607692 0.2840080461619446 -0.04887440432199735 
0 0 0 0 0 0 
-0.002206989298897427 -0.4146115446312685 -0.8807278737120926 -0.1538152711416161 0.6577423594811678 0.4760607304811548 
0 0 0 0 0 0 
-0.1835346290829544 0.07403957004157213 0.1613571795011523 -0.2107965510246180 -0.1659532842892010 -0.2076681223368518 
-0.5047629632449173 -0.2012853956600756 0.2338779733635382 1.105701010336937 -0.1809035816908646 0.06094535409311370 
-0.09662279793010069 0.6267820004627783 -0.2362780279362372 -0.6065099855330138 0.006831694444192225 -0.2006680977359133 
-0.3231055726570985 0.6049789221921753 0.7685562534026100 -0.008868034585528263 -0.4064131575999636 -0.01007823106017883 
0 0 0 0 0 0 
0 0 0 0 0 0 
-0.3988377619563333 -0.1904734690245483 -0.6066600646118339 1.568631506731924 0.1957785311980052 -0.1099626045480744 
0 0 0 0 0 0 
-0.1490678211250551 -0.9746368599281995 -0.6208860687521561 -1.163156966058312 1.662598153133592 -0.5831273364617477 
0 0 0 0 0 0 
-1.314269023627065 -0.4791455178218482 -0.08097996687874030 -0.06175054570690251 1.979187887442687 -0.03338656383293678 
0 0 0 0 0 0 
0 0 0 0 0 0 
-0.1930215743818028 -0.1455762395339785 0.3233905899697156 0.4174715635881228 -0.1040375709553988 -0.1332095265006724 
0 0 0 0 0 0 
-0.3350555930935629 -0.4830342504855822 0.9457710366463742 0.7240120366205699 -0.6729171008489830 -0.03235625132876568 
-0.1989198711521834 0.6586922897956609 0.3476008340044277 -0.9126117561784427 -0.7084400953065921 -0.2236440788547286 
-0.4126506103931740 -0.04251628431551884 -0.5914312052000040 1.823953250451461 -0.04141391678261104 -0.04494145255413206 
0 0 0 0 0 0 
0 0 0 0 0 0 
-0.3641407142697994 -0.1318813163417608 0.2398410606989883 0.6349620107624494 0.2146007657985700 -0.09441684133718933 
-0.02261850018863768 -0.5274159589703178 -0.2428050732912154 0.8184891072135366 -0.2437289974109228 0.7960771698965815 
-0.1462109999710772 0.9170240316872393 -0.1593246414133875 -0.1628596950967270 -0.1790034538801521 -0.05517327709399005 
0 0 0 0 0 0 
0 0 0 0 0 0 
0 0 0 0 0 0 
0 0 0 0 0 0 
0 0 0 0 0 0 
0 0 0 0 0 0 
0.03066181049259557 -0.6828987852828158 0.4063054783317061 0.5591964927812307 0.4343655992951659 -0.5034448113135426 
-0.2960365761284595 0.4014760873502486 0.5466215125202143 -0.1832923606454416 0.04457666538586604 -0.8132997703981396 
0.01739473652659742 -0.8220103724495289 0.06592288763205086 0.2405440347215405 0.9724781053190317 0.1120260081134518 
0.01908946387047478 0.1476148839333045 -0.2991396604575947 0.1540571794288350 0.1862865266387752 0.1083043798365125 
-0.3035666739730285 -0.04296867571291395 0.3545484010618902 0.2964082484386860 0.3918663981459588 -0.0007226953908961410 
0 0 0 0 0 0 
0.8214831622196592 0.5659187533437788 -0.5941773871416973 -1.546310186647302 -1.490681630572207 0.02022451149391093 
-0.8531042849545604 -0.2224407936229617 1.322754245804940 0.06776006678980646 0.7025652517059178 0.07951449926419189 
-0.3237455566328544 0.01628282312792186 0.2297354270071098 -0.1056377725734564 -0.04056589745182221 0.0001699675753910102 
0.2648424274425116 -0.06631403889734445 -0.05815464744314686 -0.9495243444847069 0.4112291141728331 -0.8447829716571753 
-0.4095762962263048 -0.6345899475687179 1.332167014220348 -0.03703046663861038 -0.4726233874660584 -0.02647059240108126 
-0.3201846078044688 -0.06540886917170605 0.02231759413846419 -0.1241458617927340 0.4797132052841319 -0.1105122273259190 
-0.2261284078485414 0.4011184639654119 -0.6285932319207284 0.5069745210046965 -0.3811508029407661 0.5465622796327099 
0 0 0 0 0 0 
0.3321454660254234 -0.05684163990487783 -1.709008318811314 -0.9027011270887307 -0.3428660895741312 2.237381295756522 
-0.3149929455251551 1.584898921689885 -1.042143156186221 -0.8917023795523191 -0.8647906873596056 -0.6077110901737259 
-0.4678404223717548 -1.142604507710416 -1.185723682704779 -1.292873521602238 1.961340338121409 -0.1536527874973948 
-0.3003299960977833 0.1759311161349547 0.1153463879671959 -0.5914063277897801 1.108401368642939 -0.5435098989550156 
-0.03288734159977118 -0.7738109785684260 1.866882310460435 -1.092396803578604 -2.052057923390643 -0.007322703683333627 
-0.2477548473256085 -1.295623854962533 -1.203727805896651 2.232410572352334 -1.033347782400726 -0.4745324277604194 
1.032402447671519 -0.2808971006189240 -0.5817855522307264 -0.2826880866234910 -0.3570216122767460 -0.3126614660028422 
